{
  "layers": [
    {
      "biases": [
        0.08395574986934662,
        -0.015029015019536018,
        0.35252195596694946,
        -0.04990508034825325,
        -0.20753099024295807,
        0.23265880346298218,
        -0.4941059947013855,
        -0.17675288021564484,
        0.1213153675198555,
        0.08389554917812347,
        -0.03264385089278221,
        -0.0054605258628726006,
        0.1246720552444458,
        -0.2876063287258148,
        0.14969345927238464,
        0.1302773356437683,
        -0.13910433650016785,
        -0.2415793240070343,
        0.004271298181265593,
        -0.005031069274991751,
        0.39112135767936707,
        0.11603198200464249,
        0.1301940232515335,
        0.2606455385684967,
        -0.47334039211273193,
        -0.4487289786338806,
        -0.29196783900260925,
        -0.04467695578932762,
        -0.18779662251472473,
        -0.0603816844522953,
        -0.03362998366355896,
        -0.053536780178546906,
        -0.2306477129459381,
        0.7746872305870056,
        0.07489638030529022,
        -0.04696211591362953,
        -0.03132252022624016,
        0.3557436764240265,
        -0.26310786604881287,
        0.2523707151412964,
        -0.09018047153949738,
        0.02429600991308689,
        0.09865930676460266,
        0.5978724956512451,
        0.4109593629837036,
        -0.4245060086250305,
        -0.009095891378819942,
        -0.6627200245857239,
        0.1693638265132904,
        -0.07050137966871262,
        -0.08400096744298935,
        -0.23715627193450928,
        0.6025289297103882,
        0.023958232253789902,
        0.26234346628189087,
        -0.23997598886489868,
        -0.4519270956516266,
        -0.14179657399654388,
        -0.23581945896148682,
        -0.024571916088461876,
        -0.2541489601135254,
        -0.44994795322418213,
        0.20138858258724213,
        -0.4376961588859558,
        0.2567296326160431,
        -0.19162289798259735,
        0.14666584134101868,
        -0.49245691299438477,
        0.6751484274864197,
        -0.24981838464736938,
        0.14447343349456787,
        -0.057192612439394,
        -0.13582471013069153,
        -0.022147905081510544,
        0.08025743067264557,
        -0.28031638264656067,
        -0.014212481677532196,
        -0.10913243889808655,
        -0.2251373678445816,
        -0.39189159870147705,
        -0.08316173404455185,
        -0.60682612657547,
        -0.5436558723449707,
        0.19636662304401398,
        -0.1753414422273636,
        -0.21207153797149658,
        0.09947456419467926,
        -0.11611621081829071,
        -0.369271457195282,
        -0.3041627109050751,
        0.0826050341129303,
        0.31340858340263367,
        -0.5864471793174744,
        -0.044752173125743866,
        -0.034107036888599396,
        -0.17985406517982483,
        -0.004030619747936726,
        -0.029054265469312668,
        -0.2525094449520111,
        -0.034574516117572784,
        -0.10952278226613998,
        -0.3894219994544983,
        -0.14158456027507782,
        -0.1250397264957428,
        -0.6931374669075012,
        0.5285934805870056,
        0.02353796549141407,
        -0.2191540002822876,
        -0.4833352863788605,
        0.0019110706634819508,
        -0.015255589969456196,
        -0.34541913866996765,
        -0.18717072904109955,
        0.11466661840677261,
        0.5506278872489929,
        0.05420504882931709,
        -0.0005780626088380814,
        -0.015909571200609207,
        0.15449486672878265,
        -0.10973463952541351,
        0.026784393936395645,
        0.060277391225099564,
        -0.2605910301208496,
        0.1437733918428421,
        -0.42483216524124146,
        -0.024038804695010185,
        0.32363593578338623,
        0.15455862879753113
      ],
      "numInput": 784,
      "numOutput": 128,
      "type": "FullyConnected",
      "weights": [
        [
          0.0397244431078434,
          -0.031125811859965324,
          0.01592591591179371,
          0.005420772824436426,
          -0.028134023770689964,
          -0.00016216147923842072,
          -0.028795791789889336,
          0.005907123442739248,
          -0.042809974402189255,
          -0.0373014435172081,
          -0.028867553919553757,
          0.0015857656253501773,
          0.015688834711909294,
          -0.03442160040140152,
          0.009825348854064941,
          -0.03874841704964638,
          -0.004919987637549639,
          0.004079088568687439,
          0.03449207916855812,
          -0.030620798468589783,
          0.0243648961186409,
          -0.044571708887815475,
          0.009818577207624912,
          0.0391855388879776,
          0.015972740948200226,
          -0.04487675055861473,
          -0.03502469137310982,
          0.020409082993865013,
          0.010179080069065094,
          0.007629884872585535,
          0.044268250465393066,
          0.04005294293165207,
          -0.021814487874507904,
          -0.04053386300802231,
          -0.02118869312107563,
          0.03921104967594147,
          -0.00048429309390485287,
          0.042288701981306076,
          -0.018894338980317116,
          -0.010678996331989765,
          -0.040500711649656296,
          0.03746872767806053,
          -0.0028251756448298693,
          0.026084790006279945,
          0.04287612810730934,
          -0.009834068827331066,
          -0.005931937601417303,
          0.004875118378549814,
          -0.005396153312176466,
          -0.0023101249244064093,
          -0.018155209720134735,
          -0.04395736753940582,
          0.03856970742344856,
          -0.03151370584964752,
          0.03286458179354668,
          0.009475214406847954,
          0.028203308582305908,
          0.013949730433523655,
          -0.0033855184447020292,
          0.013281656429171562,
          -0.003772332100197673,
          -0.017678560689091682,
          0.019496386870741844,
          0.02069341577589512,
          0.0019062183564528823,
          -0.013990269042551517,
          -0.03368647024035454,
          -0.03988606855273247,
          0.04417828097939491,
          -0.040351007133722305,
          -0.027974063530564308,
          0.011488509364426136,
          0.02464260533452034,
          0.02239336259663105,
          -0.04632795602083206,
          -0.03712103143334389,
          -0.03878965973854065,
          0.015977635979652405,
          0.019873609766364098,
          0.026878345757722855,
          -0.02935977838933468,
          0.04466267302632332,
          0.04329400137066841,
          -0.027053968980908394,
          0.005915774032473564,
          -0.031335894018411636,
          0.04461095109581947,
          0.009951630607247353,
          0.03172539174556732,
          0.012569551356136799,
          -0.04378252476453781,
          -0.02834637649357319,
          0.0063649732619524,
          0.041170407086610794,
          -0.046719565987586975,
          -0.005007416475564241,
          0.004032401833683252,
          -0.03469721972942352,
          0.04414680600166321,
          -0.04491626098752022,
          0.018774760887026787,
          -0.04389805719256401,
          0.02680140919983387,
          0.0013566480483859777,
          0.03772113099694252,
          0.022144174203276634,
          0.02002434991300106,
          -0.0038460628129541874,
          -0.008602330461144447,
          -0.0076551130041480064,
          0.033522095531225204,
          0.036014262586832047,
          0.01713894121348858,
          -0.0007612844929099083,
          0.002499763388186693,
          0.04449306055903435,
          0.035861629992723465,
          -0.01540240366011858,
          -0.012263516895473003,
          -0.028364533558487892,
          -0.03179308772087097,
          -0.009427961893379688,
          -0.03714409098029137,
          0.02820524573326111,
          0.041883934289216995,
          0.012899024412035942,
          -0.011129521764814854,
          0.029108328744769096
        ],
        [
          -0.042064160108566284,
          -0.03354131057858467,
          0.027054164558649063,
          0.03600369021296501,
          -0.02152170054614544,
          0.014884667471051216,
          -0.03425873443484306,
          0.01880333013832569,
          0.0440603569149971,
          0.024449393153190613,
          0.04372353479266167,
          0.01790081337094307,
          0.021697185933589935,
          -0.001436044229194522,
          -0.03305322304368019,
          0.002375626005232334,
          0.014929830096662045,
          0.008669327944517136,
          0.025216450914740562,
          -0.03170236200094223,
          0.009350721724331379,
          0.0266165342181921,
          -0.03372880816459656,
          0.0410616509616375,
          -0.0073400805704295635,
          -0.04508574679493904,
          0.012986643239855766,
          -0.021883824840188026,
          -0.037632204592227936,
          -0.015255248174071312,
          0.018625767901539803,
          0.02765079215168953,
          -0.015831420198082924,
          0.012686463072896004,
          -0.035855431109666824,
          -0.021492108702659607,
          0.026285985484719276,
          -0.0034729563631117344,
          0.004945363849401474,
          -0.04243091866374016,
          0.030078453943133354,
          -0.03894258290529251,
          -0.03529192507266998,
          -0.008473694324493408,
          -0.03839816153049469,
          -0.0443151481449604,
          -0.009937377646565437,
          -0.03197427839040756,
          0.031941674649715424,
          0.010484123602509499,
          -0.026762796565890312,
          0.02152322791516781,
          -0.010737685486674309,
          0.037110336124897,
          -0.039374757558107376,
          0.035344913601875305,
          -0.016188843175768852,
          -0.040247030556201935,
          0.0016361427260562778,
          -0.010680853389203548,
          0.010768746957182884,
          -0.036866720765829086,
          0.013802907429635525,
          -0.018040087074041367,
          0.018483301624655724,
          -0.029065335169434547,
          -0.009775654412806034,
          -0.006989722605794668,
          0.024607207626104355,
          -0.0032772335689514875,
          0.02416048012673855,
          -0.01849871128797531,
          0.0343480110168457,
          -0.01839594356715679,
          0.03246214613318443,
          0.04251885414123535,
          0.0164522472769022,
          -0.007626798003911972,
          0.006697596050798893,
          -0.01101535465568304,
          0.027153801172971725,
          0.03470785915851593,
          0.010248113423585892,
          -0.043145228177309036,
          -0.03569311648607254,
          -0.011458141729235649,
          -0.024695269763469696,
          0.039291027933359146,
          -0.010687933303415775,
          0.018992580473423004,
          -0.011433943174779415,
          0.041373658925294876,
          0.04016311839222908,
          0.02131807804107666,
          -0.043077051639556885,
          0.0072877234779298306,
          -0.027928423136472702,
          -0.014308388344943523,
          0.03001672588288784,
          -0.003501001512631774,
          -0.04444337263703346,
          -0.0031655968632549047,
          0.009505280293524265,
          0.006766101811081171,
          -0.007211505435407162,
          0.03805212676525116,
          0.027681630104780197,
          -0.012090935371816158,
          0.04070515185594559,
          0.0036234883591532707,
          0.01741616800427437,
          -0.027528205886483192,
          0.036813486367464066,
          -0.04518711566925049,
          -0.03008028119802475,
          0.024918505921959877,
          3.9956753425940406e-06,
          0.040331605821847916,
          -0.006457289215177298,
          -0.009544869884848595,
          0.01268354058265686,
          0.01558131817728281,
          0.04658840224146843,
          0.04454261437058449,
          -0.029508810490369797,
          0.044352367520332336,
          -0.039286281913518906,
          -0.03436917066574097
        ],
        [
          0.020827047526836395,
          0.02078666165471077,
          0.004906218033283949,
          -0.03743383288383484,
          -0.009469081647694111,
          -0.04291139170527458,
          0.02316269651055336,
          0.02812531404197216,
          0.04174313321709633,
          -0.02973027341067791,
          0.029212992638349533,
          0.012105844914913177,
          0.018308602273464203,
          -0.02649315446615219,
          -0.013666950166225433,
          0.024354498833417892,
          -0.017355676740407944,
          -0.017880624160170555,
          -0.010312837548553944,
          -0.012274377979338169,
          0.015092221088707447,
          -0.0453660674393177,
          -0.044848594814538956,
          -0.0004404502105899155,
          0.04376540333032608,
          0.041236042976379395,
          0.018041491508483887,
          -0.03689803183078766,
          -0.04006798565387726,
          0.03555581718683243,
          0.025257496163249016,
          0.0140664242208004,
          -0.04201364144682884,
          -0.004599954001605511,
          -0.02397872693836689,
          -0.009807920083403587,
          -0.033814214169979095,
          0.00672245305031538,
          0.02874029614031315,
          0.03232874348759651,
          -0.016888368874788284,
          0.024894045665860176,
          -0.002941567450761795,
          -0.037476230412721634,
          -0.03379562869668007,
          -0.005420223344117403,
          0.0020891737658530474,
          -0.02818157523870468,
          -0.01519958395510912,
          0.0271895918995142,
          -0.03689885139465332,
          0.019518017768859863,
          -0.005221584811806679,
          -0.04638674855232239,
          -0.026650497689843178,
          0.007321851793676615,
          0.013654190115630627,
          0.020772265270352364,
          -0.045765966176986694,
          -0.0116855688393116,
          0.012581498362123966,
          0.020467989146709442,
          0.02084430307149887,
          -0.01432679034769535,
          0.039371587336063385,
          -0.005503638181835413,
          -0.041388317942619324,
          0.026338210329413414,
          -0.006787619087845087,
          0.023712439462542534,
          0.005834277719259262,
          0.039513781666755676,
          -0.03170885518193245,
          -0.03372635319828987,
          0.04482895880937576,
          -0.029535923153162003,
          0.04047894850373268,
          -0.013366353698074818,
          -0.009488411247730255,
          -0.002973163267597556,
          -0.04282666742801666,
          -0.03103528916835785,
          -0.04238547384738922,
          0.035171087831258774,
          -0.01928274892270565,
          0.010830460116267204,
          0.02226201631128788,
          -0.0006547219818457961,
          0.03172898292541504,
          0.022199491038918495,
          -0.02921648696064949,
          -0.027991030365228653,
          -0.023891987279057503,
          -0.012971325777471066,
          0.03870531544089317,
          -0.018475035205483437,
          -0.016970574855804443,
          0.016561416909098625,
          0.03728299215435982,
          0.017471669241786003,
          -0.030506504699587822,
          0.02046888880431652,
          0.028825612738728523,
          0.025497881695628166,
          0.033820562064647675,
          -0.03367627412080765,
          0.017953157424926758,
          0.002862354042008519,
          -0.044712524861097336,
          0.005263103172183037,
          0.014980027452111244,
          -0.01071715634316206,
          0.02667541801929474,
          -0.04446135461330414,
          -0.03298319876194,
          -0.004419580101966858,
          -0.011468004435300827,
          -0.031682152301073074,
          -0.035743121057748795,
          0.03888395056128502,
          -0.03274508938193321,
          0.025097718462347984,
          -0.011913811787962914,
          -0.0070112403482198715,
          0.007395120337605476,
          -0.036709561944007874,
          0.03226951137185097,
          -0.009057902731001377
        ],
        [
          0.015224048867821693,
          -0.038215089589357376,
          0.03803246095776558,
          0.007189576979726553,
          0.00298077380284667,
          -0.020864997059106827,
          0.04112733528017998,
          -0.015277731232345104,
          0.031763333827257156,
          -0.021245025098323822,
          0.010729627683758736,
          -0.03890329599380493,
          0.02754145674407482,
          -0.022946281358599663,
          -0.02873130701482296,
          -0.04263000935316086,
          -0.018604585900902748,
          0.0006342948763631284,
          0.038422927260398865,
          -0.025607435032725334,
          0.03760049119591713,
          -0.04342277720570564,
          0.039384353905916214,
          0.005854971241205931,
          0.031471751630306244,
          -0.020850175991654396,
          -0.04622229188680649,
          0.015083510428667068,
          -0.0441584512591362,
          0.025730732828378677,
          0.01145142875611782,
          -0.03812960535287857,
          -0.02281245030462742,
          -0.0065989140421152115,
          -0.009233848191797733,
          0.016619978472590446,
          0.022639088332653046,
          0.0041427225805819035,
          0.040949057787656784,
          -0.02068786509335041,
          -0.0020648003555834293,
          -0.03453833982348442,
          0.00213124742731452,
          0.03620880842208862,
          -0.005868209525942802,
          -0.008676759898662567,
          0.0311435554176569,
          -0.003399064065888524,
          0.02087344601750374,
          0.004167418926954269,
          -0.04554323852062225,
          0.03540926054120064,
          -0.01485324464738369,
          0.006112474482506514,
          0.0006482082535512745,
          -0.023502087220549583,
          0.013966565951704979,
          -0.0009717711363919079,
          -0.00648446986451745,
          -0.029314350336790085,
          -0.031105969101190567,
          0.03924327716231346,
          0.018714025616645813,
          0.02622775174677372,
          0.043761882930994034,
          -0.040112610906362534,
          -0.026566388085484505,
          -0.0014662309549748898,
          0.01408403180539608,
          -0.003922807052731514,
          0.008287692442536354,
          -0.023006746545433998,
          0.0028899312019348145,
          0.044300761073827744,
          -0.01260924432426691,
          0.027120713144540787,
          0.027722014114260674,
          0.038275331258773804,
          -0.01635470613837242,
          -0.03586529940366745,
          0.033178579062223434,
          -0.039965011179447174,
          -0.017674628645181656,
          -0.023457853123545647,
          -0.008599849417805672,
          0.04325369745492935,
          0.02635791152715683,
          -0.017536215484142303,
          -0.005667607765644789,
          0.006142286583781242,
          -0.03428531438112259,
          0.00929567962884903,
          0.013772428035736084,
          -0.022418810054659843,
          -0.008290671743452549,
          -0.02225710079073906,
          0.03512171283364296,
          0.0022688161116093397,
          -0.03620998188853264,
          -0.03853951767086983,
          0.019642814993858337,
          0.012348957359790802,
          -0.00495712598785758,
          -0.03368221968412399,
          -0.035644613206386566,
          0.030121833086013794,
          -0.003607923397794366,
          0.023768937215209007,
          0.023220902308821678,
          0.0007037922623567283,
          -0.007443114649504423,
          -0.015268287621438503,
          -0.008314762264490128,
          0.04606867954134941,
          -0.029265612363815308,
          0.024738697335124016,
          -0.009478382766246796,
          -0.03245394676923752,
          0.024126525968313217,
          -0.017482442781329155,
          -0.00853691529482603,
          0.0018202261999249458,
          0.034269049763679504,
          0.038404881954193115,
          -0.023966548964381218,
          -0.03929134085774422,
          -0.03957844525575638,
          -0.03837605193257332
        ],
        [
          -0.014360738918185234,
          0.00704052671790123,
          -0.019923314452171326,
          0.035862501710653305,
          -0.0055296337231993675,
          0.0017801185604184866,
          -0.037493668496608734,
          0.013080873526632786,
          -0.02984892949461937,
          0.0066841719672083855,
          -0.036238186061382294,
          -0.012739568017423153,
          0.04257892072200775,
          0.021779343485832214,
          -0.02295513264834881,
          -0.02889793924987316,
          0.027417868375778198,
          -0.015749294310808182,
          -0.028860796242952347,
          -0.025197060778737068,
          0.014546767808496952,
          -0.0034655630588531494,
          0.03662668168544769,
          0.003886889899149537,
          -0.02930162288248539,
          0.03206174075603485,
          0.041555069386959076,
          0.03723917528986931,
          0.024652637541294098,
          0.04138295724987984,
          -0.028048932552337646,
          0.007493665907531977,
          -0.01972992904484272,
          0.046702247112989426,
          -0.04636568948626518,
          -0.027195341885089874,
          0.04464629665017128,
          -0.0023831562139093876,
          0.03389566391706467,
          0.04437590390443802,
          -0.027555830776691437,
          0.03403574600815773,
          0.03997139632701874,
          0.03574778512120247,
          0.03571490943431854,
          -0.011431978084146976,
          0.023174598813056946,
          -0.008436482399702072,
          -0.01953785866498947,
          -0.02388204261660576,
          -0.010680804960429668,
          0.017116498202085495,
          0.0031695542857050896,
          0.001638484187424183,
          0.046063147485256195,
          -0.046373337507247925,
          -0.025467855855822563,
          -0.03721468150615692,
          0.02053685113787651,
          -0.022167621180415154,
          -0.035314735025167465,
          0.003769086906686425,
          0.02619783580303192,
          -0.03320948779582977,
          0.0033835293725132942,
          0.006459559313952923,
          -0.026850471273064613,
          -0.01654011197388172,
          0.03322744369506836,
          -0.003618186106905341,
          -0.0045290240086615086,
          0.03539793938398361,
          -0.009269068948924541,
          0.013787622563540936,
          0.026890920475125313,
          -0.03966502100229263,
          -0.03220514580607414,
          -0.004049303475767374,
          -0.014639968983829021,
          0.04259501397609711,
          0.02123180218040943,
          0.043176375329494476,
          0.025049878284335136,
          -0.037554554641246796,
          0.010256770998239517,
          -0.0018624371150508523,
          -0.03874313086271286,
          0.016336677595973015,
          -0.03526442125439644,
          -0.04017428681254387,
          0.022621992975473404,
          -0.035917624831199646,
          0.013345634564757347,
          -0.028855077922344208,
          -0.005604339297860861,
          -0.022549394518136978,
          0.015144459903240204,
          -0.03847913444042206,
          0.024292565882205963,
          -0.020606698468327522,
          -0.02383868768811226,
          0.028274688869714737,
          -0.02743462473154068,
          0.025486985221505165,
          -0.02341480925679207,
          -0.039210930466651917,
          -0.03712323680520058,
          -0.02158532291650772,
          0.03281902149319649,
          0.024209342896938324,
          -0.036256615072488785,
          0.040363606065511703,
          -0.0013862565392628312,
          0.03341246023774147,
          -0.024667205289006233,
          0.043664801865816116,
          -0.0310461837798357,
          -0.041824061423540115,
          0.023187333717942238,
          -0.026788998395204544,
          0.03150942921638489,
          0.00437684403732419,
          -0.018778080120682716,
          0.016875416040420532,
          0.0032495935447514057,
          0.04310654103755951,
          0.004593865480273962,
          -0.03794798627495766
        ],
        [
          -0.032693907618522644,
          -0.03777768835425377,
          -0.00016502151265740395,
          -0.008722354657948017,
          -0.011315172538161278,
          -0.0184113048017025,
          0.008169598877429962,
          -0.027948975563049316,
          0.010722996667027473,
          -0.001743205706588924,
          0.005537631921470165,
          -0.039212606847286224,
          0.028074711561203003,
          -0.022421833127737045,
          0.019565952941775322,
          0.046436697244644165,
          -0.023125434294342995,
          -0.04259539395570755,
          0.008210607804358006,
          -0.008746028877794743,
          0.031148627400398254,
          -0.004952013958245516,
          -0.041908010840415955,
          0.0249482411891222,
          0.022705119103193283,
          0.040393631905317307,
          0.021177789196372032,
          0.03605284169316292,
          -0.0010980754159390926,
          0.011578253470361233,
          0.017713403329253197,
          0.012551872059702873,
          -0.015071065165102482,
          0.012226549908518791,
          0.0028256173245608807,
          0.03028283640742302,
          0.007778439670801163,
          -0.01694384217262268,
          -0.02122771367430687,
          0.006793989799916744,
          -0.043352045118808746,
          0.03239303082227707,
          0.018673133105039597,
          0.02177484892308712,
          -0.04598156735301018,
          -0.027013691142201424,
          -0.0043691545724868774,
          -0.018553871661424637,
          0.04501460865139961,
          0.024617746472358704,
          -0.040733452886343,
          -0.03703528642654419,
          -0.03589607775211334,
          0.01362959761172533,
          0.003990041557699442,
          -0.01854572258889675,
          -0.022438842803239822,
          -0.03156982734799385,
          0.024968290701508522,
          -0.020218923687934875,
          -0.02135927602648735,
          0.02567501924932003,
          -0.04092063754796982,
          -0.007439902052283287,
          -0.013810444623231888,
          0.04110744968056679,
          -0.005224102176725864,
          0.026039736345410347,
          -0.015129036270081997,
          -0.03661694750189781,
          -0.021068766713142395,
          -0.030808446928858757,
          0.0020236808340996504,
          -0.002723501529544592,
          -0.030547834932804108,
          0.03336630016565323,
          -0.03253789246082306,
          -0.0161517895758152,
          0.015092391520738602,
          -0.04637368768453598,
          -0.038465466350317,
          0.03642100840806961,
          0.00739643257111311,
          0.02086932584643364,
          0.045248594135046005,
          -0.022372012957930565,
          0.02278944104909897,
          -0.02856060117483139,
          -0.011616515927016735,
          -0.02713174745440483,
          -0.01620788499712944,
          0.04306484013795853,
          -0.0319909006357193,
          0.033854685723781586,
          -0.04503181204199791,
          0.025321926921606064,
          0.0005177371203899384,
          0.0306886974722147,
          4.8025707656051964e-05,
          -0.02297036163508892,
          0.013974885456264019,
          -0.020343950018286705,
          0.0008389761787839234,
          -0.04461906850337982,
          -0.042030833661556244,
          0.04495527595281601,
          0.0385376438498497,
          0.039222463965415955,
          -0.003110356628894806,
          0.006310917437076569,
          0.015269896946847439,
          0.028510576114058495,
          -0.04392469674348831,
          0.016403090208768845,
          -0.019177565351128578,
          0.02044922485947609,
          -0.010625818744301796,
          -0.006662430241703987,
          0.03892926126718521,
          0.03310806304216385,
          -0.014199957251548767,
          -0.010871912352740765,
          -0.020535733550786972,
          0.041084740310907364,
          -0.0030979635193943977,
          0.01897711493074894,
          -0.02337268926203251,
          0.043859582394361496
        ],
        [
          0.04340743646025658,
          -0.03712597116827965,
          -0.024983692914247513,
          0.0012918883003294468,
          0.038148749619722366,
          -0.018074458464980125,
          0.002056881319731474,
          -0.021507784724235535,
          0.009364929050207138,
          0.019774189218878746,
          0.011309465393424034,
          -0.030737513676285744,
          -0.0004288287309464067,
          0.02778288535773754,
          0.033699508756399155,
          -0.020470526069402695,
          -0.0065488615073263645,
          0.036945611238479614,
          -0.0016531402943655849,
          -0.010899120010435581,
          -0.0065969317220151424,
          0.02603018842637539,
          -0.010457353666424751,
          0.03961418196558952,
          -0.0036811314057558775,
          0.026873286813497543,
          -0.01896492950618267,
          -0.004764256067574024,
          -0.030757982283830643,
          -0.038526732474565506,
          -0.011983119882643223,
          -0.003138889791443944,
          -0.03465652838349342,
          -0.03626517206430435,
          -0.03971511870622635,
          0.011068647727370262,
          0.045123618096113205,
          0.04417219012975693,
          0.028034785762429237,
          0.027859551832079887,
          0.003957587759941816,
          -0.03169192746281624,
          0.03814474865794182,
          -0.0063746399246156216,
          0.016703365370631218,
          0.006325239781290293,
          0.032746266573667526,
          0.027375508099794388,
          0.024454742670059204,
          0.02213284559547901,
          -0.020370233803987503,
          0.011601332575082779,
          0.026594022288918495,
          0.004590580239892006,
          0.031084008514881134,
          0.03952464833855629,
          0.03474248945713043,
          0.004665611777454615,
          0.014441150240600109,
          -0.031908269971609116,
          -0.017398158088326454,
          -0.02107282541692257,
          0.001744434586726129,
          -0.01431458629667759,
          -0.03690144047141075,
          0.043512437492609024,
          0.02231619693338871,
          0.03486352786421776,
          0.037575412541627884,
          0.014412016607820988,
          0.02972099557518959,
          -0.027903059497475624,
          -0.02891049161553383,
          0.023068051785230637,
          0.00685365404933691,
          -0.04341937229037285,
          -0.03884938731789589,
          0.039651017636060715,
          0.02092551998794079,
          -0.036680031567811966,
          -0.04211163893342018,
          0.04366563633084297,
          -0.0026747831143438816,
          0.026430534198880196,
          -0.020457375794649124,
          0.038157202303409576,
          0.023458752781152725,
          0.008973345160484314,
          -0.005890956614166498,
          0.001816820353269577,
          -0.03413717821240425,
          -0.03993627056479454,
          0.033430445939302444,
          0.03647133708000183,
          0.02058032527565956,
          0.004278924781829119,
          -0.006712905131280422,
          -0.02497779205441475,
          -0.025666380301117897,
          -0.04671278968453407,
          -0.005564440507441759,
          0.01767786219716072,
          0.030587658286094666,
          -0.029216459020972252,
          0.026679880917072296,
          -0.04011327028274536,
          -0.02737411856651306,
          -0.004449641332030296,
          0.019442783668637276,
          0.010825997218489647,
          -0.030381351709365845,
          -0.004965095315128565,
          -0.00637033162638545,
          0.046433836221694946,
          -0.028172003105282784,
          -0.03833944350481033,
          0.012983419001102448,
          -0.03591260313987732,
          0.03055674210190773,
          0.03213813528418541,
          -0.015079553239047527,
          -0.022258812561631203,
          0.045450277626514435,
          0.040739111602306366,
          -0.013896211050450802,
          -0.00966309942305088,
          -0.007064270321279764,
          -0.021677488461136818
        ],
        [
          -0.014394600875675678,
          0.022227037698030472,
          0.003832619171589613,
          0.019521567970514297,
          0.017569800838828087,
          -0.014092175289988518,
          0.008865638636052608,
          -0.033347103744745255,
          0.03755379468202591,
          0.03955050930380821,
          -0.010062445886433125,
          0.02329133450984955,
          0.017157983034849167,
          -0.00012217205949127674,
          0.022403430193662643,
          -0.03416582569479942,
          -0.008192546665668488,
          -0.04161631315946579,
          0.01264070626348257,
          -0.028092961758375168,
          0.03036976233124733,
          -0.03029552847146988,
          0.007956028915941715,
          -0.004869808442890644,
          -0.03337424620985985,
          0.024097701534628868,
          -0.024893663823604584,
          -0.018080709502100945,
          -0.0014587006298825145,
          0.04061189293861389,
          0.0024131136015057564,
          -0.04127964377403259,
          -0.039009563624858856,
          0.027466660365462303,
          -0.012227385304868221,
          0.022866906598210335,
          0.03637351468205452,
          -0.040528617799282074,
          0.039179977029561996,
          -0.03918652981519699,
          0.016566626727581024,
          -0.02564237266778946,
          -0.04231737181544304,
          0.03632935509085655,
          0.03197754919528961,
          0.04647752642631531,
          0.019518863409757614,
          -0.039299432188272476,
          0.010524609126150608,
          -0.012293406762182713,
          0.030396806076169014,
          -0.03647259622812271,
          0.002086400054395199,
          -0.016248762607574463,
          0.03484059497714043,
          -0.021002065390348434,
          0.035209424793720245,
          -0.02131597325205803,
          0.012625348754227161,
          0.0402696467936039,
          0.018660832196474075,
          0.005426312796771526,
          0.037655699998140335,
          0.004478197544813156,
          -0.042607832700014114,
          -0.037766266614198685,
          0.02599118836224079,
          -0.020994652062654495,
          0.018175402656197548,
          -0.02818506397306919,
          0.004363865125924349,
          0.02879296988248825,
          0.04158332943916321,
          -0.012516781687736511,
          -0.012851042672991753,
          0.023505009710788727,
          0.020491352304816246,
          -0.020162254571914673,
          0.02229226753115654,
          0.03906839340925217,
          -0.009604915976524353,
          -0.0038617593236267567,
          0.009668330661952496,
          -0.03196604549884796,
          0.0278591550886631,
          0.04027092084288597,
          -0.023449435830116272,
          0.004886997397989035,
          -0.0005930668557994068,
          0.03109927661716938,
          -0.025215787813067436,
          0.044574666768312454,
          0.01351262629032135,
          -0.002205480821430683,
          0.006832331884652376,
          -0.005676976405084133,
          0.022721007466316223,
          -0.008101585321128368,
          -0.022495774552226067,
          0.038333844393491745,
          0.025618862360715866,
          0.02636963129043579,
          0.026529589667916298,
          0.017458491027355194,
          -0.02868051826953888,
          -0.03591436520218849,
          -0.02212798036634922,
          -0.003819114761427045,
          0.02711840718984604,
          0.008991816081106663,
          -0.02463150955736637,
          0.007689029909670353,
          0.014330609701573849,
          -0.03505329042673111,
          -0.040644533932209015,
          -0.009579249657690525,
          -0.023467252030968666,
          -0.020662600174546242,
          -0.04396871477365494,
          0.014464929699897766,
          0.019953865557909012,
          0.021939370781183243,
          -0.02143401838839054,
          0.0021963242907077074,
          -0.020083116367459297,
          -0.02686556614935398,
          0.015394527465105057,
          -0.018923934549093246
        ],
        [
          0.004706218373030424,
          0.03152937814593315,
          0.03729650005698204,
          0.013417115435004234,
          -0.024892987683415413,
          -0.021366555243730545,
          -0.027063263580203056,
          0.030497964471578598,
          0.02553551085293293,
          0.04236077144742012,
          -0.007571530528366566,
          0.01948114112019539,
          0.00907925982028246,
          -0.012226886115968227,
          -0.02344573475420475,
          -0.045420143753290176,
          -0.008191915228962898,
          -0.04351993650197983,
          -0.025325072929263115,
          -0.027050865814089775,
          -0.02089286595582962,
          -0.0326346680521965,
          -0.024526601657271385,
          -0.029774630442261696,
          0.04179386422038078,
          0.023547708988189697,
          -0.04442979395389557,
          -0.01865089125931263,
          -0.029081199318170547,
          -0.04241994023323059,
          0.014865105971693993,
          0.02140890061855316,
          0.032678984105587006,
          -0.037811681628227234,
          0.009713482111692429,
          0.024183597415685654,
          -0.028457991778850555,
          0.03879551962018013,
          -0.01575692743062973,
          0.03200112283229828,
          -0.025652652606368065,
          0.021318698301911354,
          0.031127579510211945,
          0.007303133141249418,
          -0.004158112220466137,
          0.020022353157401085,
          0.03777533397078514,
          0.02517821453511715,
          0.03645605221390724,
          -0.029353920370340347,
          -0.030259979888796806,
          0.038099974393844604,
          0.01883079670369625,
          -0.014677455648779869,
          0.028198037296533585,
          -0.037352848798036575,
          0.01624693162739277,
          -0.044094450771808624,
          -0.0034539031330496073,
          -0.04191284626722336,
          0.01265596691519022,
          -0.021026745438575745,
          -0.02716628648340702,
          0.024927323684096336,
          0.03133488446474075,
          0.011908188462257385,
          -0.03322936221957207,
          -0.0009079650626517832,
          -0.013753915205597878,
          -0.01792401261627674,
          0.025322705507278442,
          -0.01644889824092388,
          0.013816328719258308,
          -0.04095203056931496,
          0.02626791223883629,
          -0.03821684420108795,
          0.021403279155492783,
          0.039685457944869995,
          0.016919931396842003,
          -0.017147380858659744,
          -0.003885935992002487,
          0.042000189423561096,
          0.014521637931466103,
          0.009922677651047707,
          -0.033659677952528,
          -0.0012745939893648028,
          0.04664623364806175,
          -0.03484717383980751,
          0.041865721344947815,
          -0.03312617167830467,
          0.03309512883424759,
          -0.042824845761060715,
          0.009583424776792526,
          0.03767925873398781,
          -0.0010744805913418531,
          -0.010068914853036404,
          0.02945374883711338,
          -0.023934492841362953,
          -0.04468010738492012,
          0.03524564951658249,
          0.018420517444610596,
          -0.011280088685452938,
          0.004163043573498726,
          0.0373227633535862,
          0.0009362469427287579,
          -0.028956491500139236,
          0.0321144200861454,
          -0.011093702167272568,
          0.00493694469332695,
          -0.01709102839231491,
          -0.0168827585875988,
          0.03999857231974602,
          -0.024138925597071648,
          -0.029641859233379364,
          -0.041785869747400284,
          0.002093000803142786,
          -0.012147658504545689,
          0.04570857807993889,
          0.046696316450834274,
          0.026872219517827034,
          -0.026755204424262047,
          -0.008623688481748104,
          -0.008947652764618397,
          0.013736146502196789,
          0.03351840004324913,
          -0.011058774776756763,
          0.005095122382044792,
          0.024478670209646225
        ],
        [
          -0.030953533947467804,
          0.04358307644724846,
          -0.005715097766369581,
          0.029639603570103645,
          0.03279176726937294,
          0.011075571179389954,
          0.04580295458436012,
          0.02884904481470585,
          -0.027333306148648262,
          0.00012365091242827475,
          0.03104059025645256,
          -0.040950872004032135,
          -0.03907569870352745,
          0.00578684639185667,
          -0.010223167017102242,
          -0.04549747705459595,
          0.0019706878811120987,
          0.029390262439846992,
          -0.034666772931814194,
          0.034819524735212326,
          -0.039358802139759064,
          -0.04556415602564812,
          -0.03987396880984306,
          0.02709045633673668,
          -0.0005022400291636586,
          0.04237871617078781,
          0.021960921585559845,
          0.021977225318551064,
          -0.028070982545614243,
          0.0309626255184412,
          -0.02354392781853676,
          0.006846507079899311,
          -0.018291128799319267,
          -0.019276319071650505,
          0.045408979058265686,
          0.016277756541967392,
          -0.0027721587102860212,
          -0.021017422899603844,
          -0.03409390524029732,
          -0.021169142797589302,
          -0.028630876913666725,
          0.015788773074746132,
          0.03274925425648689,
          0.01456222403794527,
          0.03804190084338188,
          0.022993069142103195,
          -0.0339294895529747,
          -0.024309104308485985,
          0.020720597356557846,
          0.012842820025980473,
          -0.042685266584157944,
          0.013855041936039925,
          -0.045887429267168045,
          -0.01463133841753006,
          -0.03469271957874298,
          0.0365682914853096,
          -0.0038956771604716778,
          -0.037879496812820435,
          -0.020665038377046585,
          -0.011905881576240063,
          -0.016626928001642227,
          0.025995448231697083,
          -0.011663729324936867,
          0.018779898062348366,
          0.03336416184902191,
          -0.04014617204666138,
          -0.03522968664765358,
          -0.01595577411353588,
          -0.02392830327153206,
          -0.015462234616279602,
          -0.012718099169433117,
          -0.04253126308321953,
          -0.029828816652297974,
          0.03984776884317398,
          0.008882052265107632,
          0.006787952035665512,
          -0.01445862464606762,
          0.03675524890422821,
          -0.040014784783124924,
          -0.010244244709610939,
          0.025115491822361946,
          0.022068535909056664,
          -0.0462004691362381,
          -0.015583517961204052,
          0.004815806169062853,
          -0.02318907156586647,
          0.016850940883159637,
          0.003519949968904257,
          0.02388519048690796,
          -0.03672457113862038,
          -0.034843165427446365,
          0.024496598169207573,
          0.014808901585638523,
          0.031722187995910645,
          0.043507352471351624,
          0.0007973284809850156,
          -0.033251043409109116,
          -0.000773391337133944,
          -0.009472785517573357,
          -0.04076768085360527,
          0.03721904754638672,
          0.0065946513786911964,
          -0.04173295199871063,
          -0.028273822739720345,
          -0.040407709777355194,
          0.02658787928521633,
          -0.035933978855609894,
          -0.013355259783565998,
          -0.012717952020466328,
          -0.028927650302648544,
          0.04418230429291725,
          -0.03411849960684776,
          0.0018588778330013156,
          -0.04189686104655266,
          -0.016568828374147415,
          -0.034333787858486176,
          -0.03255963325500488,
          -0.017038919031620026,
          -0.030018676072359085,
          0.012509060092270374,
          0.018340928480029106,
          0.01575365662574768,
          0.03571832925081253,
          -0.03915220499038696,
          -0.03944620490074158,
          -0.02941267564892769,
          -0.019290175288915634,
          0.02714870125055313
        ],
        [
          0.003581201657652855,
          0.040141358971595764,
          -0.03013204224407673,
          0.042856015264987946,
          0.02099577710032463,
          -0.03242746368050575,
          0.012313215993344784,
          0.010384944267570972,
          0.013449286110699177,
          0.043502699583768845,
          0.04106547310948372,
          0.0438137948513031,
          0.039848100394010544,
          -0.03831097483634949,
          0.011140882037580013,
          -0.00828348845243454,
          -0.021511798724532127,
          -0.04403172433376312,
          0.03485202044248581,
          0.03890196233987808,
          -0.04509871453046799,
          0.02854292094707489,
          0.03151624649763107,
          0.02090025320649147,
          -0.015514128841459751,
          -0.0024034467060118914,
          0.028871208429336548,
          -0.030870499089360237,
          0.033869314938783646,
          -0.023903990164399147,
          -0.024890771135687828,
          0.04014204069972038,
          -0.043381042778491974,
          0.04426826164126396,
          0.010872616432607174,
          0.007920035161077976,
          -0.0027060266584157944,
          0.03864871338009834,
          0.008148403838276863,
          0.03132949396967888,
          0.0013120403746142983,
          -0.007895635440945625,
          -0.042356912046670914,
          0.04073914885520935,
          -0.0457538478076458,
          -0.010074813850224018,
          -0.0364043153822422,
          0.02361367829144001,
          -0.002001852262765169,
          0.02660622075200081,
          -0.009159814566373825,
          0.007044531404972076,
          -0.029632609337568283,
          -0.012561000883579254,
          -0.04011650010943413,
          0.03598181903362274,
          0.00014993682270869613,
          -0.04604572057723999,
          0.042630162090063095,
          -0.028919728472828865,
          0.002082386752590537,
          0.01189647987484932,
          0.034370046108961105,
          -0.0017358799232169986,
          -0.02855430729687214,
          -0.020989887416362762,
          0.025661541149020195,
          0.020926758646965027,
          0.024044468998908997,
          -0.0198136605322361,
          -0.018221057951450348,
          -0.005862980615347624,
          -0.0069063263945281506,
          0.016992012038826942,
          0.0384032242000103,
          -0.033537134528160095,
          -0.016071802005171776,
          0.0008427480352111161,
          -0.031931620091199875,
          -0.014952842146158218,
          -0.040403563529253006,
          -0.024549193680286407,
          0.02129853516817093,
          -0.028594305738806725,
          0.014247906394302845,
          -0.041841812431812286,
          0.019725466147065163,
          -0.036485299468040466,
          0.004635028075426817,
          -0.04339605197310448,
          -0.03934115171432495,
          0.037105683237314224,
          0.04232482239603996,
          -0.016983097419142723,
          -0.04645770043134689,
          0.013706367462873459,
          -0.0437479242682457,
          0.04391537979245186,
          0.02884479984641075,
          0.017353715375065804,
          0.03426933288574219,
          -0.0380672924220562,
          0.011848351918160915,
          -0.024014122784137726,
          0.02107623592019081,
          -0.0272420234978199,
          -0.036423780024051666,
          -0.03216131404042244,
          0.030285371467471123,
          -0.04439292475581169,
          -0.036322347819805145,
          0.028505468741059303,
          0.005483883433043957,
          -0.03899206593632698,
          -0.02100614830851555,
          0.01453796960413456,
          -0.02624768204987049,
          -0.01223699189722538,
          -0.02851400151848793,
          0.0009826504392549396,
          -0.034492045640945435,
          -0.0341312512755394,
          -0.010891644284129143,
          0.00820728950202465,
          0.023607060313224792,
          0.02762032300233841,
          0.005465738009661436,
          -0.04176042228937149
        ],
        [
          -0.018746303394436836,
          0.03039834462106228,
          -0.016869405284523964,
          0.04422885552048683,
          0.011283759959042072,
          0.007678489666432142,
          0.04434080049395561,
          -0.007452648598700762,
          -0.024894531816244125,
          -0.010264553129673004,
          0.009632399305701256,
          -0.020182253792881966,
          0.03243238106369972,
          0.034022197127342224,
          -0.021549124270677567,
          0.018545717000961304,
          0.008792512118816376,
          -0.04524218291044235,
          -0.01873154565691948,
          -0.043907374143600464,
          -0.031236618757247925,
          -0.004059992730617523,
          -0.014161055907607079,
          -0.024174807593226433,
          0.042073287069797516,
          -0.024641389027237892,
          -0.04041583091020584,
          -0.006086691748350859,
          -0.0436159111559391,
          -0.0460473857820034,
          0.008228689432144165,
          -0.011693988926708698,
          -0.0357750840485096,
          0.0380464643239975,
          0.0345630906522274,
          -0.039723824709653854,
          -0.01121304277330637,
          -0.011308995075523853,
          -0.042782243341207504,
          -0.02648649550974369,
          -0.03206906467676163,
          -0.02266974374651909,
          0.02070024237036705,
          0.003465305780991912,
          0.014855816029012203,
          -0.006699769292026758,
          0.01095439214259386,
          -0.043597184121608734,
          -0.037028469145298004,
          0.01085195317864418,
          0.0011088596656918526,
          0.013607525266706944,
          -0.0012465311447158456,
          0.006163862068206072,
          0.02666998840868473,
          0.0001987745927181095,
          0.004527776036411524,
          -0.021039649844169617,
          -0.005427840631455183,
          -0.0011188654461875558,
          0.01081017591059208,
          0.014934379607439041,
          0.028495676815509796,
          -0.04451010376214981,
          -0.00681088212877512,
          0.0017717034788802266,
          -0.04185115173459053,
          0.03534678742289543,
          0.030962105840444565,
          0.004425460938364267,
          -0.03782254830002785,
          0.02621881291270256,
          -0.02509721741080284,
          -0.016242295503616333,
          -0.028820853680372238,
          -0.03313732519745827,
          0.004131047986447811,
          -0.018864477053284645,
          -0.005678277928382158,
          0.038368288427591324,
          0.04597223177552223,
          0.02722683548927307,
          -0.024996640160679817,
          0.014305963180959225,
          -0.012691373936831951,
          -0.01903197541832924,
          0.03625727444887161,
          0.00775907700881362,
          0.01620987430214882,
          0.04549494385719299,
          0.040433239191770554,
          0.007583658676594496,
          -0.01036997139453888,
          -0.044156596064567566,
          -0.042479708790779114,
          0.019796637818217278,
          0.034574877470731735,
          -0.03472573310136795,
          -0.03433939442038536,
          -0.03489275276660919,
          0.005316508933901787,
          0.004531594924628735,
          0.005287638865411282,
          -0.002723552519455552,
          -0.011484158225357533,
          0.02557503618299961,
          -0.03766199201345444,
          -0.04344230517745018,
          -0.017770979553461075,
          -0.04429386928677559,
          0.018859127536416054,
          0.004728453233838081,
          -0.024280749261379242,
          0.002293759025633335,
          0.002262837253510952,
          0.00813779141753912,
          0.02177165076136589,
          -0.026474514976143837,
          0.029969505965709686,
          -0.0005393382743932307,
          0.04645942524075508,
          -0.030566304922103882,
          0.0340573787689209,
          -0.014560649171471596,
          0.03216557949781418,
          0.032471299171447754,
          0.0067594931460917,
          0.024272818118333817
        ],
        [
          -0.04625384509563446,
          0.016011707484722137,
          -0.0320943221449852,
          -0.02058899588882923,
          0.012701520696282387,
          0.009363404475152493,
          0.025951646268367767,
          0.013537256047129631,
          0.050733160227537155,
          -0.011208572424948215,
          0.05183706805109978,
          0.1492108553647995,
          -0.02775806188583374,
          0.06953547894954681,
          -0.0010437964228913188,
          0.08194835484027863,
          0.018706612288951874,
          0.07403284311294556,
          0.06312087923288345,
          -0.14492098987102509,
          -0.02810720168054104,
          0.013894814066588879,
          -0.024580268189311028,
          -0.008992169052362442,
          -0.04263928905129433,
          0.0020433287136256695,
          -0.08621743321418762,
          0.017411939799785614,
          0.05041209235787392,
          0.01880965568125248,
          -0.031123969703912735,
          -0.007801906671375036,
          0.15901048481464386,
          -0.04389754310250282,
          -0.044184520840644836,
          -0.03714557737112045,
          -0.04134434089064598,
          0.02657250314950943,
          0.10253927856683731,
          0.017834056168794632,
          -0.027891529724001884,
          0.002986626699566841,
          -0.03787825256586075,
          -0.16250894963741302,
          -0.046478141099214554,
          0.04626595601439476,
          0.06904248148202896,
          0.0026027457788586617,
          0.003804882289841771,
          0.01972298137843609,
          0.04203769192099571,
          -0.03267413750290871,
          0.026469174772500992,
          0.02679477073252201,
          0.05515003949403763,
          0.009839111007750034,
          0.03779494762420654,
          0.05941528081893921,
          -0.07751209288835526,
          0.014046024531126022,
          -0.06201239675283432,
          -0.03224186599254608,
          0.05318024009466171,
          0.01651119440793991,
          0.08611685037612915,
          0.028456516563892365,
          0.05313493311405182,
          -0.09295444190502167,
          -0.005353502929210663,
          -0.04813113808631897,
          -0.017831789329648018,
          0.01206282153725624,
          -0.030781542882323265,
          -0.006331637967377901,
          -0.023007435724139214,
          -0.12848930060863495,
          -0.010501422919332981,
          0.002708639018237591,
          -0.0015340159879997373,
          -0.02091505005955696,
          -0.0004323535249568522,
          0.0016650431789457798,
          0.011038417927920818,
          0.09167025983333588,
          0.08213187009096146,
          -0.020315945148468018,
          0.00320780323818326,
          -0.08037964999675751,
          -0.1440073847770691,
          0.0846332386136055,
          0.11997023969888687,
          -0.1396740823984146,
          -0.05497371777892113,
          0.09423752874135971,
          0.03297864645719528,
          0.021846765652298927,
          0.03946473076939583,
          -0.056674979627132416,
          0.11131013929843903,
          0.06195589154958725,
          -0.0018110303208231926,
          -0.04355320706963539,
          0.026469049975275993,
          0.02130972407758236,
          -0.00750437006354332,
          -0.01801140420138836,
          -0.03104853630065918,
          0.053980011492967606,
          -0.009138728491961956,
          -0.03335921838879585,
          0.02369447611272335,
          0.036148522049188614,
          0.0704258531332016,
          -0.04613305628299713,
          -0.13787518441677094,
          -0.023674290627241135,
          0.002712058136239648,
          0.061075013130903244,
          0.08525644242763519,
          0.012823471799492836,
          -0.015446098521351814,
          -0.007127303630113602,
          0.14863716065883636,
          0.03595486283302307,
          -0.030282368883490562,
          -0.007468253839761019,
          0.012501672841608524,
          -0.04116525128483772
        ],
        [
          0.050094470381736755,
          0.04179791361093521,
          0.006256417836993933,
          -0.07969523966312408,
          0.028621193021535873,
          0.04664201661944389,
          0.012872089631855488,
          -0.05282040685415268,
          0.10287786275148392,
          -0.03297276049852371,
          0.13639850914478302,
          0.18623453378677368,
          -0.005154004320502281,
          0.09479186683893204,
          0.048200707882642746,
          0.013066167943179607,
          0.04249653220176697,
          0.13830812275409698,
          0.02438420243561268,
          -0.0699949637055397,
          -0.03473183140158653,
          -0.007071851287037134,
          0.045298997312784195,
          -0.014969135634601116,
          -0.016399022191762924,
          0.009677739813923836,
          -0.11871879547834396,
          -0.0012775763170793653,
          0.014549893327057362,
          0.026578513905405998,
          0.0043873474933207035,
          0.005811232607811689,
          0.09099654853343964,
          0.014693194068968296,
          -0.024073993787169456,
          0.008484739810228348,
          -0.027373330667614937,
          -0.00488474452868104,
          0.06057623028755188,
          0.013602936640381813,
          0.02746325172483921,
          0.035651639103889465,
          -0.03698871284723282,
          -0.1319873183965683,
          0.003766148118302226,
          -0.005733434110879898,
          0.0006938807782717049,
          -0.018284590914845467,
          0.016425374895334244,
          0.0495557077229023,
          -0.00011516273661982268,
          -0.09850936383008957,
          -0.027022546157240868,
          0.0447968989610672,
          0.14254416525363922,
          0.04395979270339012,
          0.04437794163823128,
          0.017756272107362747,
          -0.0003113740240223706,
          -0.05556716024875641,
          0.010927633382380009,
          -0.10658491402864456,
          0.10443571209907532,
          -0.05738826096057892,
          0.13507391512393951,
          0.04170605167746544,
          0.1315767914056778,
          -0.09492615610361099,
          0.014654021710157394,
          0.018211783841252327,
          -0.028150418773293495,
          -0.022522594779729843,
          0.021077994257211685,
          0.028512008488178253,
          0.016954006627202034,
          -0.08452252298593521,
          -0.0016762306913733482,
          0.0037174138706177473,
          0.03466736525297165,
          -0.027845406904816628,
          0.012061995454132557,
          0.0657215341925621,
          0.0496143214404583,
          0.18293513357639313,
          0.10591979324817657,
          -0.05525250732898712,
          -0.06868835538625717,
          -0.005739447195082903,
          -0.13163027167320251,
          0.018074356019496918,
          0.08460003137588501,
          -0.14365194737911224,
          -0.012132334522902966,
          0.07042820006608963,
          0.07994306832551956,
          0.02147601917386055,
          -0.03551160544157028,
          -0.040144409984350204,
          0.06361962854862213,
          0.09201645106077194,
          0.042746808379888535,
          0.008116398006677628,
          -0.03884132578969002,
          0.04312172904610634,
          -0.03640907630324364,
          -0.028789032250642776,
          -0.04379979521036148,
          0.05658755823969841,
          0.11720412969589233,
          0.002960521262139082,
          -0.010614455677568913,
          -0.06400778144598007,
          0.11515513807535172,
          -0.01958562806248665,
          -0.13516190648078918,
          -0.08410211652517319,
          0.0015348597662523389,
          0.0754203274846077,
          0.07804318517446518,
          0.01859855465590954,
          -0.0378342866897583,
          -0.012931018136441708,
          0.15737298130989075,
          -0.007117653265595436,
          -0.028209256008267403,
          -0.07226811349391937,
          0.0018193561118096113,
          -0.03379049897193909
        ],
        [
          0.06750331073999405,
          0.040937718003988266,
          0.019907325506210327,
          0.008976795710623264,
          0.012225505895912647,
          0.02582697942852974,
          -0.021196303889155388,
          0.02806628681719303,
          0.033036909997463226,
          0.06252539157867432,
          -0.006631075404584408,
          -0.04373500868678093,
          -0.011728411540389061,
          -0.09203281998634338,
          0.031180350109934807,
          -0.016926290467381477,
          -0.04218064993619919,
          0.003434116253629327,
          -0.03575493395328522,
          0.07656685262918472,
          0.07457978278398514,
          -0.0406014621257782,
          0.019786423072218895,
          -0.007761182263493538,
          -0.03659677878022194,
          0.03923456743359566,
          -0.017677148804068565,
          -0.01956157758831978,
          -0.051852352917194366,
          -0.0073614902794361115,
          0.03383876755833626,
          0.00508776493370533,
          -0.034359581768512726,
          -0.011166879907250404,
          0.0468314029276371,
          0.01607241854071617,
          -0.007376604713499546,
          -0.0474785678088665,
          -0.03874029591679573,
          -0.04380430653691292,
          0.09008921682834625,
          -0.012028913013637066,
          0.043479401618242264,
          0.01564047671854496,
          0.021172337234020233,
          0.05376959592103958,
          -0.01064469013363123,
          -0.08741050958633423,
          -0.004052397329360247,
          0.028668809682130814,
          0.005853877868503332,
          -0.07214580476284027,
          0.012275847606360912,
          -0.042203135788440704,
          0.12693670392036438,
          0.06512150168418884,
          -0.005897888448089361,
          -0.0008440448436886072,
          0.055008664727211,
          -0.07098318636417389,
          0.0027241576462984085,
          -0.0031174239702522755,
          0.05719767510890961,
          -0.03772807493805885,
          -0.0516437292098999,
          -0.008019215427339077,
          0.13736848533153534,
          0.032981377094984055,
          0.0117264399304986,
          0.15412281453609467,
          -0.006765314377844334,
          -0.05639217421412468,
          0.01656380668282509,
          0.005651386920362711,
          -0.03642234578728676,
          -0.02603752724826336,
          0.02038460411131382,
          0.016358548775315285,
          -0.028770949691534042,
          -0.037635814398527145,
          -0.011726445518434048,
          0.06103181838989258,
          0.011741982772946358,
          -0.029459292069077492,
          -0.04536423459649086,
          0.009324454702436924,
          0.03689746558666229,
          0.09830103814601898,
          0.03830057010054588,
          -0.057437848299741745,
          0.016747431829571724,
          0.055472783744335175,
          -0.030273856595158577,
          -0.036710478365421295,
          0.08206432312726974,
          0.013157918117940426,
          0.021687066182494164,
          -0.06520301103591919,
          0.03667479008436203,
          0.05542638525366783,
          0.031419869512319565,
          0.0012220485368743539,
          -0.007730499841272831,
          0.006995182018727064,
          0.02250692993402481,
          -0.040524501353502274,
          0.04451106861233711,
          -0.0026021720841526985,
          0.06199630722403526,
          0.0032006974797695875,
          -0.017106158658862114,
          -0.023167910054326057,
          0.07740766555070877,
          0.026941338554024696,
          0.0016404991038143635,
          -0.023097343742847443,
          -0.09444452077150345,
          -0.04393509775400162,
          0.0472639836370945,
          0.0001638270914554596,
          -0.012265795841813087,
          -0.05150492489337921,
          -0.0026972172781825066,
          -0.06730032712221146,
          0.028965085744857788,
          -0.013159056194126606,
          0.022367969155311584,
          0.017535822466015816
        ],
        [
          0.02036714181303978,
          -0.02538429945707321,
          -0.021468114107847214,
          0.027653448283672333,
          0.042214129120111465,
          -0.04448729008436203,
          -0.035685569047927856,
          0.031592026352882385,
          0.032740332186222076,
          0.002481048693880439,
          -0.03140099346637726,
          -0.02573011815547943,
          0.01508051622658968,
          0.02776331827044487,
          -0.01715662144124508,
          -0.042177826166152954,
          -0.04146456718444824,
          -0.039461128413677216,
          0.04191495105624199,
          -0.02010015770792961,
          -0.014937888830900192,
          0.01861383020877838,
          0.022586986422538757,
          0.009063534438610077,
          0.03548769652843475,
          -0.012693329714238644,
          0.051870908588171005,
          -0.03683405742049217,
          0.010076568461954594,
          0.023490378633141518,
          0.0014370402786880732,
          -0.01339999120682478,
          0.014574168249964714,
          -0.030742384493350983,
          -0.03372059017419815,
          -0.015360958874225616,
          -0.03565460816025734,
          0.0072799245826900005,
          -0.019925948232412338,
          -0.02366357110440731,
          -0.015106534585356712,
          -0.03987869620323181,
          0.03416595607995987,
          -0.019550420343875885,
          0.03178019821643829,
          -0.009755316190421581,
          -0.03841506317257881,
          -0.0075317248702049255,
          0.042296357452869415,
          -0.023296929895877838,
          0.023462975397706032,
          0.03756417706608772,
          0.02431263029575348,
          -0.014687283895909786,
          -0.03176349774003029,
          -0.03558063507080078,
          -0.014826420694589615,
          -0.009777607396245003,
          -0.026478469371795654,
          0.006953158415853977,
          0.03003883548080921,
          0.007902998477220535,
          -0.008348735980689526,
          -0.02507905848324299,
          0.039234694093465805,
          -0.020012782886624336,
          0.013218973763287067,
          0.006875178311020136,
          -0.03625130280852318,
          0.07005569338798523,
          -0.00571200717240572,
          0.008828843012452126,
          0.010665052570402622,
          0.036425039172172546,
          -0.04401421546936035,
          0.04238243028521538,
          0.006964541971683502,
          -0.03363228589296341,
          0.03835506737232208,
          -0.0012661046348512173,
          0.0024246498942375183,
          0.03960956260561943,
          0.02146594226360321,
          -0.014002503827214241,
          -0.007557351607829332,
          0.025388341397047043,
          0.019171863794326782,
          -0.020413609221577644,
          -0.029205046594142914,
          -0.04837190732359886,
          0.014271833002567291,
          0.045306496322155,
          0.008579013869166374,
          -0.04557167738676071,
          -0.012393662706017494,
          0.009836103767156601,
          0.003365142969414592,
          -0.047925371676683426,
          -0.04125520959496498,
          -0.003434319980442524,
          0.03368358686566353,
          -0.03840488940477371,
          0.044340550899505615,
          0.03003493882715702,
          -0.028597475960850716,
          0.03840236738324165,
          0.007726988289505243,
          -0.012235264293849468,
          0.01780776120722294,
          0.04633106663823128,
          0.023719990625977516,
          0.03805466368794441,
          0.056705716997385025,
          0.03196960315108299,
          0.022857556119561195,
          -0.006024284288287163,
          0.0023802900686860085,
          -0.020262030884623528,
          0.03262719139456749,
          0.04677338898181915,
          0.007411850616335869,
          -0.0016566546401008964,
          -0.031074702739715576,
          -0.04578886553645134,
          -0.04157032445073128,
          -0.019915910437703133,
          -0.0005275000585243106,
          0.0436810702085495
        ],
        [
          0.028079094365239143,
          0.010653171688318253,
          -0.007919220253825188,
          -0.01767542026937008,
          0.024743178859353065,
          0.022334113717079163,
          0.02385728619992733,
          0.0205038134008646,
          0.013536114245653152,
          -0.01665506139397621,
          0.02099532261490822,
          -0.02258916199207306,
          -0.03299993649125099,
          -0.016537582501769066,
          -0.01850338838994503,
          0.03200947120785713,
          -0.0333072692155838,
          0.0007880952907726169,
          -0.033051516860723495,
          -0.010307397693395615,
          0.01707608811557293,
          -0.03309891000390053,
          -0.023433439433574677,
          -0.017307709902524948,
          0.024036293849349022,
          -0.0012993342243134975,
          -0.045275844633579254,
          -0.0049700504168868065,
          -0.024588337168097496,
          0.03576375171542168,
          0.012822171673178673,
          0.003532553557306528,
          0.0007659110124222934,
          -0.04061216861009598,
          0.036235954612493515,
          0.012019248679280281,
          0.006241355091333389,
          -0.006212669424712658,
          -0.016208481043577194,
          -0.000915168842766434,
          -0.023907696828246117,
          0.021077455952763557,
          0.04238321632146835,
          0.035054028034210205,
          0.017729172483086586,
          0.030819261446595192,
          -0.014314204454421997,
          -0.024436036124825478,
          -0.03840602934360504,
          0.009196761064231396,
          0.0365399569272995,
          -0.02527451515197754,
          0.04661140963435173,
          0.040538936853408813,
          0.04121216759085655,
          -0.009988500736653805,
          -0.036024272441864014,
          -0.03504166007041931,
          0.012912393547594547,
          0.03980597108602524,
          0.026268117129802704,
          0.011663165874779224,
          0.022943852469325066,
          0.024112466722726822,
          -0.038720160722732544,
          0.03622500225901604,
          -0.041193194687366486,
          0.0169821884483099,
          -0.028589962050318718,
          0.0010563555406406522,
          -0.045816391706466675,
          0.031081361696124077,
          -0.027625737711787224,
          0.01171889342367649,
          -0.010173122398555279,
          0.025983164086937904,
          0.02881113439798355,
          0.03801840916275978,
          -0.01746184006333351,
          -0.039796777069568634,
          -0.008213954046368599,
          -0.0005000494420528412,
          0.011529449373483658,
          -0.028169168159365654,
          -0.044484734535217285,
          0.006115923635661602,
          0.04369615763425827,
          -0.0025590122677385807,
          0.02820010297000408,
          -0.03054964914917946,
          -0.04305728152394295,
          0.009846724569797516,
          -0.00840780045837164,
          0.010287946090102196,
          -0.00016750347276683897,
          0.00918550044298172,
          -0.0306395273655653,
          0.023399636149406433,
          -0.006768262945115566,
          -0.028878120705485344,
          0.023589693009853363,
          0.03587628901004791,
          -0.010532998479902744,
          -0.037607498466968536,
          -0.015520812943577766,
          -0.011796706356108189,
          -0.004310294985771179,
          -0.012461761943995953,
          -6.316450890153646e-05,
          0.04178040474653244,
          0.023696038872003555,
          -0.0017596037359908223,
          0.039848826825618744,
          0.01995456963777542,
          -0.015027469024062157,
          -0.01499987207353115,
          0.023250054568052292,
          0.042792242020368576,
          0.009845511056482792,
          0.01496103685349226,
          -0.022589698433876038,
          -0.009013349190354347,
          -0.03961699455976486,
          -0.03741047903895378,
          -0.006810071878135204,
          0.0011525352019816637,
          -0.011703530326485634,
          -0.0207077469676733
        ],
        [
          -0.002694203518331051,
          0.04389956220984459,
          0.018228808417916298,
          0.010360311716794968,
          0.03205123543739319,
          -0.04549942910671234,
          0.020959539338946342,
          -0.008649153634905815,
          0.021258944645524025,
          0.033059656620025635,
          -0.012545718811452389,
          0.04132039099931717,
          0.02357911877334118,
          0.04133584350347519,
          -0.010202651843428612,
          -0.008411427028477192,
          3.1251751352101564e-05,
          0.017558002844452858,
          -0.012118905782699585,
          0.004632729105651379,
          0.0257525984197855,
          -0.0015295707853510976,
          0.024207476526498795,
          -0.043043844401836395,
          0.01154810469597578,
          0.020947691053152084,
          -0.03712237626314163,
          0.007840068079531193,
          0.03958350419998169,
          -0.003166954265907407,
          -0.03535628318786621,
          0.04312063381075859,
          -0.035101160407066345,
          0.0031134134624153376,
          0.02943396382033825,
          -0.004049229435622692,
          -0.03618457168340683,
          -0.00860284361988306,
          0.01480525266379118,
          0.039331648498773575,
          -0.046121418476104736,
          0.03152444586157799,
          -0.010893564671278,
          0.03862757980823517,
          0.04512515291571617,
          0.001207962748594582,
          -0.035055212676525116,
          0.002480961149558425,
          -0.02292409911751747,
          0.012209412641823292,
          -0.021650858223438263,
          0.0368221141397953,
          0.015883637592196465,
          -0.022621452808380127,
          -0.03966257721185684,
          -0.03882669657468796,
          -0.004141067620366812,
          -0.00036090926732867956,
          -0.037077341228723526,
          -0.0159401074051857,
          -0.041166678071022034,
          0.03221267834305763,
          -0.041187871247529984,
          -0.013002387247979641,
          0.046400029212236404,
          -0.012051033787429333,
          -0.0032115119975060225,
          -0.005380392540246248,
          0.03932405263185501,
          0.02062910608947277,
          -0.021811803802847862,
          0.028614209964871407,
          -0.011652306653559208,
          0.00565495528280735,
          -0.03565730154514313,
          -0.04218638315796852,
          0.017532313242554665,
          -0.02272721193730831,
          -0.02362632565200329,
          -0.020905451849102974,
          -0.004975590854883194,
          0.005461718421429396,
          -0.037505995482206345,
          0.019709082320332527,
          -0.04285655543208122,
          0.04442448914051056,
          -0.016997167840600014,
          -0.02288120426237583,
          0.011473642662167549,
          0.046427298337221146,
          -0.037606120109558105,
          0.0023315134458243847,
          -0.04305146262049675,
          -0.02903131954371929,
          0.003157570492476225,
          -0.020881647244095802,
          0.016934707760810852,
          0.03788739815354347,
          -0.02370459958910942,
          -0.028237691149115562,
          -0.017935479059815407,
          -0.019306356087327003,
          -0.03348943218588829,
          -0.005248649045825005,
          0.04247089847922325,
          0.009807977825403214,
          0.021489111706614494,
          -0.03750230371952057,
          -0.029822949320077896,
          0.036058709025382996,
          0.038374412804841995,
          -0.02651979960501194,
          -0.010258302092552185,
          0.008286126889288425,
          0.017983580008149147,
          -0.012911428697407246,
          0.0157936979085207,
          0.013667164370417595,
          0.011435589753091335,
          -0.005595761351287365,
          0.0029815807938575745,
          0.035404473543167114,
          0.04074229300022125,
          -0.0038222188595682383,
          0.027065878733992577,
          0.03306001424789429,
          0.03125227615237236,
          0.02283238060772419
        ],
        [
          0.04129939526319504,
          0.004997065290808678,
          -0.03671753779053688,
          0.015530681237578392,
          -0.006121481768786907,
          -0.02899475023150444,
          -0.026990186423063278,
          0.0070015015080571175,
          0.008394792675971985,
          0.021126165986061096,
          0.03753550350666046,
          0.041942283511161804,
          0.018165452405810356,
          0.041522614657878876,
          0.017283158376812935,
          0.04364807531237602,
          0.0008316549356095493,
          0.008749287575483322,
          -0.03558455780148506,
          -0.040557194501161575,
          -0.03512895852327347,
          0.038568392395973206,
          -0.017253337427973747,
          0.02588633820414543,
          -0.0024125396739691496,
          0.006204579025506973,
          -0.0063891056925058365,
          0.025290541350841522,
          -0.03757309913635254,
          0.012899271212518215,
          0.027616018429398537,
          0.03730134665966034,
          -0.005702388938516378,
          0.040054190903902054,
          -0.009864086285233498,
          0.0037691479083150625,
          0.03010966069996357,
          -0.00375020457431674,
          0.013297898694872856,
          -0.03890706226229668,
          0.023725762963294983,
          0.034889545291662216,
          -0.0337265245616436,
          0.032899465411901474,
          -0.0065694535151124,
          -0.02200319804251194,
          0.043444275856018066,
          0.020686814561486244,
          -0.04555570334196091,
          0.04420924559235573,
          -0.0038365907967090607,
          0.04230659827589989,
          -0.043470993638038635,
          -0.028395485132932663,
          -0.0029643282759934664,
          0.006934688426554203,
          0.014773725531995296,
          -0.03284811973571777,
          0.046464692801237106,
          -0.024846959859132767,
          -0.024591349065303802,
          0.013344043865799904,
          0.04466402530670166,
          0.00971715897321701,
          0.032543815672397614,
          -0.03376349061727524,
          -0.044825825840234756,
          0.00890151783823967,
          0.028113432228565216,
          -0.0313933826982975,
          -0.013395733200013638,
          0.0346100814640522,
          -0.04216134548187256,
          -0.028853129595518112,
          -0.044476017355918884,
          0.0056610796600580215,
          -0.038043323904275894,
          -0.0017603315645828843,
          -0.020608656108379364,
          -0.014582854695618153,
          -0.03710785508155823,
          -0.04662204161286354,
          0.018206151202321053,
          -0.02455310896039009,
          -0.004821786656975746,
          -0.013156807981431484,
          -0.0005278332391753793,
          0.0007181128021329641,
          -0.015589110553264618,
          -0.00932555366307497,
          -0.018730245530605316,
          -0.04532327130436897,
          -0.022883599624037743,
          -0.04362677410244942,
          -0.0026255189441144466,
          0.039556149393320084,
          0.03617970272898674,
          0.026049986481666565,
          0.03813926875591278,
          0.028390927240252495,
          0.03848696127533913,
          0.000766513345297426,
          -0.009975934401154518,
          0.020677700638771057,
          0.011537215672433376,
          -0.046180423349142075,
          0.03889588639140129,
          -0.030390894040465355,
          0.009872930124402046,
          0.014428057707846165,
          -0.003173499833792448,
          0.044353749603033066,
          0.013567828573286533,
          -0.04075999557971954,
          0.024733509868383408,
          -0.04481883347034454,
          -0.007317028008401394,
          0.036935046315193176,
          0.027736980468034744,
          0.027109235525131226,
          0.0318240150809288,
          -0.03375867381691933,
          0.02126135490834713,
          0.033756718039512634,
          0.043491244316101074,
          0.03945137560367584,
          0.019845565780997276,
          -0.02097688615322113
        ],
        [
          -0.014404051937162876,
          0.04331478849053383,
          0.013940064236521721,
          0.008043715730309486,
          -0.039429400116205215,
          -0.030606135725975037,
          0.006852013058960438,
          0.021292943507432938,
          0.04602398723363876,
          -0.01189629640430212,
          -0.014329851604998112,
          -0.01552493404597044,
          0.016057079657912254,
          0.041465651243925095,
          -0.016848193481564522,
          -0.0013989727012813091,
          0.026523973792791367,
          0.019473465159535408,
          -0.03905598819255829,
          0.028872648254036903,
          -0.03649430349469185,
          0.028124511241912842,
          0.02335665188729763,
          -0.007373341824859381,
          0.03148254007101059,
          -0.029527295380830765,
          -0.010156076401472092,
          -0.02836807258427143,
          0.011432026512920856,
          0.021791258826851845,
          -0.03536240756511688,
          0.04159035533666611,
          -0.0211244598031044,
          -0.02327747456729412,
          0.014451452530920506,
          -0.0007936330512166023,
          0.021220659837126732,
          0.02961829863488674,
          -0.005411205347627401,
          0.04234984144568443,
          0.024832433089613914,
          -0.03907313570380211,
          0.01706685870885849,
          -0.030232897028326988,
          0.013924644328653812,
          0.03858683630824089,
          0.013384202495217323,
          -0.0163627490401268,
          -0.039518602192401886,
          0.036999206990003586,
          0.032527316361665726,
          0.005522287450730801,
          -0.01528987754136324,
          0.04229861870408058,
          0.03505413979291916,
          -0.01091751828789711,
          -0.03895711526274681,
          -0.009846778586506844,
          -0.029174065217375755,
          -0.010046940296888351,
          0.0038151887711137533,
          -0.011145519092679024,
          -0.032962847501039505,
          -0.002367102773860097,
          0.0033453702926635742,
          0.00527490908280015,
          -0.01321789063513279,
          -0.023968880996108055,
          0.04674066975712776,
          -0.007039060350507498,
          0.014468783512711525,
          -0.009624729864299297,
          0.029487987980246544,
          -0.016720877960324287,
          0.009165005758404732,
          0.01847492903470993,
          -0.019545892253518105,
          -0.038596488535404205,
          0.042879123240709305,
          0.030017828568816185,
          0.043637458235025406,
          0.04549866542220116,
          0.022419167682528496,
          0.005473647732287645,
          -0.004836285021156073,
          -0.009067390114068985,
          -0.04216466471552849,
          -0.03520355001091957,
          0.017083754763007164,
          0.00019284228619653732,
          0.026116065680980682,
          0.012625733390450478,
          0.00518480408936739,
          0.026926573365926743,
          -0.017445029690861702,
          -0.02023128792643547,
          0.006140132434666157,
          0.04398024082183838,
          -0.017732514068484306,
          0.03923745080828667,
          0.021617155522108078,
          0.004760932642966509,
          0.012702342122793198,
          0.04435066878795624,
          0.018646519631147385,
          0.0030662824865430593,
          0.030152959749102592,
          -0.01569790579378605,
          -0.010877004824578762,
          -0.024472154676914215,
          0.02435651607811451,
          0.015677371993660927,
          0.0014945950824767351,
          -0.025591161102056503,
          -0.00465959869325161,
          0.0027820563409477472,
          -0.01909378357231617,
          0.015786167234182358,
          -0.012486976571381092,
          -0.030883055180311203,
          -0.017330152913928032,
          -0.0465419664978981,
          0.027169859036803246,
          0.028275765478610992,
          -0.00010033012949861586,
          -0.0023513759952038527,
          -0.0005496169906109571,
          -0.03508538007736206
        ],
        [
          0.0017052891198545694,
          0.018556255847215652,
          -0.023317674174904823,
          0.004125501494854689,
          0.03328246250748634,
          -0.008641046471893787,
          -0.008475122973322868,
          0.004703175276517868,
          0.022442316636443138,
          0.03423946350812912,
          -0.010764078237116337,
          -0.04504440352320671,
          0.020584333688020706,
          0.01413701381534338,
          0.037390291690826416,
          0.010384059511125088,
          0.012038886547088623,
          -0.034022606909275055,
          -0.010767517611384392,
          0.038061145693063736,
          -0.031755510717630386,
          -0.011293658055365086,
          0.039892956614494324,
          0.034384142607450485,
          -0.028322597965598106,
          -0.014861427247524261,
          0.02551831118762493,
          -0.008812113665044308,
          -0.02996230497956276,
          0.021967975422739983,
          -0.024116305634379387,
          0.034148912876844406,
          -0.018478821963071823,
          -0.017698636278510094,
          0.04555847495794296,
          -0.005987053271383047,
          0.0037560255732387304,
          -0.003322467440739274,
          -0.020655812695622444,
          -0.0366913378238678,
          0.03912116959691048,
          -0.022886201739311218,
          0.040355827659368515,
          0.0062205856665968895,
          0.043456144630908966,
          -0.04388277605175972,
          0.045175131410360336,
          0.042788855731487274,
          0.0028603747487068176,
          -0.004140986129641533,
          -0.009177638217806816,
          -0.00910686794668436,
          -0.010125207714736462,
          0.03886823356151581,
          -0.0333205871284008,
          0.002429928397759795,
          -0.03238871693611145,
          -0.011485154740512371,
          0.024984516203403473,
          0.032564181834459305,
          0.03064662031829357,
          0.010083966888487339,
          -0.04205615445971489,
          0.0032649594359099865,
          0.044333990663290024,
          0.020989680662751198,
          0.04498597979545593,
          0.04283527657389641,
          0.044318921864032745,
          -0.01890566572546959,
          -0.005035914946347475,
          -0.03234759718179703,
          0.0011725601507350802,
          0.025022512301802635,
          -0.03244178742170334,
          -0.0033735220786184072,
          0.002927954075857997,
          0.036009181290864944,
          -0.04546224698424339,
          0.0022721756249666214,
          0.01989862322807312,
          -0.024383164942264557,
          -0.01976289600133896,
          0.013180628418922424,
          0.018579604104161263,
          0.025062117725610733,
          0.006875671446323395,
          -0.014860394410789013,
          0.02508607879281044,
          -0.04084949195384979,
          -0.010659596882760525,
          0.007386043202131987,
          0.03540583327412605,
          0.02266031503677368,
          -0.04136525094509125,
          0.007588146720081568,
          0.022288069128990173,
          0.007036471739411354,
          0.006447232328355312,
          0.0032237034756690264,
          0.03660061955451965,
          0.04277963563799858,
          0.031206363812088966,
          0.023646140471100807,
          0.02109617181122303,
          -0.02504006400704384,
          0.01273329183459282,
          0.0038089221343398094,
          -0.018138205632567406,
          0.04224202036857605,
          0.041197601705789566,
          -0.017700517550110817,
          0.010446683503687382,
          -0.021285206079483032,
          -0.0017467521829530597,
          -0.04560377821326256,
          -0.025716019794344902,
          -0.02251325733959675,
          0.01257397048175335,
          -0.03185385465621948,
          -0.040002837777137756,
          0.009921198710799217,
          -0.04326774179935455,
          -0.02241412177681923,
          -0.003921307157725096,
          -0.024639323353767395,
          0.01623353362083435,
          -0.029574548825621605
        ],
        [
          0.01284928061068058,
          0.012713724747300148,
          0.015838824212551117,
          0.015613031573593616,
          -0.036296941339969635,
          0.041574157774448395,
          0.022956540808081627,
          -0.01818324439227581,
          -0.019860081374645233,
          0.013781961984932423,
          0.0013319243444129825,
          0.046353988349437714,
          -0.012110224924981594,
          -0.04260639473795891,
          0.04318693280220032,
          -0.026084206998348236,
          0.009490841999650002,
          -0.04672901704907417,
          0.029756249859929085,
          -0.035449329763650894,
          0.039652079343795776,
          0.008927888236939907,
          0.01025816984474659,
          0.0022163097746670246,
          0.009704696014523506,
          0.0002967380569316447,
          0.016168681904673576,
          0.013753595761954784,
          -0.004311848897486925,
          0.017008470371365547,
          -0.04437008872628212,
          -0.02869054488837719,
          -0.007374897133558989,
          0.038097966462373734,
          -0.0268129650503397,
          -0.04633808135986328,
          -0.030113067477941513,
          0.020076056942343712,
          -0.009814943186938763,
          -0.045176662504673004,
          0.004778992384672165,
          -0.045095622539520264,
          -0.03043067827820778,
          0.02467319928109646,
          0.044642169028520584,
          0.045569874346256256,
          -0.02805902808904648,
          0.011585399508476257,
          0.02492498978972435,
          0.025642529129981995,
          -0.043204907327890396,
          0.033282022923231125,
          -0.036322399973869324,
          0.04052259773015976,
          -0.010837430134415627,
          -0.011302956379950047,
          -0.03935955837368965,
          -0.04132160544395447,
          0.007750810123980045,
          0.012190569192171097,
          -0.033668629825115204,
          0.023002158850431442,
          -0.010320547968149185,
          -0.01144386362284422,
          -0.006529287900775671,
          0.03758049011230469,
          0.0025876816362142563,
          -0.008660350926220417,
          -0.029444187879562378,
          -0.002483803778886795,
          0.020754842087626457,
          -0.02840093895792961,
          -0.009432455524802208,
          -0.04393552243709564,
          0.03542546555399895,
          0.030660048127174377,
          0.028211846947669983,
          -0.026040876284241676,
          0.028165586292743683,
          0.00037866091588512063,
          0.018418801948428154,
          -0.025288175791502,
          0.008948327973484993,
          0.023702042177319527,
          0.0341799333691597,
          -0.015468452125787735,
          -0.02021160162985325,
          -0.021187154576182365,
          -0.009158813394606113,
          0.03820513188838959,
          0.013022848404943943,
          0.02731548249721527,
          -0.011626839637756348,
          -0.007149155251681805,
          -0.028186514973640442,
          0.039634011685848236,
          0.014917386695742607,
          0.004461055155843496,
          -0.015795394778251648,
          -0.014355902560055256,
          -0.005629131104797125,
          -0.008232826367020607,
          -0.0193150844424963,
          0.009076442569494247,
          -0.04598131775856018,
          0.043705619871616364,
          0.016490841284394264,
          0.025613371282815933,
          -0.011368528939783573,
          -0.023129725828766823,
          -0.028113653883337975,
          0.017709020525217056,
          -0.04549584910273552,
          -0.04043526574969292,
          -0.016974980011582375,
          -0.04214707389473915,
          0.0017782789655029774,
          0.004489844664931297,
          0.023387763649225235,
          -0.012075431644916534,
          -0.035870444029569626,
          -0.019134972244501114,
          0.02128635346889496,
          0.011078446172177792,
          0.016922477632761,
          -0.021271467208862305,
          0.009188862517476082,
          0.012243094854056835
        ],
        [
          -0.003923629876226187,
          -0.04116998240351677,
          0.02505381777882576,
          0.012585746124386787,
          0.03802032396197319,
          0.01799885556101799,
          -0.00769670307636261,
          -0.008288090117275715,
          0.03417674079537392,
          0.03145226836204529,
          0.032784685492515564,
          0.027921002358198166,
          -0.03735056519508362,
          0.034642402082681656,
          0.016549989581108093,
          0.029081644490361214,
          -0.03807730972766876,
          -0.03044106438755989,
          0.04171296954154968,
          0.02406236156821251,
          0.03499147295951843,
          0.005419952794909477,
          0.0033287815749645233,
          -0.04176270216703415,
          -0.03165317699313164,
          0.02374427393078804,
          -0.0015116394497454166,
          -0.039126429706811905,
          0.03491547703742981,
          -0.03375602513551712,
          -0.03362184390425682,
          0.006697388365864754,
          -0.02848823182284832,
          -0.0415521077811718,
          -0.012029746547341347,
          0.033568814396858215,
          0.0006860915455035865,
          -0.03029538318514824,
          -0.03553200513124466,
          0.029405156150460243,
          0.023564869537949562,
          0.03387317806482315,
          0.008757843635976315,
          -0.014734537340700626,
          0.002729408210143447,
          0.011666892096400261,
          0.0226858202368021,
          0.04469418153166771,
          0.0054406169801950455,
          0.039010707288980484,
          -0.023722583428025246,
          0.035719431936740875,
          0.005304865073412657,
          0.035692114382982254,
          -0.009029528126120567,
          -0.025331158190965652,
          -0.02970924787223339,
          0.04545426741242409,
          0.009490572847425938,
          0.04541395604610443,
          -0.04432924836874008,
          0.013003812171518803,
          0.03381422162055969,
          0.01660461165010929,
          0.015648066997528076,
          0.02618112787604332,
          -0.023324964568018913,
          0.013060501776635647,
          -0.002074548974633217,
          -0.04613831639289856,
          0.027193542569875717,
          -0.028090788051486015,
          0.026610713452100754,
          0.017741914838552475,
          -0.035750679671764374,
          0.01402453612536192,
          -0.0135716637596488,
          0.010223404504358768,
          0.018847687169909477,
          0.015594922937452793,
          -0.034265317022800446,
          0.03294351324439049,
          -0.004081849940121174,
          0.015150067396461964,
          0.03282899409532547,
          0.034077342599630356,
          -0.021320218220353127,
          0.007605555932968855,
          0.03094620630145073,
          2.1875375750823878e-05,
          -0.023628583177924156,
          -0.010309695266187191,
          -0.011612026952207088,
          -0.0067648510448634624,
          -0.01250448264181614,
          0.010965493507683277,
          0.006534080486744642,
          0.0034089204855263233,
          -0.0011790139833465219,
          0.0208125039935112,
          0.02873983234167099,
          0.03539251908659935,
          -0.02729414962232113,
          0.04246285557746887,
          0.03389577940106392,
          -0.006457011681050062,
          -0.03627947345376015,
          0.035668179392814636,
          0.009324043989181519,
          0.009469648823142052,
          0.007116506341844797,
          -0.041969578713178635,
          0.00905606523156166,
          0.013232597149908543,
          0.007905611768364906,
          0.014191975817084312,
          0.011143277399241924,
          -0.00467662001028657,
          -0.013833259232342243,
          0.006176399998366833,
          -0.03147866576910019,
          -0.044983092695474625,
          -0.005534146912395954,
          -0.03458164632320404,
          -0.0003252939786761999,
          -0.015375335700809956,
          0.04245651885867119,
          0.007390234619379044
        ],
        [
          -0.04072960466146469,
          -0.02699374407529831,
          -0.0066757807508111,
          0.03305119648575783,
          -0.03621403127908707,
          -0.046556707471609116,
          0.00405483553186059,
          0.04128751531243324,
          -0.003971831873059273,
          0.02005947194993496,
          0.026173129677772522,
          -0.020181477069854736,
          0.031833142042160034,
          -0.022497253492474556,
          0.005090583115816116,
          0.030802354216575623,
          -0.04407506063580513,
          0.014655200764536858,
          0.030158059671521187,
          -0.04123188927769661,
          0.016265839338302612,
          0.034227099269628525,
          0.030024603009223938,
          0.010595875792205334,
          -0.04009907692670822,
          0.034872766584157944,
          0.013072160072624683,
          0.001668337732553482,
          -0.005804810207337141,
          -0.04425559565424919,
          0.01655973680317402,
          0.013192671351134777,
