{
  "layers": [
    {
      "biases": [
        0.1524020880460739,
        0.006017269100993872,
        0.14104411005973816,
        -0.07051325589418411,
        -0.11815562099218369,
        -0.19444453716278076,
        -0.10609710961580276,
        0.038462575525045395,
        0.016619032248854637,
        -0.1094435304403305,
        0.25516775250434875,
        0.02153729274868965,
        0.09640403836965561,
        0.6828591823577881,
        -0.18739576637744904,
        0.7274580597877502,
        0.18889842927455902,
        -0.14176201820373535,
        -0.17260970175266266,
        0.07317616790533066,
        -0.011620812118053436,
        0.18460959196090698,
        -0.34678611159324646,
        0.00018082968017552048,
        0.12246112525463104,
        -0.18637336790561676,
        -0.058777861297130585,
        0.12320597469806671,
        0.0682741329073906,
        -0.09730473160743713,
        0.18974454700946808,
        0.11969055980443954,
        0.13559365272521973,
        -0.11362901329994202,
        -0.011421161703765392,
        0.05386519059538841,
        0.1229027733206749,
        -0.17212454974651337,
        -0.053554899990558624,
        0.20260599255561829,
        0.17175427079200745,
        -0.4942210614681244,
        -0.11388398706912994,
        -0.48110300302505493,
        -0.016893072053790092,
        0.004380879923701286,
        0.21502937376499176,
        0.061819519847631454,
        0.15687768161296844,
        0.015279324725270271,
        -0.0910472422838211,
        -0.056786730885505676,
        0.05492303892970085,
        0.23958733677864075,
        -0.036633770912885666,
        0.2523621618747711,
        0.10862639546394348,
        0.0846627727150917,
        -0.22631637752056122,
        -0.13756737112998962,
        -0.15442202985286713,
        -0.009133689105510712,
        -0.08145298063755035,
        -0.2555099427700043,
        0.05357268080115318,
        0.06638652086257935,
        0.23180803656578064,
        -0.002544721122831106,
        0.07901671528816223,
        -0.021538108587265015,
        0.1612255722284317,
        0.5040158629417419,
        -0.1743260622024536,
        -0.12002989649772644,
        0.006918943487107754,
        -0.15251874923706055,
        -0.031237907707691193,
        0.07858358323574066,
        -0.027747154235839844,
        0.05726100131869316,
        0.13116946816444397,
        0.09236621856689453,
        -0.018459804356098175,
        -0.06690375506877899,
        0.30684229731559753,
        -0.2215944528579712,
        -0.14146383106708527,
        -0.22061482071876526,
        -0.2734384834766388,
        -0.15213805437088013,
        -0.41684579849243164,
        0.12968812882900238,
        -0.32044392824172974,
        0.11831369996070862,
        0.13815519213676453,
        -0.13044460117816925,
        0.4222104549407959,
        0.15929575264453888,
        -0.13431495428085327,
        0.456508606672287,
        -0.14730548858642578,
        0.15266381204128265,
        0.05655055493116379,
        0.09679526835680008,
        -0.07604864984750748,
        -0.1489991545677185,
        0.12835989892482758,
        -0.03962395712733269,
        -0.05091823637485504,
        0.09870442748069763,
        0.06698625534772873,
        0.06161932274699211,
        0.08162569254636765,
        -0.07034280896186829,
        -0.08562670648097992,
        0.19172276556491852,
        -0.04026755690574646,
        -0.005396099295467138,
        0.20298148691654205,
        0.015849517658352852,
        0.6811291575431824,
        -0.009400242008268833,
        -0.10902540385723114,
        0.11108952760696411,
        0.2612001895904541,
        0.1298971027135849,
        0.029800835996866226,
        -0.03506920859217644
      ],
      "numInput": 784,
      "numOutput": 128,
      "type": "FullyConnected",
      "weights": [
        [
          0.00875448901206255,
          -0.03535524755716324,
          0.01952993869781494,
          -0.029185615479946136,
          0.012821388430893421,
          0.006010562647134066,
          0.0017399352509528399,
          0.0022676291409879923,
          0.046552710235118866,
          0.015596269629895687,
          0.033765047788619995,
          0.03509053960442543,
          -0.014417965896427631,
          0.022526400163769722,
          0.014991660602390766,
          0.042025256901979446,
          0.003681860864162445,
          0.00887440238147974,
          0.026390869170427322,
          0.0195944681763649,
          0.03130798786878586,
          -0.02482634410262108,
          -0.002434526104480028,
          0.021554389968514442,
          -0.01661771908402443,
          -0.02063787542283535,
          -0.02737622894346714,
          0.03461908549070358,
          0.030358314514160156,
          0.0014018567744642496,
          -0.005230385810136795,
          0.02504214644432068,
          0.011898689903318882,
          0.031099574640393257,
          0.02509976364672184,
          -0.002677819924429059,
          -0.004463384859263897,
          -0.0005856765201315284,
          0.0396023653447628,
          -0.03644872456789017,
          -0.017249934375286102,
          -0.03652271628379822,
          -0.024520082399249077,
          0.013671054504811764,
          0.03401275724172592,
          0.014735854230821133,
          -0.023810259997844696,
          -0.040234778076410294,
          0.019154725596308708,
          0.010874994099140167,
          -0.02393023483455181,
          0.009405478835105896,
          0.03316601365804672,
          0.008187479339540005,
          0.020959826186299324,
          0.0033626435324549675,
          -0.03389425575733185,
          0.016953006386756897,
          0.018635734915733337,
          -0.034830331802368164,
          0.01642693765461445,
          -0.03755985572934151,
          0.00253153289668262,
          0.0208396278321743,
          -0.02428106777369976,
          0.011016957461833954,
          -0.034014418721199036,
          -0.051149189472198486,
          -0.03656132519245148,
          -0.06775803118944168,
          -0.0586262047290802,
          -0.02826281636953354,
          0.020400412380695343,
          -0.033225417137145996,
          -0.04123294726014137,
          -0.02277863398194313,
          -0.03895268961787224,
          -0.04079579561948776,
          0.02724272757768631,
          0.04132792353630066,
          -0.002389667322859168,
          0.004849637392908335,
          -0.008413280360400677,
          -0.043842993676662445,
          0.006884383037686348,
          0.03771071508526802,
          0.014224229380488396,
          0.009390449151396751,
          0.019406557083129883,
          0.006016324739903212,
          -0.03244509547948837,
          0.01392065268009901,
          0.012564112432301044,
          0.03412434458732605,
          -0.01894994080066681,
          0.009057193994522095,
          0.037539489567279816,
          6.113478593761101e-05,
          -0.0439128540456295,
          0.0046048276126384735,
          -0.016933463513851166,
          0.06396189332008362,
          0.04406445845961571,
          0.027590163052082062,
          -0.0012390702031552792,
          -0.031560588628053665,
          -0.0158980842679739,
          -0.01006502564996481,
          0.008553991094231606,
          -0.03795448690652847,
          0.00037490244721993804,
          -0.046796053647994995,
          0.029578743502497673,
          0.014097788371145725,
          0.027446476742625237,
          -0.016694068908691406,
          0.02477174811065197,
          0.012191996909677982,
          0.03625316172838211,
          0.03307545185089111,
          0.009240812622010708,
          -0.003515461692586541,
          0.030065348371863365,
          0.07501166313886642,
          0.11512118577957153,
          0.10771913081407547,
          0.1515790820121765,
          0.08814595639705658,
          0.09744130074977875,
          0.14499282836914063,
          0.17309001088142395,
          0.05442608892917633,
          0.003223349340260029,
          0.031033245846629143,
          -0.03970202058553696,
          -0.06559494882822037,
          -0.036286432296037674,
          -0.041505541652441025,
          -0.014302615076303482,
          0.026172587648034096,
          0.045305561274290085,
          -0.0022867426741868258,
          -0.021979544311761856,
          0.019166480749845505,
          -0.0060592833906412125,
          -0.004362004343420267,
          0.13226619362831116,
          0.12065593898296356,
          -0.051077838987112045,
          -0.060790106654167175,
          -0.07790370285511017,
          -0.15078167617321014,
          -0.08119864761829376,
          -0.16284297406673431,
          -0.07684480398893356,
          -0.022881794720888138,
          -0.030358953401446342,
          -0.14562048017978668,
          -0.09504656493663788,
          0.1848934292793274,
          0.11703147739171982,
          0.08521953970193863,
          0.12648403644561768,
          -0.022565895691514015,
          -0.05892154574394226,
          -0.04184802249073982,
          -0.00781562551856041,
          -0.042210765182971954,
          0.024734443053603172,
          -0.023235555738210678,
          -0.024731162935495377,
          -0.020473407581448555,
          0.015018790028989315,
          0.043821532279253006,
          0.18028615415096283,
          0.10363399237394333,
          -0.004651020746678114,
          -0.11457455903291702,
          0.05580686032772064,
          -0.024577567353844643,
          -0.18386533856391907,
          -0.11967872083187103,
          -0.10650599002838135,
          -0.048525191843509674,
          -0.18473900854587555,
          -0.2784886658191681,
          -0.0015432826476171613,
          0.01864880509674549,
          0.18531319499015808,
          0.07647506892681122,
          -0.013797957450151443,
          -0.028496501967310905,
          -0.04091266915202141,
          0.0032902981620281935,
          -0.054219819605350494,
          0.02020018734037876,
          0.029044223949313164,
          0.025462912395596504,
          -0.034952953457832336,
          -0.07770159095525742,
          0.04823187366127968,
          0.136625275015831,
          0.03936316445469856,
          0.10207831114530563,
          0.059003837406635284,
          -0.11467090249061584,
          -0.0056896209716796875,
          -0.1643931269645691,
          -0.2873019874095917,
          -0.2515965402126312,
          -0.04158097133040428,
          -0.04449081793427467,
          -0.13559892773628235,
          -0.3508571982383728,
          -0.16068801283836365,
          -0.13695955276489258,
          -0.037588201463222504,
          0.11868717521429062,
          -0.012397842481732368,
          -0.06369175761938095,
          0.026654593646526337,
          -0.03885118290781975,
          0.01905171386897564,
          0.036481354385614395,
          -0.031910259276628494,
          -0.050345782190561295,
          0.02630850300192833,
          -0.011750433593988419,
          0.07528252899646759,
          -0.06886794418096542,
          -0.16962580382823944,
          -0.17701402306556702,
          -0.18523220717906952,
          -0.14403994381427765,
          -0.17696627974510193,
          -0.3693218529224396,
          -0.15098707377910614,
          -0.06604407727718353,
          -0.11262587457895279,
          -0.048938438296318054,
          0.08662009984254837,
          -0.1304645538330078,
          -0.17482733726501465,
          -0.18215656280517578,
          -0.009439382702112198,
          0.04627225175499916,
          -0.03724436089396477,
          -0.0544346459209919,
          -0.009637494571506977,
          -0.009529044851660728,
          0.05115920305252075,
          0.03461030498147011,
          -0.03157946467399597,
          0.0008844368276186287,
          -0.02271219529211521,
          0.012633967213332653,
          0.01016305759549141,
          -0.06728334724903107,
          -0.22186580300331116,
          -0.10409273952245712,
          -0.03410625830292702,
          0.025001034140586853,
          -0.21979644894599915,
          -0.12077131122350693,
          -0.08164738863706589,
          0.01626528427004814,
          -0.08917321264743805,
          0.0659058466553688,
          0.2650194466114044,
          0.05531662330031395,
          -0.14334143698215485,
          -0.07631755620241165,
          -0.010345278307795525,
          -0.10214003175497055,
          0.00844968669116497,
          0.09424182772636414,
          -0.020138686522841454,
          0.01702459342777729,
          0.013087277300655842,
          -0.04639757052063942,
          0.014778830111026764,
          0.000189789425348863,
          0.016525045037269592,
          0.027888959273695946,
          0.05405935272574425,
          -0.07287996262311935,
          -0.17995542287826538,
          -0.0023026498965919018,
          0.10501034557819366,
          -0.1353270411491394,
          -0.06261127442121506,
          0.06951500475406647,
          0.20826637744903564,
          -0.03414743021130562,
          -0.18233978748321533,
          -0.027477117255330086,
          0.10340490192174911,
          0.16447125375270844,
          0.17261147499084473,
          0.058319076895713806,
          0.03053392842411995,
          -0.01046300120651722,
          -0.022995809093117714,
          0.024223290383815765,
          -0.0010944975074380636,
          0.0346578024327755,
          -0.025164993479847908,
          -0.03658638149499893,
          -0.0011630428489297628,
          0.022609299048781395,
          -0.08996830880641937,
          -0.04497276246547699,
          0.039799634367227554,
          -0.12165460735559464,
          -0.04171479120850563,
          0.023180142045021057,
          -0.052855655550956726,
          -0.16139811277389526,
          -0.1336909979581833,
          -0.04106820374727249,
          -0.09962321072816849,
          -0.22846011817455292,
          -0.2540043294429779,
          -0.13792107999324799,
          0.1929895132780075,
          0.12039930373430252,
          0.07617240399122238,
          0.1755966991186142,
          0.11758892983198166,
          -0.016866659745573997,
          -0.05045381933450699,
          -0.0345015786588192,
          0.010383084416389465,
          0.030570602044463158,
          0.009260529652237892,
          0.029409421607851982,
          -0.0212322399020195,
          -0.010446568951010704,
          -0.06241654232144356,
          0.03491789847612381,
          0.03958381339907646,
          -0.02194127067923546,
          0.08154682070016861,
          -0.011315885931253433,
          -0.14044611155986786,
          -0.07903691381216049,
          -0.012591161765158176,
          0.017272965982556343,
          -0.0721399188041687,
          -0.24740450084209442,
          -0.21585111320018768,
          -0.2212594896554947,
          0.01201872993260622,
          0.0011457180371508002,
          -0.004075551871210337,
          0.2383091151714325,
          0.07683958858251572,
          -0.07503903657197952,
          -0.046041589230298996,
          -0.1128312423825264,
          -0.04604490473866463,
          0.021544072777032852,
          -0.029245620593428612,
          0.0431695431470871,
          0.04081141948699951,
          -0.00657447287812829,
          -0.0026121868286281824,
          0.05530361831188202,
          0.03533581271767616,
          0.024974357336759567,
          0.16322992742061615,
          0.13668468594551086,
          0.14347615838050842,
          0.17426994442939758,
          -0.009553283452987671,
          0.11987026035785675,
          0.12908799946308136,
          -0.16788989305496216,
          -0.33468499779701233,
          -0.0753844678401947,
          -0.1351911872625351,
          -0.024897029623389244,
          -0.06637626141309738,
          0.15438464283943176,
          -0.02549993246793747,
          -0.151200532913208,
          -0.14754578471183777,
          -0.06172400340437889,
          -0.1259826272726059,
          -0.05516963079571724,
          -0.02841467410326004,
          0.04073827713727951,
          0.03852938488125801,
          0.011486575938761234,
          0.00391725730150938,
          0.010357415303587914,
          0.0777658075094223,
          0.1616039127111435,
          0.22204452753067017,
          0.1584368795156479,
          0.2222297042608261,
          0.20888352394104004,
          0.1627638041973114,
          0.1619163453578949,
          0.1360846608877182,
          0.17329733073711395,
          0.11375800520181656,
          0.12285126000642776,
          0.11941073089838028,
          0.053976356983184814,
          -0.13829804956912994,
          -0.1414334625005722,
          -0.1354655623435974,
          -0.17949022352695465,
          -0.15401820838451385,
          -0.0458691231906414,
          -0.09636411815881729,
          0.003317454131320119,
          -0.032120153307914734,
          -0.036038342863321304,
          -0.045453865081071854,
          -0.007358466275036335,
          0.05255553871393204,
          -0.004537312313914299,
          0.0208240058273077,
          0.11296398192644119,
          0.18817292153835297,
          0.1298900842666626,
          0.0928758829832077,
          0.08735978603363037,
          -0.03422209247946739,
          -0.13643689453601837,
          0.12495171278715134,
          0.4767378270626068,
          0.3610247075557709,
          0.11386559158563614,
          0.13398581743240356,
          -0.1803150475025177,
          -0.0943261906504631,
          -0.14084850251674652,
          -0.23519156873226166,
          -0.23030135035514832,
          -0.2175590544939041,
          -0.015070304274559021,
          -0.01746135763823986,
          -0.01494075357913971,
          -0.005652859807014465,
          0.044459711760282516,
          -0.005808659829199314,
          -0.04200870543718338,
          -0.001435248414054513,
          0.023480167612433434,
          0.0339086651802063,
          0.07702271640300751,
          0.06843066960573196,
          0.008671102114021778,
          -0.07063993066549301,
          -0.10007783025503159,
          -0.19925342500209808,
          -0.25887370109558105,
          0.13822239637374878,
          0.33781319856643677,
          0.2953786551952362,
          0.32059988379478455,
          0.06417739391326904,
          -0.18669889867305756,
          -0.06300406157970428,
          -0.15793509781360626,
          -0.11856117844581604,
          -0.17330266535282135,
          -0.20128029584884644,
          -0.12146357446908951,
          0.001479413011111319,
          0.02643805928528309,
          0.02021583914756775,
          0.027014676481485367,
          0.04410688951611519,
          0.009812447242438793,
          -0.022472228854894638,
          0.022823356091976166,
          0.08243292570114136,
          0.06569723784923553,
          0.03654473274946213,
          -0.08607332408428192,
          -0.15723344683647156,
          -0.2740853428840637,
          -0.2756708860397339,
          -0.18182481825351715,
          0.03168996050953865,
          0.22942769527435303,
          0.3793282210826874,
          0.09050904214382172,
          0.21015991270542145,
          -0.10904176533222198,
          -0.21545831859111786,
          -0.04225887730717659,
          -0.0498710460960865,
          -0.04496845230460167,
          -0.17419804632663727,
          -0.16494296491146088,
          -0.06283924728631973,
          0.015910174697637558,
          -0.025522494688630104,
          -0.03160273656249046,
          0.02689940296113491,
          0.007335677742958069,
          0.004418622702360153,
          0.060467153787612915,
          0.019188296049833298,
          0.10963860154151917,
          0.004481885116547346,
          -0.09436866641044617,
          -0.16004924476146698,
          -0.14276207983493805,
          -0.12053628265857697,
          0.029590485617518425,
          -0.027227383106946945,
          0.15629343688488007,
          0.12786877155303955,
          0.004553316626697779,
          0.20226827263832092,
          -0.09947921335697174,
          -0.2149992734193802,
          -0.008806407451629639,
          0.08154486119747162,
          0.022219905629754066,
          -0.07152855396270752,
          -0.17535893619060516,
          -0.02889311872422695,
          -0.02375663071870804,
          -0.028872763738036156,
          -0.03263845667243004,
          -0.02931654080748558,
          -0.011682103388011456,
          0.024550970643758774,
          0.023280829191207886,
          0.08247167617082596,
          0.0540664903819561,
          -0.0071955639868974686,
          -0.07440677285194397,
          -0.12705199420452118,
          -0.13965511322021484,
          0.01850586012005806,
          -0.005304917227476835,
          -0.13318949937820435,
          0.09483475983142853,
          0.0034150725696235895,
          -0.0914430320262909,
          0.10551311820745468,
          -0.018962444737553596,
          -0.03797352313995361,
          0.03980744257569313,
          0.10008154809474945,
          0.029072897508740425,
          -0.10740552097558975,
          -0.12842749059200287,
          -0.0036109699867665768,
          0.0004340610175859183,
          -0.004414161667227745,
          0.04556749016046524,
          0.011416232213377953,
          0.009437503293156624,
          -0.027722105383872986,
          0.052318520843982697,
          0.08436214923858643,
          0.02511431649327278,
          -0.018279651179909706,
          -0.058627668768167496,
          -0.02578253485262394,
          -0.09066228568553925,
          -0.008001884445548058,
          0.023453744128346443,
          -0.1570969969034195,
          0.010848279111087322,
          -0.06907245516777039,
          -0.06837964802980423,
          0.07625016570091248,
          0.001549833221361041,
          0.15979023277759552,
          0.16730110347270966,
          0.2031446099281311,
          0.03442193195223808,
          -0.04327353835105896,
          0.014787602238357067,
          0.0009183252113871276,
          0.026038026437163353,
          -0.029518617317080498,
          0.04351066052913666,
          0.028537537902593613,
          0.034333735704422,
          0.022415580227971077,
          -0.010824267752468586,
          0.06723126024007797,
          0.031008604913949966,
          0.005662319250404835,
          -0.04575654864311218,
          -0.11518906056880951,
          -0.19947606325149536,
          -0.1317119598388672,
          -0.05510162562131882,
          -0.128640815615654,
          -0.09575533121824265,
          -0.10343043506145477,
          0.026398228481411934,
          0.0447130911052227,
          0.12189456075429916,
          0.36838746070861816,
          0.3579083979129791,
          0.29645124077796936,
          0.0934472382068634,
          0.05025598406791687,
          0.022639527916908264,
          0.020045006647706032,
          -0.014239759184420109,
          0.034384142607450485,
          0.04136166721582413,
          0.03709022328257561,
          0.04225198179483414,
          0.007910315878689289,
          0.028201211243867874,
          0.015079151839017868,
          0.012032908387482166,
          -0.021809261292219162,
          -0.11043702065944672,
          -0.09466015547513962,
          -0.07133083045482635,
          -0.13489803671836853,
          -0.009938711300492287,
          -0.08112557232379913,
          -0.07942946255207062,
          -0.06008678302168846,
          0.0511106513440609,
          0.20146627724170685,
          0.23742155730724335,
          0.36178672313690186,
          0.38846397399902344,
          0.22518368065357208,
          0.1770108938217163,
          0.0744384378194809,
          0.003457608399912715,
          -0.0332571305334568,
          -0.008927153423428535,
          0.030489182099699974,
          0.042111169546842575,
          -0.032911237329244614,
          0.020989272743463516,
          0.0019250580808147788,
          0.017676040530204773,
          0.0283216405659914,
          -0.041599273681640625,
          -0.006606999784708023,
          -0.059925224632024765,
          0.04360441118478775,
          0.03858885541558266,
          0.05447204411029816,
          0.0068621258251369,
          0.005510769784450531,
          0.05614602193236351,
          0.15826837718486786,
          0.40497809648513794,
          0.245225727558136,
          0.17792674899101257,
          0.19836243987083435,
          0.16759848594665527,
          0.17907418310642242,
          0.17644746601581573,
          0.02620553784072399,
          0.023448793217539787,
          0.05767710506916046,
          0.04899957776069641,
          -0.005306872073560953,
          -0.03521835058927536,
          0.00047777601866982877,
          0.03925348073244095,
          0.008883267641067505,
          -0.020806793123483658,
          0.00030950226937420666,
          -0.02489522099494934,
          -0.0913136675953865,
          -0.038791853934526443,
          0.07639986276626587,
          0.11801906675100327,
          0.038706760853528976,
          0.059054095298051834,
          0.08439960330724716,
          0.01689353585243225,
          0.21624131500720978,
          0.16226568818092346,
          0.18158535659313202,
          0.11705712229013443,
          0.19168621301651,
          0.08250606060028076,
          0.027388516813516617,
          0.03635740280151367,
          -0.033425237983465195,
          0.007139591034501791,
          -0.00038852356374263763,
          0.006605163682252169,
          -0.00962019618600607,
          -0.03803852200508118,
          0.012033163569867611,
          0.008098297752439976,
          0.015267147682607174,
          -0.002952860901132226,
          -0.0722939521074295,
          -0.046989504247903824,
          -0.07382964342832565,
          -0.11830465495586395,
          0.02310197986662388,
          -0.007939493283629417,
          -0.10007160902023315,
          -0.21878935396671295,
          0.012347648851573467,
          0.03286194056272507,
          0.016739653423428535,
          -0.03075113706290722,
          -0.054742880165576935,
          0.0023733845446258783,
          0.011674868874251842,
          -0.0027934480458498,
          0.027243023738265038,
          0.014065911062061787,
          0.005272862501442432,
          -0.022679094225168228,
          -0.027590179815888405,
          0.01827728934586048,
          -0.015817120671272278,
          -0.012927597388625145,
          -0.025873057544231415,
          0.02987705171108246,
          -0.012444223277270794,
          0.015211166813969612,
          -0.004315182100981474,
          -0.00023719307500869036,
          -0.0316946767270565,
          -0.00959322601556778,
          -0.05652410909533501,
          -0.08687533438205719,
          -0.05406807363033295,
          -0.07127325981855392,
          -0.1485031545162201,
          -0.12243487685918808,
          -0.14344115555286407,
          -0.04037914052605629,
          -0.045890744775533676,
          0.011050055734813213,
          -0.04063984006643295,
          0.010500690899789333,
          -0.038665521889925,
          0.029157403856515884,
          -0.01899787411093712,
          -0.001995927421376109,
          -0.037008047103881836,
          -0.0040009706281125546,
          0.01259162649512291,
          0.009705194272100925,
          -0.037670865654945374,
          -0.009300390258431435,
          -0.0035849984269589186,
          -0.001703639980405569,
          -0.026593627408146858,
          0.001561944023706019,
          0.03913666307926178,
          -0.016038447618484497,
          0.017131321132183075,
          0.005793198011815548,
          -0.04621574655175209,
          0.027521904557943344,
          0.027755163609981537,
          0.016593467444181442,
          0.0005180524312891066,
          -0.029545020312070847,
          -0.05607225373387337,
          -0.03730262443423271,
          -0.05685795098543167,
          0.02591749094426632,
          0.0379476323723793,
          0.004648498259484768,
          0.032225046306848526,
          0.04312465339899063,
          0.04525671526789665,
          0.024277223274111748,
          0.03001786768436432,
          -0.043586261570453644
        ],
        [
          0.01602356508374214,
          0.03693682700395584,
          0.017965180799365044,
          0.03476577624678612,
          0.03338754549622536,
          -0.01115658413618803,
          0.04161936417222023,
          -0.017758125439286232,
          -0.02283887378871441,
          -0.025998856872320175,
          0.03639267757534981,
          -0.005480713210999966,
          0.023005252704024315,
          0.019753161817789078,
          0.02670544944703579,
          -0.018333368003368378,
          -0.0072446851991117,
          0.003229391761124134,
          -0.012253939174115658,
          -0.003294248366728425,
          0.022490117698907852,
          0.018324894830584526,
          -0.03031691163778305,
          0.008733120746910572,
          0.03289379924535751,
          0.017947684973478317,
          0.04357384517788887,
          -0.008834048174321651,
          -0.028417764231562614,
          0.02060878276824951,
          -0.027999691665172577,
          0.032829172909259796,
          0.010131064802408218,
          -0.04209405556321144,
          -0.044660359621047974,
          -0.03002774529159069,
          0.012113766744732857,
          -0.004407846834510565,
          -0.0383593924343586,
          -0.0066526830196380615,
          -0.00974421389400959,
          0.003809094661846757,
          -0.007445147261023521,
          -0.032712049782276154,
          -0.02288021147251129,
          -0.022517887875437737,
          -0.047177646309137344,
          0.013321480713784695,
          -0.01523803174495697,
          0.028399979695677757,
          0.03375937044620514,
          -0.044109832495450974,
          -0.0061458018608391285,
          -0.01103933248668909,
          -0.030561411753296852,
          -0.03406205028295517,
          0.024026691913604736,
          0.044775646179914474,
          -0.019143151119351387,
          -9.333738489658572e-06,
          0.04635037109255791,
          0.04216863587498665,
          0.0026806206442415714,
          -0.05186670646071434,
          -0.061496980488300323,
          -0.028697872534394264,
          0.025358017534017563,
          -0.009173442609608173,
          -0.02445283904671669,
          0.06315241754055023,
          0.044492725282907486,
          -0.0552603155374527,
          -0.02720206044614315,
          -0.021595744416117668,
          -0.04561243951320648,
          -0.016000228002667427,
          -0.002150920918211341,
          -0.02234174683690071,
          -0.010551410727202892,
          0.012092513963580132,
          -0.03505723550915718,
          -0.027521712705492973,
          0.03854802995920181,
          0.027663463726639748,
          0.011187915690243244,
          0.046461980789899826,
          0.030281206592917442,
          -0.039732106029987335,
          0.02703261375427246,
          -0.028763217851519585,
          -0.012139781378209591,
          -0.03447933495044708,
          -0.01920360140502453,
          -0.0011667479993775487,
          0.03379395976662636,
          0.07420039921998978,
          -0.008565404452383518,
          -0.05045285075902939,
          0.03043482080101967,
          0.11916118115186691,
          0.13972964882850647,
          0.1420108526945114,
          0.001911038882099092,
          -0.12012064456939697,
          -0.07325197011232376,
          -0.03849468007683754,
          -0.036803945899009705,
          0.013523528352379799,
          -0.02385970577597618,
          -0.05405832454562187,
          -0.04727017506957054,
          -0.035406433045864105,
          0.026561662554740906,
          -0.017002170905470848,
          -0.0023954121861606836,
          0.014158720150589943,
          0.008509179577231407,
          0.002570964628830552,
          -0.013383433222770691,
          -0.04539356380701065,
          -0.07390818744897842,
          -0.07725905627012253,
          -0.059842292219400406,
          -0.04399610683321953,
          -0.045366037636995316,
          0.05686961114406586,
          0.0589648112654686,
          0.17932021617889404,
          0.25652557611465454,
          0.4010063111782074,
          0.3109816014766693,
          0.2167404145002365,
          0.06439941376447678,
          -0.08262350410223007,
          -0.043568167835474014,
          -0.010911012068390846,
          -0.0663355141878128,
          -0.009023078717291355,
          0.021155990660190582,
          0.03232734277844429,
          -0.0249117873609066,
          0.046610333025455475,
          8.647301001474261e-05,
          -0.01893315091729164,
          -0.03384973853826523,
          -0.07316780835390091,
          -0.04783168062567711,
          -0.0330011211335659,
          -0.11275990307331085,
          -0.17497923970222473,
          -0.12487675249576569,
          -0.20996145904064178,
          -0.09801127016544342,
          -0.04035359248518944,
          -0.14831998944282532,
          0.0616159625351429,
          0.18638327717781067,
          0.2524581849575043,
          0.36224156618118286,
          0.44204673171043396,
          0.11043210327625275,
          -0.04118610545992851,
          0.02493978850543499,
          -0.0952393189072609,
          -0.10713829100131989,
          -0.05770278349518776,
          0.026379002258181572,
          0.023146267980337143,
          0.014178832992911339,
          0.026694804430007935,
          -0.02289547771215439,
          0.007865961641073227,
          0.006014512851834297,
          -0.019280804321169853,
          -0.028425676748156548,
          -0.02166125550866127,
          -0.12572753429412842,
          -0.22636952996253967,
          -0.17584668099880219,
          -0.14573442935943604,
          -0.06971342116594315,
          -0.17920659482479095,
          -0.19172534346580505,
          -0.12247058004140854,
          -0.18079310655593872,
          0.03282506391406059,
          0.23632952570915222,
          0.27190858125686646,
          0.11402104794979095,
          0.05945449322462082,
          0.2025284320116043,
          0.010712472721934319,
          -0.16206446290016174,
          -0.10535432398319244,
          -0.08063184469938278,
          0.0292999017983675,
          0.030699394643306732,
          -0.008960293605923653,
          -0.04335402324795723,
          0.04260911047458649,
          0.005381867755204439,
          -0.05334354192018509,
          -0.045909855514764786,
          -0.06798700988292694,
          -0.09116673469543457,
          -0.06162462383508682,
          -0.03976651281118393,
          0.044978927820920944,
          -0.009334410540759563,
          -0.10112331062555313,
          -0.36526811122894287,
          -0.24953202903270721,
          -0.28439047932624817,
          -0.14551614224910736,
          0.06471274793148041,
          0.33101382851600647,
          0.25464728474617004,
          0.23940692842006683,
          0.18227779865264893,
          0.15020734071731567,
          0.12300530076026917,
          0.005642266478389502,
          -0.004421517252922058,
          -0.005549505352973938,
          -0.004911644849926233,
          0.022540586069226265,
          -0.0412258543074131,
          0.018007703125476837,
          -0.03538341447710991,
          -0.07637690752744675,
          -0.029759161174297333,
          0.011783113703131676,
          -0.005045892205089331,
          -0.010332804173231125,
          -0.11091494560241699,
          0.03355085104703903,
          -0.033222559839487076,
          -0.14400391280651093,
          -0.17120420932769775,
          -0.08368364721536636,
          -0.06327193230390549,
          -0.17162933945655823,
          -0.13668864965438843,
          0.253420889377594,
          0.13300150632858276,
          0.12992863357067108,
          0.23275643587112427,
          0.17673948407173157,
          0.05724868178367615,
          0.0037676726933568716,
          -0.010067420080304146,
          -0.0388973169028759,
          0.04464349523186684,
          -0.003442381275817752,
          0.04239583760499954,
          -0.044032443314790726,
          0.01717718131840229,
          -0.04175788536667824,
          -0.02180379256606102,
          -0.06813599169254303,
          0.018319163471460342,
          0.10215365141630173,
          -0.07191017270088196,
          -0.12897701561450958,
          -0.049977801740169525,
          0.07710513472557068,
          -0.19839371740818024,
          -0.2427021861076355,
          -0.3017338812351227,
          -0.5136072039604187,
          -0.3342507779598236,
          0.1494990885257721,
          0.3093111515045166,
          0.2572653591632843,
          0.18268324434757233,
          0.22609584033489227,
          -0.01112230122089386,
          -0.07686410844326019,
          -0.001228282111696899,
          0.009764683432877064,
          0.010054362006485462,
          0.034222520887851715,
          -0.039837706834077835,
          0.009869467467069626,
          -0.022233029827475548,
          0.0016308499034494162,
          -0.031198076903820038,
          0.09007521718740463,
          0.017204388976097107,
          0.0656743049621582,
          -0.118979811668396,
          -0.09093928337097168,
          -0.09234684705734253,
          -0.01954309269785881,
          -0.022171126678586006,
          -0.1495736986398697,
          -0.23243044316768646,
          -0.2675180435180664,
          -0.26300048828125,
          0.0357523187994957,
          0.2982378304004669,
          0.25564196705818176,
          0.43927207589149475,
          0.22273863852024078,
          0.001531079993583262,
          -0.0661054253578186,
          -0.06709107011556625,
          -0.020995397120714188,
          0.0466243177652359,
          -0.027208279818296432,
          0.028639115393161774,
          0.014283095486462116,
          -0.005080577917397022,
          -0.06853722035884857,
          -0.10400501638650894,
          0.09501369297504425,
          0.2106671929359436,
          0.10250180214643478,
          -0.08271638303995132,
          -0.09000325947999954,
          -0.0055091530084609985,
          0.14458970725536346,
          0.09968746453523636,
          -0.013065830804407597,
          -0.3422340750694275,
          -0.5323948264122009,
          -0.2640594244003296,
          0.1948537528514862,
          0.2795265018939972,
          0.08143363147974014,
          0.21973823010921478,
          0.2945556938648224,
          0.09381068497896194,
          0.020819159224629402,
          -0.03264402970671654,
          -0.019214117899537086,
          0.036485131829977036,
          0.023421481251716614,
          -0.02465980127453804,
          -0.06825783848762512,
          -0.01215635146945715,
          -0.03497738763689995,
          0.06032319366931915,
          0.03735421597957611,
          0.11110538989305496,
          0.08696074038743973,
          0.06700015813112259,
          0.027597345411777496,
          -0.007848051376640797,
          -0.046193305402994156,
          -0.07623526453971863,
          -0.5292723774909973,
          -0.6705197691917419,
          -0.49624285101890564,
          -0.18628235161304474,
          0.19837641716003418,
          0.017560644075274467,
          -0.06710486114025116,
          0.11813029646873474,
          0.18064425885677338,
          0.15633654594421387,
          0.029818294569849968,
          -0.048945214599370956,
          0.015561534091830254,
          -0.042360734194517136,
          -0.009903781116008759,
          0.045331165194511414,
          -0.02522922493517399,
          -0.018268674612045288,
          -0.03759579360485077,
          0.08710537850856781,
          0.06463322043418884,
          0.18345709145069122,
          0.05868573859333992,
          -0.026608934625983238,
          0.03356148675084114,
          -0.08106627315282822,
          -0.056873444467782974,
          -0.06963945180177689,
          -0.36276975274086,
          -0.4436979591846466,
          -0.12145767360925674,
          0.056625206023454666,
          0.000929000205360353,
          0.04164934530854225,
          0.005589175969362259,
          0.04347454011440277,
          0.0032041207887232304,
          0.017863254994153976,
          -0.0009693111060187221,
          0.011661595664918423,
          -0.016006335616111755,
          0.04072260856628418,
          -0.043149009346961975,
          -0.0002497714594937861,
          -0.03426054120063782,
          0.032344456762075424,
          0.07891559600830078,
          0.058347806334495544,
          0.17595359683036804,
          0.1833699643611908,
          0.18940487504005432,
          0.08503780514001846,
          -0.048996273428201675,
          -0.2510249614715576,
          -0.14733372628688812,
          -0.08703919500112534,
          -0.11049704998731613,
          0.02037806250154972,
          0.19200465083122253,
          0.058794792741537094,
          0.15493711829185486,
          0.16824711859226227,
          0.01980624720454216,
          0.002025709953159094,
          -0.036906685680150986,
          0.06614517420530319,
          0.0464225597679615,
          -0.011926038190722466,
          -0.03282838687300682,
          -0.033975183963775635,
          0.024887295439839363,
          -0.04442602023482323,
          -0.014910491183400154,
          -0.0014036409556865692,
          0.19227534532546997,
          0.26640668511390686,
          0.18864761292934418,
          0.18212124705314636,
          0.07535047829151154,
          -0.01943572238087654,
          -0.06600122153759003,
          -0.15751636028289795,
          -0.2565019130706787,
          -0.23601034283638,
          -0.0099019231274724,
          0.009805463254451752,
          -0.03177870810031891,
          -0.002101606922224164,
          0.26260343194007874,
          0.1063663512468338,
          -0.020521247759461403,
          -0.019170045852661133,
          -0.013707241974771023,
          0.0949607864022255,
          0.0017074396600946784,
          0.0415177159011364,
          -0.018114086240530014,
          -0.008219560608267784,
          0.016657037660479546,
          -0.008789450861513615,
          -0.009315296076238155,
          0.030342241749167442,
          0.2108403444290161,
          0.2529715299606323,
          0.26098182797431946,
          0.16246436536312103,
          -0.054033759981393814,
          -0.07992377132177353,
          -0.16056044399738312,
          -0.08917820453643799,
          -0.174246683716774,
          0.03370670601725578,
          0.021743206307291985,
          0.06148628890514374,
          0.05603882670402527,
          0.1620873212814331,
          0.22284938395023346,
          0.06867865473031998,
          0.07354319840669632,
          0.07138881832361221,
          0.06302420049905777,
          0.07771020382642746,
          0.008249434642493725,
          0.009262192994356155,
          0.0585336908698082,
          -0.006182566750794649,
          -0.03555372729897499,
          -0.03166072070598602,
          -0.024823732674121857,
          0.019414076581597328,
          0.16334514319896698,
          0.06615041941404343,
          0.22505052387714386,
          0.07571084052324295,
          -0.08219440281391144,
          -0.18019415438175201,
          -0.0021512259263545275,
          0.0900217667222023,
          0.24142637848854065,
          0.1859963834285736,
          0.19921593368053436,
          0.15218983590602875,
          0.06888828426599503,
          0.13221211731433868,
          0.12634098529815674,
          0.019221968948841095,
          0.13112491369247437,
          0.1616532951593399,
          0.08279093354940414,
          0.0991656482219696,
          0.027470428496599197,
          0.05982835963368416,
          -0.012070128694176674,
          -0.008958627469837666,
          -0.0059081739746034145,
          -0.03200555592775345,
          0.013779457658529282,
          0.08120464533567429,
          0.06454922258853912,
          0.03782067075371742,
          0.1662101149559021,
          0.14705663919448853,
          0.021144874393939972,
          -0.07158854603767395,
          -0.05407069995999336,
          0.08548060804605484,
          0.12208746373653412,
          0.07401513308286667,
          0.012157339602708817,
          0.0830250158905983,
          0.026962509378790855,
          0.16682903468608856,
          -0.03871484100818634,
          -0.018150199204683304,
          0.10950101166963577,
          0.21280404925346375,
          0.09865538775920868,
          0.06314899772405624,
          -0.05396590381860733,
          -0.0446055643260479,
          -0.03192298486828804,
          -0.03823685646057129,
          0.03816887363791466,
          -0.05095922574400902,
          -0.004176384769380093,
          0.02840634435415268,
          0.062276314944028854,
          0.13667698204517365,
          0.18011175096035004,
          0.1030217632651329,
          0.052006375044584274,
          0.04287436231970787,
          0.09946393966674805,
          0.12033036351203918,
          0.056572217494249344,
          -0.0026027532294392586,
          0.08237187564373016,
          0.13026686012744904,
          0.060765884816646576,
          0.022154832258820534,
          0.12808746099472046,
          -0.0812947079539299,
          0.10756081342697144,
          0.1950559765100479,
          0.07618718594312668,
          0.062345247715711594,
          0.040900278836488724,
          0.027300378307700157,
          0.025179412215948105,
          -0.020544391125440598,
          0.04390701651573181,
          0.04130765423178673,
          0.08645223081111908,
          0.03334367647767067,
          0.13180743157863617,
          0.10298661887645721,
          0.07188208401203156,
          0.004478254355490208,
          -0.014491366222500801,
          0.16071003675460815,
          0.10823030024766922,
          0.08434882760047913,
          -0.03870072215795517,
          -0.11136943846940994,
          -0.11201799660921097,
          -0.04464565962553024,
          0.018383150920271873,
          0.10978488624095917,
          0.10620378702878952,
          -0.004600212909281254,
          0.0230094026774168,
          0.11601816862821579,
          0.07460843026638031,
          0.04381832852959633,
          0.017159005627036095,
          0.003469152143225074,
          -0.022243740037083626,
          0.04289674013853073,
          -0.012509094551205635,
          0.04849635064601898,
          0.1108662337064743,
          0.1301887035369873,
          0.06278913468122482,
          0.0857645720243454,
          0.08864817023277283,
          0.199374720454216,
          0.06108086556196213,
          0.06079829856753349,
          -0.06279776245355606,
          -0.17998898029327393,
          -0.08464716374874115,
          0.00962225254625082,
          -0.10035015642642975,
          -0.027765152975916862,
          0.06374344974756241,
          -0.03907836973667145,
          0.06397010385990143,
          0.01524257380515337,
          0.01067501399666071,
          0.048695918172597885,
          0.033206138759851456,
          0.012946144677698612,
          -0.04915541782975197,
          -0.024356946349143982,
          0.03352033346891403,
          -0.03427502140402794,
          0.04090755432844162,
          0.06824977695941925,
          0.0816706120967865,
          0.11592833697795868,
          0.1393803060054779,
          0.2071801871061325,
          0.16316789388656616,
          0.104253388941288,
          0.024982957169413567,
          0.01888679713010788,
          -0.031265296041965485,
          -0.016773691400885582,
          -0.03658521920442581,
          -0.13134366273880005,
          -0.15069514513015747,
          -0.0350118987262249,
          0.07889090478420258,
          -0.011579914949834347,
          0.02518961764872074,
          -7.990545418579131e-05,
          -0.04676787182688713,
          0.09028583765029907,
          0.011591870337724686,
          0.038010500371456146,
          0.012614287436008453,
          -0.028948921710252762,
          0.038779791444540024,
          0.026446403935551643,
          -0.00788893736898899,
          0.03738464415073395,
          -0.05331224203109741,
          -0.021977795287966728,
          -0.07938582450151443,
          0.03205033391714096,
          0.1089581623673439,
          -0.017428405582904816,
          -0.09540267288684845,
          -0.04500700533390045,
          0.04308101907372475,
          -0.14091305434703827,
          -0.15961995720863342,
          -0.2066793590784073,
          -0.14248785376548767,
          -0.13097546994686127,
          -0.1409502625465393,
          -0.20643217861652374,
          -0.1569547802209854,
          -0.10265626013278961,
          -0.02708037570118904,
          -0.006914488505572081,
          -0.003268218832090497,
          -0.040535248816013336,
          -0.026653986424207687,
          -0.009488298557698727,
          0.032385509461164474,
          0.03918793052434921,
          -0.02623813785612583,
          -0.04987679049372673,
          -0.038586732000112534,
          -0.06568391621112823,
          -0.08380409330129623,
          -0.04108476638793945,
          0.0397074855864048,
          -0.018558001145720482,
          -0.058417197316884995,
          -0.06515585631132126,
          -0.02212236449122429,
          -0.0033825780265033245,
          -0.13765643537044525,
          -0.09454875439405441,
          -0.09338205307722092,
          -0.09243578463792801,
          -0.19830745458602905,
          -0.1530286967754364,
          -0.07559683173894882,
          -0.08129461109638214,
          0.005852772854268551,
          0.020456664264202118,
          0.01681486703455448,
          -0.031459223479032516,
          0.01906859315931797,
          -0.014031630009412766,
          -0.016656264662742615,
          0.034269172698259354,
          0.03444552794098854,
          0.0221116840839386,
          -0.026541106402873993,
          0.0020336455199867487,
          -0.021821046248078346,
          0.09610246121883392,
          0.1111668050289154,
          0.07492618262767792,
          -0.053389474749565125,
          0.03562280535697937,
          0.027077563107013702,
          -0.13050706684589386,
          -0.03706100210547447,
          0.03494539484381676,
          0.07153483480215073,
          0.02554425038397312,
          -0.08624885976314545,
          -0.09481749683618546,
          -0.054297637194395065,
          -0.006011823657900095,
          0.012833417393267155,
          -0.005616646725684404,
          -0.04603367671370506,
          -0.042829472571611404,
          -0.006954865530133247,
          0.035019081085920334,
          -0.017154071480035782,
          -0.006536868866533041,
          -0.03480793535709381,
          -0.010956312529742718,
          0.013575850985944271,
          0.016915375366806984,
          0.007427050732076168,
          -0.012748025357723236,
          0.006747359409928322,
          0.016847744584083557,
          -0.05163104087114334,
          -0.04153002053499222,
          -0.006928058806806803,
          0.023082049563527107,
          -0.0071623423136770725,
          -0.037823908030986786,
          -0.06640693545341492,
          -0.004324593581259251,
          -0.08233974128961563,
          -0.012547589838504791,
          -0.07143041491508484,
          0.041988879442214966,
          -0.010401596315205097,
          0.0064044538885355,
          0.013596608303487301,
          -0.011854118667542934,
          0.000995372305624187,
          0.03834759071469307,
          -0.007760203443467617,
          -0.010625025257468224,
          0.03501918539404869,
          0.01864650659263134,
          0.030811188742518425,
          -0.007064771372824907,
          -0.024569716304540634,
          -0.013303232379257679,
          0.013187670148909092,
          0.03209594637155533,
          -0.0008210339583456516,
          0.01380903460085392,
          -0.0008530218619853258,
          0.04254135489463806,
          0.021413400769233704,
          0.004286477342247963,
          -0.0036036325618624687,
          -0.017871448770165443,
          -0.02494262531399727,
          -0.04463541880249977,
          0.030211273580789566,
          0.009365717880427837,
          -0.015910761430859566,
          0.013946032151579857,
          -0.01924223266541958,
          0.021014602854847908,
          0.0440029539167881,
          0.0068808975629508495,
          0.005366770550608635
        ],
        [
          0.046193722635507584,
          -0.016634006053209305,
          0.012365961447358131,
          -0.04277602210640907,
          0.004760740790516138,
          -0.023731699213385582,
          -0.041379477828741074,
          0.0012770077446475625,
          -0.007791668176651001,
          -0.02024030312895775,
          0.00160103605594486,
          -0.04089343920350075,
          0.02265898510813713,
          0.02608790248632431,
          0.031515441834926605,
          0.02498231641948223,
          0.004831335507333279,
          0.030696909874677658,
          -0.013416029512882233,
          -0.02136087976396084,
          0.0013843289343640208,
          0.016137994825839996,
          0.026098333299160004,
          -0.044863056391477585,
          0.04189155250787735,
          0.03341987729072571,
          -0.004839389119297266,
          0.03136828541755676,
          0.011029543355107307,
          0.033306654542684555,
          0.016186198219656944,
          -0.013107775710523129,
          0.043442897498607635,
          0.032651979476213455,
          0.014100277796387672,
          -0.03277737647294998,
          -0.01755668595433235,
          -0.04635419324040413,
          -0.002995486604049802,
          0.008927395567297935,
          -0.046331796795129776,
          -0.009089469909667969,
          -0.029712125658988953,
          0.00030077784322202206,
          -0.044639576226472855,
          0.009324491955339909,
          -0.0040629408322274685,
          0.02397703006863594,
          -0.008813315071165562,
          -0.043755073100328445,
          0.03655160218477249,
          -0.0015891006914898753,
          0.027528315782546997,
          -0.01769137755036354,
          0.02309381030499935,
          0.010093720629811287,
          -0.04306116700172424,
          -0.044837117195129395,
          0.028079699724912643,
          -0.046645279973745346,
          -0.027051081880927086,
          0.010110357776284218,
          0.040706075727939606,
          0.03901936113834381,
          -0.003856716677546501,
          -0.05723036080598831,
          0.008654991164803505,
          -0.008752677589654922,
          0.04537688195705414,
          0.06637798994779587,
          -0.020690176635980606,
          0.07319550961256027,
          0.08618685603141785,
          0.048359643667936325,
          0.013357835821807384,
          -0.02796611189842224,
          0.03394291549921036,
          0.030844541266560555,
          -0.003198702586814761,
          0.037760425359010696,
          -0.00712638720870018,
          -0.028114259243011475,
          0.04606303200125694,
          0.022786470130085945,
          -0.0028623819816857576,
          0.02634272910654545,
          -0.010581402108073235,
          -0.00418569752946496,
          -0.04236366227269173,
          -0.03811459615826607,
          -0.01996302790939808,
          -0.004658075049519539,
          -0.027929071336984634,
          -0.004894477780908346,
          0.0034860847517848015,
          -0.056824538856744766,
          0.014162322506308556,
          0.0766487643122673,
          0.07086364179849625,
          0.10117539018392563,
          0.1328616589307785,
          0.007578316144645214,
          0.007808476220816374,
          0.03859755024313927,
          0.00881482008844614,
          -0.035708602517843246,
          0.010467639192938805,
          0.004971574526280165,
          -0.04525907337665558,
          0.014459674246609211,
          -0.03730229660868645,
          -0.013668680563569069,
          0.013542566448450089,
          0.042495325207710266,
          -0.04670991376042366,
          -0.0029672994278371334,
          0.02507290616631508,
          -0.005829859059303999,
          0.03723004087805748,
          0.03243926540017128,
          0.059230685234069824,
          -0.028145531192421913,
          0.019200792536139488,
          0.06396114081144333,
          0.0881507620215416,
          0.09387262910604477,
          0.034225691109895706,
          0.13456524908542633,
          0.031818635761737823,
          -0.07828602194786072,
          -0.05224910378456116,
          -0.0031102963257580996,
          0.0392860509455204,
          0.04938773438334465,
          -0.030705733224749565,
          -0.03500884771347046,
          0.012488925829529762,
          -0.03548841178417206,
          -0.044706542044878006,
          -0.014171512797474861,
          0.0004025801899842918,
          0.029826747253537178,
          0.014874855987727642,
          -0.0037095355801284313,
          0.02989991009235382,
          0.08185102045536041,
          0.0519883967936039,
          0.018045324832201004,
          0.05403835326433182,
          -0.022844841703772545,
          -0.0803404152393341,
          -0.0786333680152893,
          -0.06145387142896652,
          0.015586919151246548,
          -0.011798077262938023,
          -0.14241768419742584,
          -0.08632051944732666,
          -0.030700888484716415,
          -0.050725795328617096,
          0.04553135111927986,
          0.021171366795897484,
          -0.016716497018933296,
          -0.007653580512851477,
          0.059311266988515854,
          -0.01658543013036251,
          -0.0208501685410738,
          0.02899111434817314,
          -0.04433324560523033,
          -0.017377372831106186,
          -0.031596165150403976,
          0.014107328839600086,
          -0.037290964275598526,
          -0.0017766992095857859,
          0.030817614868283272,
          0.026686811819672585,
          0.034762073308229446,
          0.024379489943385124,
          -0.12567922472953796,
          -0.0652519017457962,
          -0.031057016924023628,
          -0.08345901221036911,
          -0.04428291320800781,
          -0.07306873053312302,
          -0.14418581128120422,
          -0.15241055190563202,
          0.0013607180444523692,
          -0.04963519796729088,
          0.04237191751599312,
          0.10400037467479706,
          0.09517131000757217,
          -0.010007310658693314,
          0.04225747287273407,
          0.03565756604075432,
          0.07776448875665665,
          0.0440477691590786,
          -0.0050774007104337215,
          0.00786122027784586,
          0.021643400192260742,
          -0.018795907497406006,
          -0.03178231790661812,
          0.04818787798285484,
          -0.03801265358924866,
          0.08799681067466736,
          0.0019461459014564753,
          -0.12080615013837814,
          0.004179948940873146,
          0.12561509013175964,
          -0.02838020958006382,
          0.005064358934760094,
          -0.06458479911088943,
          -0.08106115460395813,
          -0.055716969072818756,
          0.00305135827511549,
          -0.06797266006469727,
          -0.002439793897792697,
          -0.02180391736328602,
          0.15113498270511627,
          0.11857541650533676,
          -0.026676105335354805,
          0.04489777609705925,
          0.02501353621482849,
          0.013121494092047215,
          0.01821122318506241,
          -0.04326850175857544,
          0.03455592691898346,
          0.012148707173764706,
          -0.027500763535499573,
          0.0034548239782452583,
          -0.02994620054960251,
          0.013218357227742672,
          0.06158687546849251,
          0.03331000357866287,
          -0.0722738653421402,
          0.08220440149307251,
          0.11739865690469742,
          0.08070303499698639,
          0.24803762137889862,
          0.05365823954343796,
          0.03549150750041008,
          0.0723646730184555,
          -0.06623532623052597,
          -0.11514745652675629,
          0.06426213681697845,
          0.0270475335419178,
          0.09765717387199402,
          -0.017140844836831093,
          0.055503979325294495,
          -0.004025771748274565,
          0.0367252416908741,
          0.027220413088798523,
          -0.007058735471218824,
          0.04213114082813263,
          0.024673830717802048,
          0.04261665791273117,
          -0.047017354518175125,
          0.013952754437923431,
          0.002848681528121233,
          -0.02809581160545349,
          -0.005624045617878437,
          0.025625577196478844,
          -0.023460017517209053,
          0.12408038973808289,
          0.18685536086559296,
          0.19734816253185272,
          0.08719010651111603,
          -0.0010018966859206557,
          0.12496865540742874,
          0.07718668133020401,
          -0.1978902369737625,
          -0.09569016844034195,
          0.04952254891395569,
          -0.0007028335239738226,
          0.05446649342775345,
          0.0044862753711640835,
          0.06023499742150307,
          0.05522353574633598,
          0.08876046538352966,
          0.05380644649267197,
          -0.015100114047527313,
          -0.0030859250109642744,
          -0.035887669771909714,
          -0.011369669809937477,
          -0.009269309230148792,
          -0.0013504034141078591,
          0.03399026021361351,
          -0.011406278237700462,
          -0.017101194709539413,
          -0.1044149324297905,
          0.03224547579884529,
          0.034672047942876816,
          0.02698685973882675,
          0.11833442002534866,
          0.006272313185036182,
          0.05260908603668213,
          -0.05854179710149765,
          -0.08193150907754898,
          -0.28877925872802734,
          -0.14414575695991516,
          0.08488082885742188,
          0.06354402750730515,
          0.0694960430264473,
          0.0886290967464447,
          0.05955903232097626,
          -0.029778925701975822,
          0.06232765316963196,
          0.014308786019682884,
          0.012314226478338242,
          -0.04002843052148819,
          -0.021187812089920044,
          0.01675126887857914,
          -0.002867465140298009,
          0.033148448914289474,
          0.035820066928863525,
          0.050597742199897766,
          -0.031560346484184265,
          -0.02956758439540863,
          -0.1474088579416275,
          -0.10748249292373657,
          -0.1488105207681656,
          -0.08407262712717056,
          -0.10232050716876984,
          -0.13971436023712158,
          -0.12919536232948303,
          -0.3046688735485077,
          -0.3142806887626648,
          -0.1835731714963913,
          -0.02933003380894661,
          -0.06727384030818939,
          0.04170573502779007,
          0.047982122749090195,
          -0.0017938186647370458,
          -0.012956918217241764,
          -0.0015636193566024303,
          -0.03888100013136864,
          0.033726174384355545,
          -0.0175633542239666,
          -0.027183150872588158,
          -0.03878778964281082,
          0.04034414142370224,
          -0.014669748954474926,
          0.009855708107352257,
          -0.028714580461382866,
          0.012681147083640099,
          -0.04260480776429176,
          -0.003638084512203932,
          0.052543528378009796,
          -0.03705257549881935,
          0.0018680109642446041,
          0.0034713526256382465,
          -0.0968908816576004,
          -0.12029674649238586,
          -0.14771121740341187,
          -0.29797518253326416,
          -0.22324557602405548,
          -0.07060858607292175,
          -0.14960089325904846,
          -0.07233605533838272,
          -0.08208165317773819,
          -0.05761721730232239,
          -0.07093651592731476,
          -0.024302052333950996,
          0.017028411850333214,
          0.004104122519493103,
          0.004498302470892668,
          -0.020479394122958183,
          -0.035432495176792145,
          0.04148906469345093,
          0.007622613105922937,
          0.008255821652710438,
          0.021730860695242882,
          0.055873021483421326,
          -0.02007698081433773,
          -0.002606382593512535,
          -0.028031153604388237,
          -0.026662465184926987,
          -0.10878785699605942,
          -0.08326014876365662,
          -0.18479973077774048,
          -0.0439351461827755,
          -0.009292202070355415,
          -0.2334560751914978,
          -0.14807860553264618,
          -0.11019780486822128,
          -0.14146758615970612,
          -0.10848277807235718,
          -0.0033467751927673817,
          -0.04661865904927254,
          -0.03456180542707443,
          0.05653192475438118,
          4.804482523468323e-05,
          -0.008945588022470474,
          -0.01193296443670988,
          -0.02948603965342045,
          0.01750129833817482,
          0.024512017145752907,
          -0.004404655657708645,
          -0.005966076161712408,
          0.038069408386945724,
          -0.004367867950350046,
          -0.004447395447641611,
          0.01564103178679943,
          -0.03058219701051712,
          -0.179085835814476,
          -0.21273984014987946,
          -0.01682092435657978,
          0.029448794201016426,
          0.15694546699523926,
          0.13853336870670319,
          -0.1392529308795929,
          -0.1478479653596878,
          -0.06825108081102371,
          -0.15749354660511017,
          -0.10324861109256744,
          -0.04547305777668953,
          0.014006378129124641,
          0.05953650921583176,
          0.03080570511519909,
          0.03289729356765747,
          -0.034936949610710144,
          -0.003493267809972167,
          -0.040454111993312836,
          0.0030641723424196243,
          -0.037546008825302124,
          -0.00621207058429718,
          -0.048856496810913086,
          -0.01889488473534584,
          -0.04517130181193352,
          -0.006400229874998331,
          0.01601899228990078,
          -0.013066760264337063,
          -0.15402455627918243,
          -0.16946996748447418,
          -0.09332409501075745,
          0.061823051422834396,
          0.20449770987033844,
          0.11219240725040436,
          -0.03817242011427879,
          -0.10007694363594055,
          -0.09292502701282501,
          -0.1834980547428131,
          -0.11122997850179672,
          -0.008088372647762299,
          0.024278659373521805,
          0.053885139524936676,
          0.040952954441308975,
          0.02884041517972946,
          0.014241346158087254,
          -0.009930409491062164,
          -0.043874237686395645,
          0.012576614506542683,
          0.030080541968345642,
          -0.0428498238325119,
          -0.03849393129348755,
          -0.023876262828707695,
          -0.014302448369562626,
          -0.09682215750217438,
          0.016540924087166786,
          -0.00888792797923088,
          -0.11368849128484726,
          -0.11781375855207443,
          -0.17075707018375397,
          -0.10908979922533035,
          0.157585009932518,
          0.09934718906879425,
          -0.05964816361665726,
          0.0057862987741827965,
          -0.032108619809150696,
          -0.1483917385339737,
          -0.14067234098911285,
          -0.06365285068750381,
          -0.027226684615015984,
          0.0006364406435750425,
          0.028387097641825676,
          -0.033182982355356216,
          0.01989835873246193,
          0.03484540805220604,
          0.029172413051128387,
          -0.02423112466931343,
          -0.00019294618687126786,
          -0.024432657286524773,
          0.013249595649540424,
          -0.03370239585638046,
          -0.048497274518013,
          -0.1002471074461937,
          -0.04100637882947922,
          -0.05574065446853638,
          -0.08583678305149078,
          -0.22012357413768768,
          -0.29162007570266724,
          -0.1913265734910965,
          0.08143767714500427,
          0.11145585775375366,
          -0.004456376191228628,
          0.05356947332620621,
          -0.0049704285338521,
          -0.17202140390872955,
          -0.2252078503370285,
          -0.12833184003829956,
          -0.021645307540893555,
          -0.005884567275643349,
          -0.02618255652487278,
          -0.022452788427472115,
          0.03955651447176933,
          0.04041804373264313,
          0.043399084359407425,
          -0.0051646362990140915,
          -0.030681679025292397,
          0.02785348892211914,
          0.033271871507167816,
          -0.008426696062088013,
          -0.025602351874113083,
          0.029256269335746765,
          -0.00703476183116436,
          -0.11944852024316788,
          -0.23447978496551514,
          -0.3675011396408081,
          -0.42950567603111267,
          -0.24561189115047455,
          -0.016612285748124123,
          0.10118512064218521,
          0.0544247105717659,
          0.02159738913178444,
          0.023342905566096306,
          -0.13586364686489105,
          -0.05033256113529205,
          0.08674277365207672,
          0.10943431407213211,
          -0.0466172955930233,
          -0.05533885583281517,
          0.018916688859462738,
          0.03136952221393585,
          0.016518138349056244,
          0.002190245082601905,
          -0.01208526361733675,
          -0.04706541821360588,
          0.033657804131507874,
          0.011940577067434788,
          -0.045754674822092056,
          -0.014249669387936592,
          0.041787710040807724,
          0.08484654128551483,
          -0.11903068423271179,
          -0.19475728273391724,
          -0.24252097308635712,
          -0.2887707054615021,
          -0.22163385152816772,
          0.08547898381948471,
          0.18736201524734497,
          0.18185608088970184,
          0.06516281515359879,
          0.012992823496460915,
          -0.014047732576727867,
          0.08512508869171143,
          0.040645163506269455,
          0.08740197867155075,
          0.010138588957488537,
          -0.025556666776537895,
          0.043595023453235626,
          -0.027569133788347244,
          -0.01174138579517603,
          -0.011201133020222187,
          0.02637656219303608,
          -0.011305196210741997,
          -0.036360003054142,
          0.06226713955402374,
          0.038814567029476166,
          0.08135262131690979,
          0.09537728130817413,
          0.06022798642516136,
          0.07393283396959305,
          -0.034758131951093674,
          -0.04242624342441559,
          -0.03859516233205795,
          -0.08926385641098022,
          0.06927412003278732,
          0.09674040973186493,
          0.15499547123908997,
          0.17603807151317596,
          0.2263522893190384,
          0.17088943719863892,
          0.1218787282705307,
          -0.001695477170869708,
          0.10095493495464325,
          0.060749802738428116,
          0.07063945382833481,
          0.04446399211883545,
          -0.003410607809200883,
          0.016171609982848167,
          -0.0253912340849638,
          0.022822828963398933,
          0.04356416314840317,
          -0.02882729284465313,
          0.058540116995573044,
          0.08691258728504181,
          0.12749387323856354,
          0.14313849806785583,
          0.1875101774930954,
          0.12674126029014587,
          0.1186167448759079,
          0.07727668434381485,
          0.22245630621910095,
          0.131996288895607,
          0.1159042939543724,
          0.26607879996299744,
          0.21846240758895874,
          0.1514115333557129,
          0.30347228050231934,
          0.09657955914735794,
          0.0604354590177536,
          -0.002254362218081951,
          -0.008542017079889774,
          0.04702119901776314,
          0.03475441783666611,
          0.042651619762182236,
          -0.03120085410773754,
          -0.021674655377864838,
          0.034818198531866074,
          -0.035929884761571884,
          -0.02027958631515503,
          -0.031206462532281876,
          0.04262689873576164,
          0.03138235956430435,
          0.17518000304698944,
          0.11431884765625,
          0.18532375991344452,
          0.20360159873962402,
          0.1255483627319336,
          0.1612928807735443,
          0.1321972906589508,
          0.09377667307853699,
          0.06186473369598389,
          0.2240351438522339,
          0.015434655360877514,
          0.11662607640028,
          0.06257811933755875,
          0.0023489524610340595,
          0.1260201781988144,
          0.05503576993942261,
          -0.0011256758589297533,
          -0.06342479586601257,
          0.011063908226788044,
          -0.026227030903100967,
          -0.028022760525345802,
          0.01865966059267521,
          -0.0005264198989607394,
          0.037217263132333755,
          -0.022420262917876244,
          0.021146856248378754,
          -0.02071991004049778,
          -0.028078779578208923,
          0.07112905383110046,
          0.07853551208972931,
          0.11699043214321136,
          0.13237163424491882,
          0.15977583825588226,
          -0.001052549690939486,
          0.013421900570392609,
          0.08457928895950317,
          0.05013295263051987,
          -0.10581419616937637,
          -0.08370251953601837,
          -0.06986192613840103,
          -0.0566873736679554,
          0.026024501770734787,
          0.06486279517412186,
          -0.0078070806339383125,
          -0.05456635728478432,
          -0.04114686697721481,
          0.02810070849955082,
          0.02514006942510605,
          0.0027766963467001915,
          0.00933317095041275,
          -0.04284478724002838,
          -0.03181248903274536,
          0.02009364403784275,
          0.027188293635845184,
          0.007257759105414152,
          -0.03952470421791077,
          -0.0003379503032192588,
          0.016387062147259712,
          -0.027179857715964317,
          0.039029546082019806,
          0.08372100442647934,
          0.04643593356013298,
          0.012540931813418865,
          0.013015863485634327,
          -0.06809114664793015,
          -0.13561315834522247,
          -0.14298078417778015,
          -0.09128241240978241,
          0.01995452493429184,
          -0.04755483567714691,
          0.012585194781422615,
          0.06821319460868835,
          -0.016011232510209084,
          -0.035916779190301895,
          -0.04361610487103462,
          -0.0036888914182782173,
          -0.017831215634942055,
          -0.018757104873657227,
          -0.011576732620596886,
          -0.014369155280292034,
          0.04006288945674896,
          -0.01710197702050209,
          -0.004667912144213915,
          -0.02960405871272087,
          -0.05011027678847313,
          -0.013850179500877857,
          -0.059044793248176575,
          0.019547559320926666,
          0.033620454370975494,
          0.04664865881204605,
          0.10931302607059479,
          0.09405443072319031,
          0.019424574449658394,
          -0.07256722450256348,
          -0.09801758080720901,
          -0.03805287927389145,
          -0.01413456629961729,
          0.015084152109920979,
          0.026808056980371475,
          0.031224217265844345,
          0.046785660088062286,
          -0.034549836069345474,
          0.04511573910713196,
          -0.03257318213582039,
          0.008466140367090702,
          -0.04580729454755783,
          0.0035625193268060684,
          0.01758274808526039,
          0.009737472049891949,
          0.04384341835975647,
          -0.040587615221738815,
          0.011358210816979408,
          0.012373137287795544,
          -0.017212504521012306,
          0.006189633160829544,
          0.0005737106548622251,
          -0.003938291221857071,
          0.0032318916637450457,
          -0.008122404105961323,
          0.04305826127529144,
          -0.050016872584819794,
          -0.04978162795305252,
          0.007991044782102108,
          -0.004382429178804159,
          -0.02471465803682804,
          0.00423859478905797,
          0.04158082231879234,
          0.028835691511631012,
          0.005324906203895807,
          0.01124346349388361,
          0.046047911047935486,
          -0.01922404207289219,
          -0.03451590612530708,
          0.04547996446490288,
          0.04621225968003273,
          0.0034188092686235905,
          -0.04406752437353134,
          0.03764556348323822,
          -0.029030224308371544,
          0.024124732241034508,
          0.03464747592806816,
          -0.03717559576034546,
          -0.003208661451935768,
          -0.011781631968915462,
          -0.010099894367158413,
          0.039791159331798553,
          0.01275157555937767,
          0.011038046330213547,
          -0.03145824000239372,
          -0.019969291985034943,
          0.02739061415195465,
          0.018215248361229897,
          0.04085893929004669,
          -0.011699840426445007,
          0.021914951503276825,
          0.019497545436024666,
          0.01991892233490944,
          -0.0379936620593071,
          -0.008224070072174072,
          -0.017850570380687714,
          0.03696339577436447,
          -0.0133659103885293
        ],
        [
          0.019853228703141212,
          -0.018212564289569855,
          0.02101612649857998,
          -0.04504614695906639,
          0.02410748414695263,
          -0.01167366560548544,
          0.037979595363140106,
          -0.035717278718948364,
          -0.0461893156170845,
          0.03912617266178131,
          0.04089711979031563,
          -0.009307542815804482,
          0.0015813561622053385,
          0.02652454562485218,
          -0.0007233268115669489,
          -0.041893135756254196,
          -0.031283214688301086,
          0.016279438510537148,
          -0.026906680315732956,
          0.032144952565431595,
          -0.009243478067219257,
          -0.020225264132022858,
          -0.019676219671964645,
          0.02527051977813244,
          0.015677882358431816,
          0.014837080612778664,
          -0.043948736041784286,
          -0.009528270922601223,
          -0.0362754724919796,
          0.03986477479338646,
          -0.029508667066693306,
          0.02324696071445942,
          -0.004224263597279787,
          -0.031371284276247025,
          -0.010331687517464161,
          -0.005727827548980713,
          -0.026711612939834595,
          0.036690112203359604,
          -0.04136284440755844,
          -0.027724431827664375,
          -0.0022178227081894875,
          0.005498137325048447,
          -0.04020846635103226,
          0.04549966752529144,
          -0.03683972731232643,
          -0.046604663133621216,
          0.028253214433789253,
          -0.021543661132454872,
          0.04015912860631943,
          -0.00479468610137701,
          -0.038788970559835434,
          0.029452836140990257,
          -0.035084318369627,
          -0.03619912639260292,
          -0.0268818698823452,
          -0.007733282633125782,
          0.014183410443365574,
          0.009081334806978703,
          -0.011132127605378628,
          -0.04447837918996811,
          0.0400455966591835,
          5.913974382565357e-05,
          -0.010722224600613117,
          -0.030073383823037148,
          0.0004199061659164727,
          -0.004989286884665489,
          -0.035408806055784225,
          0.019525641575455666,
          -0.018822111189365387,
          -0.03739302605390549,
          0.01733342744410038,
          -0.015179307200014591,
          0.026121584698557854,
          -0.0065034059807658195,
          -0.04281477630138397,
          0.005867915228009224,
          -0.025790654122829437,
          0.01978302001953125,
          0.03276355564594269,
          -0.03850337117910385,
          -0.022772056981921196,
          0.04361078888177872,
          -0.009768945164978504,
          0.03885239362716675,
          0.029617514461278915,
          0.0030208188109099865,
          -0.037461843341588974,
          -0.03373250737786293,
          0.026505785062909126,
          -0.041480693966150284,
          -0.04204120859503746,
          -0.01513094175606966,
          -0.04780673235654831,
          0.032510627061128616,
          -0.011356228031218052,
          -0.0005611471133306623,
          -0.01134352758526802,
          -0.011423670686781406,
          -0.015254968777298927,
          -0.03387683629989624,
          -0.10744118690490723,
          -0.05933671444654465,
          -0.02311268448829651,
          0.028793707489967346,
          0.011531047523021698,
          0.032345179468393326,
          -0.0006229783175513148,
          0.027537578716874123,
          0.010245675221085548,
          -0.019167445600032806,
          -0.030766967684030533,
          -0.01761012151837349,
          0.02265029028058052,
          0.021432634443044662,
          -0.016567787155508995,
          0.03327431157231331,
          -0.017663387581706047,
          -0.0348709337413311,
          0.023880014196038246,
          0.04669777303934097,
          0.026662610471248627,
          0.036668576300144196,
          -0.019580582156777382,
          -0.0074141304939985275,
          -0.025055285543203354,
          -0.08543433994054794,
          -0.02482997067272663,
          -0.06469666957855225,
          -0.11330652236938477,
          -0.10940543562173843,
          0.06894204020500183,
          0.06075500696897507,
          0.043892305344343185,
          0.04635517671704292,
          0.037431277334690094,
          0.04580813646316528,
          0.03493746742606163,
          -0.009537102654576302,
          0.016134323552250862,
          0.03027011826634407,
          -0.0148305743932724,
          -0.04513130336999893,
          -0.029346218332648277,
          -0.009517332538962364,
          0.0446716845035553,
          0.0339413546025753,
          0.09657961130142212,
          0.08422663807868958,
          0.05703835189342499,
          -0.09500851482152939,
          -0.10670439153909683,
          -0.07167593389749527,
          0.0737803503870964,
          0.05168865621089935,
          -0.07933177053928375,
          -0.14343097805976868,
          -0.031094051897525787,
          -0.02791140414774418,
          0.0191489364951849,
          0.18458470702171326,
          0.07236696779727936,
          0.1679062694311142,
          0.14242859184741974,
          0.08799276500940323,
          0.07800637185573578,
          0.04559718444943428,
          0.020870782434940338,
          0.03129937872290611,
          0.03470025211572647,
          0.009829848073422909,
          -0.029158303514122963,
          0.028567465022206306,
          0.05798373743891716,
          0.07262108474969864,
          0.11156357824802399,
          0.02924753539264202,
          -0.03753439337015152,
          -0.047498688101768494,
          -0.03525453060865402,
          -0.036040566861629486,
          0.11363158375024796,
          -0.006574667990207672,
          -0.23566855490207672,
          -0.24216328561306,
          -0.20923037827014923,
          -0.17211215198040009,
          -0.10803741216659546,
          0.09946530312299728,
          0.09442247450351715,
          0.11107625812292099,
          0.12827715277671814,
          0.2025984525680542,
          0.004832520615309477,
          0.004893780220299959,
          -0.024372776970267296,
          -0.015764812007546425,
          0.027035515755414963,
          0.03495665639638901,
          -0.001942467875778675,
          -0.0023114110808819532,
          0.040107447654008865,
          0.021188106387853622,
          0.08404278755187988,
          0.14378492534160614,
          0.10944122076034546,
          -0.032703157514333725,
          0.004409921821206808,
          -0.02661329321563244,
          0.05155419185757637,
          -0.038679610937833786,
          -0.12799109518527985,
          -0.42309141159057617,
          -0.3566949963569641,
          -0.1535748690366745,
          0.09463822841644287,
          0.013149825856089592,
          0.09082009643316269,
          0.17522837221622467,
          0.1006622314453125,
          0.09955113381147385,
          0.04743686318397522,
          -0.04798172414302826,
          0.03064906783401966,
          0.007539309561252594,
          0.018866639584302902,
          -0.00954738911241293,
          0.01344605814665556,
          0.007477602455765009,
          0.026950793340802193,
          0.005759456194937229,
          0.030988750979304314,
          0.19690430164337158,
          0.0169575996696949,
          -0.002869210671633482,
          -0.07179637998342514,
          -0.0369776152074337,
          0.12638160586357117,
          0.025650637224316597,
          -0.2549486458301544,
          -0.33478862047195435,
          -0.25281286239624023,
          -0.06053239852190018,
          0.034915681928396225,
          0.026901911944150925,
          0.23823948204517365,
          0.2319646179676056,
          0.1905500292778015,
          -0.01199993584305048,
          -0.09006877988576889,
          0.022999770939350128,
          -0.010126269422471523,
          -0.030475789681077003,
          -0.0317961648106575,
          0.04594078287482262,
          0.0037000570446252823,
          0.0044443910010159016,
          0.03221935033798218,
          0.13383834064006805,
          0.10401669144630432,
          0.09358199685811996,
          0.21319927275180817,
          0.04142233356833458,
          -0.05713306739926338,
          0.14669454097747803,
          0.18701855838298798,
          0.006052123848348856,
          -0.24372152984142303,
          -0.3938196003437042,
          -0.17394115030765533,
          0.00037267192965373397,
          0.03014426864683628,
          0.15829171240329742,
          0.30310964584350586,
          0.18061916530132294,
          0.06086202338337898,
          0.11750024557113647,
          -0.008218379691243172,
          0.062362782657146454,
          0.06017502769827843,
          -0.05244452506303787,
          0.01892729662358761,
          0.04151376336812973,
          0.013780275359749794,
          0.06377959996461868,
          0.12062738835811615,
          0.10612251609563828,
          0.09150956571102142,
          0.09007487446069717,
          0.21405130624771118,
          -0.06256289035081863,
          0.13413450121879578,
          0.2946932315826416,
          0.23520821332931519,
          0.014654586091637611,
          -0.17689956724643707,
          -0.20320755243301392,
          -0.1179642379283905,
          0.00917679350823164,
          0.22453932464122772,
          0.17058658599853516,
          0.23426955938339233,
          0.049320120364427567,
          -0.014952489174902439,
          -0.0005961349233984947,
          -0.03881772235035896,
          0.0032178040128201246,
          -0.0016627084696665406,
          0.0394468791782856,
          0.01189914159476757,
          0.032887041568756104,
          0.047950923442840576,
          0.08338838815689087,
          0.09690598398447037,
          0.07954832166433334,
          0.06328115612268448,
          0.05502225458621979,
          0.03073881007730961,
          -0.018060537055134773,
          0.07563275098800659,
          0.18804152309894562,
          -0.08590038865804672,
          -0.15227656066417694,
          -0.050554074347019196,
          0.03916008770465851,
          -0.08638698607683182,
          0.07951440662145615,
          0.1989353895187378,
          0.13634182512760162,
          0.10266122221946716,
          -0.0478263795375824,
          -0.021791033446788788,
          -0.04621821641921997,
          -0.03683475777506828,
          0.046600889414548874,
          -0.03157639130949974,
          -0.0394742526113987,
          0.019480453804135323,
          0.021575026214122772,
          0.051551688462495804,
          0.07379913330078125,
          0.03657763823866844,
          0.11544009298086166,
          -0.04977888613939285,
          -0.012329054065048695,
          -0.08773645758628845,
          -0.12480559200048447,
          -0.1697538048028946,
          -0.1430397927761078,
          -0.035233065485954285,
          0.01776575669646263,
          0.03421671316027641,
          0.0548085980117321,
          0.027244824916124344,
          0.08404316008090973,
          -0.007620461285114288,
          0.0011279903119429946,
          -0.03837283328175545,
          0.027733508497476578,
          0.030488774180412292,
          0.03477777913212776,
          0.010860110633075237,
          0.005933178123086691,
          -0.0014404782559722662,
          -0.03556389361619949,
          0.02910655364394188,
          0.033864185214042664,
          0.0027320911176502705,
          0.028849298134446144,
          -0.00621974840760231,
          -0.028309769928455353,
          -0.08950958400964737,
          -0.17308218777179718,
          -0.01908201165497303,
          -0.01228292752057314,
          -0.30336934328079224,
          -0.14321033656597137,
          0.059417035430669785,
          0.16759814321994781,
          -0.01128527894616127,
          -0.030336203053593636,
          -0.03722149506211281,
          -0.0021495609544217587,
          0.08291640877723694,
          -0.1193547248840332,
          -0.06541349738836288,
          -0.053323183208703995,
          -0.056786131113767624,
          -0.013708892278373241,
          -0.0036442778073251247,
          0.05191461369395256,
          -0.02640964277088642,
          0.04556741565465927,
          -0.013421366922557354,
          0.018118083477020264,
          -0.03744262084364891,
          -0.04232192412018776,
          -0.08178981393575668,
          -0.07768259942531586,
          -0.1825740933418274,
          -0.28344789147377014,
          -0.22874198853969574,
          -0.11971940845251083,
          -0.029915612190961838,
          0.017651241272687912,
          0.25637298822402954,
          0.37364381551742554,
          0.11663703620433807,
          0.045895323157310486,
          0.07187660783529282,
          0.10351970791816711,
          -0.07727609574794769,
          0.03571031615138054,
          -0.07003773748874664,
          -0.15063253045082092,
          -0.17522260546684265,
          -0.05646709352731705,
          0.007902762852609158,
          0.011160768568515778,
          0.03330269455909729,
          0.01755804941058159,
          -0.0030221054330468178,
          0.025894207879900932,
          0.030716780573129654,
          -0.08731535822153091,
          -0.07221661508083344,
          -0.08216657489538193,
          -0.188618466258049,
          -0.1369471400976181,
          -0.142074316740036,
          -0.1719493716955185,
          0.03734366223216057,
          0.14413662254810333,
          0.15617480874061584,
          0.20322173833847046,
          0.1562153398990631,
          0.10269562900066376,
          0.19742415845394135,
          -0.01806662790477276,
          0.02060413546860218,
          0.15269899368286133,
          0.058379292488098145,
          -0.07593132555484772,
          -0.061046529561281204,
          -0.02821020409464836,
          0.019253985956311226,
          0.02279232256114483,
          -0.027572618797421455,
          0.03573938459157944,
          -0.018599065020680428,
          0.01652044989168644,
          0.05254507437348366,
          0.013801640830934048,
          -0.07924024015665054,
          -0.13309168815612793,
          -0.16897068917751312,
          -0.14951759576797485,
          -0.14057806134223938,
          -0.13123776018619537,
          -0.022805124521255493,
          -0.0036588420625776052,
          0.1068362221121788,
          0.11707930266857147,
          0.05947339907288551,
          0.03835899010300636,
          0.04812813177704811,
          0.05100800469517708,
          0.1984499841928482,
          0.1517498791217804,
          -0.05694138631224632,
          0.01373650785535574,
          -0.01472805067896843,
          -0.06729153543710709,
          -0.028695907443761826,
          0.01300683431327343,
          -0.014737717807292938,
          0.02857346087694168,
          0.020006291568279266,
          0.010951687581837177,
          0.017366323620080948,
          0.04022958129644394,
          0.01989567093551159,
          -0.04457183554768562,
          -0.07370208948850632,
          -0.06301518529653549,
          -0.08156494051218033,
          -0.12467100471258163,
          -0.10524050891399384,
          0.00903461966663599,
          0.08381758630275726,
          0.17557454109191895,
          0.13076479732990265,
          -0.0876970887184143,
          0.06138148903846741,
          0.07462958991527557,
          0.07025007158517838,
          0.19101843237876892,
          -0.09713480621576309,
          0.06422778964042664,
          -0.04720635339617729,
          -0.028549307957291603,
          0.024789247661828995,
          0.023142704740166664,
          0.015956677496433258,
          -0.0016601410461589694,
          -0.032983582466840744,
          0.03123546950519085,
          -0.0011530431220307946,
          0.010877805761992931,
          0.007552881725132465,
          0.006274490617215633,
          -0.060733288526535034,
          -0.09860465675592422,
          -0.03484838828444481,
          0.07587667554616928,
          0.05661863088607788,
          0.14411935210227966,
          0.1292218267917633,
          0.15988251566886902,
          -0.059101492166519165,
          -0.11882119625806808,
          -0.09582722932100296,
          -0.0909482017159462,
          0.06667743623256683,
          0.02409852296113968,
          -0.042776234447956085,
          -0.12650993466377258,
          -0.027517011389136314,
          -0.074987031519413,
          0.013347516767680645,
          0.021087078377604485,
          0.03513748198747635,
          0.03333252668380737,
          0.030716808512806892,
          -0.02521868795156479,
          -0.016916897147893906,
          -0.02891409583389759,
          0.07445293664932251,
          0.04664033651351929,
          0.032741136848926544,
          0.014117637649178505,
          0.062013860791921616,
          0.09691860526800156,
          0.06094380468130112,
          0.0187859944999218,
          0.009371036663651466,
          0.13381873071193695,
          -0.011600984260439873,
          0.018559906631708145,
          -0.020694879814982414,
          -0.04755328595638275,
          -0.10691619664430618,
          0.020585961639881134,
          -0.12542083859443665,
          -0.08860170096158981,
          -0.03423503413796425,
          -0.00927395187318325,
          0.006419409066438675,
          -0.025148101150989532,
          0.01187197770923376,
          0.03908818960189819,
          0.00631376588717103,
          -0.020426718518137932,
          -0.023105723783373833,
          -0.031365178525447845,
          0.09506688266992569,
          0.04353735223412514,
          0.1303909420967102,
          0.2099694311618805,
          0.039115261286497116,
          -0.11672783643007278,
          -0.05302845314145088,
          0.01773837022483349,
          -0.11495276540517807,
          -0.1394822746515274,
          -0.0355977825820446,
          0.030484171584248543,
          -0.02838577888906002,
          -0.08106328547000885,
          -0.09902340173721313,
          -0.0986330509185791,
          -0.053181812167167664,
          0.023824818432331085,
          0.02599375694990158,
          0.03065105713903904,
          -0.05021693557500839,
          0.014796540141105652,
          -0.03643309697508812,
          0.03025229647755623,
          -0.021303430199623108,
          0.01800675131380558,
          -0.007557544857263565,
          0.0247334074229002,
          0.09426706284284592,
          0.0003898978466168046,
          0.18258479237556458,
          0.19371238350868225,
          0.07258101552724838,
          -0.03989500552415848,
          -0.059613317251205444,
          -0.01572597213089466,
          -0.07864385843276978,
          -0.06069774553179741,
          -0.07701433449983597,
          -0.093449167907238,
          -0.14452289044857025,
          -0.17038650810718536,
          -0.13354121148586273,
          -0.07756857573986053,
          -0.020227700471878052,
          0.058972686529159546,
          0.10978268086910248,
          -0.0060944389551877975,
          -0.015702204778790474,
          -0.032504577189683914,
          -0.0012700059451162815,
          -0.0019395917188376188,
          -0.041762810200452805,
          0.023494796827435493,
          -0.04333572834730148,
          -0.028657298535108566,
          0.043892811983823776,
          0.05976618453860283,
          -0.009288758970797062,
          0.053497735410928726,
          0.09141518175601959,
          0.055212367326021194,
          -0.04710840433835983,
          0.028770873323082924,
          -0.07290437817573547,
          0.010854325257241726,
          -0.11243364214897156,
          -0.08907818049192429,
          -0.0312040988355875,
          0.057813167572021484,
          0.03463800624012947,
          0.048000987619161606,
          0.040737658739089966,
          0.1580825001001358,
          0.12520408630371094,
          -0.0007597816293127835,
          0.011652542278170586,
          -0.0229985062032938,
          -0.022012174129486084,
          0.014287554658949375,
          0.027176830917596817,
          -0.0065245735459029675,
          -0.00621016975492239,
          0.05405344069004059,
          0.0436510369181633,
          -0.03254641965031624,
          -0.12511862814426422,
          -0.030218573287129402,
          -0.0007186078000813723,
          0.15795545279979706,
          0.08605773746967316,
          0.1859852373600006,
          0.10603466629981995,
          0.15425825119018555,
          0.00039723972440697253,
          0.09356635063886642,
          0.1863347887992859,
          0.14944592118263245,
          -0.0039758398197591305,
          0.03893894702196121,
