{
  "layers": [
    {
      "biases": [
        -0.03960905224084854,
        0.09043694287538528,
        0.27410832047462463,
        0.12558560073375702,
        0.01982889324426651,
        0.1384803205728531,
        0.16476017236709595,
        -0.03798570856451988,
        0.04803675040602684,
        -0.026852745562791824,
        0.020493853837251663,
        0.29540956020355225,
        0.018517915159463882,
        -0.0776689201593399,
        0.005361511372029781,
        0.013503959402441978,
        0.112982839345932,
        0.04486189782619476,
        0.11335775256156921,
        -0.00045645367936231196,
        -0.01328983437269926,
        0.045770030468702316,
        0.12504270672798157,
        -0.012324226088821888,
        0.049643948674201965,
        0.06958520412445068,
        0.13581843674182892,
        -0.0024868194013834,
        -0.0006496540736407042,
        0.04306793212890625,
        0.045039840042591095,
        -0.07132735848426819,
        -0.012692414224147797,
        -0.053794264793395996,
        0.06335456669330597,
        -0.008919239975512028,
        0.1254548281431198,
        0.03727307543158531,
        0.22431667149066925,
        -0.002584485337138176,
        0.0887409895658493,
        0.24520564079284668,
        -0.012794888578355312,
        -0.002620025770738721,
        -0.04848763719201088,
        0.0015802719863131642,
        -0.09195319563150406,
        0.01176400389522314,
        -0.0009508613147772849,
        0.07371768355369568,
        0.1469718962907791,
        -0.08602530509233475,
        0.021004730835556984,
        0.05912782996892929,
        0.09891305863857269,
        0.0035763729829341173,
        0.05957659333944321,
        0.044096458703279495,
        0.28951117396354675,
        0.0240466371178627,
        -0.02169041708111763,
        0.15687572956085205,
        0.041393179446458817,
        0.018515588715672493,
        0.14060242474079132,
        0.08221177756786346,
        -0.05182738974690437,
        0.04935888946056366,
        -0.09249413013458252,
        -0.05636158213019371,
        -0.001055450877174735,
        0.21600747108459473,
        0.009064282290637493,
        -0.026671027764678,
        0.011883764527738094,
        -0.04827427491545677,
        0.1848960667848587,
        -0.048160117119550705,
        0.10580082982778549,
        0.15627066791057587,
        -0.12998098134994507,
        -0.05710300803184509,
        0.07295884937047958,
        -0.0152797382324934,
        0.0024190538097172976,
        0.05499947816133499,
        -0.007149265147745609,
        -0.004294018726795912,
        0.04341684281826019,
        0.04008648544549942,
        0.017112022265791893,
        0.0548248216509819,
        -0.04435169696807861,
        -0.024291833862662315,
        0.1045619323849678,
        -0.008160091005265713,
        0.022238029167056084,
        0.03459890931844711,
        -0.025614773854613304,
        -0.011197010055184364,
        -0.008637862280011177,
        0.002246132120490074,
        0.09427150338888168,
        -0.04230060428380966,
        0.06286129355430603,
        0.06326049566268921,
        -0.014179764315485954,
        0.11442404985427856,
        0.007683487609028816,
        0.06727579981088638,
        0.03511620685458183,
        0.03740106523036957,
        0.07902180403470993,
        0.11997383087873459,
        0.03303104639053345,
        0.0003495045530144125,
        0.1539953052997589,
        -0.10617411136627197,
        -0.019779367372393608,
        -0.0026135712396353483,
        0.07414519786834717,
        0.01855546422302723,
        -0.028208445757627487,
        -0.027465295046567917,
        -0.005116752814501524,
        -0.07604624330997467,
        -0.01915225386619568,
        -0.0641922801733017
      ],
      "numInput": 784,
      "numOutput": 128,
      "type": "FullyConnected",
      "weights": [
        [
          -0.034689221531152725,
          0.008036697283387184,
          -0.0070209321565926075,
          -0.044813744723796844,
          0.04915749281644821,
          0.009275808930397034,
          0.01374740619212389,
          -0.0493120439350605,
          0.03633734956383705,
          0.016869504004716873,
          -0.045442596077919006,
          0.0023140322882682085,
          0.05129273608326912,
          0.029728055000305176,
          -0.011626888997852802,
          0.02885492891073227,
          0.0496046207845211,
          -0.02735028602182865,
          0.03680753707885742,
          0.042347993701696396,
          -0.009812770411372185,
          0.044780731201171875,
          -0.035860270261764526,
          0.02588997222483158,
          -0.0037518658209592104,
          0.0004428537213243544,
          -0.04760092869400978,
          0.046814993023872375,
          0.009399265050888062,
          0.027950914576649666,
          0.023409724235534668,
          0.03599909693002701,
          -0.03263595327734947,
          0.013936510309576988,
          -0.04596380144357681,
          0.011288458481431007,
          0.0435391366481781,
          0.0379582941532135,
          -0.015461241826415062,
          -0.03759640082716942,
          -0.0003633665619418025,
          -0.010728455148637295,
          -0.013346211984753609,
          0.04122285544872284,
          0.003356226487085223,
          -0.009417596273124218,
          -0.033076751977205276,
          0.0093622375279665,
          -0.0348271019756794,
          -0.04604130983352661,
          0.0230416152626276,
          -0.039976105093955994,
          -0.011371901258826256,
          -0.0494665652513504,
          -0.019643953070044518,
          0.041956253349781036,
          -0.04856415465474129,
          -0.020469168201088905,
          0.04278404265642166,
          0.00471492437645793,
          0.021929817274212837,
          0.047938909381628036,
          0.006906681228429079,
          -0.015668263658881187,
          0.03620593994855881,
          -0.02542639710009098,
          0.03842641040682793,
          -0.029622385278344154,
          0.008067771792411804,
          0.006996637675911188,
          0.05054384842514992,
          -0.04471724107861519,
          0.03613964468240738,
          -0.01143572200089693,
          -0.026157831773161888,
          -0.03358765318989754,
          0.004542992450296879,
          -0.03316217288374901,
          0.02788296528160572,
          -0.024140451103448868,
          0.044633280485868454,
          0.003494987729936838,
          -0.032071974128484726,
          -0.03178742900490761,
          -0.027445172891020775,
          0.020161917433142662,
          0.028860798105597496,
          0.0459008663892746,
          -0.0015105672646313906,
          0.0449443981051445,
          0.04142690822482109,
          -0.03810229152441025,
          0.0333201102912426,
          -0.02238580770790577,
          -0.030082862824201584,
          0.02179163321852684,
          -0.01407723966985941,
          0.050752975046634674,
          -0.01304657943546772,
          0.03338836878538132,
          0.013412442989647388,
          -0.028251683339476585,
          -0.06060101091861725,
          0.028058845549821854,
          0.03247363865375519,
          -0.05159255489706993,
          -0.0278487466275692,
          -0.0216707494109869,
          -0.013065039180219173,
          -0.009283692575991154,
          -0.03313620388507843,
          -0.019985953345894814,
          -0.0027211641427129507,
          0.007735250052064657,
          0.01686512865126133,
          0.0337364636361599,
          -0.03859584033489227,
          0.0194909255951643,
          -0.05592380836606026,
          -0.058746859431266785,
          0.03252637758851051,
          0.03182462602853775,
          -0.03915996849536896,
          0.01430265512317419,
          -0.01182474009692669,
          0.07968327403068542,
          0.0636821761727333,
          0.03120441734790802,
          0.04755188897252083,
          0.05680964142084122,
          -0.010903705842792988,
          -0.0138123519718647,
          -0.013456176966428757,
          -0.03469209745526314,
          0.007641120348125696,
          0.009855940006673336,
          -0.02283574640750885,
          4.3631229345919564e-05,
          -0.03084675595164299,
          0.0322650782763958,
          0.01891842857003212,
          0.04031753167510033,
          -0.049178656190633774,
          -0.043949101120233536,
          0.0039832256734371185,
          -0.05083228647708893,
          0.013623413629829884,
          -0.014463458210229874,
          0.06092014163732529,
          0.007423938252031803,
          0.03256739303469658,
          0.06471661478281021,
          -0.005717707797884941,
          -0.0031717950478196144,
          0.033677905797958374,
          -0.01683664880692959,
          0.03370105102658272,
          0.03665023297071457,
          0.015680665150284767,
          0.025568954646587372,
          0.03369845449924469,
          -0.022734632715582848,
          0.03670816123485565,
          -0.04488421231508255,
          0.033106010407209396,
          0.009348834864795208,
          -0.009255957789719105,
          -0.004803547635674477,
          0.024840719997882843,
          -0.003491008887067437,
          0.0012297595385462046,
          -0.026964692398905754,
          0.0158085934817791,
          -0.04439159855246544,
          -0.002040761522948742,
          0.08383984118700027,
          0.006253477185964584,
          -0.004866908770054579,
          0.033344123512506485,
          0.04559633135795593,
          -0.008090841583907604,
          0.022441482171416283,
          0.012567870318889618,
          -0.026851408183574677,
          -0.016336873173713684,
          -0.004798745270818472,
          0.046475157141685486,
          0.034713730216026306,
          -0.023438917472958565,
          -0.0634826272726059,
          0.01248876191675663,
          -0.009847110137343407,
          -0.04289846122264862,
          0.03628119081258774,
          -0.025190982967615128,
          0.009755250997841358,
          -0.012307669967412949,
          0.02977452240884304,
          -0.03141267970204353,
          0.02077910676598549,
          0.018811574205756187,
          0.024849360808730125,
          0.035876668989658356,
          0.043716829270124435,
          0.09794818609952927,
          0.06092340871691704,
          0.018828315660357475,
          0.047886963933706284,
          -0.00844050943851471,
          0.04815166816115379,
          0.007830522954463959,
          0.027469050139188766,
          -0.003020865609869361,
          0.014651956036686897,
          0.030579699203372,
          0.027653872966766357,
          -0.017069242894649506,
          -0.032186564058065414,
          -0.0220782607793808,
          -0.04446513578295708,
          0.044894084334373474,
          -0.01865125447511673,
          -0.010163572616875172,
          -6.0025333368685097e-05,
          -0.037227436900138855,
          -0.006297612097114325,
          0.026922043412923813,
          -0.027294645085930824,
          0.014278660528361797,
          0.027386998757719994,
          -0.010182639583945274,
          0.0176005270332098,
          0.05577417463064194,
          0.04613853618502617,
          0.0276613999158144,
          0.05570710822939873,
          0.044313784688711166,
          0.021048784255981445,
          -0.031882137060165405,
          0.0026683269534260035,
          -0.03381042182445526,
          0.004615641664713621,
          -0.049786828458309174,
          -0.04353068023920059,
          0.0390460379421711,
          -0.028702322393655777,
          -0.022253863513469696,
          -0.01622210629284382,
          0.010280409827828407,
          -0.02486380748450756,
          -0.006821236107498407,
          -0.03030380792915821,
          -0.01520594209432602,
          -0.006587912794202566,
          0.02999233640730381,
          -0.0393315851688385,
          -0.058854009956121445,
          -0.05294818431138992,
          -0.030812568962574005,
          0.06742013245820999,
          0.04972488060593605,
          0.055335137993097305,
          -0.009569711051881313,
          0.0408676452934742,
          -0.04880103841423988,
          -0.001051120227202773,
          -0.06154119595885277,
          -0.08692604303359985,
          -0.12999309599399567,
          -0.07618951797485352,
          -0.03541053831577301,
          -0.05730389058589935,
          -0.010166819207370281,
          -0.04435279965400696,
          -0.04352960363030434,
          -0.0522485114634037,
          -0.015033399686217308,
          -0.03879353776574135,
          0.04859839007258415,
          -0.04269994795322418,
          -0.02671891637146473,
          0.03441895544528961,
          -0.004895851947367191,
          -0.017825094982981682,
          -0.0015880325809121132,
          -0.022043881937861443,
          -0.05381610617041588,
          0.032027605921030045,
          -0.004689481109380722,
          0.01162445917725563,
          -0.030700694769620895,
          -0.04337592422962189,
          -0.04339858144521713,
          -0.03699583187699318,
          0.013602991588413715,
          -0.04603830724954605,
          -0.04276736080646515,
          -0.07613271474838257,
          -0.09096726030111313,
          -0.07143973559141159,
          -0.07661905884742737,
          -0.07029687613248825,
          -0.01278772298246622,
          -0.02278789132833481,
          -0.0462622232735157,
          -0.006310163997113705,
          0.008759974502027035,
          -0.05035804212093353,
          0.021472066640853882,
          0.005997088272124529,
          -0.03666006401181221,
          -0.009275921620428562,
          -0.05011053755879402,
          0.0001526475534774363,
          0.020528336986899376,
          -0.022333648055791855,
          0.006826473865658045,
          -0.00331366085447371,
          -0.023127293214201927,
          -0.06531260907649994,
          -0.10416079312562943,
          0.011977455578744411,
          -0.06944610923528671,
          -0.04966553673148155,
          -0.08038409054279327,
          0.013276953250169754,
          0.011936674825847149,
          0.010507050901651382,
          -0.0511866956949234,
          -0.0631302148103714,
          0.017297960817813873,
          -0.04545409232378006,
          -0.0129252253100276,
          -0.04491809755563736,
          0.008845417760312557,
          0.0022536173928529024,
          0.0431608222424984,
          0.021401917561888695,
          -0.02873336337506771,
          0.017324501648545265,
          -0.05080987140536308,
          0.0026378552429378033,
          0.00362488254904747,
          -0.015405198559165001,
          -0.02127777971327305,
          -0.03211606666445732,
          -0.05701858550310135,
          -0.06834270805120468,
          -0.10309753566980362,
          -0.0555749237537384,
          0.03625907003879547,
          0.030776020139455795,
          0.043613046407699585,
          -0.023061392828822136,
          -0.031136825680732727,
          -0.02062888629734516,
          -0.019788186997175217,
          0.014162080362439156,
          -0.026414010673761368,
          0.02562696486711502,
          0.014488224871456623,
          -0.005819410085678101,
          0.019603395834565163,
          0.04865172505378723,
          -0.04442618042230606,
          0.009885932318866253,
          0.04520538076758385,
          -0.018993346020579338,
          -0.03073064051568508,
          -0.0059984708204865456,
          -0.004197601694613695,
          -0.0011630760272964835,
          -0.10329141467809677,
          -0.0885285884141922,
          -0.06962720304727554,
          0.019848031923174858,
          0.01895437203347683,
          -0.04206676036119461,
          0.018372807651758194,
          -0.02064647525548935,
          0.020732490345835686,
          -0.007824061438441277,
          0.011043897829949856,
          0.02982831932604313,
          0.039567817002534866,
          -0.0019651956390589476,
          0.018700752407312393,
          0.0744183287024498,
          0.030553791671991348,
          -0.0098006222397089,
          0.027544664219021797,
          0.051251787692308426,
          -0.030922967940568924,
          0.011418339796364307,
          0.007200682070106268,
          0.007212472148239613,
          -0.06581838428974152,
          -0.07048758119344711,
          -0.046933695673942566,
          -0.01431680005043745,
          -0.09229294210672379,
          -0.05784124881029129,
          -0.017929328605532646,
          -0.043718863278627396,
          0.006747695151716471,
          0.013902761973440647,
          0.050979699939489365,
          -0.04992937296628952,
          0.0005762219661846757,
          0.013084521517157555,
          -0.01632523164153099,
          0.010177930817008018,
          0.03086860477924347,
          -0.028598355129361153,
          0.02445998229086399,
          0.016286978498101234,
          0.030993573367595673,
          0.037740308791399,
          0.04784340411424637,
          0.031283676624298096,
          0.010525688529014587,
          0.02622508630156517,
          -0.0014385390095412731,
          0.030466224998235703,
          0.003152117831632495,
          -0.03655735403299332,
          -0.08107102662324905,
          -0.056578993797302246,
          -0.09587560594081879,
          -0.046795688569545746,
          0.04535899683833122,
          0.029861440882086754,
          0.07342726737260818,
          0.02223370224237442,
          -0.0007433689315803349,
          -0.03609130531549454,
          0.0001630540209589526,
          -0.05256180092692375,
          -0.054385099560022354,
          0.03920111432671547,
          -0.012814308516681194,
          -0.03088466078042984,
          0.0034639029763638973,
          -0.013194764964282513,
          -0.02906597964465618,
          0.05028500035405159,
          0.0006575275328941643,
          -0.009664549492299557,
          0.021712997928261757,
          -0.02273843251168728,
          -0.005079903639853001,
          -0.011837164871394634,
          -0.09127963334321976,
          -0.10302730649709702,
          -0.0490511916577816,
          -0.10655612498521805,
          -0.01864645630121231,
          -0.01146791037172079,
          0.02625327929854393,
          0.07657617330551147,
          0.1295594722032547,
          -0.0010204017162322998,
          -0.029712902382016182,
          0.018643856048583984,
          0.00018791995535138994,
          -0.010915828868746758,
          -0.020317235961556435,
          0.0389522984623909,
          -0.0025367976631969213,
          0.024392971768975258,
          -0.018660783767700195,
          0.016877545043826103,
          0.014420689083635807,
          -0.00222533056512475,
          0.03778354451060295,
          0.03986295312643051,
          0.0032292117830365896,
          0.025716278702020645,
          0.021891722455620766,
          -0.05729179084300995,
          -0.016314726322889328,
          -0.08323630690574646,
          -0.00812598317861557,
          -0.03899511322379112,
          0.00906661618500948,
          -0.03379319608211517,
          -0.012030726298689842,
          0.014947349205613136,
          0.04881010949611664,
          0.08135946094989777,
          0.012140614911913872,
          -0.012322306632995605,
          -0.060899220407009125,
          -0.045064594596624374,
          0.012453773990273476,
          0.02635050006210804,
          -0.01320710964500904,
          0.06392473727464676,
          -0.04146464541554451,
          -0.004430051427334547,
          0.020867137238383293,
          -0.01089953538030386,
          -0.010623928159475327,
          0.005099811591207981,
          -0.028252264484763145,
          0.015538920648396015,
          0.024825505912303925,
          -0.05156742036342621,
          -0.09220676124095917,
          -0.005106452852487564,
          -0.08499749004840851,
          -0.024401750415563583,
          -0.020270220935344696,
          0.025145605206489563,
          0.04372632876038551,
          0.09888148307800293,
          0.14045350253582,
          0.06759034842252731,
          0.0005647559300996363,
          0.0035524561535567045,
          -0.023693250492215157,
          0.03618312254548073,
          0.02642384171485901,
          0.04110441729426384,
          0.06220165267586708,
          -0.026299012824892998,
          0.04818990081548691,
          0.05619358643889427,
          -0.008446535095572472,
          -0.013261010870337486,
          0.028521308675408363,
          -0.031985875219106674,
          -0.028752511367201805,
          -0.047524843364953995,
          0.010789415799081326,
          -0.02021787501871586,
          -0.05345924198627472,
          -0.07189462333917618,
          -0.04372364282608032,
          -0.06117817759513855,
          -0.03408699110150337,
          -0.051530010998249054,
          0.01632438786327839,
          0.04611974582076073,
          0.11652734875679016,
          0.056856293231248856,
          0.055888786911964417,
          -0.03536025434732437,
          0.05397676303982735,
          -0.029482776299118996,
          0.045012593269348145,
          0.0008856961503624916,
          0.014975770376622677,
          -0.0031214519403874874,
          -0.013560006394982338,
          -0.02509785071015358,
          -0.01831548474729061,
          -0.011232416145503521,
          0.004241934046149254,
          -0.0259286817163229,
          -0.0011196201667189598,
          0.0033096109982579947,
          -3.112315243924968e-05,
          0.03594282269477844,
          0.02776326797902584,
          0.004778474103659391,
          -0.08600100874900818,
          -0.07516293227672577,
          -0.053694240748882294,
          0.004888832103461027,
          -0.004944152664393187,
          0.07690618187189102,
          0.05696592107415199,
          0.05649581179022789,
          0.03354455158114433,
          0.031272370368242264,
          0.0889979749917984,
          -0.025569820776581764,
          -0.002359279664233327,
          0.024073079228401184,
          0.045444685965776443,
          0.01896696910262108,
          0.03511154651641846,
          0.023962873965501785,
          -0.023281941190361977,
          -0.0003774362849071622,
          0.04180030897259712,
          0.037310823798179626,
          0.0345471166074276,
          0.04072023928165436,
          0.04393419995903969,
          -0.036768242716789246,
          -0.007651371881365776,
          -0.05056175962090492,
          -0.00998009741306305,
          0.011081828735768795,
          -0.010371449403464794,
          -0.033908065408468246,
          0.0453190952539444,
          0.06976214051246643,
          0.12270232290029526,
          0.0998627245426178,
          0.10396040230989456,
          0.06207272782921791,
          0.041863467544317245,
          0.03174509108066559,
          0.03171108290553093,
          0.03021191619336605,
          -0.018082059919834137,
          -0.0005058985552750528,
          0.02838084101676941,
          -0.01581759750843048,
          -0.021585548296570778,
          -0.02577626146376133,
          0.03112157993018627,
          -0.03322403505444527,
          -0.04727596789598465,
          0.04506447911262512,
          -0.039678905159235,
          0.031492944806814194,
          -0.059765931218862534,
          0.013731883838772774,
          -0.0391787625849247,
          0.017443722113966942,
          0.013260476291179657,
          0.015330196358263493,
          -0.04734024032950401,
          -0.0022618365474045277,
          0.07312425225973129,
          0.07808221876621246,
          0.10196568816900253,
          0.010287124663591385,
          0.01207622978836298,
          0.050067853182554245,
          -0.04396965354681015,
          0.002017177641391754,
          0.03903479501605034,
          0.00439582159742713,
          0.0223524272441864,
          0.0536031499505043,
          -0.03490382432937622,
          -0.03530649095773697,
          0.002587696770206094,
          0.04818461462855339,
          0.04194246605038643,
          0.008171138353645802,
          0.012790558859705925,
          -0.024471793323755264,
          0.03867463022470474,
          -0.02027277462184429,
          0.007586832623928785,
          -0.04813666641712189,
          -0.03856935352087021,
          0.001573712914250791,
          0.003881716402247548,
          0.0201894361525774,
          0.03884193301200867,
          0.02652393840253353,
          0.015230442397296429,
          0.0558817982673645,
          0.051871154457330704,
          0.023727897554636,
          -0.03951543942093849,
          0.0010274689411744475,
          -0.01201893575489521,
          -0.03129532188177109,
          0.004738213494420052,
          0.04217077046632767,
          -0.004121316596865654,
          0.023446131497621536,
          0.005753053352236748,
          -0.038513388484716415,
          -0.001678429776802659,
          -0.028282055631279945,
          -0.04526042565703392,
          0.02132515422999859,
          0.026567673310637474,
          0.0048669627867639065,
          0.012614954262971878,
          0.03149772062897682,
          -0.014596506021916866,
          1.2531162610684987e-05,
          0.0021017533726990223,
          -0.009440568275749683,
          -0.006699548568576574,
          -0.06438938528299332,
          0.000687308085616678,
          -0.007530282251536846,
          -0.021544741466641426,
          -0.016413753852248192,
          -0.03631148114800453,
          -0.04884861409664154,
          -0.05775119364261627,
          0.020861057564616203,
          -0.03611089661717415,
          -0.027986740693449974,
          -0.004383503459393978,
          0.024219313636422157,
          -0.0075264680199325085,
          0.02202208898961544,
          -0.03568810224533081,
          -0.013458137400448322,
          -0.036170609295368195,
          -0.0010386620415374637,
          -0.00902077928185463,
          0.02393167093396187,
          0.032811831682920456,
          0.0008303573704324663,
          0.0343143492937088,
          0.03599042817950249,
          -0.04476238787174225,
          -0.03436942771077156,
          0.0168295968323946,
          0.014769590459764004,
          0.02773691713809967,
          -0.007076959125697613,
          0.0014053776394575834,
          0.0017214828403666615,
          -0.03335295617580414,
          -0.0013798116706311703,
          -0.014572763815522194,
          -0.0030874614603817463,
          -0.026139140129089355,
          0.016746141016483307,
          -0.04760865867137909,
          0.011604199185967445,
          0.0030941644217818975,
          -0.04324905574321747,
          -0.0027051137294620275,
          -0.049771737307310104,
          -0.02854803204536438,
          0.02864202857017517,
          0.021012354642152786,
          -0.04434432461857796,
          -0.006173010915517807,
          -0.024315860122442245,
          -0.02490810863673687,
          -0.056715819984674454,
          0.03662247210741043,
          -0.009967080317437649,
          -0.002937976038083434,
          -0.007387217134237289,
          -0.02583119086921215,
          0.03957847133278847,
          0.02568472921848297,
          0.042035095393657684,
          -0.017984092235565186,
          0.036628253757953644,
          -0.014402789995074272,
          -0.022272659465670586,
          0.048103783279657364,
          0.026626402512192726,
          0.04341939836740494,
          -0.0139958206564188,
          -0.011930996552109718,
          -0.002939248224720359,
          0.03371214121580124,
          0.0019839410670101643,
          -0.045029718428850174,
          -0.014086110517382622,
          0.03542932868003845,
          0.015398675575852394,
          0.03301166743040085,
          0.037305980920791626,
          -0.028938179835677147,
          0.012386771850287914,
          0.02245624177157879,
          0.021256916224956512,
          -0.032161545008420944,
          -0.017076678574085236,
          0.008085804060101509,
          0.03437044471502304,
          -0.03747192397713661,
          0.014763323590159416,
          0.024995500221848488,
          0.02350873313844204,
          -0.013515347614884377,
          0.03169093653559685,
          -0.0018564540660008788,
          0.03430214524269104,
          -0.04818088188767433,
          0.01632685773074627,
          0.03656690940260887,
          0.030865268781781197
        ],
        [
          -0.04878490790724754,
          0.050070490688085556,
          0.03620978072285652,
          0.015608829446136951,
          0.024935463443398476,
          -0.022093020379543304,
          0.030559223145246506,
          -0.02231057919561863,
          0.042706482112407684,
          0.03873062878847122,
          -0.0003926274075638503,
          0.03238186612725258,
          -0.04483872279524803,
          0.006662904284894466,
          -0.021446583792567253,
          -0.0392642468214035,
          -0.04064496234059334,
          -0.04993113875389099,
          0.037253450602293015,
          -0.010077250190079212,
          0.0164582971483469,
          -0.04648592695593834,
          0.0038832465652376413,
          0.020360775291919708,
          0.02726893313229084,
          -0.03434973955154419,
          -0.009198734536767006,
          -0.010716487653553486,
          0.03878927230834961,
          -0.01174396462738514,
          0.03948673978447914,
          -0.03900998830795288,
          -0.03538895025849342,
          0.028874248266220093,
          0.004615150857716799,
          -0.04886931553483009,
          0.01214235182851553,
          -0.01121903583407402,
          0.03840453550219536,
          0.02287968434393406,
          -0.02885717712342739,
          0.017962146550416946,
          0.03402377665042877,
          -0.010438090190291405,
          0.04204162210226059,
          0.04911589249968529,
          0.03416411578655243,
          0.05045965313911438,
          -0.03291035443544388,
          0.01709926500916481,
          0.014898071065545082,
          0.003801135579124093,
          -0.012863210402429104,
          0.003165419911965728,
          -0.03431941196322441,
          0.04497361183166504,
          -0.034884318709373474,
          0.0021358339581638575,
          -0.01061914674937725,
          -0.042814601212739944,
          0.0131601607427001,
          -0.016148533672094345,
          -0.035395413637161255,
          0.03880981355905533,
          -0.04280771315097809,
          -0.03357407823204994,
          -0.04598990082740784,
          0.03118550032377243,
          -0.0499974861741066,
          0.027737073600292206,
          -0.012667156755924225,
          0.05513787269592285,
          -0.013119107112288475,
          -0.0299733504652977,
          -0.034577369689941406,
          -0.04373515024781227,
          0.0049261790700256824,
          -0.04423656314611435,
          -0.030202973634004593,
          -0.04810661822557449,
          -0.028858719393610954,
          0.032645851373672485,
          -0.02132541500031948,
          0.010622373782098293,
          0.027271943166851997,
          -0.04784340783953667,
          -0.010860743932425976,
          0.0008507398306392133,
          0.010838549584150314,
          -0.030428370460867882,
          -0.04991405829787254,
          0.020115362480282784,
          -0.01681399717926979,
          -0.017910819500684738,
          0.016703950241208076,
          0.0007528452551923692,
          0.004071005154401064,
          0.01356416568160057,
          0.010764154605567455,
          -0.0012541337637230754,
          -0.004437659401446581,
          -0.0684429183602333,
          -0.05145199969410896,
          0.015023250132799149,
          -0.0028869633097201586,
          -0.013985066674649715,
          0.02818332426249981,
          -0.04944842681288719,
          0.023906419053673744,
          -0.0074522122740745544,
          -0.0133919483050704,
          0.042917147278785706,
          0.019977718591690063,
          0.03650074452161789,
          0.0052211531437933445,
          -0.0162722859531641,
          0.03726183623075485,
          -0.03233743831515312,
          -0.029285704717040062,
          0.03949322551488876,
          0.013856764882802963,
          -0.0563533641397953,
          -0.012426349334418774,
          -0.04557940363883972,
          -0.0653131827712059,
          -0.010449535213410854,
          0.07173153758049011,
          0.025348158553242683,
          -0.007389432284981012,
          -0.025600608438253403,
          -0.0034471468534320593,
          -0.06523819267749786,
          -0.051723990589380264,
          -0.039602991193532944,
          0.05373997986316681,
          0.03539414703845978,
          -0.05214609205722809,
          0.021918678656220436,
          -0.016188299283385277,
          0.018236462026834488,
          -0.0308820940554142,
          -0.04606056585907936,
          0.011413183063268661,
          0.022065017372369766,
          -0.014252377673983574,
          -0.013759392313659191,
          -0.0015547688817605376,
          -0.0554053969681263,
          -0.06742683053016663,
          -0.030485427007079124,
          -0.06597986072301865,
          -0.08157014846801758,
          -0.025238588452339172,
          0.022523745894432068,
          0.027616778388619423,
          0.01483798399567604,
          0.016783639788627625,
          -0.003011968918144703,
          -0.03758997470140457,
          0.0077538033947348595,
          -0.03984849900007248,
          0.04149338975548744,
          0.03606218472123146,
          -0.011642031371593475,
          0.04535938799381256,
          -0.013879264704883099,
          0.03474576398730278,
          0.0016310741193592548,
          0.02646041475236416,
          -0.009785477072000504,
          0.0326676107943058,
          -0.005596041213721037,
          -0.02397109754383564,
          0.006504475139081478,
          -0.05909028649330139,
          -0.08026611059904099,
          -0.038134168833494186,
          -0.018838975578546524,
          -0.07200568169355392,
          -0.050471123307943344,
          -0.041588135063648224,
          -0.0342085100710392,
          0.06745018810033798,
          -0.03996375575661659,
          0.023161161690950394,
          -0.03160548582673073,
          -0.05852004885673523,
          -0.04678518325090408,
          0.038293253630399704,
          0.0331127904355526,
          0.041202694177627563,
          0.014225670136511326,
          0.014142938889563084,
          -0.01839601807296276,
          -0.003726336872205138,
          -0.02875545807182789,
          -0.004110706504434347,
          -0.007123745046555996,
          0.044135842472314835,
          0.03622802346944809,
          -0.02102278731763363,
          -0.06076541170477867,
          0.009516196325421333,
          -0.04879129305481911,
          -0.034830883145332336,
          0.00841748807579279,
          -0.03989367187023163,
          -0.06373424082994461,
          -0.06223840266466141,
          -0.02495560236275196,
          -0.0026884390972554684,
          0.04467987269163132,
          -0.04759962856769562,
          -0.017057884484529495,
          -0.06409980356693268,
          -0.04057355225086212,
          -0.030207542702555656,
          0.043955784291028976,
          0.03730335459113121,
          0.030349548906087875,
          0.003237194148823619,
          -0.039947260171175,
          -0.044594381004571915,
          -0.05127215012907982,
          0.010208690539002419,
          -0.011068964377045631,
          -0.03777752444148064,
          -0.004458002746105194,
          0.004844155628234148,
          -0.052707500755786896,
          -0.04673798009753227,
          -0.03837767615914345,
          -0.024973299354314804,
          -0.035582613199949265,
          0.008785867132246494,
          -0.04931151494383812,
          0.003939811605960131,
          -0.02010297030210495,
          0.07059341669082642,
          0.0134041178971529,
          0.013821711763739586,
          -0.040853988379240036,
          -0.095138780772686,
          -0.046304356306791306,
          0.046239305287599564,
          0.029112285003066063,
          0.05440253019332886,
          0.0058979191817343235,
          -0.061442095786333084,
          -0.0361199751496315,
          0.022119371220469475,
          -0.035341840237379074,
          0.048372525721788406,
          0.011579783633351326,
          0.016816623508930206,
          0.04466906934976578,
          -0.027132699266076088,
          0.021793125197291374,
          -0.005012053530663252,
          -0.04176916182041168,
          -0.03434212505817413,
          -0.004875639453530312,
          -0.08526835590600967,
          -0.13121898472309113,
          -0.08752316236495972,
          0.06254969537258148,
          0.0694718062877655,
          0.04274849593639374,
          0.04128033667802811,
          0.038220904767513275,
          -0.055534567683935165,
          -0.027912035584449768,
          -0.047583479434251785,
          0.019366128370165825,
          -0.002461763098835945,
          0.018591413274407387,
          -0.04429209977388382,
          -0.03575563803315163,
          0.026308774948120117,
          0.0011450129095464945,
          0.00715664541348815,
          -0.0035964788403362036,
          0.009087326936423779,
          -0.023411870002746582,
          0.019440190866589546,
          -0.045242562890052795,
          -0.057790227234363556,
          -0.07916587591171265,
          0.0028070297557860613,
          -0.08492273092269897,
          -0.035919807851314545,
          -0.05924184247851372,
          -0.05573941022157669,
          0.06579716503620148,
          0.12682203948497772,
          0.13016462326049805,
          0.060967396944761276,
          -0.07429144531488419,
          -0.03071894310414791,
          -0.002634760458022356,
          -0.04508809372782707,
          0.03166801854968071,
          -0.010674245655536652,
          -0.03800859674811363,
          0.05885273963212967,
          -0.017727969214320183,
          -0.0001895984896691516,
          -0.0010707615874707699,
          -0.01495829876512289,
          -0.04413244500756264,
          -0.014375410042703152,
          -0.02651233971118927,
          0.016931302845478058,
          -0.05396396666765213,
          -0.02400844730436802,
          -0.05501718819141388,
          -0.003009326756000519,
          -0.02949712797999382,
          -0.0736473873257637,
          -0.012420479208230972,
          0.005548350512981415,
          0.06456004828214645,
          0.13645027577877045,
          0.13111042976379395,
          0.11945662647485733,
          -0.03352094441652298,
          -0.08099120855331421,
          -0.004691025707870722,
          -0.08216332644224167,
          -0.03965524956583977,
          0.030255340039730072,
          0.009818640537559986,
          0.03932108357548714,
          -0.0008493404602631927,
          0.03394266590476036,
          -0.0008573212544433773,
          0.011016907170414925,
          -0.03557273745536804,
          -0.03529728949069977,
          -0.05031777173280716,
          0.024567099288105965,
          -0.019480159506201744,
          -0.06193716078996658,
          0.012812642380595207,
          -0.05705605074763298,
          0.006340586580336094,
          -0.02845017798244953,
          -0.021673863753676414,
          0.041987136006355286,
          0.0977570116519928,
          0.11837165802717209,
          0.08907803893089294,
          -0.015145649202167988,
          -0.0570501908659935,
          -0.099759541451931,
          -0.11925549060106277,
          -0.029428886249661446,
          -0.030871810391545296,
          0.03141585737466812,
          -0.009874030016362667,
          -0.018809573724865913,
          -0.04964083805680275,
          -0.010748028755187988,
          0.016365939751267433,
          -0.03472689166665077,
          0.027653174474835396,
          -0.03461334854364395,
          -0.01723792403936386,
          -0.03032771870493889,
          0.0007900319760665298,
          -0.026937518268823624,
          -0.0299023799598217,
          -0.04544263333082199,
          -0.02440631203353405,
          -0.0747012123465538,
          0.004262757953256369,
          0.06381682306528091,
          0.10129550844430923,
          0.11169590055942535,
          0.10319133847951889,
          0.012239780277013779,
          -0.059693027287721634,
          -0.08063685148954391,
          -0.16133242845535278,
          -0.02144448831677437,
          -0.09075214713811874,
          -0.051201410591602325,
          -0.025639334693551064,
          -0.007754266727715731,
          0.0076337652280926704,
          0.023886829614639282,
          -0.00875623244792223,
          -0.04940894618630409,
          -0.014013002626597881,
          0.02967483550310135,
          0.049527205526828766,
          0.04709482565522194,
          -0.033491749316453934,
          0.018218081444501877,
          -0.06218050420284271,
          -0.03344157338142395,
          -0.04720833897590637,
          -0.05657634511590004,
          -0.020799651741981506,
          0.05646716058254242,
          0.09925875067710876,
          0.12155568599700928,
          0.06899461150169373,
          0.03544183075428009,
          -0.017115971073508263,
          -0.0856354832649231,
          -0.08539426326751709,
          -0.08451301604509354,
          -0.07396163046360016,
          -0.03500702604651451,
          -0.03277264162898064,
          -0.04582859203219414,
          0.031167877838015556,
          -0.04034985974431038,
          -0.024294940754771233,
          -0.041061557829380035,
          -0.025111008435487747,
          -0.041055191308259964,
          0.011664661578834057,
          0.05139654502272606,
          0.037089407444000244,
          0.013727333396673203,
          -0.06360787898302078,
          -0.0934438705444336,
          -0.10432785004377365,
          -0.04621667042374611,
          0.04184820130467415,
          0.02217092737555504,
          0.014729692600667477,
          0.10749911516904831,
          0.06678873300552368,
          0.05775172635912895,
          0.031082265079021454,
          -0.08188758790493011,
          -0.09158976376056671,
          -0.08684796094894409,
          0.0020435722544789314,
          -0.005151636432856321,
          -0.02371150627732277,
          -0.004526529461145401,
          0.035437263548374176,
          -0.004069486632943153,
          0.005859371740370989,
          0.03355424106121063,
          0.036808568984270096,
          -0.008068608120083809,
          0.026517227292060852,
          -0.035416387021541595,
          0.052607521414756775,
          -0.06809457391500473,
          -0.056678254157304764,
          -0.09047351032495499,
          -0.11123473942279816,
          -0.10426580905914307,
          -0.08075269311666489,
          -0.09286615252494812,
          0.0012083762558177114,
          0.08770182728767395,
          0.10653708875179291,
          0.05260683223605156,
          -0.009502087719738483,
          -0.10933665186166763,
          -0.1351471096277237,
          -0.1038927435874939,
          0.0003116662264801562,
          -0.00021894033125136048,
          -0.017403019592165947,
          -0.048247721046209335,
          0.019918516278266907,
          -0.02400999702513218,
          0.04517664387822151,
          0.030791619792580605,
          0.024333659559488297,
          -0.02303273417055607,
          -0.01279663760215044,
          -0.02013150043785572,
          0.04632947966456413,
          0.03631766512989998,
          -0.07849813252687454,
          -0.11331010609865189,
          -0.07673557847738266,
          -0.11145549267530441,
          -0.13312922418117523,
          -0.09550385177135468,
          0.04970790445804596,
          0.1437135636806488,
          0.042250506579875946,
          0.055170126259326935,
          -0.04475340619683266,
          -0.12192799896001816,
          -0.004113068804144859,
          -0.05795859917998314,
          -0.04151970148086548,
          -0.0028185907285660505,
          0.01571478880941868,
          0.02402593567967415,
          0.004860300570726395,
          0.04026808217167854,
          0.025251299142837524,
          0.004854800645262003,
          0.03220224380493164,
          0.046079423278570175,
          0.026562919840216637,
          -0.02429264970123768,
          0.07222656160593033,
          -0.0026027224957942963,
          -0.029060037806630135,
          0.04230964928865433,
          -0.01267082430422306,
          -0.06024262681603432,
          -0.11726373434066772,
          0.024063335731625557,
          0.10116925090551376,
          0.0613640621304512,
          0.01271029096096754,
          -0.07143515348434448,
          -0.10333377867937088,
          -0.06995873153209686,
          -0.007795973680913448,
          -0.05673661828041077,
          -0.0002535191597416997,
          -0.02301560901105404,
          0.026380911469459534,
          -0.0441601425409317,
          0.05073187127709389,
          -0.0038625148590654135,
          0.04657942056655884,
          -0.036478761583566666,
          0.014616835862398148,
          -0.026667485013604164,
          -0.025945834815502167,
          0.0026569454930722713,
          0.0628826841711998,
          0.03357680141925812,
          0.00429506553336978,
          0.07455293089151382,
          0.028918065130710602,
          0.023552775382995605,
          0.012260328978300095,
          0.09330128133296967,
          0.14799277484416962,
          0.02378913387656212,
          -0.029204076156020164,
          -0.13422197103500366,
          -0.05592678487300873,
          -0.08922361582517624,
          -0.06306356191635132,
          -0.03040669485926628,
          -0.056245043873786926,
          -0.025862064212560654,
          -0.037326570600271225,
          0.008008215576410294,
          0.04736920818686485,
          -0.03910386562347412,
          0.04492555558681488,
          0.004976067692041397,
          -0.012043443508446217,
          0.04428189992904663,
          -0.020775889977812767,
          0.018355442211031914,
          0.06075800955295563,
          0.08972778916358948,
          0.07393909990787506,
          0.045245107263326645,
          0.1148814782500267,
          0.03234897926449776,
          0.03458959236741066,
          0.033267147839069366,
          0.0003483027685433626,
          -0.0566786527633667,
          -0.09635854512453079,
          -0.05364333093166351,
          -0.003938173875212669,
          0.008816367946565151,
          0.046223852783441544,
          0.005350587423890829,
          0.04972565546631813,
          0.023379260674118996,
          0.005199975334107876,
          -0.027801482006907463,
          0.04490292817354202,
          -0.034021541476249695,
          -0.026736997067928314,
          0.04681139439344406,
          -0.04178065061569214,
          -0.009284315630793571,
          -0.041872285306453705,
          -0.007391312159597874,
          0.03344674035906792,
          0.05429895594716072,
          0.05220712721347809,
          0.006729293614625931,
          0.112846739590168,
          0.019864855334162712,
          0.07649115473031998,
          -0.030655696988105774,
          -0.02928970940411091,
          -0.026083320379257202,
          -0.02248147688806057,
          -0.045808639377355576,
          -0.008249543607234955,
          0.013323861174285412,
          -0.04243505001068115,
          0.009439817629754543,
          0.0040215663611888885,
          -0.018784550949931145,
          0.009334397502243519,
          0.031177518889307976,
          -0.0465179942548275,
          -0.0033015809021890163,
          -0.0061541348695755005,
          0.04259883984923363,
          -0.004707853775471449,
          0.01185137964785099,
          -0.049530912190675735,
          -0.007261552847921848,
          0.030716532841324806,
          0.06849652528762817,
          0.08230277895927429,
          0.04070794954895973,
          0.0659482553601265,
          0.026921594515442848,
          -0.007921923883259296,
          -0.044790130108594894,
          -0.07921168953180313,
          -0.05270128697156906,
          0.02630394510924816,
          -0.005953387822955847,
          0.02982822060585022,
          -0.0017333460273221135,
          0.001056271605193615,
          -0.0026169910561293364,
          -0.029086444526910782,
          -0.002462678123265505,
          -0.052342891693115234,
          0.020274342969059944,
          0.009362312965095043,
          -0.031987372785806656,
          -0.04401082918047905,
          0.006903654430061579,
          0.02212454192340374,
          -0.03948917239904404,
          -0.018101781606674194,
          -0.002152423607185483,
          0.023048201575875282,
          0.029524611309170723,
          0.035286881029605865,
          -0.024607986211776733,
          0.02076207660138607,
          -0.0009653998422436416,
          -0.02023930288851261,
          -0.04651381075382233,
          -0.042389094829559326,
          -0.017506282776594162,
          -0.10100708901882172,
          -0.08543965965509415,
          -0.01330137625336647,
          -0.03237447887659073,
          -0.06569019705057144,
          -0.0121536236256361,
          -0.06631623208522797,
          0.03313405066728592,
          0.0037250276654958725,
          -0.046875808387994766,
          -0.020949825644493103,
          0.03510962799191475,
          0.038227424025535583,
          -0.0016990700969472528,
          -0.004658536519855261,
          -0.04208046570420265,
          0.025283556431531906,
          -0.021665731444954872,
          0.0057223280891776085,
          0.01160451490432024,
          -0.02187267132103443,
          0.008804569952189922,
          0.015239041298627853,
          0.02605465240776539,
          -0.05301649868488312,
          -0.09705605357885361,
          -0.08129899948835373,
          -0.05918225273489952,
          -0.03877286612987518,
          -0.05357523635029793,
          -0.0006737373187206686,
          0.027917912229895592,
          -0.021877946332097054,
          -0.05218198522925377,
          0.020378662273287773,
          -0.0021731466986238956,
          -0.05003062263131142,
          0.01748509146273136,
          0.02335309609770775,
          0.0037725779693573713,
          0.031971998512744904,
          -0.04020719230175018,
          -0.02713586390018463,
          0.014473594725131989,
          -0.031341176480054855,
          -0.0023372708819806576,
          -0.020160017535090446,
          0.0004529343859758228,
          -0.028359929099678993,
          0.016126025468111038,
          -0.021992409601807594,
          -0.054735127836465836,
          -0.07012642174959183,
          0.024811968207359314,
          -0.0773044228553772,
          0.0013288693735376,
          -0.021461645141243935,
          -0.003410535864531994,
          -0.000126769911730662,
          -0.001708307070657611,
          0.020180655643343925,
          0.011986898258328438,
          -0.03298323228955269,
          -0.019044959917664528,
          -0.00903594121336937,
          -0.024496782571077347,
          -0.03977867588400841,
          -0.04744986072182655,
          0.0006952633266337216,
          0.019238509237766266,
          0.008625809103250504,
          0.03259013965725899,
          0.015462269075214863,
          0.0262233167886734,
          -0.04420261085033417,
          0.02423768863081932,
          -0.0077426438219845295,
          -0.0446225181221962,
          0.011896058917045593,
          -0.014884497039020061,
          -0.06366612762212753,
          -0.03038255125284195,
          0.028380654752254486,
          -0.034892503172159195,
          0.004042444750666618,
          -0.033765316009521484,
          -0.047706808894872665,
          -0.0382450632750988,
          -0.00281913741491735,
          -0.024461207911372185,
          0.019890571013092995,
          0.020524675026535988,
          0.013311048038303852,
          0.03250638768076897,
          0.01404284592717886,
          -0.0013732201186940074,
          -0.0067228889092803,
          0.022732505574822426,
          -0.043042492121458054,
          -0.007453134283423424,
          0.04413517564535141,
          0.020495077595114708,
          -0.0428464375436306,
          -0.015935445204377174,
          -0.02362300083041191,
          0.022511910647153854,
          -0.049464624375104904,
          -0.009477699175477028,
          0.015970729291439056,
          0.029394512996077538,
          -0.008687837980687618,
          -0.01629098877310753,
          -0.04829488322138786,
          0.03508917614817619,
          0.02740563079714775,
          -0.028326939791440964,
          -0.004493686370551586,
          0.041960716247558594,
          -0.04969756677746773,
          0.006456518080085516,
          -0.001996241742745042,
          -0.004504053387790918,
          0.03221617266535759,
          -0.015108853578567505,
          0.040710411965847015
        ],
        [
          -0.042523402720689774,
          0.01917499117553234,
          0.004670619964599609,
          -0.04245298355817795,
          0.03763004019856453,
          0.013358612544834614,
          0.01333688385784626,
          0.028889035806059837,
          -0.006694316398352385,
          -0.04808788374066353,
          -0.02239885926246643,
          -0.02383248135447502,
          0.011669025756418705,
          -0.025800758972764015,
          0.023046070709824562,
          0.006770485080778599,
          -0.026271648705005646,
          0.015050221234560013,
          0.027952414005994797,
          -0.02381146512925625,
          -0.020891377702355385,
          -0.03070555068552494,
          -0.02405691333115101,
          0.020071743056178093,
          -0.0431988500058651,
          -0.0119305569678545,
          -0.02126968838274479,
          0.004292271565645933,
          -0.027328871190547943,
          -0.0038436902686953545,
          -0.022742578759789467,
          0.04938619211316109,
          0.04483833909034729,
          0.01900790072977543,
          -0.028786666691303253,
          -0.03857613727450371,
          0.006346091162413359,
          -0.006952103693038225,
          -0.04033536836504936,
          -0.04700884968042374,
          0.011918500997126102,
          -0.022672994062304497,
          0.023705212399363518,
          -0.014379003085196018,
          0.02843109890818596,
          -0.03130287677049637,
          0.004173354245722294,
          -0.035374805331230164,
          0.011845665983855724,
          -0.02968360297381878,
          0.031653162091970444,
          -0.03462810814380646,
          -0.0003032799286302179,
          0.031141161918640137,
          -0.03977344557642937,
          -0.04005315527319908,
          0.006231187842786312,
          0.02111961878836155,
          -0.025521857663989067,
          0.0315689854323864,
          -0.04475501924753189,
          0.020718108862638474,
          0.007766983471810818,
          0.03011230379343033,
          -0.039218343794345856,
          0.013744485564529896,
          -0.014049043878912926,
          0.017669251188635826,
          0.03822673112154007,
          0.007949933409690857,
          0.04162197932600975,
          0.041480306535959244,
          -0.02197205275297165,
          0.06243935227394104,
          0.021480783820152283,
          -0.004506218247115612,
          0.010204648599028587,
          0.004050045274198055,
          -0.018765779212117195,
          -0.037695690989494324,
          -0.03611587733030319,
          0.02872828207910061,
          -0.03292251005768776,
          0.013406023383140564,
          -0.015758009627461433,
          -0.03658977150917053,
          -0.03247646614909172,
          -0.02372121438384056,
          -0.007984008640050888,
          0.05439009517431259,
          -0.005313484463840723,
          -0.012411226518452168,
          0.03181513026356697,
          -0.031193112954497337,
          -0.003616612870246172,
          -0.0028484498616307974,
          0.024940721690654755,
          0.02053646929562092,
          -0.004671045113354921,
          0.023332227021455765,
          0.06592865288257599,
          0.060202885419130325,
          0.03234170004725456,
          0.09042948484420776,
          0.0730874165892601,
          0.08883415162563324,
          -0.009725225158035755,
          0.03179819509387016,
          0.030501140281558037,
          -0.035645291209220886,
          -0.04316689074039459,
          0.04058662801980972,
          -8.993457595352083e-05,
          0.002471150830388069,
          0.015745559707283974,
          0.013389534316956997,
          0.045771799981594086,
          0.07735638320446014,
          0.030629359185695648,
          -0.009045428596436977,
          0.0635073259472847,
          0.021210927516222,
          0.03430624678730965,
          0.08973201364278793,
          0.10660066455602646,
          0.06044310703873634,
          0.011222265660762787,
          0.031943634152412415,
          0.05620257556438446,
          0.018359463661909103,
          0.02426667883992195,
          0.08201348781585693,
          0.04507788270711899,
          0.01990150287747383,
          0.013573524542152882,
          0.021245388314127922,
          0.012462137266993523,
          0.04586842656135559,
          0.02612537145614624,
          -0.025430932641029358,
          0.0205598883330822,
          0.03512768819928169,
          0.0010486433748155832,
          -0.0012155813165009022,
          -0.0008568302728235722,
          0.026090867817401886,
          0.02980991266667843,
          0.07327229529619217,
          0.020084215328097343,
          0.04695512354373932,
          0.03145427629351616,
          0.05937117710709572,
          -0.006383462809026241,
          0.033224236220121384,
          -0.028707364574074745,
          0.014341768808662891,
          0.08343912661075592,
          -0.01402911264449358,
          0.07340814918279648,
          0.061459071934223175,
          0.05580420419573784,
          0.016039971262216568,
          -0.004393806681036949,
          0.02442598156630993,
          0.09933546185493469,
          0.004777092952281237,
          -0.008780469186604023,
          0.028441105037927628,
          0.014613635838031769,
          -0.0042708199471235275,
          -0.007826645858585835,
          -0.016519350931048393,
          0.03552806377410889,
          0.0425543338060379,
          0.08213558048009872,
          0.08313113451004028,
          0.03986078500747681,
          0.1166851744055748,
          0.06551190465688705,
          0.02491402067244053,
          0.04579262435436249,
          -0.059206511825323105,
          -0.021844778209924698,
          -0.0073707872070372105,
          0.009953973814845085,
          -0.06799198687076569,
          0.02357443980872631,
          0.021385541185736656,
          0.04966306686401367,
          0.06444457918405533,
          0.06142200902104378,
          0.09760896116495132,
          0.1557256281375885,
          0.06996205449104309,
          -0.009274550713598728,
          0.04373893514275551,
          -0.016982069239020348,
          0.04629100486636162,
          0.02177227847278118,
          0.030386168509721756,
          0.07127682864665985,
          0.08027315139770508,
          0.056908007711172104,
          0.030424123629927635,
          -0.0028863942716270685,
          0.021578475832939148,
          -0.006577438209205866,
          -0.05390340834856033,
          -0.023034071549773216,
          -0.010323729366064072,
          0.0002447799779474735,
          -0.031820546835660934,
          -0.0728672444820404,
          -0.006232115440070629,
          -0.03308688476681709,
          -0.017660977318882942,
          0.09845392405986786,
          0.04349879175424576,
          0.04474189877510071,
          0.020158322528004646,
          0.05898196995258331,
          0.0944833979010582,
          0.030924534425139427,
          0.04268522188067436,
          -0.02937893383204937,
          0.001713649951852858,
          -0.04783324897289276,
          -0.03625188395380974,
          0.00236666202545166,
          0.0358312651515007,
          0.011508754454553127,
          0.05569544807076454,
          -0.013672052882611752,
          0.02112443745136261,
          -0.042629096657037735,
          -0.06163763254880905,
          0.06731719523668289,
          0.01758706569671631,
          -0.017744585871696472,
          -0.05164038762450218,
          -0.031179603189229965,
          -0.0817413404583931,
          -0.04757118970155716,
          0.002966847736388445,
          -0.00624449085444212,
          0.00981548149138689,
          0.06165241450071335,
          0.04056475684046745,
          0.05057966709136963,
          0.09232766926288605,
          0.030965911224484444,
          0.03906232863664627,
          -0.003926485311239958,
          0.02135251834988594,
          0.032772623002529144,
          0.029680080711841583,
          0.0578768253326416,
          -0.011608932167291641,
          0.00885979738086462,
          0.0450848750770092,
          -0.016692934557795525,
          -0.050570178776979446,
          -0.05796348676085472,
          0.025296974927186966,
          0.06442265212535858,
          -0.021752189844846725,
          -0.03572268784046173,
          -0.10055182129144669,
          -0.08972951024770737,
          -0.026411479339003563,
          0.047661490738391876,
          0.0032501721289008856,
          0.04513542726635933,
          0.07542518526315689,
          -0.010284936986863613,
          0.0009015189716592431,
          0.04994472861289978,
          0.078014075756073,
          -0.009145976044237614,
          -0.02370438352227211,
          0.021446971222758293,
          -0.014866678044199944,
          -0.048957061022520065,
          -0.0056613353081047535,
          0.04812443628907204,
          -0.006576430518180132,
          -0.0248189065605402,
          -0.019207259640097618,
          0.02857278287410736,
          -0.02082865871489048,
          -0.03531384468078613,
          -0.016265718266367912,
          0.05795927345752716,
          0.024539634585380554,
          -0.03618067502975464,
          -0.10243039578199387,
          -0.01631023921072483,
          -0.03881039470434189,
          0.02559603378176689,
          0.033701375126838684,
          0.06165027618408203,
          0.012391061522066593,
          0.05851992592215538,
          0.017648018896579742,
          0.025516480207443237,
          0.043900907039642334,
          0.04256870970129967,
          -0.04734840989112854,
          0.007683104835450649,
          0.026918869465589523,
          0.014474738389253616,
          -0.024787701666355133,
          -0.027764486148953438,
          -0.0632859393954277,
          0.013259495608508587,
          0.005353052169084549,
          -0.001500717713497579,
          0.06439260393381119,
          0.022559870034456253,
          0.09110785275697708,
          0.0702672004699707,
          -0.0008575859828852117,
          -0.04187489300966263,
          -0.015437789261341095,
          0.060563500970602036,
          -0.004025863017886877,
          0.0050747087225317955,
          -0.03087436594069004,
          -0.04083401337265968,
          -0.02445567212998867,
          -0.011090660467743874,
          -0.022708572447299957,
          0.007750392891466618,
          0.015731999650597572,
          -0.038046784698963165,
          -0.039176832884550095,
          0.03107314370572567,
          0.021476583555340767,
          -0.035015419125556946,
          -0.022683387622237206,
          0.03653407096862793,
          -0.03625710308551788,
          -0.03807319328188896,
          0.03274989873170853,
          0.03757761791348457,
          -0.047869086265563965,
          0.03430074825882912,
          0.06876224279403687,
          0.08317642658948898,
          0.05871487781405449,
          0.004256857559084892,
          0.08178738504648209,
          0.008577718399465084,
          0.05893489345908165,
          -0.007822073996067047,
          -0.011096933856606483,
          -0.019519180059432983,
          -0.055701304227113724,
          0.03759816661477089,
          -0.0015596909215673804,
          -0.03857912868261337,
          -0.0019460542825981975,
          -0.013780717737972736,
          0.033019013702869415,
          -0.02554958499968052,
          -0.03408028557896614,
          0.03739549219608307,
          0.025624096393585205,
          0.030920224264264107,
          0.04866963252425194,
          -0.0266378466039896,
          -0.08858584612607956,
          -0.016256513074040413,
          -0.03001636266708374,
          0.0621919184923172,
          0.023726915940642357,
          0.06033587455749512,
          0.06122517213225365,
          0.04491465911269188,
          0.08724933117628098,
          0.15894019603729248,
          0.09381283819675446,
          0.07238827645778656,
          0.0457010492682457,
          -0.014457974582910538,
          0.0197806004434824,
          -0.02974390983581543,
          -0.008201373741030693,
          0.026362158358097076,
          0.020932933315634727,
          -0.05448552221059799,
          0.013687786646187305,
          -0.04269115626811981,
          0.04909595847129822,
          0.018915235996246338,
          0.02456015720963478,
          -0.027969462797045708,
          -0.022586729377508163,
          0.035514719784259796,
          0.04542884603142738,
          -0.018480267375707626,
          -0.034989167004823685,
          -0.03042803332209587,
          -0.048668671399354935,
          0.019112898036837578,
          0.0314590148627758,
          0.09410907328128815,
          0.09470877796411514,
          0.11063658446073532,
          0.006738774012774229,
          0.10344195365905762,
          0.02093423902988434,
          0.00016566517297178507,
          -0.07083498686552048,
          -0.05849228426814079,
          -0.040612753480672836,
          0.04113372042775154,
          0.04005761444568634,
          -0.009803137741982937,
          -0.004434711299836636,
          0.016876641660928726,
          -0.045119814574718475,
          0.04332995414733887,
          0.06704701483249664,
          -0.011485456489026546,
          0.03266144171357155,
          -0.03282016143202782,
          -0.017907174304127693,
          -0.05709276720881462,
          -0.07397354394197464,
          -0.025032300502061844,
          -0.05176796764135361,
          0.0032144184224307537,
          0.06864491105079651,
          0.12778888642787933,
          0.12793171405792236,
          0.02201935462653637,
          0.08855073153972626,
          0.007070193067193031,
          0.0114720668643713,
          0.04683835804462433,
          -0.023552536964416504,
          0.0027678930200636387,
          -0.023151949048042297,
          0.04862823337316513,
          0.013004601001739502,
          -0.00888703390955925,
          -0.04192729294300079,
          0.024446982890367508,
          -0.03379834070801735,
          -0.020667310804128647,
          0.05708735063672066,
          0.007745999377220869,
          0.006829146761447191,
          0.018031500279903412,
          -0.004884837660938501,
          -0.04290818050503731,
          -0.015518014319241047,
          -0.06600385159254074,
          0.023768309503793716,
          -0.004095018841326237,
          0.07079259306192398,
          0.0509452223777771,
          -0.008002080023288727,
          -0.0014339231420308352,
          0.005218525417149067,
          0.04759741201996803,
          -0.01412480790168047,
          -0.009685485623776913,
          0.020762594416737556,
          0.006693613715469837,
          -0.05067780613899231,
          -0.026254981756210327,
          -0.05786297097802162,
          -0.05934332683682442,
          0.01532043144106865,
          0.034687478095293045,
          -0.03882811591029167,
          0.04947378486394882,
          -0.013814816251397133,
          -0.010135608725249767,
          -0.022948414087295532,
          0.01578649878501892,
          -0.022026481106877327,
          -0.025611164048314095,
          0.003996099811047316,
          -0.0549846813082695,
          -0.0015471348306164145,
          0.06358378380537033,
          0.05570868402719498,
          0.03129665553569794,
          0.03521380573511124,
          -0.015890268608927727,
          -0.051499344408512115,
          -0.01791977323591709,
          -0.009553753770887852,
          0.04037013649940491,
          0.03838179633021355,
          0.015635952353477478,
          0.01981949992477894,
          -0.035765837877988815,
          0.018828364089131355,
          0.01394472923129797,
          0.026043787598609924,
          -0.009075462818145752,
          -0.004204912576824427,
          0.03193584084510803,
          -0.00949654821306467,
          0.05064135417342186,
          0.04618269205093384,
          0.0008390644215978682,
          0.044783223420381546,
          0.01427924633026123,
          -0.011837296187877655,
          0.06998971104621887,
          0.040791597217321396,
          0.036164890974760056,
          0.0507865771651268,
          0.021066976711153984,
          -0.02014065533876419,
          -0.01717577874660492,
          -0.011132796294987202,
          -0.0617288276553154,
          -0.00801931694149971,
          0.002996738301590085,
          -0.01433295477181673,
          -0.018140142783522606,
          0.01563885621726513,
          -0.01799047365784645,
          0.004556674510240555,
          0.03420806676149368,
          -0.017484840005636215,
          -0.00659705838188529,
          0.007376210764050484,
          -0.04195568338036537,
          0.0736234039068222,
          0.029393518343567848,
          0.03883190453052521,
          -0.007218615617603064,
          0.06982727348804474,
          -0.003340654307976365,
          -0.03839108347892761,
          -0.01613507606089115,
          0.021463241428136826,
          -0.0015855227829888463,
          0.00543507095426321,
          0.06592482328414917,
          -0.011435434222221375,
          -0.01776758022606373,
          0.004430889151990414,
          0.0615101121366024,
          0.08360595256090164,
          -0.010249782353639603,
          0.011941506527364254,
          0.0005146718467585742,
          0.022259583696722984,
          0.024057487025856972,
          0.042521100491285324,
          0.002563908463343978,
          0.0034727773163467646,
          0.02385132387280464,
          -0.01113523542881012,
          -0.019683673977851868,
          0.023762229830026627,
          -0.0479801669716835,
          0.018060728907585144,
          0.05426380783319473,
          -0.01945755071938038,
          0.04723899066448212,
          -0.044300373643636703,
          0.013119561597704887,
          -0.10129807889461517,
          0.0010993520263582468,
          -0.06968311220407486,
          0.030203286558389664,
          -0.00022333119704853743,
          -0.03807650879025459,
          0.028452042490243912,
          -0.022882292047142982,
          -0.02856793999671936,
          0.004780495539307594,
          -0.005598088260740042,
          -0.0014660157030448318,
          0.051507044583559036,
          0.015856873244047165,
          0.009266551584005356,
          0.017397163435816765,
          0.0009447354823350906,
          0.04809024557471275,
          0.016973990947008133,
          0.005414142739027739,
          0.055796097964048386,
          0.012364814057946205,
          -0.05324859917163849,
          -0.05469701439142227,
          0.020399026572704315,
          -0.015295554883778095,
          0.03184843808412552,
          0.022213876247406006,
          -0.04345310479402542,
          0.04587819054722786,
          0.03803125023841858,
          0.007322018966078758,
          0.034867625683546066,
          0.07637275010347366,
          0.028716860339045525,
          0.018175281584262848,
          0.04270632192492485,
          0.02620663307607174,
          0.08935270458459854,
          0.050298746675252914,
          0.037535253912210464,
          -0.025210324674844742,
          -0.020267147570848465,
          0.022742168977856636,
          0.015742933377623558,
          -0.04160747304558754,
          0.0010242132702842355,
          0.013757218606770039,
          0.005057043395936489,
          0.017435509711503983,
          -0.016177065670490265,
          -0.05445829778909683,
          -0.0415424183011055,
          0.0033422582782804966,
          -0.013127182610332966,
          -0.0014163788873702288,
          -0.020289167761802673,
          -0.04592312127351761,
          -0.05538800358772278,
          0.028949055820703506,
          -0.031679946929216385,
          0.029460975900292397,
          0.06684242188930511,
          0.013200257904827595,
          0.002481184434145689,
          0.028105469420552254,
          0.019966263324022293,
          -0.012354490347206593,
          -0.004244754556566477,
          0.007288745604455471,
          0.04335413873195648,
          0.03698092699050903,
          0.01727227494120598,
          0.022541021928191185,
          0.007005446124821901,
          0.03066418319940567,
          0.04279766604304314,
          0.05277632921934128,
          -0.08084730058908463,
          -0.05345816910266876,
          -0.019520703703165054,
          0.01653708890080452,
          -0.06872343271970749,
          -0.03453211113810539,
          -0.059108275920152664,
          0.0011483487905934453,
          0.010145994834601879,
          -0.00040530183468945324,
          0.013722077012062073,
          0.02550092525780201,
          0.04650963470339775,
          0.023106401786208153,
          0.018626919016242027,
          0.021467210724949837,
          0.07041511684656143,
          -0.018697360530495644,
          -0.010368937626481056,
          -0.01462467759847641,
          -0.033089205622673035,
          -0.039915405213832855,
          -0.009544623084366322,
          0.03068629652261734,
          0.03141140937805176,
          -0.022596441209316254,
          0.02200446091592312,
          0.02496609091758728,
          -0.025631185621023178,
          0.047829385846853256,
          -0.03009624220430851,
          0.058882202953100204,
          0.06678072363138199,
          0.0065791369415819645,
          0.08072450011968613,
          0.01006095390766859,
          0.06421614438295364,
          0.0067772106267511845,
          0.09330073744058609,
          0.06472894549369812,
          0.015857940539717674,
          0.009762256406247616,
          0.0008474856149405241,
          0.005500153638422489,
          -0.02997721917927265,
          0.05105142667889595,
          0.0031984394881874323,
          0.014167934656143188,
          0.04256116971373558,
          -0.018061911687254906,
          -0.02881617657840252,
          -0.03901003301143646,
          0.04685144126415253,
          -0.03941414877772331,
          0.027822919189929962,
          -0.0009932158282026649,
          -0.028591174632310867,
          -0.0004120628582313657,
          0.036882709711790085,
          0.04246267303824425,
          0.1162678599357605,
          0.044103384017944336,
          0.10430525243282318,
          0.11939866840839386,
          0.10750425606966019,
          0.07097669690847397,
          0.014874868094921112,
          0.03829352185130119,
          -0.0023948594462126493,
          -0.0025492184795439243,
          0.054807402193546295,
          0.00973091833293438,
          -0.05165184661746025,
          -0.0014580670977011323,
          -0.019411582499742508,
          -0.03694380074739456,
          0.045069217681884766,
          -0.0430828295648098,
          0.0504378005862236,
          0.04306365177035332,
          -0.027546051889657974,
          0.02262331359088421,
          0.03354668244719505,
          0.02512543648481369,
          0.026041017845273018,
          -0.0173146091401577,
          -0.013860338367521763,
          -0.0024606045335531235,
          -0.02017032727599144,
          -0.034239865839481354,
          0.04589392617344856,
          0.0172292347997427,
          -0.03523299843072891,
          0.019290780648589134,
          0.021892724558711052,
          -0.03057500161230564,
          -0.04246445745229721,
          0.004406605381518602,
          0.042333852499723434,
          0.03406456857919693,
          0.04282068461179733,
          0.029563693329691887,
          -0.006118759047240019,
          0.03519715368747711,
          -0.02734510414302349,
          0.044880211353302,
          -0.012717986479401588,
          -0.005074758548289537,
          0.0235391054302454,
          -0.03790019080042839,
          -0.034338485449552536,
          0.013107254169881344,
          -0.04451848939061165,
          -0.051208481192588806,
          -0.0077732824720442295,
          0.04067423567175865,
          -0.04178314283490181,
          -0.03080998733639717,
          0.01631595566868782,
          -0.03879643604159355,
          -0.003084758995100856,
          -0.004009417723864317,
          0.03370637074112892,
          -0.04473458603024483,
          -0.01615184359252453,
          -0.04526923596858978,
          -0.03376604616641998,
          0.03915494307875633,
          0.04415755346417427,
          0.034738264977931976,
          -0.027229495346546173,
          -0.011129045858979225,
          0.04539051651954651,
          0.042807869613170624,
          -0.010303733870387077
        ],
        [
          0.017857633531093597,
          -0.04411911964416504,
          0.01250819955021143,
          -0.017705706879496574,
          -0.045901525765657425,
          -0.03383222967386246,
          0.050507426261901855,
          0.047915343195199966,
          0.037075262516736984,
          -0.01567157171666622,
          0.007124421186745167,
          0.049078673124313354,
          -0.0006982354097999632,
          -0.02692592330276966,
          -0.032275665551424026,
          -0.007058451417833567,
          0.025685492902994156,
          0.026805492118000984,
          0.048183292150497437,
          0.017296146601438522,
          0.011791065335273743,
          0.008009356446564198,
          0.005636738613247871,
          0.0451514832675457,
          0.017344415187835693,
          -0.0235437098890543,
          -0.0398348793387413,
          -0.03712868690490723,
          -0.019416432827711105,
          -0.03320641815662384,
          -0.05039826035499573,
          0.019075464457273483,
          -0.030744215473532677,
          0.03636295348405838,
          0.024030640721321106,
          0.029175322502851486,
          -0.005980100017040968,
          0.044489722698926926,
          0.016177842393517494,
          -0.022427724674344063,
          -0.029922733083367348,
          -0.014387240633368492,
          -0.04178207740187645,
          0.001969598699361086,
          -0.0008161966106854379,
          0.013516994193196297,
          -0.042351771146059036,
          0.043787285685539246,
          -0.040536731481552124,
          0.049088314175605774,
          -0.032750535756349564,
          0.04089268296957016,
          0.013566146604716778,
          0.002117911586537957,
          0.023691151291131973,
          -0.007658154703676701,
          0.04447070509195328,
          -0.032849330455064774,
          -0.015778636559844017,
          0.04999012500047684,
          0.04936479404568672,
          0.011394626460969448,
          0.009616242721676826,
          -0.009579852223396301,
          -0.018290899693965912,
          -0.013889477588236332,
          -0.00598955387249589,
          0.004737510345876217,
          -0.0004949053400196135,
          0.05150656774640083,
          -0.003374523250386119,
          0.009450657293200493,
          -0.00015297105710487813,
          -0.033989112824201584,
          0.02856302447617054,
          -0.02024126797914505,
          0.04875979945063591,
          0.03249957412481308,
          0.0007487879483960569,
          0.017806096002459526,
          0.036535829305648804,
          0.04067933186888695,
          -0.04881325364112854,
          0.043144628405570984,
          -0.017191512510180473,
          -0.040933165699243546,
          0.03403565660119057,
          -0.0022932454012334347,
          0.015317372046411037,
          0.04643728584051132,
          -0.01681094989180565,
          0.03625495731830597,
          0.06729812175035477,
          0.04418842867016792,
          0.08732489496469498,
          0.002068164525553584,
          0.09295549243688583,
          0.02021077834069729,
          -0.01565713807940483,
          0.021222876384854317,
          -0.031132226809859276,
          0.0128446314483881,
          0.0017132691573351622,
          -0.015382952056825161,
          -0.013419870287179947,
          -0.04031485691666603,
          -0.024562785401940346,
          -0.049133069813251495,
          0.040580738335847855,
          -0.04948899522423744,
          -0.03272603079676628,
          -0.004446536302566528,
          -0.02834034524857998,
          -0.044320907443761826,
          0.007419496309012175,
          0.042659398168325424,
          -0.0361139252781868,
          -0.027122698724269867,
          0.004989905748516321,
          -0.002311518881469965,
          0.0758063793182373,
          0.025037061423063278,
          0.07222805172204971,
          0.06476395577192307,
          0.019280146807432175,
          0.026448793709278107,
          0.008722886443138123,
          -0.03354702144861221,
          0.02878781408071518,
          -0.007928622886538506,
          0.000378828146494925,
          -0.002530730562284589,
          -0.0410630963742733,
          -0.014030626974999905,
          -0.010572941042482853,
          0.009824298322200775,
          0.02775661088526249,
          -0.034563325345516205,
          -0.039696887135505676,
          -0.040376126766204834,
          -0.040900327265262604,
          -0.04360326752066612,
          -0.035799771547317505,
          -0.003246810520067811,
          0.027632232755422592,
          0.046783845871686935,
          0.037698712199926376,
          0.05289250612258911,
          0.019796842709183693,
          0.059338584542274475,
          0.0712512731552124,
          0.009775001555681229,
          -0.022564053535461426,
          -0.053469762206077576,
          -0.06500042229890823,
          -0.02316061593592167,
          0.016561521217226982,
          0.06628381460905075,
          -0.055560868233442307,
          -0.0026013958267867565,
          -0.012296797707676888,
          -0.00724392756819725,
          -0.11107815057039261,
          -0.041687123477458954,
          -0.03783125430345535,
          -0.018379105255007744,
          0.00844424869865179,
          0.05137033760547638,
          0.04957829415798187,
          -0.042187873274087906,
          -0.00377336866222322,
          -0.02220945805311203,
          0.044152189046144485,
          -0.04438461363315582,
          -0.004478817339986563,
          0.02657984383404255,
          0.013806132599711418,
          0.02560943365097046,
          0.004862861707806587,
          0.021784327924251556,
          -0.04981530085206032,
          -0.05025256797671318,
          -0.07999028265476227,
          -0.01171155646443367,
          -0.07761628180742264,
          -0.007060397416353226,
          -0.13802729547023773,
          -0.04342402145266533,
          -0.06685571372509003,
          -0.10024675726890564,
          -0.09203950315713882,
          -0.07641422003507614,
          0.034962933510541916,
          -0.028099237009882927,
          -0.0005653652478940785,
          -0.02138369157910347,
          0.049338772892951965,
          -0.008906750939786434,
          0.011136993765830994,
          -0.05314210429787636,
          0.028787778690457344,
          -0.009248406626284122,
          0.000464902026578784,
          0.016362840309739113,
          0.015236804261803627,
          -0.0051225158385932446,
          -0.005302101373672485,
          0.02251063473522663,
          -0.07157900929450989,
          -0.10322711616754532,
          -0.1295948624610901,
          -0.10029055923223495,
          -0.08653987944126129,
          -0.08231829106807709,
          -0.1374443918466568,
          -0.0703381896018982,
          -0.10453782975673676,
          -0.047975871711969376,
          -0.10701248049736023,
          -0.06575163453817368,
          0.044382259249687195,
          0.0030429570470005274,
          -0.01557031087577343,
          0.026854412630200386,
          -0.007448137737810612,
          -0.03324974328279495,
          0.008783655241131783,
          -0.054554447531700134,
          -0.006130118854343891,
          -0.04235002025961876,
          0.005307782907038927,
          0.008989192545413971,
          0.05405934900045395,
          0.016165578737854958,
          -0.011991375125944614,
          -0.01021611038595438,
          -0.04917601868510246,
          -0.11234426498413086,
          -0.07468336075544357,
          -0.08471614867448807,
          -0.05808251351118088,
          -0.008395519107580185,
          -0.013705306686460972,
          -0.10519867390394211,
          -0.036044612526893616,
          -0.06759356707334518,
          -0.061708688735961914,
          -0.06890923529863358,
          -0.04128577932715416,
          0.024080391973257065,
          0.027080168947577477,
          -0.023951241746544838,
          -0.021752100437879562,
          0.04280191287398338,
          0.03434498608112335,
          0.028827456757426262,
          -0.01579630933701992,
          -0.007791426498442888,
          -0.007019959855824709,
          -0.031945012509822845,
          -0.007091570179909468,
          0.037690699100494385,
          -0.08382095396518707,
          -0.025147179141640663,
          -0.07162752002477646,
          -0.0694141536951065,
          -0.07813113182783127,
          0.014409187249839306,
          -0.012280690483748913,
          0.05471285805106163,
          -0.06998667865991592,
          -0.07281061261892319,
          0.031993698328733444,
          0.018910208716988564,
          -0.0012845040764659643,
          -0.027926338836550713,
          -3.095548663623049e-06,
          0.031786657869815826,
          -0.030798543244600296,
          -0.001508437911979854,
          0.041151758283376694,
          0.007229397539049387,
          0.0437554195523262,
          -0.006909356452524662,
          0.00983423925936222,
          -0.03696639463305473,
          -0.057057563215494156,
          -0.019189121201634407,
          0.005542638711631298,
          -0.016404135152697563,
          -0.07004647701978683,
          -0.052333295345306396,
          -0.12439136207103729,
          -0.13717050850391388,
          -0.01902240514755249,
          -0.05038122460246086,
          -0.06458594650030136,
          0.022484581917524338,
          -0.09191406518220901,
          -0.09822680056095123,
          0.020327843725681305,
          0.02289557084441185,
          0.012190613895654678,
          0.03116670995950699,
          0.010526886209845543,
          -0.034059714525938034,
          0.0019740313291549683,
          -0.049671392887830734,
          0.014577168971300125,
          0.013255229219794273,
          0.03274133428931236,
          -0.015201415866613388,
          -0.04445718601346016,
          -0.04490493983030319,
          -0.062042489647865295,
          -0.016767485067248344,
          -0.05615716800093651,
          -0.022934162989258766,
          -0.04618050903081894,
          -0.025766482576727867,
          -0.031375981867313385,
          -0.06437454372644424,
          -0.08350911736488342,
          -0.06552653759717941,
          -0.05005721375346184,
          -0.05759522691369057,
          -0.163217231631279,
          -0.08848780393600464,
          -0.08280240744352341,
          0.017238762229681015,
          -0.05742115527391434,
          0.05169520154595375,
          0.059427157044410706,
          0.001815154915675521,
          -0.008692534640431404,
          0.013157141394913197,
          0.005880902521312237,
          0.02616856060922146,
          -0.009673474356532097,
          -0.02410094626247883,
          -0.06379491090774536,
          -0.10100176185369492,
          -0.01609056442975998,
          -0.11267536133527756,
          -0.0816986933350563,
          -0.06875411421060562,
          0.027422279119491577,
          0.016128860414028168,
          0.039082661271095276,
          0.009629222564399242,
          -0.017554907128214836,
          -0.06474046409130096,
          -0.004119184799492359,
          -0.10162018239498138,
          -0.14813588559627533,
          -0.09360861778259277,
          -0.06102300062775612,
          -0.019465282559394836,
          0.019586021080613136,
          -0.01541571132838726,
          0.051381565630435944,
          -0.013368750922381878,
          -0.013279086910188198,
          0.008797225542366505,
          -0.048476267606019974,
          -0.0010656780796125531,
          -0.04187283664941788,
          -0.04763592407107353,
          -0.06047717481851578,
          -0.040523990988731384,
          -0.05301452428102493,
          -0.05135485157370567,
          -0.03579515218734741,
          0.06088491529226303,
          0.10542885214090347,
          0.10426288843154907,
          0.11822692304849625,
          0.05299532786011696,
          0.03097095526754856,
          -0.009352542459964752,
          -0.03744429349899292,
          -0.054192766547203064,
          -0.08101680874824524,
          -0.0788181722164154,
          -0.06614597141742706,
          -0.0021634104195982218,
          0.013902618549764156,
          0.1268022358417511,
          0.10588443279266357,
          0.06685135513544083,
          0.06037429720163345,
          0.044891539961099625,
          0.04883991554379463,
          0.0232464000582695,
          0.011546165682375431,
          0.040529828518629074,
          0.049391601234674454,
          0.04321105033159256,
          0.012729747220873833,
          0.0041483924724161625,
          0.021671419963240623,
          0.02401762641966343,
          0.1209682896733284,
          0.1766875833272934,
          0.12205395102500916,
          0.1008230596780777,
          0.08352715522050858,
          -0.011009124107658863,
          -0.02318628318607807,
          -0.060780659317970276,
          -0.03513895347714424,
          -0.00613358011469245,
          -0.03166726976633072,
          0.01535259373486042,
          0.04469938948750496,
          0.11435119062662125,
          0.06079406291246414,
          0.04075109213590622,
          -0.01197340153157711,
          -0.010134096257388592,
          -0.02101043425500393,
          0.03645791485905647,
          -0.004805430769920349,
          -0.006479925941675901,
          0.06449665874242783,
          0.06708958745002747,
          0.08580945432186127,
          -0.0646008551120758,
          -0.02175624668598175,
          0.01122046634554863,
          0.09754029661417007,
          0.07226400077342987,
          0.09831288456916809,
          0.06274279952049255,
          0.04362822324037552,
          0.0023087922018021345,
          0.04336996749043465,
          0.010390649549663067,
          -0.0035729114897549152,
          0.03583388030529022,
          0.06291775405406952,
          0.06121820583939552,
          0.1076730415225029,
          0.08883173763751984,
          0.09468944370746613,
          0.04956105723977089,
          0.06356832385063171,
          -0.03344471752643585,
          -0.015798859298229218,
          0.04982711002230644,
          -0.01053460594266653,
          0.036548953503370285,
          -0.020826609805226326,
          0.016818515956401825,
          -0.01834183558821678,
          0.008214971981942654,
          -0.025606395676732063,
          0.03331106901168823,
          0.04655496031045914,
          -0.017972301691770554,
          0.019627857953310013,
          0.06564672291278839,
          0.13042423129081726,
          0.04130256921052933,
          0.013200382702052593,
          0.07343573868274689,
          0.10927291214466095,
          0.10989952832460403,
          0.06071905791759491,
          0.07533398270606995,
          0.10727483779191971,
          0.1083645224571228,
          0.10955900698900223,
          0.10855434834957123,
          0.00042275822488591075,
          0.03303893655538559,
          -0.037222377955913544,
          0.007994679734110832,
          0.04162491858005524,
          0.011569332331418991,
          0.06440383195877075,
          0.112092025578022,
          0.08780113607645035,
          0.04462972655892372,
          0.06362440437078476,
          -0.061802174896001816,
          -0.05588877573609352,
          0.043046627193689346,
          0.03795962780714035,
          0.05320063233375549,
          0.017215078696608543,
          0.0502559058368206,
          0.0756966769695282,
          0.139457106590271,
          0.14936988055706024,
          0.14383278787136078,
          0.054995812475681305,
          0.08178302645683289,
          0.075487419962883,
          0.06891829520463943,
          0.061119575053453445,
          0.03079078160226345,
          -0.014152135699987411,
          0.03505751118063927,
          -0.04485469311475754,
          0.008882243186235428,
          -0.00728658027946949,
          -0.023066658526659012,
          0.03418572619557381,
          0.04878643527626991,
          0.04680009186267853,
          0.1123872920870781,
          0.03617282584309578,
          0.014814347960054874,
          0.008160119876265526,
          0.06512948125600815,
          0.011462743394076824,
          0.04410535842180252,
          0.02614329569041729,
          0.07898969203233719,
          0.09892119467258453,
          0.1605159491300583,
          0.15482033789157867,
          0.05537256598472595,
          0.07129457592964172,
          0.0483345203101635,
          0.056012216955423355,
          0.08745323866605759,
          0.05589877814054489,
          0.07850319147109985,
          -0.017143135890364647,
          0.013387531042098999,
          -0.0025763288140296936,
          0.010837135836482048,
          -0.01073981449007988,
          -0.0158535223454237,
          0.04541023448109627,
          0.06836405396461487,
          0.1080692782998085,
          0.05232498422265053,
          0.08417925983667374,
          0.0508243702352047,
          0.06330617517232895,
          0.0963338240981102,
          0.08620345592498779,
          0.036848146468400955,
          0.08424662053585052,
          0.11646163463592529,
          0.1858566403388977,
          0.08118591457605362,
          0.057921506464481354,
          0.03528764843940735,
          0.0013021858176216483,
          0.0587548203766346,
          0.03006698749959469,
          0.06741710752248764,
          0.1186765655875206,
          0.02382056973874569,
          0.023364931344985962,
          0.03310397267341614,
          -0.03443290665745735,
          -0.006220549810677767,
          -0.013518573716282845,
          0.055097244679927826,
          0.036757636815309525,
          -0.04994267225265503,
          0.05084843188524246,
          0.07847299426794052,
          0.05047564581036568,
          0.1256767064332962,
          0.06575718522071838,
          0.08205946534872055,
          0.09626500308513641,
          0.004724913742393255,
          0.05165017023682594,
          0.0908779501914978,
          -0.000751919811591506,
          0.017189010977745056,
          0.026087887585163116,
          -0.022667843848466873,
          0.014553805813193321,
          -0.022294901311397552,
          0.03136744722723961,
          0.038116008043289185,
          0.027028247714042664,
          0.014517543837428093,
          0.018233036622405052,
          -0.04459661990404129,
          -0.030182072892785072,
          0.02043665386736393,
          -0.02420773357152939,
          0.05443824455142021,
          0.06235113739967346,
          0.03204978257417679,
          0.06993872672319412,
          0.03738287091255188,
          0.08047689497470856,
          0.04223424941301346,
          0.1444716453552246,
          0.08623113483190536,
          0.07939621061086655,
          -0.03873153030872345,
          -0.06656119227409363,
          -0.05563844367861748,
          -0.12226984649896622,
          -0.13848435878753662,
          -0.05652468279004097,
          -0.062090855091810226,
          0.0028071445412933826,
          0.0627354234457016,
          0.013348376378417015,
          -0.00015043366875033826,
          0.052386123687028885,
          0.011342850513756275,
          0.03655778616666794,
          -0.043962106108665466,
          0.0017812922596931458,
          0.025742923840880394,
          -0.019986845552921295,
          0.029916711151599884,
          0.011454090476036072,
          -0.039208751171827316,
          -0.022604158148169518,
          -0.02718857303261757,
          0.03145864978432655,
          0.09156234562397003,
          9.562329069012776e-05,
          -0.0024801921099424362,
          0.044052060693502426,
          -0.07418564707040787,
          -0.10147517919540405,
          -0.14869262278079987,
          -0.1932346373796463,
          -0.14660432934761047,
          -0.13807442784309387,
          -0.10112355649471283,
          -0.09713859856128693,
          -0.018112070858478546,
          -0.0438825786113739,
          -0.0431276299059391,
          0.02686033956706524,
          -0.03408924490213394,
          -0.017215769737958908,
          0.04622763767838478,
          0.022220687940716743,
          0.010272005572915077,
          0.001517858006991446,
          -0.016606518998742104,
          0.0296771340072155,
