{
  "layers": [
    {
      "biases": [
        -0.00789694394916296,
        0.05288762226700783,
        0.28800222277641296,
        0.28010886907577515,
        -0.17256496846675873,
        -0.09917199611663818,
        -0.0914435163140297,
        0.02885005995631218,
        -0.03873397037386894,
        -0.1527857929468155,
        -0.13545642793178558,
        -0.3259947597980499,
        -0.05898343771696091,
        -0.14812153577804565,
        -0.05090875178575516,
        -0.1896335482597351,
        -0.03936498239636421,
        -0.05357546731829643,
        -0.19961248338222504,
        0.10291949659585953,
        -0.09882079064846039,
        -0.1421891748905182,
        -0.1542462408542633,
        -0.12070820480585098,
        0.2070191204547882,
        -0.051206011325120926,
        0.17109337449073792,
        -0.10598790645599365,
        -0.1518412083387375,
        0.20194172859191895,
        -0.11168254166841507,
        -0.09251310676336288
      ],
      "inChannels": 1,
      "kernelHeight": 5,
      "kernelWidth": 5,
      "outChannels": 32,
      "pad": 2,
      "stride": 1,
      "type": "Conv2D",
      "weights": [
        [
          -0.0821845754981041,
          -0.1585317999124527,
          -0.2248469442129135,
          -0.1664397269487381,
          0.30404138565063477,
          0.126674085855484,
          0.3611745536327362,
          0.2055998593568802,
          0.16713646054267883,
          0.48805683851242065,
          0.3336675763130188,
          0.07907558977603912,
          0.29379045963287354,
          0.43593835830688477,
          0.4997403919696808,
          0.2892051041126251,
          0.09529747068881989,
          0.4785710275173187,
          0.22422614693641663,
          0.2619442045688629,
          0.25446271896362305,
          0.08395036309957504,
          0.41180461645126343,
          0.05886147916316986,
          0.10642645508050919
        ],
        [
          0.16882586479187012,
          0.056638944894075394,
          -0.03104051947593689,
          -0.25275281071662903,
          0.25792261958122253,
          -0.13082557916641235,
          0.015135616064071655,
          -0.3871402144432068,
          -0.4256959557533264,
          -0.11617496609687805,
          0.06639257073402405,
          0.0215256679803133,
          0.2371874749660492,
          -0.12788981199264526,
          0.17151644825935364,
          0.09042724967002869,
          -0.061116307973861694,
          -0.04078870639204979,
          0.394278347492218,
          -0.14905713498592377,
          0.11393678188323975,
          -0.23944610357284546,
          -0.08683770895004272,
          0.19027568399906158,
          0.179803267121315
        ],
        [
          0.4063769280910492,
          0.5001527667045593,
          0.5122388005256653,
          0.5237990617752075,
          0.00020092446357011795,
          0.3449481427669525,
          0.31723588705062866,
          0.6412622928619385,
          0.22596125304698944,
          0.1567525416612625,
          -0.06680689752101898,
          0.24725398421287537,
          -0.05966254323720932,
          0.31502917408943176,
          0.5392470955848694,
          0.08495548367500305,
          -0.13090376555919647,
          0.4288342297077179,
          0.32309889793395996,
          0.18313148617744446,
          -0.08703318238258362,
          -0.023699961602687836,
          0.3363679051399231,
          0.4168992042541504,
          0.09742023795843124
        ],
        [
          0.12628445029258728,
          0.41470426321029663,
          0.5823689699172974,
          0.38241690397262573,
          0.40398257970809937,
          -0.030739886686205864,
          0.26518961787223816,
          0.3751296401023865,
          0.08716785162687302,
          0.12516698241233826,
          0.3445480167865753,
          0.1932336837053299,
          0.31661948561668396,
          0.3772077262401581,
          0.4496099054813385,
          0.20726895332336426,
          0.05822218582034111,
          0.24493275582790375,
          0.1687788963317871,
          0.13310456275939941,
          -0.05560356751084328,
          0.03637715429067612,
          -0.07231733947992325,
          0.05220954120159149,
          0.33819591999053955
        ],
        [
          -0.14470870792865753,
          -0.22550758719444275,
          -0.24017706513404846,
          -0.005633273161947727,
          -0.008261198177933693,
          0.23646347224712372,
          -0.09203919768333435,
          -0.05186903849244118,
          -0.03658784553408623,
          -0.03590216860175133,
          0.291652113199234,
          0.11964588612318039,
          0.05325183644890785,
          -0.11590096354484558,
          -0.3069990277290344,
          0.02060355804860592,
          -0.027488725259900093,
          0.13249345123767853,
          0.1821172833442688,
          -0.24390216171741486,
          -0.12035252898931503,
          -0.022618960589170456,
          0.14734992384910583,
          -0.014928399585187435,
          0.0709153488278389
        ],
        [
          -0.0651552677154541,
          -0.4392097592353821,
          -0.4475557804107666,
          -0.21395711600780487,
          0.1489693820476532,
          0.2100197970867157,
          -0.46190547943115234,
          0.035316623747348785,
          -0.038853563368320465,
          -0.1392280012369156,
          0.01477177906781435,
          0.08157096803188324,
          -0.25159382820129395,
          -0.3618568778038025,
          -0.0036093383096158504,
          0.271899938583374,
          -0.2972334027290344,
          0.046503838151693344,
          0.12427803874015808,
          -0.11188971251249313,
          -0.25033053755760193,
          -0.020852738991379738,
          -0.06254186481237411,
          -0.15776856243610382,
          0.2610081434249878
        ],
        [
          0.017095116898417473,
          0.195086270570755,
          0.1040387824177742,
          0.3030027747154236,
          0.35618072748184204,
          0.11832873523235321,
          0.15490268170833588,
          0.1598883718252182,
          0.3807193338871002,
          -0.08949261903762817,
          0.0563790500164032,
          0.3705873191356659,
          0.1676376610994339,
          0.3908613920211792,
          0.24632234871387482,
          0.3502575159072876,
          0.10187741369009018,
          0.0630798190832138,
          0.31833210587501526,
          -0.18277549743652344,
          0.1829713135957718,
          0.22425904870033264,
          -0.0184756089001894,
          -0.15037508308887482,
          -0.525481104850769
        ],
        [
          -0.1959531307220459,
          -0.3401230573654175,
          -0.026094729080796242,
          -0.459753155708313,
          -0.0017601574072614312,
          0.15553085505962372,
          0.16687051951885223,
          0.11640367656946182,
          -0.007884232327342033,
          -0.08904975652694702,
          -0.0737813338637352,
          -0.19047920405864716,
          -0.3801737129688263,
          -0.08976489305496216,
          0.2494695782661438,
          0.2371659129858017,
          0.32592058181762695,
          0.31540825963020325,
          0.40855658054351807,
          0.005029003135859966,
          0.22159790992736816,
          0.31077101826667786,
          0.4463050365447998,
          0.3957756459712982,
          0.04259711503982544
        ],
        [
          -0.3011224567890167,
          0.30619341135025024,
          0.0815635472536087,
          0.15981292724609375,
          0.17442435026168823,
          0.05766100808978081,
          -0.13880899548530579,
          -0.24710112810134888,
          0.21008765697479248,
          -0.296114981174469,
          -0.26787319779396057,
          -0.13043855130672455,
          0.049441147595644,
          0.27277088165283203,
          -0.17132139205932617,
          -0.3843473196029663,
          -0.12464940547943115,
          -0.10135433822870255,
          0.11134573817253113,
          -0.3829757869243622,
          -0.30643463134765625,
          -0.20617029070854187,
          0.4782746732234955,
          0.3233656883239746,
          -0.10922889411449432
        ],
        [
          0.028011636808514595,
          0.2579787075519562,
          -0.1343800127506256,
          -0.2663918435573578,
          -0.14588595926761627,
          -0.008812236599624157,
          0.338376522064209,
          0.16444239020347595,
          -0.2993323504924774,
          -0.2237779051065445,
          -0.07678999751806259,
          -0.01413724198937416,
          0.1639595329761505,
          -0.08799658715724945,
          -0.08114059269428253,
          -0.30640605092048645,
          -0.008052283897995949,
          0.2790296673774719,
          -0.1421905755996704,
          0.00045498699182644486,
          -0.4737374484539032,
          0.18270792067050934,
          0.1941683292388916,
          0.2125929445028305,
          -0.19549749791622162
        ],
        [
          -0.23541034758090973,
          -0.05670221149921417,
          0.07207439094781876,
          -0.25314000248908997,
          -0.09418980777263641,
          -0.2551364600658417,
          0.1529679298400879,
          0.0763348862528801,
          -0.1350218802690506,
          0.16085317730903625,
          0.08171352744102478,
          -0.27190476655960083,
          -0.24891681969165802,
          -0.14939174056053162,
          -0.3266991376876831,
          -0.08764249831438065,
          -0.24818100035190582,
          -0.002096353331580758,
          -0.3327161967754364,
          -0.08485310524702072,
          0.0623781681060791,
          -0.009016846306622028,
          0.0767025500535965,
          -0.08028915524482727,
          0.010643932968378067
        ],
        [
          -0.04114188998937607,
          -0.01810576021671295,
          0.15630190074443817,
          0.005616913083940744,
          0.11535262316465378,
          -0.05131073296070099,
          -0.06473946571350098,
          0.0047384463250637054,
          -0.3524589538574219,
          -0.15601438283920288,
          -0.28038495779037476,
          -0.13129404187202454,
          0.09765303134918213,
          0.14370232820510864,
          -0.19518816471099854,
          0.03647588938474655,
          0.04098958522081375,
          -0.028618207201361656,
          -0.10246369242668152,
          0.2120063602924347,
          -0.008437668904662132,
          0.03306359797716141,
          -0.27669867873191833,
          -0.24637258052825928,
          0.1393793225288391
        ],
        [
          -0.04058675095438957,
          0.061380550265312195,
          0.19284726679325104,
          0.03630119934678078,
          -0.17868295311927795,
          0.04150376096367836,
          0.12433742731809616,
          0.3140814006328583,
          -0.08139849454164505,
          -0.36343756318092346,
          0.17278441786766052,
          -0.02321440540254116,
          -0.12485384196043015,
          -0.3962128758430481,
          -0.11082804948091507,
          0.014915944077074528,
          -0.19724562764167786,
          -0.0063310773111879826,
          -0.28080981969833374,
          -0.5520551800727844,
          -0.053829897195100784,
          -0.28599873185157776,
          -0.3252083957195282,
          -0.40561139583587646,
          -0.16688711941242218
        ],
        [
          -0.29828131198883057,
          0.03940651938319206,
          -0.16099117696285248,
          -0.0631965696811676,
          0.03335351496934891,
          -0.4617162048816681,
          -0.15474696457386017,
          -0.27850982546806335,
          0.15570726990699768,
          -0.28400611877441406,
          -0.2487645149230957,
          -0.1771378368139267,
          0.14621521532535553,
          0.01185568980872631,
          -0.3298194706439972,
          -0.2229095995426178,
          -0.09586233645677567,
          -0.007120590191334486,
          0.021610207855701447,
          -0.13248497247695923,
          0.10731405764818192,
          -0.034885555505752563,
          0.0811910554766655,
          -0.19117406010627747,
          -0.29050037264823914
        ],
        [
          0.36840933561325073,
          -0.15732824802398682,
          -0.16618958115577698,
          -0.08044366538524628,
          0.005424466449767351,
          0.4181439280509949,
          0.3802366554737091,
          -0.201692596077919,
          0.1480378806591034,
          0.1602952778339386,
          0.3193986117839813,
          0.2013508528470993,
          0.07314717024564743,
          0.3595191240310669,
          0.13565964996814728,
          0.06158238276839256,
          0.20762094855308533,
          0.08113993704319,
          0.3129814565181732,
          0.0160211194306612,
          0.07271922379732132,
          0.4738469421863556,
          0.29812589287757874,
          0.37794703245162964,
          0.19348162412643433
        ],
        [
          -0.15220040082931519,
          -0.07499787956476212,
          -0.09649035334587097,
          0.09025765210390091,
          -0.0191897414624691,
          -0.05377694591879845,
          0.00438676169142127,
          0.19497926533222198,
          -0.2113088071346283,
          -0.3502647280693054,
          -0.38961926102638245,
          0.20954330265522003,
          -0.3528909385204315,
          -0.011888563632965088,
          -0.21073685586452484,
          -0.17043998837471008,
          0.08196302503347397,
          -0.1205616444349289,
          -0.24457043409347534,
          0.003090613055974245,
          -0.07614994049072266,
          0.03173544630408287,
          -0.01594376005232334,
          0.03540317341685295,
          -0.3001071512699127
        ],
        [
          -0.45655059814453125,
          -0.125024676322937,
          -0.12470392882823944,
          -0.2693560719490051,
          -0.15260063111782074,
          0.21870854496955872,
          -0.2571007311344147,
          0.1594397872686386,
          -0.15025347471237183,
          0.16087332367897034,
          -0.07146649062633514,
          0.04973684251308441,
          -0.14818432927131653,
          -0.2311452329158783,
          -0.1102510467171669,
          -0.23242723941802979,
          -0.03278355672955513,
          0.3149360716342926,
          0.26590651273727417,
          0.2971740663051605,
          -0.44688886404037476,
          0.06404773145914078,
          0.1507069319486618,
          -0.1365242302417755,
          0.25950494408607483
        ],
        [
          0.09157268702983856,
          -0.41870394349098206,
          -0.016117312014102936,
          -0.16680753231048584,
          0.13680396974086761,
          -0.007561377249658108,
          -0.2191295623779297,
          0.1325661689043045,
          0.28407102823257446,
          0.286939412355423,
          -0.5093589425086975,
          -0.06489769369363785,
          0.009844283573329449,
          -0.16667217016220093,
          0.1210336908698082,
          -0.01188314612954855,
          -0.044019222259521484,
          -0.37031200528144836,
          -0.35960668325424194,
          -0.5945411920547485,
          0.2575649917125702,
          0.31904199719429016,
          0.16957500576972961,
          0.11120618879795074,
          0.02977714128792286
        ],
        [
          -0.214873269200325,
          0.1556011587381363,
          0.10038347542285919,
          -0.09532570838928223,
          -0.20999859273433685,
          -0.3828140199184418,
          0.12486695498228073,
          -0.2139003723859787,
          -0.12933754920959473,
          -0.34695643186569214,
          0.10396002233028412,
          0.045330390334129333,
          0.22591787576675415,
          0.10629994422197342,
          0.22908832132816315,
          0.13754934072494507,
          -0.05672048404812813,
          0.22061271965503693,
          0.08759772032499313,
          -0.04079446569085121,
          0.040134623646736145,
          0.17297717928886414,
          -0.2866345942020416,
          -0.22422389686107635,
          -0.28313177824020386
        ],
        [
          -0.716838002204895,
          -0.14455990493297577,
          0.219689279794693,
          -0.16118499636650085,
          0.34360066056251526,
          -0.5158697366714478,
          -0.42295074462890625,
          -0.0015452225925400853,
          0.037670113146305084,
          -0.05822205916047096,
          0.020387962460517883,
          -0.2627323567867279,
          0.1502220630645752,
          0.08846374601125717,
          0.19748248159885406,
          -0.13491016626358032,
          0.2777758836746216,
          0.2749762237071991,
          0.058254875242710114,
          0.09130331128835678,
          0.2003505825996399,
          0.22244904935359955,
          -0.006667847745120525,
          0.11601869016885757,
          0.029452184215188026
        ],
        [
          -0.012216910719871521,
          -0.228069469332695,
          -0.19796070456504822,
          -0.2671908438205719,
          0.030600035563111305,
          -0.4919484555721283,
          0.02129216305911541,
          0.19503925740718842,
          0.16158556938171387,
          0.005475097801536322,
          -0.08496461808681488,
          0.07391706854104996,
          0.03579030558466911,
          0.08534588664770126,
          -0.13000988960266113,
          0.012827284634113312,
          -0.22812822461128235,
          -0.06439537554979324,
          -0.2549057900905609,
          -0.011968234553933144,
          0.15523335337638855,
          0.0885787233710289,
          -0.3611346483230591,
          -0.4022185802459717,
          -0.3944892883300781
        ],
        [
          -0.12937742471694946,
          0.11331188678741455,
          -0.008416148833930492,
          -0.02201595902442932,
          -0.33804845809936523,
          0.04229798540472984,
          -0.011695531196892262,
          -0.18087559938430786,
          -0.03929765895009041,
          -0.08667321503162384,
          -0.06274991482496262,
          -0.27011746168136597,
          -0.05307089909911156,
          -0.43433886766433716,
          -0.12500333786010742,
          -0.1071481928229332,
          -0.21397294104099274,
          0.03948816657066345,
          0.1722697764635086,
          -0.24898545444011688,
          -0.039920154958963394,
          -0.26538440585136414,
          -0.04427039995789528,
          0.030092893168330193,
          -0.27699825167655945
        ],
        [
          -0.1370082050561905,
          -0.3340800702571869,
          -0.10426885634660721,
          -0.16661494970321655,
          0.024782203137874603,
          0.12090729176998138,
          0.09962918609380722,
          -0.23981228470802307,
          0.2240106165409088,
          0.2190745323896408,
          0.050809912383556366,
          0.06603510677814484,
          0.13618463277816772,
          0.25507867336273193,
          -0.2179398536682129,
          -0.28274577856063843,
          -0.09074416011571884,
          -0.003392088459804654,
          -0.22340339422225952,
          -0.16620993614196777,
          -0.4275156259536743,
          -0.2153376042842865,
          0.17560599744319916,
          0.06613269448280334,
          -0.200857013463974
        ],
        [
          0.0870601162314415,
          -0.25707927346229553,
          0.22698543965816498,
          0.0383015051484108,
          -0.3181111812591553,
          -0.25518354773521423,
          -0.4432280659675598,
          0.1701897233724594,
          -0.17208753526210785,
          -0.0411185622215271,
          -0.053799498826265335,
          -0.010877096094191074,
          -0.05465853214263916,
          -0.1524645984172821,
          -0.18009530007839203,
          -0.18561045825481415,
          -0.1886296272277832,
          -0.02857431210577488,
          -0.314195841550827,
          -0.39765340089797974,
          0.08272749185562134,
          -0.014562005177140236,
          -0.3016292452812195,
          -0.11869993060827255,
          0.11457112431526184
        ],
        [
          0.21624037623405457,
          -0.2362997829914093,
          0.1319386214017868,
          -0.2170993983745575,
          -0.3501907289028168,
          0.19094528257846832,
          -0.4719967842102051,
          -0.25389760732650757,
          -0.21359319984912872,
          -0.4096744656562805,
          0.05030788481235504,
          0.05362182483077049,
          -0.3403528928756714,
          -0.28315871953964233,
          -0.37680044770240784,
          -0.13299620151519775,
          -0.019430648535490036,
          0.1346631497144699,
          -0.17380517721176147,
          0.2605879008769989,
          -0.3189532160758972,
          0.2741726040840149,
          0.1319432407617569,
          0.2188991904258728,
          -0.0061935014091432095
        ],
        [
          0.018325261771678925,
          -0.018705150112509727,
          0.3459247648715973,
          0.03638019412755966,
          0.2965834140777588,
          0.09040357917547226,
          0.07721579074859619,
          0.24570035934448242,
          0.4482880234718323,
          0.03849584236741066,
          0.20685428380966187,
          0.38030877709388733,
          0.2277204543352127,
          0.24815018475055695,
          0.3886698782444,
          -0.08038530498743057,
          0.3081779479980469,
          0.20573163032531738,
          0.4755067229270935,
          -0.0738806203007698,
          -0.029602929949760437,
          0.04269491881132126,
          0.3982732594013214,
          0.4747164845466614,
          0.30183684825897217
        ],
        [
          -0.2333252876996994,
          0.14756588637828827,
          -0.17198199033737183,
          0.2970481812953949,
          0.3725365102291107,
          0.24202950298786163,
          -0.054739560931921005,
          0.15604034066200256,
          0.100319042801857,
          0.23762141168117523,
          0.22656124830245972,
          -0.2160899043083191,
          -0.34763261675834656,
          0.028690045699477196,
          -0.1896670162677765,
          0.0023689591325819492,
          0.1492672562599182,
          0.2574431300163269,
          0.12040844559669495,
          0.454146146774292,
          0.02254910208284855,
          0.3118799328804016,
          -0.11865313351154327,
          0.01746256649494171,
          0.512861967086792
        ],
        [
          -0.35877442359924316,
          -0.10616765171289444,
          0.1951729953289032,
          -0.19589926302433014,
          -0.20817771553993225,
          0.01077041681855917,
          0.183309406042099,
          -0.15713141858577728,
          -0.04770967736840248,
          -0.12019325792789459,
          0.23521395027637482,
          -0.10099019110202789,
          -0.28206679224967957,
          -0.22152675688266754,
          0.17255088686943054,
          -0.07564103603363037,
          -0.019580233842134476,
          -0.12135680764913559,
          0.14804944396018982,
          0.009046152234077454,
          -0.2167782038450241,
          -0.0288972407579422,
          -0.15613232553005219,
          0.1547960788011551,
          -0.17141729593276978
        ],
        [
          -0.3519520163536072,
          0.13843490183353424,
          -0.15638835728168488,
          -0.2883060872554779,
          0.16250374913215637,
          -0.03452207148075104,
          0.1430029273033142,
          -0.39605164527893066,
          0.0769726112484932,
          -0.15405432879924774,
          -0.12517087161540985,
          0.12922899425029755,
          -0.3427720367908478,
          -0.05542386323213577,
          0.09868703037500381,
          0.05216451361775398,
          0.029886817559599876,
          -0.2599841058254242,
          -0.11620425432920456,
          -0.07517439126968384,
          -0.24545754492282867,
          -0.0412304513156414,
          0.22286927700042725,
          -0.1581563949584961,
          -0.17728766798973083
        ],
        [
          -0.3554278016090393,
          0.028569847345352173,
          -0.16401638090610504,
          -0.11261864751577377,
          -0.05147850140929222,
          0.38344523310661316,
          0.2703445851802826,
          0.47047361731529236,
          0.021057037636637688,
          0.07629275321960449,
          0.2316156029701233,
          0.5744312405586243,
          0.2333185374736786,
          0.16932682693004608,
          0.48809632658958435,
          0.2070765495300293,
          0.5374936461448669,
          0.5965010523796082,
          0.11476705968379974,
          0.44259965419769287,
          0.07689914107322693,
          0.3501703143119812,
          0.06340377777814865,
          0.2558980882167816,
          0.22315111756324768
        ],
        [
          -0.04105403274297714,
          -0.48878252506256104,
          -0.3533872365951538,
          0.16012708842754364,
          -0.1037132665514946,
          0.20118112862110138,
          0.07199151813983917,
          -0.24725648760795593,
          0.1744919717311859,
          0.14598684012889862,
          0.016924796625971794,
          -0.23162735998630524,
          -0.06739833205938339,
          -0.10785318911075592,
          -0.6223406791687012,
          0.1481660157442093,
          -0.040167443454265594,
          0.19444885849952698,
          -0.023182116448879242,
          -0.14314579963684082,
          0.1456136852502823,
          -0.3093585968017578,
          0.062293682247400284,
          -0.011722035706043243,
          0.07096756249666214
        ],
        [
          -0.17715755105018616,
          -0.30027255415916443,
          -0.2547138035297394,
          -0.1343768835067749,
          0.03625287860631943,
          0.26765573024749756,
          0.34617140889167786,
          0.21904274821281433,
          -0.2629915475845337,
          -0.2659638524055481,
          -0.2715094983577728,
          -0.35007789731025696,
          -0.23408658802509308,
          0.3083498775959015,
          -0.053259722888469696,
          -0.08565639704465866,
          -0.39089640974998474,
          0.10362716764211655,
          -0.19681568443775177,
          -0.026641428470611572,
          -0.0417327843606472,
          -0.1198282539844513,
          0.059995632618665695,
          0.14669086039066315,
          -0.2063121199607849
        ]
      ]
    },
    {
      "type": "ReLU"
    },
    {
      "channels": 32,
      "inputHeight": 28,
      "inputWidth": 28,
      "pad": 0,
      "poolHeight": 2,
      "poolWidth": 2,
      "stride": 2,
      "type": "MaxPooling"
    },
    {
      "biases": [
        -0.1998267024755478,
        -0.14330966770648956,
        0.05324608087539673,
        -0.24400770664215088,
        -0.0542423278093338,
        -0.10006270557641983,
        -0.05451076477766037,
        -0.04541156813502312,
        -0.045746129006147385,
        -0.1875513792037964,
        -0.23883821070194244,
        -0.06525362282991409,
        -0.07344535738229752,
        0.004100865684449673,
        -0.216342031955719,
        -0.10860295593738556
      ],
      "inChannels": 32,
      "kernelHeight": 5,
      "kernelWidth": 5,
      "outChannels": 16,
      "pad": 0,
      "stride": 1,
      "type": "Conv2D",
      "weights": [
        [
          0.06571266800165176,
          0.04147186875343323,
          0.007292266469448805,
          0.019274692982435226,
          0.0394456647336483,
          0.03276601433753967,
          0.04008156806230545,
          -0.030897703021764755,
          0.04179695248603821,
          -0.010265480726957321,
          -0.10322467982769012,
          -0.14938116073608398,
          -0.06589736044406891,
          -0.14833490550518036,
          0.05926642566919327,
          0.020268429070711136,
          -0.06138576939702034,
          0.04522663727402687,
          -0.19935013353824615,
          0.06326135247945786,
          0.18707866966724396,
          0.06152971461415291,
          0.09535349160432816,
          0.026167748495936394,
          -0.13978669047355652,
          -0.07364991307258606,
          0.06285372376441956,
          -0.04616542533040047,
          -0.0533844456076622,
          0.10312741994857788,
          -0.13683360815048218,
          -0.0865902304649353,
          0.0871562734246254,
          0.13224761188030243,
          0.017780639231204987,
          -0.08693946152925491,
          -0.05083916708827019,
          -0.09290318191051483,
          0.1849507838487625,
          0.18207897245883942,
          0.023439811542630196,
          -0.011352654546499252,
          -0.07616698741912842,
          -0.29018184542655945,
          0.05408909544348717,
          0.2034771591424942,
          0.09357879310846329,
          0.33589866757392883,
          0.09175018966197968,
          -0.173539400100708,
          -0.00022755752434022725,
          -0.054966457188129425,
          -0.08024650067090988,
          0.009700878523290157,
          -0.1224319189786911,
          0.04422195628285408,
          0.054036639630794525,
          0.09186157584190369,
          0.027130473405122757,
          -0.1999654918909073,
          0.028938841074705124,
          0.15844391286373138,
          0.10103953629732132,
          0.1904473453760147,
          -0.04939507320523262,
          -0.17700660228729248,
          -0.11731893569231033,
          -0.09937091171741486,
          0.24428263306617737,
          0.1606535166501999,
          0.012806612998247147,
          -0.06983082741498947,
          -0.24274997413158417,
          0.03695432469248772,
          0.1563492715358734,
          0.11733502894639969,
          -0.1046370342373848,
          -0.2092544138431549,
          -0.28381261229515076,
          -0.17421500384807587,
          -0.10079405456781387,
          -0.15019968152046204,
          -0.04104996472597122,
          -0.18495811522006989,
          -0.14676719903945923,
          0.14195004105567932,
          -0.040508657693862915,
          0.06811700761318207,
          0.19634881615638733,
          -0.11518116295337677,
          -0.1968795657157898,
          -0.2260550707578659,
          -0.106448233127594,
          -0.024577409029006958,
          -0.14036442339420319,
          0.1265680193901062,
          -0.0277896486222744,
          -0.1649566888809204,
          -0.09523780643939972,
          -0.00753377191722393,
          0.05909600853919983,
          -0.027672283351421356,
          -0.29843243956565857,
          -0.24920010566711426,
          0.11431488394737244,
          -0.2018224000930786,
          -0.02657487243413925,
          0.1413946896791458,
          0.061414942145347595,
          0.029695387929677963,
          -0.1301012635231018,
          -0.34313416481018066,
          -0.16936707496643066,
          0.18600313365459442,
          0.1729511320590973,
          0.03064565546810627,
          0.050827328115701675,
          -0.017147382721304893,
          -0.10278767347335815,
          0.18239574134349823,
          -0.0030844935681670904,
          -0.06854399293661118,
          0.08895846456289291,
          -0.006908268667757511,
          -0.36726129055023193,
          0.10721918940544128,
          -0.22646097838878632,
          -0.06963834911584854,
          -0.1822468340396881,
          -0.18437683582305908,
          -0.17514640092849731,
          -0.543580949306488,
          0.06744392216205597,
          -0.1487290859222412,
          -0.11593511700630188,
          -0.2329971194267273,
          -0.25922465324401855,
          -0.2195679247379303,
          0.07844376564025879,
          0.22251076996326447,
          0.04510815814137459,
          0.151718869805336,
          0.012701931409537792,
          -0.24419279396533966,
          -0.15113449096679688,
          0.08065970242023468,
          0.18692916631698608,
          0.15978354215621948,
          0.004681400489062071,
          -0.37327948212623596,
          -0.05826158449053764,
          0.012356946244835854,
          0.05997724086046219,
          0.184370756149292,
          0.08163267374038696,
          0.07482489943504333,
          0.0735849142074585,
          -0.06927221268415451,
          0.04854064807295799,
          0.04142671823501587,
          -0.014080680906772614,
          -0.03400464355945587,
          -0.14313764870166779,
          -0.01141056977212429,
          -0.027687080204486847,
          -0.04007256031036377,
          -0.175705686211586,
          -0.15461549162864685,
          -0.013060864992439747,
          0.15894046425819397,
          0.12348327785730362,
          0.021912548691034317,
          -0.0361192412674427,
          0.09514972567558289,
          0.12880903482437134,
          0.08025318384170532,
          0.09761833399534225,
          0.04165518656373024,
          0.09283792227506638,
          0.09473510831594467,
          0.05055384337902069,
          -0.20729687809944153,
          -0.11423718929290771,
          0.24869616329669952,
          0.11602572351694107,
          -0.12320183217525482,
          -0.3438356816768646,
          -0.38645729422569275,
          -0.031634826213121414,
          0.31144291162490845,
          0.1245843842625618,
          0.02893627993762493,
          -0.051871273666620255,
          -0.2640897333621979,
          0.04264876991510391,
          0.12238809466362,
          0.07858279347419739,
          0.20814909040927887,
          0.14569367468357086,
          -0.16412332653999329,
          0.08209913223981857,
          -0.11853224784135818,
          -0.1714470088481903,
          0.17782680690288544,
          -0.05049265921115875,
          -0.3703710734844208,
          -0.7024654150009155,
          0.17266744375228882,
          0.5898578763008118,
          0.29171568155288696,
          0.2164934128522873,
          -0.16642941534519196,
          -0.6555418372154236,
          0.18434438109397888,
          0.20190583169460297,
          -0.2752654552459717,
          -0.14839152991771698,
          -0.6915964484214783,
          -0.209641233086586,
          -0.10398142784833908,
          0.07945447415113449,
          -0.30058184266090393,
          -0.2183610498905182,
          -0.18326865136623383,
          0.12544740736484528,
          -0.09616969525814056,
          -0.07619033753871918,
          -0.2215231955051422,
          -0.39895641803741455,
          -0.22659353911876678,
          -0.3454512357711792,
          -0.04151023179292679,
          0.042160309851169586,
          0.31177327036857605,
          0.028278272598981857,
          -0.12922464311122894,
          -0.033829737454652786,
          0.07637067139148712,
          0.302894651889801,
          0.36310431361198425,
          0.1310632824897766,
          -0.10615626722574234,
          -0.315478652715683,
          -0.19756995141506195,
          0.2592826187610626,
          0.03265376016497612,
          -0.2826935350894928,
          -0.12551607191562653,
          -0.454231858253479,
          0.14629948139190674,
          0.14457197487354279,
          0.009017729200422764,
          -0.12443869560956955,
          0.02456643618643284,
          0.11424339562654495,
          -0.04932853579521179,
          0.08576581627130508,
          -0.1655535250902176,
          -0.004719164222478867,
          0.10582098364830017,
          -0.06067623570561409,
          0.25967514514923096,
          -0.14202363789081573,
          -0.10870130360126495,
          0.001893222564831376,
          0.06124615669250488,
          0.0880526453256607,
          0.06743542850017548,
          -0.001700884778983891,
          0.08157499134540558,
          -0.02967359684407711,
          -0.05492876470088959,
          -0.04394228756427765,
          -0.08850858360528946,
          -0.1585458666086197,
          0.03135013207793236,
          0.10282079875469208,
          0.10019546747207642,
          -0.08841115981340408,
          0.27915653586387634,
          -0.08736807107925415,
          -0.08258718252182007,
          0.16625675559043884,
          0.0657121017575264,
          0.029049033299088478,
          0.015008104033768177,
          0.0042205615900456905,
          -0.06853079795837402,
          0.27129825949668884,
          0.01098384615033865,
          -0.06544957309961319,
          -0.08535605669021606,
          -0.36793357133865356,
          -0.3421404957771301,
          -0.02985178865492344,
          0.014423149637877941,
          -0.07556064426898956,
          0.15032167732715607,
          -0.20922806859016418,
          0.06698568165302277,
          -0.11332877725362778,
          -0.1217813789844513,
          -0.21026678383350372,
          0.16308578848838806,
          -0.022236187011003494,
          -0.11408664286136627,
          -0.2423698753118515,
          -0.5904452800750732,
          -0.3710050880908966,
          -0.0036019175313413143,
          0.06073044613003731,
          -0.27469968795776367,
          -0.895941972732544,
          -0.6422224640846252,
          -0.3836749792098999,
          -0.06938784569501877,
          -0.20257611572742462,
          -0.6669327616691589,
          -0.6945359706878662,
          -0.36552664637565613,
          0.22807034850120544,
          0.07982250303030014,
          -0.3624688982963562,
          -0.1608096957206726,
          0.05014275014400482,
          -0.024799497798085213,
          0.0822998434305191,
          0.18754839897155762,
          0.12740591168403625,
          -0.014947517774999142,
          0.003100067377090454,
          -0.0390140563249588,
          0.04197000712156296,
          0.06409426778554916,
          -0.013005170971155167,
          -0.06412375718355179,
          -0.18692585825920105,
          0.01600610464811325,
          -0.02853626385331154,
          -0.05664314329624176,
          -0.15680894255638123,
          -0.15528282523155212,
          -0.08043430000543594,
          0.022241268306970596,
          -0.12024831026792526,
          -0.07150323688983917,
          -0.08580421656370163,
          -0.08659707009792328,
          0.08363170176744461,
          0.08024094998836517,
          0.004328025970607996,
          0.12890756130218506,
          -0.002478155540302396,
          -0.0020368334371596575,
          -0.09726874530315399,
          0.05777429789304733,
          0.06667420268058777,
          0.1297527402639389,
          0.09608592838048935,
          -0.1300112009048462,
          -0.1326475590467453,
          -0.12677602469921112,
          0.05316350236535072,
          0.08652424067258835,
          0.08263138681650162,
          -0.12601347267627716,
          -0.17911599576473236,
          -0.08826141059398651,
          0.03831679746508598,
          0.21228860318660736,
          0.10202043503522873,
          0.006904813461005688,
          -0.045891910791397095,
          0.1409098505973816,
          -0.14827601611614227,
          0.05969245359301567,
          0.030753731727600098,
          0.03185214102268219,
          0.08786142617464066,
          -0.0344817154109478,
          -0.09494078904390335,
          -0.056041084229946136,
          0.03195207566022873,
          0.20565591752529144,
          0.25927987694740295,
          0.14140203595161438,
          -0.035233866423368454,
          -0.21591605246067047,
          0.07971960306167603,
          0.32725790143013,
          0.05579247698187828,
          -0.10120392590761185,
          -0.19781474769115448,
          -0.14122042059898376,
          0.06363215297460556,
          0.06862116605043411,
          -0.002026162575930357,
          -0.18766331672668457,
          -0.16331759095191956,
          -0.01735687255859375,
          0.27549487352371216,
          0.05921759456396103,
          0.051823489367961884,
          0.23582854866981506,
          0.0655088722705841,
          -0.13486063480377197,
          -0.42864859104156494,
          0.06675967574119568,
          -0.35791847109794617,
          -0.5506001710891724,
          -0.2995534837245941,
          -0.5187005400657654,
          -0.3458912968635559,
          -0.30961236357688904,
          -0.22189942002296448,
          -0.2841377556324005,
          -0.10314678400754929,
          -0.29671525955200195,
          -0.5699525475502014,
          -0.6471647620201111,
          0.4375704228878021,
          0.27615246176719666,
          0.3582988977432251,
          -0.2425469309091568,
          -0.5428096055984497,
          -0.20650866627693176,
          -0.18436916172504425,
          -0.06754199415445328,
          -0.048539552837610245,
          0.03898102790117264,
          0.24797555804252625,
          -0.17637237906455994,
          -0.31565386056900024,
          0.21925108134746552,
          0.2833957076072693,
          0.2805038094520569,
          -0.07550379633903503,
          0.17314434051513672,
          -0.35476863384246826,
          0.09531745314598083,
          0.19701097905635834,
          -0.03248050436377525,
          0.2589903771877289,
          -0.16821187734603882,
          -0.4788699150085449,
          -0.26779302954673767,
          -0.4781298339366913,
          -0.6019635200500488,
          -0.7378302812576294,
          -0.7787603139877319,
          -0.09727565199136734,
          -0.03818879649043083,
          -0.0925753191113472,
          0.17035649716854095,
          0.2825007438659668,
          0.08727721124887466,
          0.05545340105891228,
          -0.07833580672740936,
          -0.06496667116880417,
          -0.08310455828905106,
          -0.0880613923072815,
          -0.01730455830693245,
          -0.09126574546098709,
          -0.12970247864723206,
          -0.05139847472310066,
          0.08705444633960724,
          -0.053099364042282104,
          -0.07171006500720978,
          0.08820479363203049,
          0.20722465217113495,
          0.174522265791893,
          0.21247592568397522,
          0.3317812979221344,
          0.10048848390579224,
          0.28052380681037903,
          0.06931905448436737,
          0.15750959515571594,
          0.044511593878269196,
          -0.1257760226726532,
          -0.10923449695110321,
          -0.07221964001655579,
          -0.11033859103918076,
          0.07979141920804977,
          -0.08329310268163681,
          -0.12450912594795227,
          0.10290875285863876,
          -0.2645437717437744,
          -0.23688875138759613,
          -0.12836547195911407,
          0.05181056261062622,
          0.19309863448143005,
          -0.04447926953434944,
          -0.17556540668010712,
          -0.14267002046108246,
          -0.08910699188709259,
          0.16195237636566162,
          0.2499910593032837,
          0.17126864194869995,
          0.1695370376110077,
          0.08637697994709015,
          -0.07196351140737534,
          -0.1392546147108078,
          0.07650905102491379,
          0.3519865572452545,
          0.4863070249557495,
          0.33870840072631836,
          0.1870865523815155,
          -0.3397037982940674,
          -0.07225394248962402,
          0.6063157916069031,
          -0.13622429966926575,
          -0.4379664957523346,
          -0.5507976412773132,
          -0.3432508111000061,
          -0.1790090799331665,
          -0.24939276278018951,
          -0.14086607098579407,
          -0.31195393204689026,
          -0.1516045331954956,
          -0.015636326745152473,
          0.23599281907081604,
          0.03817349672317505,
          0.06534154713153839,
          -0.016087638214230537,
          -0.3195045292377472,
          -0.03513260558247566,
          -0.09532903134822845,
          0.11148594319820404,
          -0.08963032811880112,
          -0.036222077906131744,
          -0.06391195952892303,
          -0.045365918427705765,
          -0.030729729682207108,
          0.0033068102784454823,
          -0.0686536356806755,
          0.0024101107846945524,
          -0.1363653987646103,
          -0.1049724668264389,
          0.09704697877168655,
          0.04527304321527481,
          0.0310235433280468,
          -0.03633330389857292,
          -0.18130765855312347,
          -0.041394345462322235,
          0.007829589769244194,
          -0.07126245647668839,
          -0.11836875975131989,
          -0.12305034697055817,
          -0.0920913964509964,
          -0.05031561478972435,
          -0.11792516708374023,
          -0.1347334384918213,
          0.18438445031642914,
          0.3738909363746643,
          0.1333039104938507,
          0.20477332174777985,
          0.19318071007728577,
          0.12673109769821167,
          0.774920642375946,
          0.236985981464386,
          -0.16167284548282623,
          -0.46109962463378906,
          -0.431651771068573,
          0.0522119514644146,
          0.13170082867145538,
          -0.3549879193305969,
          -0.24312762916088104,
          -0.3875732123851776,
          -0.2619495093822479,
          0.2010755091905594,
          -0.058760866522789,
          -0.2640475332736969,
          -0.24031628668308258,
          -0.22226250171661377,
          -0.07498912513256073,
          -0.03352280333638191,
          -0.07068606466054916,
          0.006149571388959885,
          0.017393071204423904,
          0.02945021726191044,
          -0.1499587744474411,
          -0.13595455884933472,
          -0.13507039844989777,
          -0.034768979996442795,
          0.14458584785461426,
          -0.09818654507398605,
          -0.12050803005695343,
          -0.39458945393562317,
          -0.07655132561922073,
          0.09765487909317017,
          -0.021183092147111893,
          -0.08259822428226471,
          -0.23507921397686005,
          -0.13131099939346313,
          -0.10941959172487259,
          0.05753147229552269,
          0.12808112800121307,
          -0.238894522190094,
          -0.10450103133916855,
          -0.11895173788070679,
          0.2506263852119446,
          0.21403083205223083,
          -0.31113505363464355,
          -0.19409863650798798,
          -0.15169228613376617,
          -0.23607438802719116,
          -0.5478924512863159,
          -0.40159666538238525,
          -0.10792844742536545,
          -0.25160089135169983,
          -0.3272022306919098,
          -0.3483597934246063,
          -0.5161799192428589,
          -0.15229825675487518,
          0.5351207256317139,
          -0.19905276596546173,
          -0.23445574939250946,
          -0.5825229287147522,
          -0.8493468761444092,
          -0.1628313958644867,
          -0.0100990766659379,
          0.09126018732786179,
          -0.052442632615566254,
          -0.4097221791744232,
          -0.5329862236976624,
          0.0953737199306488,
          0.0644327774643898,
          0.005690413527190685,
          -0.026129627600312233,
          -0.2231915295124054,
          0.09004715085029602,
          0.1004895269870758,
          0.11382624506950378,
          0.14044354856014252,
          -0.22814726829528809,
          0.016644518822431564,
          0.03193850442767143,
          0.10359454154968262,
          0.2670840919017792,
          0.04273375868797302,
          -0.04149850085377693,
          -0.17015957832336426,
          -0.12640336155891418,
          0.21231681108474731,
          0.17239630222320557,
          0.055641837418079376,
          0.03647935763001442,
          -0.09589946269989014,
          0.08693645894527435,
          0.13623426854610443,
          0.06678201258182526,
          0.17027129232883453,
          0.10797984153032303,
          -0.047954458743333817,
          -0.061535049229860306,
          -0.004664467182010412,
          0.09946896880865097,
          0.23167400062084198,
          -0.007095179054886103,
          -0.03432336449623108,
          0.05942432954907417,
          -0.019134270027279854,
          0.21907497942447662,
          0.08564892411231995,
          -0.027197420597076416,
          -0.07931184768676758,
          -0.1274072378873825,
          -0.04080820083618164,
          0.06301416456699371,
          -0.10987845808267593,
          0.01699990965425968,
          -0.1858755499124527,
          -0.07729171961545944,
          0.12373478710651398,
          0.03920058533549309,
          0.008322043344378471,
          -0.00501500628888607,
          0.06438693404197693,
          0.10117193311452866,
          0.08041368424892426,
          0.17286986112594604,
          -0.04764992743730545,
          0.1271933615207672,
          0.08739396184682846,
          0.028315216302871704,
          0.0801704004406929,
          -0.04296301305294037,
          -0.002451856154948473,
          0.04361369088292122,
          -0.10655083507299423,
          -0.024668961763381958,
          -0.09239629656076431,
          -0.1949623078107834,
          0.0005997349508106709,
          -0.07302113622426987,
          -0.0732099786400795,
          -0.002856543520465493,
          -0.16386984288692474,
          0.17452877759933472,
          -0.06186440959572792,
          -0.12468990683555603,
          -0.10280923545360565,
          0.051360517740249634,
          -0.024412820115685463,
          0.07550299912691116,
          0.05004706233739853,
          -0.06502971798181534,
          0.01245847437530756,
          0.18022309243679047,
          0.1957802176475525,
          -0.05184347182512283,
          -0.02918933890759945,
          -0.22507601976394653,
          -0.09539691358804703,
          0.08247612416744232,
          -0.01173948310315609,
          -0.014749545603990555,
          -0.08780387043952942,
          -0.117745541036129,
          -0.14379991590976715,
          -0.07380472123622894,
          0.08425925672054291,
          -0.17253197729587555,
          -0.412584513425827,
          -0.28881871700286865,
          -0.04031482711434364,
          -0.04575565084815025,
          -0.08114099502563477,
          0.01617894507944584,
          0.10851746052503586,
          -0.01668032631278038,
          0.17316702008247375,
          0.08881445229053497,
          0.10663580149412155,
          0.11067135632038116,
          -0.1422215849161148,
          -0.11378629505634308,
          -0.07284457981586456,
          0.13082244992256165,
          0.32982495427131653,
          0.041692644357681274,
          -0.25015902519226074,
          -0.39638853073120117,
          -0.18489165604114532,
          0.21967224776744843,
          0.26356059312820435,
          0.07760201394557953,
          -0.035067684948444366,
          -0.27135899662971497,
          0.036979515105485916,
          -0.18398872017860413,
          -0.12679708003997803,
          -0.13770471513271332,
          0.03169868513941765,
          0.36355137825012207,
          -0.175326868891716,
          -0.28261104226112366,
          0.06521538645029068,
          0.5721724629402161,
          0.13678643107414246,
          -0.051323141902685165,
          -0.33190783858299255,
          -0.3213345408439636,
          0.1596921980381012,
          0.04728851467370987,
          -0.26232630014419556,
          -0.06442712992429733,
          -0.023607000708580017,
          -0.0095355911180377,
          -0.1637435108423233,
          -0.007042353972792625,
          0.05032511427998543,
          -0.03005591221153736,
          -0.47527045011520386,
          -0.3896848261356354,
          -0.06777077168226242,
          -0.13841640949249268,
          -0.4129084348678589,
          0.06281387060880661,
          0.2370421439409256,
          0.39133724570274353,
          0.449287474155426,
          0.3744399845600128,
          0.5029663443565369,
          0.38309726119041443,
          0.03575772047042847,
          -0.060093022882938385,
          0.28001391887664795,
          0.4761011004447937,
          0.048099298030138016,
          0.19015832245349884,
          -0.04300371930003166,
          0.030042245984077454,
          0.5905683636665344,
          0.4062008857727051,
          0.011755921877920628,
          0.04592611640691757,
          -0.14143496751785278,
          -0.17382143437862396,
          -0.13304241001605988
        ],
        [
          0.020964913070201874,
          -0.004729496780782938,
          0.1404787003993988,
          0.028128551319241524,
          -0.19952525198459625,
          0.1899440735578537,
          0.04959459230303764,
          0.10896569490432739,
          -0.14278315007686615,
          0.11592497676610947,
          0.143487349152565,
          -0.14808312058448792,
          -0.16842176020145416,
          0.16941618919372559,
          0.1899549812078476,
          0.002203824231401086,
          0.02089785784482956,
          0.07628944516181946,
          0.2837764620780945,
          -0.01685738004744053,
          0.021991997957229614,
          0.05502910912036896,
          0.028125742450356483,
          -0.14578752219676971,
          -0.22102585434913635,
          0.09974721074104309,
          -0.22936126589775085,
          0.09833592921495438,
          0.06954097002744675,
          -0.09397096931934357,
          0.09503107517957687,
          -0.18654459714889526,
          -0.012145765125751495,
          -0.13246111571788788,
          -0.04988301917910576,
          -0.10075029730796814,
          -0.2589092552661896,
          -0.007407631259411573,
          -0.042648203670978546,
          -0.13544093072414398,
          0.05439882352948189,
          0.10859168320894241,
          0.20772244036197662,
          0.11120616644620895,
          -0.1126602292060852,
          -0.029605794697999954,
          -0.06435514241456985,
          0.05751816928386688,
          -0.2125938981771469,
          -0.14258621633052826,
          -0.022349093109369278,
          0.057577457278966904,
          0.05554170534014702,
          -0.17909327149391174,
          -0.22505421936511993,
          -0.15607257187366486,
          -0.026058509945869446,
          0.08392386138439178,
          -0.09569502621889114,
          -0.0948849767446518,
          -0.08871906995773315,
          0.03267378732562065,
          -0.02804596908390522,
          -0.05018437281250954,
          -0.045381344854831696,
          -0.004543695133179426,
          -0.0384625643491745,
          -0.12064597755670547,
          -0.09833244979381561,
          0.10502000153064728,
          0.11733442544937134,
          0.01743866316974163,
          0.06370210647583008,
          0.14368990063667297,
          0.14347781240940094,
          0.14820913970470428,
          0.13628636300563812,
          0.09326992183923721,
          -0.10928689688444138,
          0.017997952178120613,
          -0.286298543214798,
          -0.12158718705177307,
          -0.11156409233808517,
          -0.19131366908550262,
          -0.16603682935237885,
          -0.1033259853720665,
          -0.014095847494900227,
          -0.19891338050365448,
          -0.13383576273918152,
          -0.042308855801820755,
          -0.29736796021461487,
          -0.18925747275352478,
          -0.07121951133012772,
          -0.1116737648844719,
          0.04502563551068306,
          0.0047781625762581825,
          -0.039826951920986176,
          0.16348233819007874,
          0.13903579115867615,
          0.220354825258255,
          0.10492022335529327,
          -0.05333159118890762,
          0.08417922258377075,
          -0.06634928286075592,
          -0.19491414725780487,
          -0.04067634046077728,
          0.1615925133228302,
          -0.11656764149665833,
          -0.31887632608413696,
          -0.6524867415428162,
          -0.0675884261727333,
          -0.24376127123832703,
          -0.3037686049938202,
          -0.4000973105430603,
          -0.33056333661079407,
          -0.20409871637821198,
          -0.11286308616399765,
          -0.2444123774766922,
          0.0576631985604763,
          0.1579572707414627,
          -0.23533903062343597,
          0.023738304153084755,
          0.28468576073646545,
          0.089847132563591,
          -0.08060859143733978,
          0.32324352860450745,
          0.16875776648521423,
          0.12438522279262543,
          0.1493477076292038,
          0.1656181663274765,
          0.17939014732837677,
          0.05767906829714775,
          -0.23749275505542755,
          0.19339928030967712,
          -0.06417142599821091,
          -0.05181790888309479,
          -0.2329624444246292,
          -0.11041101068258286,
          -0.19954277575016022,
          -0.012614987790584564,
          -0.4068152606487274,
          -0.38506191968917847,
          0.08260274678468704,
          -0.007338528521358967,
          0.033141184598207474,
          -0.2676357924938202,
          -0.2954343855381012,
          0.10747145861387253,
          -0.307128369808197,
          -0.15576474368572235,
          -0.2066696286201477,
          0.06766673177480698,
          0.07001607120037079,
          -0.1812766045331955,
          -0.37304624915122986,
          -0.06417131423950195,
          0.21061821281909943,
          0.0008215425768867135,
          -0.3946794867515564,
          0.1379958987236023,
          0.019430574029684067,
          0.03229396417737007,
          -0.22904549539089203,
          0.04977031052112579,
          0.3544386923313141,
          0.14274759590625763,
          0.04102873429656029,
          0.1682692915201187,
          0.23998847603797913,
          0.1396351158618927,
          0.055449701845645905,
          0.16304339468479156,
          0.10461439192295074,
          0.03423282876610756,
          -0.09967779368162155,
          0.039262447506189346,
          0.2598348557949066,
          0.2416415512561798,
          -0.22164669632911682,
          0.06291517615318298,
          0.20171259343624115,
          0.11318212747573853,
          -0.28930652141571045,
          -0.3298831284046173,
          0.2239973247051239,
          0.04178189858794212,
          -0.16208231449127197,
          -0.029258428141474724,
          0.2710759937763214,
          0.3014868199825287,
          0.015518877655267715,
          0.15499380230903625,
          0.3399341106414795,
          0.21067146956920624,
          0.05438891053199768,
          0.03346659988164902,
          -0.11779749393463135,
          -0.04494938254356384,
          -0.06206405162811279,
          -0.08581769466400146,
          0.5293693542480469,
          0.7833930850028992,
          0.14507266879081726,
          0.153736874461174,
          0.1263279914855957,
          0.47725287079811096,
          0.32554692029953003,
          -0.23725830018520355,
          -0.8959909677505493,
          -0.6314928531646729,
          -0.05430440604686737,
          -0.16591495275497437,
          -0.25496697425842285,
          -0.816660463809967,
          -0.5566139817237854,
          -0.33143487572669983,
          -0.41738858819007874,
          -0.15805092453956604,
          -0.054581914097070694,
          -0.29784491658210754,
          0.13477638363838196,
          0.3061172664165497,
          0.5281700491905212,
          0.391073614358902,
          -0.23484976589679718,
          -0.09058961272239685,
          0.2659131586551666,
          -0.03927786275744438,
          -0.049551185220479965,
          -0.11090540885925293,
          -0.09336867928504944,
          -0.05811421945691109,
          -0.23005715012550354,
          -0.3164907693862915,
          -0.45844313502311707,
          -0.3047589361667633,
          -0.11649394780397415,
          -0.3694688677787781,
          -0.6379087567329407,
          -0.6248460412025452,
          -0.3676402270793915,
          -0.17057204246520996,
          -0.40293169021606445,
          -0.43146681785583496,
          -0.2813948690891266,
          -0.18039453029632568,
          0.1474805623292923,
          0.03779929503798485,
          0.11621776223182678,
          -0.14012905955314636,
          -0.0829593613743782,
          0.029208606109023094,
          -0.013233066536486149,
          0.05250853672623634,
          -0.01817154698073864,
          -0.11317569017410278,
          -0.034163352102041245,
          0.10181650519371033,
          0.02068881317973137,
          -0.09609945863485336,
          0.012073652818799019,
          -0.03956840559840202,
          0.037964802235364914,
          -0.022815726697444916,
          -0.028195824474096298,
          0.013371974229812622,
          -0.1626288741827011,
          0.013760311529040337,
          0.013726269826292992,
          0.2061815857887268,
          -0.11433343589305878,
          -0.012814024463295937,
          0.08348596841096878,
          -0.05141075327992439,
          0.09116985648870468,
          0.006434369366616011,
          0.02906704694032669,
          -0.022839492186903954,
          -0.17829348146915436,
          -0.1321323662996292,
          -0.20571395754814148,
          0.09786253422498703,
          -0.06219121813774109,
          -0.20076191425323486,
          -0.351243793964386,
          -0.18765780329704285,
          0.06771229952573776,
          -0.1670580804347992,
          -0.15593968331813812,
          0.03258534520864487,
          -0.07783817499876022,
          0.16519057750701904,
          0.03964315727353096,
          0.043825916945934296,
          0.3744179606437683,
          0.10598544031381607,
          0.07803300023078918,
          0.15510213375091553,
          0.16674374043941498,
          0.2582302689552307,
          0.32480430603027344,
          0.32860830426216125,
          0.4274235665798187,
          0.3179681897163391,
          0.02880595065653324,
          0.3266626298427582,
          0.5425755381584167,
          0.5460014343261719,
          0.062416404485702515,
          -0.4635481834411621,
          0.2952573597431183,
          0.6106389760971069,
          0.23645958304405212,
          -0.5725409984588623,
          -0.14161621034145355,
          -0.17886823415756226,
          -0.29018884897232056,
          -0.2982649803161621,
          0.134198397397995,
          0.23786644637584686,
          -0.4342520534992218,
          0.015628060325980186,
          0.16785195469856262,
          0.27423161268234253,
          0.10424097627401352,
          0.06761327385902405,
          0.22688907384872437,
          0.313385933637619,
          -0.055207036435604095,
          -0.03660626709461212,
          0.14836570620536804,
          0.18847334384918213,
          0.14373141527175903,
          -0.02602233551442623,
          -0.033863235265016556,
          0.21823664009571075,
          0.12892524898052216,
          -0.1359288990497589,
          -0.057555459439754486,
          -0.02646235004067421,
          -0.16543304920196533,
          -0.2417881190776825,
          -0.08529135584831238,
          0.038558728992938995,
          -0.019338827580213547,
          -0.07736779749393463,
          -0.008650205098092556,
          0.057980384677648544,
          0.09277225285768509,
          -0.19369599223136902,
          0.10404036194086075,
          0.20460085570812225,
          -0.043267033994197845,
          -0.11061474680900574,
          -0.06071842834353447,
          0.2810048460960388,
          0.019014373421669006,
          -0.22394445538520813,
          0.09336579591035843,
          0.15712130069732666,
          0.09774021804332733,
          -0.06563353538513184,
          0.007847235538065434,
          0.32097306847572327,
          0.21424153447151184,
          0.08477760851383209,
          -0.021433506160974503,
          0.03990372270345688,
          0.1467864215373993,
          -0.051742587238550186,
          0.034721117466688156,
          -0.004048434551805258,
          0.0590362586081028,
          0.002185684395954013,
          -0.12307792156934738,
          -0.048828642815351486,
          0.1870458871126175,
          0.1869654804468155,
          -0.1453411728143692,
          -0.30277031660079956,
          -0.20104822516441345,
          0.10413739085197449,
          0.09243585169315338,
          -0.3636441230773926,
          -0.2084580510854721,
          -0.06756740063428879,
          0.17325210571289063,
          -0.08352994173765182,
          -0.05752383545041084,
          -0.22392921149730682,
          0.03218318149447441,
          0.055833056569099426,
          -0.023654505610466003,
          -0.13796301186084747,
          -0.21465259790420532,
          -0.25866082310676575,
          -0.25464385747909546,
          -0.276978075504303,
          -0.17970943450927734,
          -0.029765143990516663,
          0.3664981722831726,
          0.49572789669036865,
          0.1125798225402832,
          0.2109615057706833,
          0.06141020730137825,
          0.09345611184835434,
          -0.030632615089416504,
          -0.3255978226661682,
          0.34363943338394165,
          0.19271023571491241,
          -0.39505329728126526,
          -0.10937788337469101,
          -0.08773889392614365,
          0.09924118965864182,
          0.22471122443675995,
          -0.4111427664756775,
          -0.00015182331844698638,
          0.33369147777557373,
          0.33186277747154236,
          -0.09895436465740204,
          -0.19991105794906616,
          0.1740666776895523,
          0.10477522015571594,
          -0.5022925734519958,
          0.035431649535894394,
          0.1805509626865387,
          0.193012535572052,
          0.09484398365020752,
          -0.21846401691436768,
          -0.12157531082630157,
          -0.07147681713104248,
          -0.06349742412567139,
          -0.45970091223716736,
          -0.3949126601219177,
          -0.5795349478721619,
          -0.05830330401659012,
          -0.27416756749153137,
          -0.3197506070137024,
          0.27920976281166077,
          0.34433475136756897,
          -0.12664970755577087,
          -0.2121914178133011,
          0.05883769318461418,
          0.3667128086090088,
          0.4009355306625366,
          -0.30619925260543823,
          -0.03899117186665535,
          0.020846854895353317,
          0.1979195475578308,
          0.13904394209384918,
          -0.29022371768951416,
          0.04001897946000099,
          0.2548651099205017,
          0.07480782270431519,
          -0.5202624797821045,
          -0.14511249959468842,
          0.24983014166355133,
          0.40149250626564026,
          -0.42713597416877747,
          -0.1792367398738861,
          -0.0593448132276535,
          0.19384172558784485,
          -0.14872218668460846,
          0.005892996210604906,
          0.22781702876091003,
          0.23299553990364075,
          0.3963536024093628,
          0.26342520117759705,
          0.30569988489151,
          0.24626095592975616,
          0.1642483025789261,
          0.14647778868675232,
          -0.17838911712169647,
          -0.019592231139540672,
          0.11854951828718185,
          -0.2087436318397522,
          0.07761748135089874,
          0.09934982657432556,
          -0.15086990594863892,
          -0.03848429024219513,
          -0.08456353843212128,
          0.08535635471343994,
          -0.1008354127407074,
          -0.29067590832710266,
          0.03137970343232155,
          -0.038655225187540054,
          -0.08212249726057053,
          -0.3412078619003296,
          0.0889497697353363,
          0.22247755527496338,
          0.22214682400226593,
          0.10530446469783783,
          0.22266338765621185,
          0.2664200961589813,
          -0.003954861778765917,
          -0.15459629893302917,
          -0.2089151293039322,
          -0.1928371787071228,
          -0.18625956773757935,
          -0.25397902727127075,
          -0.18754005432128906,
          -0.09669075906276703,
          0.05154331028461456,
          0.019967366009950638,
          -0.4783076345920563,
          0.254554808139801,
          0.31030207872390747,
          0.30104875564575195,
          -0.29151713848114014,
          -0.2404821217060089,
          0.11922093480825424,
          0.08162000775337219,
          -0.4486718475818634,
          -0.004214213229715824,
          0.42166224122047424,
          -0.19319823384284973,
          0.20544075965881348,
          0.5195721983909607,
          0.3806975483894348,
          0.34791484475135803,
          0.23467591404914856,
          0.3403063118457794,
          0.12450139969587326,
          0.06396637111902237,
          0.11593237519264221,
          0.068628691136837,
          0.07305225729942322,
          -0.031538642942905426,
          -0.0033882695715874434,
          -0.066229909658432,
          0.012493617832660675,
          0.12603598833084106,
          0.003842082340270281,
          0.050580769777297974,
          -0.031653884798288345,
          0.12636245787143707,
          0.053028661757707596,
          -0.0570484958589077,
          -0.3725816607475281,
          -0.2571443021297455,
          -0.07541312277317047,
          -0.11620587110519409,
          -0.19105583429336548,
          -0.02311178483068943,
          -0.0007473648875020444,
          0.010732267051935196,
          -0.05019007995724678,
          0.14092859625816345,
          0.24250955879688263,
          0.14926384389400482,
          -0.30249348282814026,
          0.08608074486255646,
          -0.06229750066995621,
          -0.2938781678676605,
          -0.16380153596401215,
          0.2257121503353119,
          0.28418076038360596,
          -0.2027987241744995,
          -0.49693191051483154,
          -0.22170601785182953,
          -0.0016614310443401337,
          -0.3570989668369293,
          -0.20630323886871338,
          -0.15483352541923523,
          -0.03615827485918999,
          -0.14648069441318512,
          -0.010395199060440063,
          0.15419423580169678,
          0.4123717248439789,
          0.21593256294727325,
          0.08190431445837021,
          0.3738196790218353,
          0.37700045108795166,
          0.443852961063385,
          -0.2340293824672699,
          -0.06208828091621399,
          0.3220372796058655,
          0.291873574256897,
          0.10966700315475464,
          -0.0020881143864244223,
          -0.09870736300945282,
          0.2550027072429657,
          0.04728075489401817,
          -0.05142875760793686,
          -0.034252554178237915,
          0.07934010028839111,
          0.12192831188440323,
          0.07358148694038391,
          -0.023882033303380013,
          -0.1758575290441513,
          -0.046963658183813095,
          -0.14918741583824158,
          -0.2146535962820053,
          -0.07056621462106705,
          -0.015114483423531055,
          -0.41833561658859253,
          -0.18052774667739868,
          -0.032184407114982605,
          0.13669364154338837,
          0.05921264737844467,
          0.24400478601455688,
          0.13486671447753906,
          0.1143956333398819,
          0.11389631032943726,
          0.15182232856750488,
          -0.09297255426645279,
          -0.29562363028526306,
          0.009521380998194218,
          0.1682196706533432,
          -0.21342837810516357,
          -0.33571746945381165,
          -0.10712279379367828,
          0.21459706127643585,
          -0.07805901765823364,
          -0.4216880202293396,
          -0.20548972487449646,
          0.0947640985250473,
          -0.04873599857091904,
          -0.318509042263031,
          -0.32135888934135437,
          -0.2211056351661682,
          -0.36434227228164673,
          -0.08619678020477295,
          0.11694283038377762,
          0.20475861430168152,
          -0.0975855365395546,
          0.05476630851626396,
          0.10529939830303192,
          -0.26336580514907837,
          -0.2233848124742508,
          -0.09062040597200394,
          0.05267685279250145,
          -0.009468546137213707,
          -0.1991008222103119,
          0.020929457619786263,
          -0.045609358698129654,
          -0.06459501385688782,
          -0.12735222280025482,
          0.003576060989871621,
          0.11449898034334183,
          0.09595384448766708,
          0.014734995551407337,
          0.030579563230276108,
          0.03497445955872536,
          -0.006530826911330223,
          0.050676871091127396,
          -0.022498544305562973,
          -0.0033233407884836197,
          -0.02712070941925049,
          -0.15052345395088196,
          0.019514909014105797,
          0.001238932483829558,
          0.0766386166214943,
          -0.1594930738210678,
          -0.18432803452014923,
          -0.05711907893419266,
          0.07658685743808746,
          0.0020296552684158087,
          -0.08705726265907288,
          -0.16675779223442078,
          0.0987323671579361,
          -0.0006822134018875659,
          -0.013022457249462605,
          0.011194770224392414,
          0.2592999339103699,
          0.13998234272003174,
          -0.03678543120622635,
          0.028981830924749374,
          0.15076300501823425,
          0.2616221606731415,
          0.05524706840515137,
          0.051864754408597946,
          0.13026951253414154,
          0.14275546371936798,
          0.05586018040776253,
          0.14302006363868713,
          0.2407865971326828,
          -0.07278405129909515,
          -0.09784018993377686,
          -0.07045124471187592,
          0.09520043432712555,
          0.10003656893968582,
          0.03276742249727249,
          -0.02143787033855915,
          -0.07951599359512329,
          -0.052584026008844376,
          0.028074705973267555,
          -0.001953655621036887,
          -0.1042504757642746,
          -0.026591315865516663,
          -0.020754212513566017,
          0.003555802395567298,
          0.034682389348745346,
          0.3323838412761688,
          0.2162838727235794,
          0.134217768907547,
          0.0576777346432209,
          0.5150957107543945,
          0.413356214761734,
          0.22849516570568085,
          0.0776260644197464,
          0.21824027597904205,
          -0.19823426008224487,
          -0.018242323771119118,
          0.04764610156416893,
          -0.011029345914721489,
          -0.3672531843185425,
          -0.05267244204878807,
          -0.16382348537445068,
          -0.3101775646209717,
          -0.24361556768417358,
          -0.5987682342529297,
          -0.21688543260097504,
          -0.05047035589814186,
          0.06458945572376251,
          -0.022858181968331337,
          -0.2350592017173767,
          0.019769204780459404,
          0.1766999363899231,
          -0.08379672467708588,
          0.010216754861176014,
          0.006011088378727436,
          0.06501005589962006,
          0.05178293585777283,
          -0.01857411116361618,
          -0.3149701654911041,
          -0.016359200701117516,
          0.39276644587516785,
          0.02004450000822544,
          -0.40396976470947266,
          -0.29064732789993286,
          0.2636350989341736,
          0.25000348687171936,
          -0.28443023562431335,
          -0.37016287446022034,
          -0.13753771781921387,
          0.08507630228996277,
          -0.24397970736026764,
          -0.3468061089515686,
          -0.12895968556404114,
          0.13463447988033295,
          0.07234425097703934,
          -0.014989607036113739,
          0.01826101914048195,
          -0.09535536170005798,
          0.10651782155036926,
          0.03639121353626251,
          -0.015593194402754307,
          0.05001445487141609,
          0.0027151231188327074,
          0.1389799416065216,
          -0.07527854293584824,
          0.17360982298851013,
          0.19062305986881256,
          -0.038582693785429,
          0.2648698389530182,
          0.19034883379936218,
          0.2773638069629669,
          0.04184136167168617,
          -0.17733970284461975,
          0.02924932725727558,
          -0.002170814201235771,
          -0.0025535598397254944,
          -0.39963865280151367,
          -0.09852851927280426,
          -0.11918001621961594,
          -0.22104336321353912,
          0.1785224974155426,
          0.07624519616365433,
          -0.1084301695227623,
          -0.053417302668094635,
          0.09781499207019806,
          0.30715125799179077,
          0.06729791313409805,
          -0.27456045150756836,
          0.1878589689731598,
          0.15954060852527618,
          -0.028737060725688934,
          0.01438798476010561,
          0.21127332746982574,
          0.05811760947108269,
          -0.42144080996513367,
          -0.5143495798110962,
          -0.3575531542301178,
          -0.3847563564777374,
          -0.43109604716300964,
          -0.5025384426116943,
          -0.051066700369119644,
          -0.6272054314613342,
          -0.3109482228755951,
          -0.18791978061199188,
          -0.08798381686210632,
          -0.07519905269145966,
          -0.256131112575531,
          0.5756233930587769,
          0.2762320935726166,
          0.7619998455047607,
          0.6947869658470154,
          1.034620761871338,
          0.7871613502502441
        ],
        [
          0.0019319429993629456,
          0.11110349744558334,
          0.14518684148788452,
          -0.08534380048513412,
          -0.04663282632827759,
          -0.17618249356746674,
          -0.31646591424942017,
          -0.4131423830986023,
          -0.08724788576364517,
          0.07466459274291992,
          -0.08718227595090866,
          -0.2330188751220703,
          -0.012666234746575356,
          0.2595166862010956,
          0.06024647876620293,
          0.05604720860719681,
          0.07144029438495636,
          0.11509786546230316,
          0.140819251537323,
          -0.12489083409309387,
          0.00752152968198061,
          -0.05542277544736862,
          0.0720587968826294,
          -0.037013765424489975,
          -0.13695292174816132,
          0.0886305421590805,
          0.05769585072994232,
          -0.10119105875492096,
          -0.2765224277973175,
          -0.06929457187652588,
          -0.19569407403469086,
          -0.41785186529159546,
          -0.17546892166137695,
          0.1974812000989914,
          -0.1477382928133011,
          0.10277748107910156,
          -0.07943154871463776,
          0.12049012631177902,
          0.201591357588768,
          -0.21374757587909698,
          0.003770427778363228,
          -0.11395376920700073,
          0.157011479139328,
          -0.008455950766801834,
          -0.15362749993801117,
          0.018957801163196564,
          -0.1089835911989212,
          0.10562066733837128,
          -0.11744610220193863,
          -0.034717343747615814,
          0.05248866602778435,
          0.07023987919092178,
          -0.06299120932817459,
          -0.010186015628278255,
          0.22648172080516815,
          0.08433894068002701,
          0.2481907457113266,
          0.18533913791179657,
          0.08473312854766846,
          -0.09296722710132599,
          -0.2966819107532501,
          -0.3386913537979126,
          -0.20962972939014435,
          -0.16799816489219666,
          -0.08491186797618866,
          0.0643412247300148,
          -0.20443859696388245,
          -0.12590481340885162,
          0.19293609261512756,
          -0.02279680036008358,
          0.15562498569488525,
          0.051775895059108734,
          -0.03785722702741623,
          0.14350956678390503,
          -0.03390956297516823,
          0.11010107398033142,
          -0.08109266310930252,
          -0.10883776098489761,
          0.20826876163482666,
          0.10324452072381973,
          0.19297562539577484,
          0.20695066452026367,
          0.19643552601337433,
          0.043596431612968445,
          -0.10287424921989441,
          -0.10723660886287689,
          0.07609345018863678,
          -0.03696083649992943,
          -0.12886179983615875,
          -0.07607124000787735,
          0.020298318937420845,
          -0.16911692917346954,
          0.07388650625944138,
          0.17504443228244781,
          0.03223564848303795,
          0.08744651824235916,
          -0.2063797414302826,
          0.007441102992743254,
          0.14694717526435852,
          -0.04580461233854294,
          -0.09576558321714401,
          0.11749107390642166,
          0.19813327491283417,
          -0.14630769193172455,
          -0.14943017065525055,
          0.026932287961244583,
          0.03774355724453926,
          -0.32577642798423767,
          -0.06480968743562698,
          0.01710570976138115,
          0.25124335289001465,
          0.0680992528796196,
          -0.2982420027256012,
          -0.10549652576446533,
          0.22555989027023315,
          0.22119052708148956,
          0.36171579360961914,
          -0.06692253798246384,
          0.08007901161909103,
          0.05376116931438446,
          -0.08873538672924042,
          -0.06417957693338394,
          0.05787888914346695,
          0.21180492639541626,
          0.35436809062957764,
          -0.09355299174785614,
          0.18632233142852783,
          0.09076887369155884,
          0.057255037128925323,
          -0.09436122328042984,
          -0.12517261505126953,
          -0.016586484387516975,
          -0.12772205471992493,
          -0.15777888894081116,
          -0.2282867580652237,
          0.12457837164402008,
          -0.18763358891010284,
          -0.3001137375831604,
          0.11816520988941193,
          -0.16108423471450806,
          -0.10540460795164108,
          -0.10875703394412994,
          -0.0507080964744091,
          -0.14271317422389984,
          -0.2928868234157562,
          -0.15063482522964478,
          -0.004968748893588781,
          0.07176293432712555,
          -0.20849968492984772,
          -0.11107782274484634,
          0.111506387591362,
          0.18408440053462982,
          0.11871641874313354,
          -0.020636843517422676,
          0.06812424957752228,
          -0.19042307138442993,
          -0.0803147703409195,
          -0.20027858018875122,
          -0.3723573684692383,
          0.12601988017559052,
          -0.19466650485992432,
          -0.2580450177192688,
          -0.4342234134674072,
          0.14221952855587006,
          0.21137109398841858,
          0.05358727276325226,
          0.12821918725967407,
          -0.06235736235976219,
          0.1768978387117386,
          0.048583317548036575,
          0.07943908125162125,
          -0.029753241688013077,
          -0.1509426236152649,
          0.013742002658545971,
          -0.10051771998405457,
          -0.06054246798157692,
          0.19820185005664825,
          0.2432483285665512,
          -0.35681402683258057,
          -0.047915443778038025,
          -0.1524145007133484,
          -0.18848098814487457,
          -0.2787560820579529,
          0.2186248004436493,
          0.31740379333496094,
          0.2624581456184387,
          -0.007111300714313984,
          -0.061049919575452805,
          0.160265251994133,
          0.0231416467577219,
          0.04058931767940521,
          -0.1011134535074234,
          -0.1255733072757721,
          0.13224227726459503,
          0.0029306598007678986,
          -0.036678411066532135,
          -0.028807010501623154,
          -0.13555583357810974,
          0.02142423205077648,
          -0.032079704105854034,
          -0.14497238397598267,
          -0.12624461948871613,
          -0.09511040151119232,
          -0.26627784967422485,
          0.0222244281321764,
          0.17957425117492676,
          0.2192404866218567,
          0.21856293082237244,
          0.23336495459079742,
          0.016676871106028557,
          -0.10969817638397217,
          0.13194482028484344,
          -0.3922719955444336,
          0.21649691462516785,
          0.12474182993173599,
          0.052053265273571014,
          -0.2812885642051697,
          -0.11446236819028854,
          0.6609227657318115,
          0.25210797786712646,
          0.29403218626976013,
          -0.18296034634113312,
          -0.2958216667175293,
          0.08343526721000671,
          -0.10564972460269928,
          0.18834958970546722,
          0.2663550078868866,
          -0.21901129186153412,
          -0.46902957558631897,
          -0.06064502149820328,
          0.17562837898731232,
          0.26061031222343445,
          -0.07373128086328506,
          -0.2139366716146469,
          -0.06846930831670761,
          -0.28887465596199036,
          0.07501921057701111,
          -0.20456434786319733,
          -0.36300328373908997,
          0.1535666286945343,
          0.16134889423847198,
          0.25769639015197754,
          -0.09752122312784195,
          -0.07992380857467651,
          0.3840942084789276,
          0.32067814469337463,
          0.45326411724090576,
          -0.057678889483213425,
          0.09653370082378387,
          0.4425713121891022,
          0.11347759515047073,
          0.1377098560333252,
          0.08884967118501663,
          0.08926038444042206,
          -0.02938968501985073,
          0.06731454282999039,
          0.006669902242720127,
          -0.016521506011486053,
          -0.11066832393407822,
          0.0478672981262207,
          -0.0020128311589360237,
          -0.04045840725302696,
          -0.14179867506027222,
          -0.14138884842395782,
          0.04121948406100273,
          -0.15050926804542542,
          -0.07201855629682541,
          0.0016885552322492003,
          -0.08211373537778854,
          0.12344524264335632,
          0.10349024832248688,
          -0.01711183972656727,
          0.032761380076408386,
          0.024219216778874397,
          -0.02398834377527237,
          0.035068564116954803,
          -0.10759131610393524,
          -0.08996573090553284,
          -0.03754564747214317,
          0.025108065456151962,
          -0.06920541822910309,
          0.07175028324127197,
          0.27157002687454224,
          0.17199108004570007,
          0.15074144303798676,
          0.009297902695834637,
          0.09396634250879288,
          0.09502943605184555,
          -0.2203957885503769,
          -0.10994654893875122,
          -0.02755112387239933,
          -0.16768009960651398,
          0.04976485297083855,
          -0.0058860997669398785,
          0.18885809183120728,
          0.06442143023014069,
          -0.0021874969825148582,
          -0.067229725420475,
          -0.03145303949713707,
          0.03607752174139023,
          0.2915712893009186,
          0.2159576714038849,
          0.2451399862766266,
          0.27966004610061646,
          -0.3598276376724243,
          -0.04876680672168732,
          0.05509485676884651,
          0.259786456823349,
          0.08979643881320953,
          0.11135083436965942,
          -0.6799465417861938,
          -0.19541631639003754,
          -0.3691065311431885,
          -0.16134391725063324,
          0.7013047337532043,
          -0.37783607840538025,
          -0.15479594469070435,
          -0.16353978216648102,
          -0.012450596317648888,
          0.36186230182647705,
          -0.10508427023887634,
          -0.11702121049165726,
          -0.07244904339313507,
          -0.06986495107412338,
          0.2488400936126709,
          0.004845866933465004,
          -0.025556011125445366,
          -0.10748874396085739,
          -0.11190234124660492,
          -0.06289796531200409,
          -0.2534932494163513,
          -0.167154461145401,
          -0.10809313505887985,
          0.10773474723100662,
          0.09016925096511841,
          -0.18794572353363037,
          -0.15425853431224823,
          -0.1436634510755539,
          0.08923691511154175,
          0.23878800868988037,
          -0.16499760746955872,
          -0.1669079214334488,
          -0.2176484614610672,
          0.075809046626091,
          0.08749321103096008,
          0.146342471241951,
          -0.07975517958402634,
          -0.13217845559120178,
          -0.19294773042201996,
          0.08859745413064957,
          0.0023167524486780167,
          0.18888117372989655,
          0.014659463427960873,
          -0.15505436062812805,
          0.14431588351726532,
          -0.15381604433059692,
          -0.1012776717543602,
          -0.1738312989473343,
          0.10303737223148346,
          0.1978025585412979,
          -0.25098171830177307,
          -0.4312190115451813,
          -0.08932033181190491,
          0.21133969724178314,
          -0.0846448466181755,
          0.03410298377275467,
          -0.05805513635277748,
          -0.04757056385278702,
          0.16503973305225372,
          -0.2529486417770386,
          0.042038444429636,
          -0.07213383913040161,
          0.07941769808530807,
          0.08616862446069717,
          -0.13733579218387604,
          -0.0006006505573168397,
          -0.03239133208990097,
          -0.19606970250606537,
          -0.2613889276981354,
          -0.14086665213108063,
          -0.22117291390895844,
          -0.14327505230903625,
          -0.24369922280311584,
          -0.21785128116607666,
          0.12331629544496536,
          0.05456100031733513,
          -0.05778778716921806,
          -0.07443892955780029,
          -0.056009143590927124,
          0.36483556032180786,
          -0.021286239847540855,
          -0.015616386197507381,
          -0.01327067892998457,
          -0.0006832991493865848,
          0.38124769926071167,
          -0.007963023148477077,
          0.09719044715166092,
          0.024714022874832153,
          -0.18271395564079285,
          0.30823779106140137,
          0.4046563506126404,
          0.39398184418678284,
          0.08800622820854187,
          -0.27657362818717957,
          -0.22459742426872253,
          0.05069044232368469,
          -0.34276875853538513,
          0.16947422921657562,
          0.19678854942321777,
          0.015767021104693413,
          0.07375816255807877,
          0.09678403288125992,
          0.3178044855594635,
          0.16612035036087036,
          -0.1701691895723343,
          0.05487760528922081,
          0.06555026024580002,
          0.24067844450473785,
          -0.062182843685150146,
          -0.05022645369172096,
          -0.1460348516702652,
          -0.04102209210395813,
          0.23704363405704498,
          -0.35720521211624146,
          -0.27700549364089966,
          0.03946997597813606,
          0.19417105615139008,
          0.2571832239627838,
          0.22129879891872406,
          0.16290661692619324,
          0.556654155254364,
          0.3819926977157593,
          -0.1138952299952507,
          -0.2694665193557739,
          0.22762024402618408,
          0.4370540678501129,
          -0.037642646580934525,
          -0.27122873067855835,
          0.022714555263519287,
          0.3160132169723511,
          -0.27873265743255615,
          -0.16987982392311096,
          0.04386492446064949,
          -0.17322470247745514,
          0.11117475479841232,
          0.05442588031291962,
          0.06515445560216904,
          0.021813146770000458,
          -0.3204774558544159,
          -0.2664439082145691,
          0.24291546642780304,
          0.3935692012310028,
          0.34232452511787415,
          0.19471991062164307,
          -0.07679649442434311,
          -0.3368562161922455,
          -0.254826158285141,
          -0.538462221622467,
          -0.603131115436554,
          0.17144085466861725,
          -0.2539357542991638,
          -0.12501634657382965,
          -0.13617923855781555,
          -0.19469721615314484,
          0.1489119678735733,
          -0.0726027563214302,
          0.04964010789990425,
          -0.14176326990127563,
          -0.20564448833465576,
          0.24353986978530884,
          0.09113417565822601,
          0.00225647771731019,
          -0.1611267328262329,
          -0.16729511320590973,
          0.09045100212097168,
          0.018632572144269943,
          0.1759890466928482,
          0.2918873131275177,
          -0.11358663439750671,
          -0.2843244969844818,
          -0.15997493267059326,
          -0.14976923167705536,
          -0.43218252062797546,
          -0.07693886756896973,
          0.035628072917461395,
          0.3944950997829437,
          0.26396387815475464,
          0.1335819810628891,
          0.09595022350549698,
          -0.04264213144779205,
          0.009094768203794956,
          0.008293544873595238,
          0.014706871472299099,
          -0.04253120720386505,
          -0.08059427887201309,
          0.004729645326733589,
          -0.154582217335701,
          0.04057538881897926,
          0.022902483120560646,
          0.028502054512500763,
          0.33372947573661804,
          0.3950956463813782,
          0.7246541380882263,
          0.3429639935493469,
          0.11610999703407288,
          -0.2636488974094391,
          0.2527761161327362,
          0.1434766948223114,
          -0.1606854945421219,
          0.4182913899421692,
          -0.254427969455719,
          0.23913832008838654,
          0.06963875144720078,
          0.43601980805397034,
          0.35820600390434265,
          -0.27011823654174805,
          -0.1346447914838791,
          0.05344204604625702,
          -0.4006841778755188,
          -0.14729322493076324,
          -0.20946192741394043,
          -0.13091054558753967,
          -0.0949743390083313,
          -0.3132248818874359,
          -0.1470874547958374,
          0.11774301528930664,
          0.1759675145149231,
          0.08098866790533066,
          0.010285675525665283,
          -0.016215786337852478,
          0.030355162918567657,
          0.22989708185195923,
          0.17360515892505646,
          0.059234920889139175,
          -0.05125303193926811,
          -0.06223937124013901,
          -0.0629170686006546,
          -0.09969548135995865,
          -0.1247067004442215,
          0.02235809899866581,
          0.084376759827137,
          -0.021004702895879745,
          -0.09636382013559341,
          0.013295595534145832,
          0.08913356810808182,
          0.046370625495910645,
          -0.08598775416612625,
          -0.1272766888141632,
          0.04342566803097725,
          0.08725579082965851,
          0.12879548966884613,
          0.23556287586688995,
          0.27389445900917053,
          -0.016626423224806786,
          0.10704102367162704,
          -0.05414872616529465,
          0.19585277140140533,
          0.0747559443116188,
          -0.10894741863012314,
          0.09069440513849258,
          -0.08528416603803635,
          -0.3204692304134369,
          -0.1501224786043167,
          0.33975619077682495,
          0.4958401024341583,
          0.2846106290817261,
          -0.07354918122291565,
          -0.2360682338476181,
          0.1337568759918213,
          0.22683899104595184,
          0.021183762699365616,
          0.13662700355052948,
          -0.06407885998487473,
          -0.11303193867206573,
          0.06138443201780319,
          -0.08187641203403473,
          -0.005002881865948439,
          -0.03664438799023628,
          -0.15454506874084473,
          0.0343729630112648,
          0.009210962802171707,
          -0.06703329086303711,
          -0.026255562901496887,
          0.15951883792877197,
          0.09185545891523361,
          0.047545403242111206,
          -0.12996256351470947,
          -0.2001602053642273,
          0.0016202969709411263,
          0.0713549330830574,
          -0.03706671670079231,
          -0.0278013925999403,
          -0.15556997060775757,
          0.01959317922592163,
          0.1724536120891571,
          0.05495006591081619,
          -0.07355701178312302,
          -0.017149949446320534,
          0.176412433385849,
          -0.08241112530231476,
          0.1162610873579979,
          0.22318829596042633,
          0.10187607258558273,
          -0.07622741907835007,
          0.13462626934051514,
          0.10991624742746353,
          0.2321028858423233,
          0.30955180525779724,
          0.4796270430088043,
          0.15936176478862762,
          -0.03141479939222336,
          -0.17468799650669098,
          -0.11846540868282318,
          -0.24714858829975128,
          0.027290143072605133,
          -0.06563829630613327,
          0.1193087100982666,
          -0.4169182777404785,
          -0.09179621934890747,
          0.12731625139713287,
          0.007885205559432507,
          0.0813337042927742,
          -0.2860109508037567,
          -0.16804270446300507,
          0.2591108977794647,
          0.11194557696580887,
          0.06936255097389221,
          0.002698085503652692,
          -0.041675809770822525,
          0.10074582695960999,
          -0.06841111183166504,
          -0.031413476914167404,
          -0.1593732088804245,
          -0.1468167006969452,
          -0.04229537397623062,
          -0.29223909974098206,
          -0.4848783314228058,
          -0.29385334253311157,
          0.14624254405498505,
          0.030318303033709526,
          0.12635774910449982,
          -0.03922683745622635,
          -0.07387443631887436,
          0.17108964920043945,
          -0.009321681223809719,
          0.08937853574752808,
          -0.07370501011610031,
          -0.04723348468542099,
          0.19566747546195984,
          -0.005261175334453583,
          0.0018824480939656496,
          -0.020433302968740463,
          0.06115806847810745,
          0.04448297992348671,
          0.0687517523765564,
          0.0042789531871676445,
          0.032258499413728714,
          0.04035015404224396,
          -0.06073698028922081,
          -0.13146759569644928,
          -0.298211008310318,
          -0.4207206964492798,
          -0.29329273104667664,
          -0.09005158394575119,
          0.03105357475578785,
          -0.00939960777759552,
          -0.09446714073419571,
          0.11332438141107559,
          0.05951658636331558,
          -0.03829531371593475,
          -0.007955879904329777,
          -0.1547773778438568,
          0.030952928587794304,
          0.010876672342419624,
          -0.11184144765138626,
          0.10073718428611755,
          0.3183290362358093,
          0.21474561095237732,
          0.22300688922405243,
          0.10698754340410233,
          0.0309216920286417,
          -0.06890907138586044,
          0.21976222097873688,
          0.07545216381549835,
          -0.1752224862575531,
          -0.4183274209499359,
          -0.23620259761810303,
          -0.20595797896385193,
          0.1487663835287094,
          -0.007256986107677221,
          0.06785920262336731,
          0.03277529031038284,
          -0.07987530529499054,
          0.1498052030801773,
          -0.04100310429930687,
          -0.013728505931794643,
          -0.245322123169899,
          -0.10937637835741043,
