{
  "layers": [
    {
      "biases": [
        1.6159377098083496,
        0.9183493852615356,
        1.1002193689346313,
        3.0675923824310303,
        1.8411742448806763,
        -2.1581523418426514,
        3.0270044803619385,
        0.12831352651119232,
        -0.19805417954921722,
        0.5590648055076599,
        -0.047256890684366226,
        -0.7001078724861145,
        -0.30015814304351807,
        -0.2032410055398941,
        -0.38882404565811157,
        -0.12644806504249573,
        0.3636472225189209,
        -0.83181232213974,
        0.3486253321170807,
        0.9115381240844727,
        0.7349028587341309,
        -0.2618657052516937,
        0.8244838118553162,
        -0.010447493754327297,
        0.3504180610179901,
        0.7553632259368896,
        0.8669934868812561,
        -0.0732259526848793,
        0.23762008547782898,
        -0.7776869535446167,
        -0.9131657481193542,
        0.4946165084838867,
        -0.8857424259185791,
        -0.06695199757814407,
        -0.6100250482559204,
        0.953234851360321,
        -0.40831780433654785,
        -0.46574732661247253,
        0.2135964035987854,
        0.6661782264709473,
        0.503546953201294,
        -0.7875532507896423,
        -0.2572043538093567,
        -0.4182087481021881,
        -0.04514194279909134,
        -0.4939860701560974,
        -0.5799019932746887,
        0.7478344440460205,
        0.36548393964767456,
        0.21269994974136353,
        0.5929145216941833,
        0.867715060710907,
        -0.934365451335907,
        -0.06968624889850616,
        -0.47169557213783264,
        0.8880763053894043,
        0.4375545084476471,
        0.7708537578582764,
        0.6053136587142944,
        -0.8695981502532959,
        0.017050042748451233,
        0.05804825946688652,
        0.4094336926937103,
        0.5756394267082214,
        0.8011530041694641,
        0.6899876594543457,
        0.153577521443367,
        0.9031382203102112,
        0.44552716612815857,
        -0.8675532341003418,
        -0.7668822407722473,
        -0.4347097873687744,
        0.7386713624000549,
        0.7700241804122925,
        -0.8598042130470276,
        -0.8050626516342163,
        -0.8183605074882507,
        -0.43313640356063843,
        0.4310440123081207,
        -0.42378291487693787,
        -0.954614520072937,
        0.4850563108921051,
        -0.1463031768798828,
        0.5853691101074219,
        0.28876829147338867,
        0.9233161211013794,
        -0.9364759922027588,
        -0.6733761429786682,
        -0.5632969737052917,
        -0.6642646789550781,
        0.5470636487007141,
        -0.10316985845565796,
        -0.8621920943260193,
        0.7572624683380127,
        -0.11165028810501099,
        0.47567620873451233,
        0.7042074203491211,
        -0.4844096004962921,
        0.9857026934623718,
        0.8982008099555969,
        -1.0558687448501587,
        -0.9758914113044739,
        -0.3386329114437103,
        -0.07546290010213852,
        -0.1812991350889206,
        -1.09596848487854,
        -4813.06591796875,
        0.3130906820297241,
        -1.3088430166244507,
        0.1615876406431198,
        -140459704320.0,
        -1.1209684610366821,
        -0.19881302118301392,
        -1.2210373878479004,
        0.11585188657045364,
        -0.46664461493492126,
        -194520780111872.0,
        -1.1762152910232544,
        -1.0808379650115967,
        0.6859949827194214,
        0.2684614360332489,
        -0.04638531804084778,
        -0.5589779019355774,
        -0.5677616000175476,
        -0.3092726767063141,
        -1.2281711101531982,
        -21070228750336.0,
        -1.5208131074905396
      ],
      "numInput": 784,
      "numOutput": 128,
      "type": "FullyConnected",
      "weights": [
        [
          -0.9931154251098633,
          0.38629603385925293,
          -0.702873706817627,
          -0.2993534803390503,
          -0.24207739531993866,
          -0.25224000215530396,
          0.9627940058708191,
          -0.3360673785209656,
          0.05742417648434639,
          -0.8006575703620911,
          -0.6258524656295776,
          -0.8344897031784058,
          0.5341190099716187,
          0.13448426127433777,
          -0.19032323360443115,
          0.49061933159828186,
          -0.8870171308517456,
          -0.31847724318504333,
          -0.8795651793479919,
          0.05710814893245697,
          0.6229889988899231,
          -0.7597669363021851,
          -0.6405050754547119,
          0.8789598941802979,
          0.799514651298523,
          0.9302391409873962,
          0.027289776131510735,
          -0.9161364436149597,
          -0.9006226658821106,
          0.62066650390625,
          0.8261241912841797,
          -0.9028554558753967,
          0.04188999533653259,
          -0.9176315069198608,
          -0.5624957084655762,
          0.01869606412947178,
          -0.7317046523094177,
          -0.7962838411331177,
          0.18685461580753326,
          -0.47439971566200256,
          -0.019403209909796715,
          0.41871437430381775,
          -0.9037027955055237,
          0.25544703006744385,
          0.030167076736688614,
          0.3269612789154053,
          0.7684424519538879,
          0.05146493762731552,
          -0.9649390578269958,
          0.6869706511497498,
          0.558482825756073,
          0.11915042251348495,
          0.8648275136947632,
          0.8951631188392639,
          0.9542604088783264,
          -0.13289567828178406,
          -0.6376782059669495,
          0.6939892768859863,
          0.9548639059066772,
          -0.4100058078765869,
          -0.6007832288742065,
          0.18196025490760803,
          -0.8221281170845032,
          0.6994519829750061,
          0.1753469556570053,
          0.9565206170082092,
          0.03581330180168152,
          0.5618786811828613,
          0.12540261447429657,
          -0.7865095734596252,
          1.0040479898452759,
          0.4202909469604492,
          0.07078397274017334,
          -0.24857187271118164,
          -0.5955128073692322,
          -0.06260758638381958,
          1.271489143371582,
          0.2038133591413498,
          -0.9557158350944519,
          -0.5181616544723511,
          -0.786858320236206,
          0.04635041207075119,
          -0.7355042099952698,
          0.055396925657987595,
          -0.5432036519050598,
          -0.3236410319805145,
          0.7038615942001343,
          -0.0150012681260705,
          -0.4088859260082245,
          0.3390333950519562,
          -0.5280717015266418,
          -0.632400631904602,
          1.1571111679077148,
          0.5598902702331543,
          0.04138591140508652,
          -0.6752098798751831,
          0.39227133989334106,
          0.06578146666288376,
          -0.3155163526535034,
          -0.21259531378746033,
          0.22883683443069458,
          0.5935482382774353,
          -0.07672309875488281,
          -0.14242330193519592,
          0.9640238881111145,
          0.6150410175323486,
          1.1733529567718506,
          -0.8215094208717346,
          0.041826579719781876,
          -0.1584358662366867,
          -0.47114747762680054,
          -0.49486619234085083,
          0.9932820200920105,
          0.5719119310379028,
          0.9730027914047241,
          -0.18830469250679016,
          -0.6056814193725586,
          1.1038964986801147,
          -0.11746370047330856,
          -0.5791199207305908,
          -0.011458193883299828,
          0.07005087286233902,
          0.7667769193649292,
          -0.1507948786020279,
          -0.08771152049303055,
          0.6881289482116699,
          -0.47160840034484863,
          -0.5936460494995117,
          0.9681761264801025,
          -0.08193640410900116,
          -0.9046691060066223,
          0.6035977005958557,
          0.14992818236351013,
          0.433310329914093,
          0.437560111284256,
          0.6828973293304443,
          -0.3371773660182953,
          0.23306773602962494,
          -0.3130866587162018,
          -0.553181529045105,
          0.10998640954494476,
          -0.8392503261566162,
          0.6769806742668152,
          -0.3263542354106903,
          0.35556867718696594,
          -0.5886809825897217,
          -0.11052554845809937,
          0.5617249011993408,
          0.6281893849372864,
          -0.5171725153923035,
          0.9794708490371704,
          0.33656537532806396,
          0.621757984161377,
          -0.03828248754143715,
          -0.08269685506820679,
          -0.9420426487922668,
          0.4360608756542206,
          -1.5075417757034302,
          -0.6969260573387146,
          -0.02313741110265255,
          -0.29684972763061523,
          -0.39549875259399414,
          0.354993999004364,
          -0.5913707613945007,
          -0.3315715491771698,
          1.3003082275390625,
          0.9755842685699463,
          -0.15411612391471863,
          -0.050880249589681625,
          -0.18312181532382965,
          0.11673343926668167,
          -0.1090417355298996,
          0.0049068499356508255,
          -0.21925154328346252,
          -0.2970876395702362,
          1.4031180143356323,
          0.580203652381897,
          0.6849120259284973,
          -0.19263361394405365,
          -0.40135520696640015,
          0.4501540958881378,
          -0.19905169308185577,
          -0.49991071224212646,
          0.6748778223991394,
          -0.7107979655265808,
          -0.9148772358894348,
          0.4456208348274231,
          0.6408973336219788,
          -0.2553310692310333,
          -0.5497623085975647,
          -0.43026283383369446,
          -0.1450243592262268,
          0.6496365070343018,
          -0.09114345908164978,
          0.5050294995307922,
          -0.7320243716239929,
          -0.3059302270412445,
          -0.2991257309913635,
          0.956364631652832,
          0.1090257465839386,
          0.7976655960083008,
          1.3680989742279053,
          1.012149453163147,
          1.3126009702682495,
          0.10253094136714935,
          -1.0413082838058472,
          -0.3169972896575928,
          0.6438930034637451,
          -1.4150292873382568,
          0.25415340065956116,
          -0.375750333070755,
          0.43057817220687866,
          -0.9075205326080322,
          -1.1301814317703247,
          0.2601987421512604,
          -0.1667468398809433,
          -0.22571030259132385,
          0.13644953072071075,
          0.942944347858429,
          0.25407251715660095,
          -0.29887863993644714,
          0.8757869005203247,
          0.4892106354236603,
          -0.8686304688453674,
          0.028603604063391685,
          0.0015155657893046737,
          0.49516522884368896,
          -0.09041894227266312,
          0.7942944765090942,
          -0.08299669623374939,
          0.34360313415527344,
          -0.2264793962240219,
          0.41778168082237244,
          -0.3917807638645172,
          -0.29247167706489563,
          0.027523942291736603,
          1.0533852577209473,
          0.2751423418521881,
          -0.597760796546936,
          0.36122602224349976,
          -0.3663741946220398,
          -0.27806931734085083,
          -0.7765166759490967,
          0.376210480928421,
          -0.14741545915603638,
          -0.7779583930969238,
          0.6560840010643005,
          0.5827198624610901,
          0.7755410671234131,
          0.5150940418243408,
          0.25319552421569824,
          -0.36676812171936035,
          0.0038183776196092367,
          0.8161261677742004,
          0.46321362257003784,
          1.0794320106506348,
          0.7858155965805054,
          -0.12219108641147614,
          0.38908910751342773,
          0.7601085901260376,
          0.8451369404792786,
          0.47485634684562683,
          0.45278316736221313,
          0.055528588593006134,
          0.6647216081619263,
          0.9945428967475891,
          -0.2184743881225586,
          -0.5238372087478638,
          0.4806083142757416,
          0.3726132810115814,
          0.8821279406547546,
          -0.8920389413833618,
          0.6091846823692322,
          0.14032195508480072,
          0.6221278309822083,
          -0.5815600156784058,
          -0.48544758558273315,
          0.28252479434013367,
          -0.08345356583595276,
          -0.18810661137104034,
          0.5631273984909058,
          -0.5564502477645874,
          0.2716474235057831,
          0.5779649615287781,
          0.07106729596853256,
          -0.23837842047214508,
          -0.5141461491584778,
          0.03374597057700157,
          0.32353246212005615,
          0.6735051274299622,
          0.352637380361557,
          1.0985946655273438,
          1.193632960319519,
          0.36585065722465515,
          -0.18594767153263092,
          0.1385732889175415,
          -0.18956366181373596,
          -0.0009230595896951854,
          -0.2655755877494812,
          -0.6868626475334167,
          0.4568045735359192,
          0.6954764127731323,
          -0.9398866891860962,
          0.9005637764930725,
          1.1117428541183472,
          -0.23103833198547363,
          -0.14739839732646942,
          -0.1795833259820938,
          0.17149896919727325,
          -0.22306238114833832,
          0.772159218788147,
          0.5836839079856873,
          1.0590871572494507,
          0.21099919080734253,
          -0.15030203759670258,
          0.6374091506004333,
          0.3863610625267029,
          1.6214985847473145,
          -0.6090495586395264,
          0.21175500750541687,
          -0.9746018052101135,
          -0.16972491145133972,
          0.3648569881916046,
          -0.0022883049678057432,
          -1.2973856925964355,
          -1.1927586793899536,
          -0.34886622428894043,
          -0.6310407519340515,
          0.1450003683567047,
          -0.7959542274475098,
          -0.0539972148835659,
          -0.24176982045173645,
          -0.7378535270690918,
          -0.2733933627605438,
          0.5996503233909607,
          -0.8208590149879456,
          -0.6450837850570679,
          0.015562484040856361,
          0.5093611478805542,
          1.0174647569656372,
          1.0112473964691162,
          -0.636128842830658,
          0.32052120566368103,
          0.8641037344932556,
          -0.6390707492828369,
          -0.39856383204460144,
          0.6657872200012207,
          0.8057607412338257,
          -0.31205421686172485,
          -0.7247121334075928,
          -0.44945403933525085,
          0.1432284265756607,
          -0.0696188285946846,
          -0.9399679899215698,
          -0.2237153947353363,
          0.5434978604316711,
          0.020192623138427734,
          -0.01604665443301201,
          -0.0014909550081938505,
          -0.3387853801250458,
          0.3202712833881378,
          -0.12157845497131348,
          0.3167486786842346,
          -0.04796063154935837,
          0.5050790905952454,
          -0.540123701095581,
          -0.4827904999256134,
          0.2130429744720459,
          0.7481802701950073,
          -0.7073555588722229,
          -0.4769830107688904,
          -0.37377825379371643,
          -0.006046568509191275,
          -0.20665591955184937,
          -0.33200085163116455,
          -0.44152596592903137,
          0.24850812554359436,
          -0.43362969160079956,
          0.1538669914007187,
          0.9366263151168823,
          0.9313336610794067,
          0.24567671120166779,
          -0.18353448808193207,
          -0.5321341156959534,
          0.21418364346027374,
          -0.5862929224967957,
          0.04056820273399353,
          -0.21268229186534882,
          -0.18327538669109344,
          0.8595030903816223,
          -0.3539816737174988,
          -0.1853756159543991,
          0.0904344841837883,
          0.518832802772522,
          -0.9016154408454895,
          0.5115957260131836,
          0.22142133116722107,
          -0.05382848158478737,
          -1.3437166213989258,
          -0.7995454668998718,
          -0.2664635181427002,
          -0.6762862205505371,
          -0.08285059034824371,
          -1.2277240753173828,
          0.2556191086769104,
          -1.4681133031845093,
          0.8650075197219849,
          0.48002320528030396,
          0.39637866616249084,
          0.38763368129730225,
          1.291143536567688,
          0.13895542919635773,
          -0.08258749544620514,
          -0.9503741264343262,
          0.2079896330833435,
          0.18726855516433716,
          0.4610081911087036,
          -0.390593558549881,
          0.8533557653427124,
          0.458939790725708,
          -0.9393017888069153,
          0.005131557118147612,
          -0.5639058351516724,
          0.07855524122714996,
          0.3324417471885681,
          -0.5088506937026978,
          -0.19903527200222015,
          -1.2401294708251953,
          -0.38284215331077576,
          -0.4111502170562744,
          -1.2665752172470093,
          -0.9697839617729187,
          -0.7739426493644714,
          -0.1370174139738083,
          1.6046353578567505,
          1.186808705329895,
          0.2718351185321808,
          0.448458194732666,
          1.3475443124771118,
          0.1538461446762085,
          0.47136905789375305,
          0.5485267043113708,
          -0.10523953288793564,
          -0.31582018733024597,
          0.3861280679702759,
          0.6360635161399841,
          0.5655501484870911,
          0.30308836698532104,
          0.8333792090415955,
          -0.10752882808446884,
          0.38275188207626343,
          0.8852739930152893,
          -1.1876472234725952,
          -0.2241649478673935,
          0.25107643008232117,
          -0.458474725484848,
          0.4948476254940033,
          -0.18063366413116455,
          -1.0913665294647217,
          0.18437248468399048,
          0.47572341561317444,
          1.591591477394104,
          0.05203355476260185,
          -0.10951709747314453,
          1.2644946575164795,
          -0.22323577105998993,
          0.9725202322006226,
          -0.03125730901956558,
          -0.13126161694526672,
          0.3438425660133362,
          -0.9065921902656555,
          -0.28775131702423096,
          -1.0712394714355469,
          0.5090171098709106,
          -0.8323881030082703,
          -0.38994407653808594,
          -0.3049199879169464,
          0.13345402479171753,
          -0.7371525168418884,
          0.438368558883667,
          -0.8907477855682373,
          -0.5258746147155762,
          -0.907207727432251,
          -0.6694509983062744,
          0.42704543471336365,
          -0.2647184431552887,
          0.11890298873186111,
          1.0055238008499146,
          0.4749959409236908,
          1.6067423820495605,
          0.7373376488685608,
          1.0172029733657837,
          -0.3072209656238556,
          0.5682712197303772,
          -0.23507006466388702,
          -0.8798800110816956,
          -0.6493957042694092,
          -0.01655109040439129,
          -0.7950223684310913,
          0.43241509795188904,
          -0.726582944393158,
          -0.6605616211891174,
          -0.19297389686107635,
          0.29679903388023376,
          0.6420927047729492,
          0.8168967962265015,
          -0.9750776290893555,
          0.5586857199668884,
          -0.2012421041727066,
          0.16705718636512756,
          0.010168181732296944,
          -0.27431583404541016,
          0.8955808877944946,
          0.3016606569290161,
          -0.6239205598831177,
          0.6747714877128601,
          -0.07150638103485107,
          0.9627440571784973,
          1.0116385221481323,
          0.03629390522837639,
          1.26063072681427,
          -0.49126189947128296,
          -0.029715459793806076,
          -0.12401014566421509,
          0.8208184242248535,
          0.003938812296837568,
          0.21300770342350006,
          -1.0142122507095337,
          -0.357332319021225,
          0.2951425313949585,
          -0.19863326847553253,
          0.543348491191864,
          0.21325837075710297,
          0.9813275933265686,
          0.33011382818222046,
          1.1434720754623413,
          -0.18714860081672668,
          0.04216419905424118,
          -0.8255499601364136,
          -0.2670190632343292,
          -0.3540104627609253,
          -0.5571912527084351,
          -0.33628320693969727,
          -0.21337734162807465,
          -0.43740707635879517,
          0.9150254130363464,
          1.7995206117630005,
          0.9010037779808044,
          0.06032292917370796,
          -0.6247240900993347,
          0.220253586769104,
          0.1818930059671402,
          0.17219384014606476,
          -0.562573254108429,
          0.2636648714542389,
          -0.8281170725822449,
          0.5659815073013306,
          -0.8266055583953857,
          0.7861434817314148,
          -0.46512338519096375,
          -0.2940675914287567,
          -0.38204044103622437,
          -0.22916696965694427,
          0.9660736918449402,
          0.039107710123062134,
          0.3356395661830902,
          0.7786284685134888,
          -0.3158116936683655,
          -0.6070699095726013,
          -0.9868302345275879,
          -0.9458202123641968,
          -0.43110981583595276,
          -1.1951241493225098,
          0.2334010899066925,
          0.39008811116218567,
          -0.2760067880153656,
          0.24121072888374329,
          0.5743693113327026,
          0.10574590414762497,
          -0.43518659472465515,
          -0.3993059992790222,
          0.7640382647514343,
          0.23614805936813354,
          -0.3890891373157501,
          -0.3451913297176361,
          0.014305460266768932,
          0.6669316291809082,
          -0.1461111456155777,
          0.6038631796836853,
          -0.9375646114349365,
          -0.5508716106414795,
          0.0806456059217453,
          -0.4558469355106354,
          0.41837409138679504,
          -0.15436016023159027,
          0.3378073573112488,
          -0.6461564302444458,
          0.850146472454071,
          -0.011212113313376904,
          -0.9063854813575745,
          1.0268573760986328,
          -0.513076901435852,
          0.26269689202308655,
          0.44605714082717896,
          0.5755308866500854,
          0.7190986275672913,
          0.7199985980987549,
          -0.5304462313652039,
          -0.511339008808136,
          -0.00012205124221509323,
          0.30175355076789856,
          1.0965615510940552,
          0.7943664789199829,
          0.9692361950874329,
          -0.7932522296905518,
          0.17930252850055695,
          -0.2083408534526825,
          0.27289873361587524,
          0.6975014805793762,
          -0.411060094833374,
          1.0407190322875977,
          -0.33082228899002075,
          -0.04334646090865135,
          0.40931689739227295,
          -0.42346087098121643,
          -0.15672868490219116,
          -0.01106166746467352,
          -0.15711471438407898,
          0.626207709312439,
          -0.6582440733909607,
          0.01755760982632637,
          -0.16443660855293274,
          0.39906415343284607,
          1.0874778032302856,
          -0.17486907541751862,
          0.0396093875169754,
          0.5459082722663879,
          -0.03850323706865311,
          -0.5634516477584839,
          -0.04689975082874298,
          -0.8695408701896667,
          0.9729185104370117,
          0.5842475891113281,
          0.25571197271347046,
          -0.6873070597648621,
          0.032226644456386566,
          0.7216964364051819,
          -0.39759504795074463,
          0.9189309477806091,
          0.08160663396120071,
          -0.7071253061294556,
          -0.21534594893455505,
          1.001887321472168,
          0.2563180923461914,
          -0.9575077891349792,
          0.052667878568172455,
          -0.8462827801704407,
          -0.3806198239326477,
          -0.24980565905570984,
          -0.0956621840596199,
          0.8978845477104187,
          -0.6329661011695862,
          0.5099645256996155,
          0.8504431843757629,
          -0.08385608345270157,
          -0.26372456550598145,
          1.2628920078277588,
          0.730191171169281,
          0.42535457015037537,
          -0.977537989616394,
          -0.31008127331733704,
          0.9164096713066101,
          -0.4718942642211914,
          0.11841165274381638,
          -0.31737667322158813,
          -0.41469332575798035,
          0.6163867712020874,
          0.487795352935791,
          -0.37834063172340393,
          0.3968420624732971,
          -0.03167683631181717,
          0.37512117624282837,
          -0.1283717304468155,
          0.7075837850570679,
          0.10790790617465973,
          0.22171902656555176,
          0.05282669886946678,
          1.2398509979248047,
          0.029594602063298225,
          0.7698110342025757,
          -0.46746543049812317,
          0.6948873996734619,
          1.3884528875350952,
          0.8855679035186768,
          -0.45749038457870483,
          0.3981254994869232,
          0.14582842588424683,
          0.1506381779909134,
          -0.30533990263938904,
          0.2725594937801361,
          -0.41221898794174194,
          0.14795832335948944,
          -0.745572030544281,
          -0.15267178416252136,
          -0.879515528678894,
          -0.1371634304523468,
          0.5896785855293274,
          -0.29725348949432373,
          -0.013243485242128372,
          0.9813144207000732,
          0.3810669183731079,
          1.576074481010437,
          0.4528833329677582,
          1.052178144454956,
          0.9300552010536194,
          0.1632785052061081,
          1.4219138622283936,
          -0.42931631207466125,
          0.15895994007587433,
          0.7631483674049377,
          0.6059821248054504,
          1.0149883031845093,
          0.31792378425598145,
          -0.7924193143844604,
          -0.414438933134079,
          -0.168366938829422,
          -0.17922750115394592,
          -0.4576864242553711,
          0.7405338287353516,
          -0.047748807817697525,
          -0.005504580680280924,
          -0.417915016412735,
          -0.008119837380945683,
          -0.7345713376998901,
          -0.08719930052757263,
          0.7578624486923218,
          -0.043303556740283966,
          0.39988642930984497,
          0.8760430216789246,
          0.417116641998291,
          -0.6660234928131104,
          0.2397107630968094,
          0.5988726615905762,
          1.3765569925308228,
          0.24604855477809906,
          0.7428445816040039,
          0.3927724361419678,
          -0.27688223123550415,
          1.0594544410705566,
          0.258967787027359,
          0.6378561854362488,
          0.7204356789588928,
          -0.22152534127235413,
          0.7026207447052002,
          -0.2592470347881317,
          0.40537890791893005,
          -0.7788919806480408,
          -0.18075287342071533,
          -0.8011322617530823,
          -0.4882719814777374,
          0.5388416051864624,
          -0.993712306022644,
          -0.7016909718513489,
          0.49512189626693726,
          -0.7374539971351624,
          0.9959444403648376,
          0.9650012850761414,
          0.4051934778690338,
          -0.3035700023174286,
          0.015781868249177933,
          -0.19480474293231964,
          0.9788423776626587,
          0.5088403820991516,
          0.36286452412605286,
          -0.9800271391868591,
          -0.46511122584342957,
          -0.12873679399490356,
          -0.5823682546615601,
          0.24855390191078186,
          -0.02397962100803852,
          -0.6903702020645142,
          -0.5334992408752441,
          0.25684720277786255,
          0.3607480227947235
        ],
        [
          -0.7491444945335388,
          0.1388585865497589,
          -0.7789286375045776,
          -0.08285710960626602,
          0.8952150344848633,
          0.5350511074066162,
          -0.7324631810188293,
          -0.24426504969596863,
          0.07156980037689209,
          -0.02684858813881874,
          0.43784135580062866,
          0.7119130492210388,
          -0.5383761525154114,
          0.7538912892341614,
          -0.8606754541397095,
          0.3310544192790985,
          0.827781617641449,
          -0.3473307490348816,
          0.3534660041332245,
          0.1953863948583603,
          -0.27584847807884216,
          -0.7063513994216919,
          0.2589960992336273,
          -0.1935029774904251,
          -0.46930912137031555,
          -0.947382390499115,
          -0.02397981286048889,
          -0.18154877424240112,
          0.0030082911252975464,
          0.3927593529224396,
          0.4967217743396759,
          -0.3114562928676605,
          0.927661120891571,
          -0.3854767382144928,
          -0.36630645394325256,
          -0.5121780633926392,
          0.8555887937545776,
          0.8598798513412476,
          -0.3546910881996155,
          -0.11701305955648422,
          -0.05473024770617485,
          0.2970787584781647,
          -1.152125358581543,
          0.20138919353485107,
          0.6168819069862366,
          0.1378009021282196,
          0.28005003929138184,
          -0.81110018491745,
          -0.672561764717102,
          -0.769806981086731,
          0.7976773381233215,
          -0.014018156565725803,
          0.14055846631526947,
          -0.767406702041626,
          -0.9453336596488953,
          -0.08124571293592453,
          -0.3977288603782654,
          -0.046056538820266724,
          0.8492698669433594,
          0.5635583400726318,
          0.1964801847934723,
          -0.7593612670898438,
          0.8961063027381897,
          0.30403608083724976,
          -0.7922671437263489,
          -0.19006061553955078,
          0.9549947381019592,
          -0.7520356178283691,
          0.2950443923473358,
          0.6098425388336182,
          -0.22850646078586578,
          -0.654849648475647,
          -0.4347706735134125,
          0.027211882174015045,
          -0.18002015352249146,
          0.47805917263031006,
          -0.4397723078727722,
          0.07945344597101212,
          -0.6924552917480469,
          0.42498815059661865,
          -0.17154303193092346,
          -0.08393210172653198,
          -0.8874619007110596,
          -0.02738358825445175,
          0.47720468044281006,
          0.4042700231075287,
          -0.5674344897270203,
          -0.07140260934829712,
          -0.13317619264125824,
          -0.6796253323554993,
          -0.5594056248664856,
          0.9264868497848511,
          0.3498345613479614,
          0.1703101545572281,
          0.3113372325897217,
          0.4408048689365387,
          -0.5766711235046387,
          0.3470740020275116,
          -0.05458636209368706,
          -0.4680896997451782,
          0.082381471991539,
          -0.33316609263420105,
          0.9736281037330627,
          -0.2330390065908432,
          0.32751572132110596,
          -0.15605461597442627,
          -0.31965550780296326,
          0.3334170877933502,
          -0.5880382657051086,
          -0.4723720848560333,
          0.5517935752868652,
          0.7434196472167969,
          -0.9951844215393066,
          -0.21792200207710266,
          -1.1523942947387695,
          0.48009344935417175,
          -0.9368751645088196,
          0.9941160678863525,
          -0.8379886746406555,
          0.7018204927444458,
          1.0638866424560547,
          0.2190656065940857,
          -0.14127033948898315,
          -0.5652245879173279,
          0.7048528790473938,
          -0.8264133334159851,
          0.8917089700698853,
          -0.11140947043895721,
          -0.35468047857284546,
          0.8640670776367188,
          0.05211739242076874,
          -0.03546927869319916,
          0.6411722898483276,
          -0.14292840659618378,
          -0.10417414456605911,
          0.21604874730110168,
          -0.25651147961616516,
          -0.2267916202545166,
          -0.7585893273353577,
          -0.5953471064567566,
          -0.149457186460495,
          -0.28775566816329956,
          -0.701335072517395,
          0.2218325138092041,
          0.06810908019542694,
          1.1347246170043945,
          0.2742539346218109,
          -0.4616149663925171,
          0.25209712982177734,
          1.2280372381210327,
          1.1499370336532593,
          0.0580882765352726,
          0.4416911005973816,
          0.34825262427330017,
          -0.4799461364746094,
          -0.6653559803962708,
          0.4363959729671478,
          -0.2790669798851013,
          0.773358941078186,
          1.257538914680481,
          -0.4244260787963867,
          0.6229589581489563,
          -0.18280333280563354,
          -0.9757978320121765,
          0.20230752229690552,
          0.3586909770965576,
          0.8571704626083374,
          0.23111583292484283,
          -0.9731674790382385,
          0.8166154026985168,
          0.8543364405632019,
          0.10690056532621384,
          0.3996240496635437,
          1.0111987590789795,
          -0.4808374345302582,
          0.6094760894775391,
          0.7738409638404846,
          -0.08442377299070358,
          0.8989921808242798,
          1.0730167627334595,
          0.4560386538505554,
          0.3215901553630829,
          0.9303637146949768,
          0.49718141555786133,
          -0.1777176409959793,
          0.4046174883842468,
          -0.18338066339492798,
          0.2179947793483734,
          0.398323655128479,
          -0.07349082827568054,
          0.04942832514643669,
          -0.026204969733953476,
          -0.1498323231935501,
          -0.2294422835111618,
          -0.36768680810928345,
          0.7017547488212585,
          0.6158662438392639,
          0.5480599999427795,
          -0.6661815643310547,
          -0.11370019614696503,
          -0.8473567962646484,
          0.5596874356269836,
          0.4178740084171295,
          -0.03725450485944748,
          1.0333560705184937,
          0.08222509175539017,
          0.730941891670227,
          0.16839805245399475,
          -0.07480548322200775,
          0.4148634374141693,
          0.8050796389579773,
          0.4566784203052521,
          1.4085593223571777,
          1.1328635215759277,
          -0.2899129390716553,
          -0.10852161049842834,
          0.7901839017868042,
          -0.4953201711177826,
          -0.3478073477745056,
          -0.03116736374795437,
          0.7228843569755554,
          0.27451273798942566,
          0.820010244846344,
          0.4685746431350708,
          -0.17496854066848755,
          -0.18797054886817932,
          0.27619659900665283,
          -0.9505832195281982,
          0.6648823022842407,
          0.05034104362130165,
          -0.22795172035694122,
          0.5932636857032776,
          0.6742765307426453,
          0.5510019659996033,
          0.8886883854866028,
          -1.2523095607757568,
          0.17079341411590576,
          0.04210905358195305,
          0.3373919427394867,
          0.5331386923789978,
          0.4797798693180084,
          0.45758289098739624,
          0.4081425666809082,
          0.1371781975030899,
          -0.012799413874745369,
          1.0817171335220337,
          -0.40682756900787354,
          0.1615755409002304,
          0.5790250301361084,
          0.6089126467704773,
          -0.3339962363243103,
          -0.42092597484588623,
          0.03915860876441002,
          0.703592836856842,
          -0.12389662861824036,
          0.61515212059021,
          0.9568079113960266,
          0.7119060754776001,
          -0.5209062099456787,
          -0.07486995309591293,
          1.0518831014633179,
          0.6093524098396301,
          1.095811367034912,
          0.23284943401813507,
          1.0204477310180664,
          0.4180454909801483,
          -0.19178679585456848,
          -0.10068442672491074,
          -1.092378854751587,
          -0.45834535360336304,
          0.2150212973356247,
          1.2600566148757935,
          1.1166651248931885,
          0.15238727629184723,
          -0.3865089416503906,
          0.892009973526001,
          -0.3135036528110504,
          -0.4781860113143921,
          -0.31681329011917114,
          0.5942164659500122,
          -0.18007990717887878,
          0.5544986724853516,
          -0.15759295225143433,
          0.16584888100624084,
          -0.7119665145874023,
          -0.41398897767066956,
          0.41074469685554504,
          -0.37087640166282654,
          0.9021182656288147,
          -0.28147730231285095,
          0.31917646527290344,
          -0.17211225628852844,
          0.7411449551582336,
          -0.003110374789685011,
          -0.005235373508185148,
          -0.6347386837005615,
          0.2002866119146347,
          1.1991817951202393,
          0.655029833316803,
          -0.17895671725273132,
          -0.005746767390519381,
          -0.5503858327865601,
          -0.3797026574611664,
          1.0640432834625244,
          1.1302080154418945,
          0.6743986010551453,
          0.1868419498205185,
          -1.1409293413162231,
          0.22785034775733948,
          -0.7451182007789612,
          -0.09056305885314941,
          0.11889707297086716,
          0.41459354758262634,
          0.2297205924987793,
          0.8519598841667175,
          0.7273709177970886,
          0.7140418887138367,
          -0.8402421474456787,
          0.08838196098804474,
          0.697222888469696,
          0.10962693393230438,
          -1.0268990993499756,
          -0.8163132071495056,
          -1.747148871421814,
          -0.04182020202279091,
          0.9913031458854675,
          0.963697075843811,
          -0.8845415115356445,
          -0.2944240868091583,
          1.3459399938583374,
          -0.5905317068099976,
          1.1635390520095825,
          -0.21913191676139832,
          -0.3282117247581482,
          -1.194838285446167,
          -1.1492679119110107,
          0.3278903365135193,
          -0.03324928134679794,
          0.6650907397270203,
          0.9615479111671448,
          0.5870112180709839,
          -0.38966384530067444,
          -0.5818939208984375,
          -0.4402011036872864,
          0.4097748398780823,
          -0.6710476875305176,
          0.658139169216156,
          -0.020139021798968315,
          -0.11486432701349258,
          -0.17704932391643524,
          -1.284402847290039,
          -0.644896924495697,
          0.832882285118103,
          1.1909170150756836,
          0.7907593846321106,
          0.6673027276992798,
          0.2213965505361557,
          -0.08028759062290192,
          -0.6997961401939392,
          -0.8035618662834167,
          0.9526262879371643,
          0.1452680081129074,
          0.9089192748069763,
          -0.6698753237724304,
          -0.33833494782447815,
          0.9463287591934204,
          -0.946381151676178,
          -0.2603035569190979,
          -0.16150735318660736,
          -0.6505160331726074,
          -0.9312378764152527,
          -0.14503100514411926,
          0.15800181031227112,
          -0.5898849368095398,
          0.8386176228523254,
          0.521141529083252,
          -0.03615756705403328,
          -0.09122603386640549,
          -2.2130463123321533,
          0.11981508880853653,
          -0.23213963210582733,
          -0.5100961923599243,
          0.06319262087345123,
          0.389588326215744,
          0.2136785089969635,
          -0.17917457222938538,
          0.20898734033107758,
          0.6216861605644226,
          -0.23803511261940002,
          -0.6763632297515869,
          0.12642621994018555,
          0.022656381130218506,
          0.7347249388694763,
          0.6684266924858093,
          -0.22348478436470032,
          -0.6848785281181335,
          0.9056017994880676,
          0.48735541105270386,
          -0.01604606956243515,
          0.21421876549720764,
          0.6612842082977295,
          1.6372177600860596,
          -0.03091714344918728,
          -1.3290373086929321,
          -0.5762320160865784,
          -0.8749480247497559,
          -1.061998963356018,
          0.7098298072814941,
          -0.3198641836643219,
          -0.992399275302887,
          -0.16618254780769348,
          1.3029139041900635,
          0.857403576374054,
          0.3358170688152313,
          0.9758806228637695,
          -0.125093474984169,
          0.9032086133956909,
          0.010057453066110611,
          0.8351365327835083,
          0.2715282142162323,
          -0.7510757446289063,
          -0.48220688104629517,
          -0.9033517837524414,
          0.3896835744380951,
          0.7893661260604858,
          0.8757547736167908,
          -0.09396953135728836,
          0.07438943535089493,
          -0.7698827385902405,
          0.9271007776260376,
          0.6082797050476074,
          -0.2911750376224518,
          0.7440793514251709,
          -0.42599958181381226,
          -0.03945900872349739,
          -0.869820237159729,
          -0.35764622688293457,
          0.09720847010612488,
          1.0204463005065918,
          0.19716185331344604,
          0.918135941028595,
          -0.8713151216506958,
          1.0433152914047241,
          -0.9343566298484802,
          -0.29803183674812317,
          -0.5226151943206787,
          -0.008554252795875072,
          0.017804773524403572,
          0.5335147976875305,
          -0.32842227816581726,
          -0.5806763768196106,
          -0.803600013256073,
          0.42045795917510986,
          -0.27787482738494873,
          0.9825133681297302,
          1.0426043272018433,
          0.16725170612335205,
          -0.44892415404319763,
          0.10741651803255081,
          0.4851927161216736,
          1.259354829788208,
          0.5014584064483643,
          -0.5394954085350037,
          -0.4360598027706146,
          -0.17435771226882935,
          0.320679247379303,
          1.5408782958984375,
          0.7492169141769409,
          0.5783078670501709,
          0.18256090581417084,
          0.4932444393634796,
          0.022331342101097107,
          -0.018317781388759613,
          -0.9464817047119141,
          0.6833339333534241,
          0.40671658515930176,
          -0.614844024181366,
          0.2366090565919876,
          -0.004282747395336628,
          -0.7894615530967712,
          -0.6273871064186096,
          -0.15947400033473969,
          1.0397729873657227,
          1.177490234375,
          0.3147345185279846,
          -0.42134833335876465,
          -0.16612398624420166,
          0.9145147800445557,
          0.9076677560806274,
          -0.3094276189804077,
          0.00012304469419177622,
          0.8277226090431213,
          0.10948637872934341,
          0.4761168360710144,
          0.9104785323143005,
          -0.00438942713662982,
          -0.39052170515060425,
          -0.364857017993927,
          -0.8486888408660889,
          -0.7269060611724854,
          -0.6324731111526489,
          -0.5281831622123718,
          0.5086950659751892,
          -0.2958140969276428,
          -0.27708104252815247,
          -0.7904568314552307,
          -0.994539201259613,
          0.4762878715991974,
          -0.32037103176116943,
          0.6382772326469421,
          1.089882731437683,
          0.47818875312805176,
          0.34000781178474426,
          -0.19440609216690063,
          1.178819179534912,
          0.47839710116386414,
          -0.059896860271692276,
          -0.9124999642372131,
          0.16738031804561615,
          1.042523741722107,
          0.35258403420448303,
          1.6970317363739014,
          -0.13663136959075928,
          -0.006045765243470669,
          0.09923730790615082,
          0.3504319190979004,
          0.3389337360858917,
          0.7702217102050781,
          1.051237940788269,
          -0.6375808119773865,
          0.8266193270683289,
          0.6597885489463806,
          0.5192238092422485,
          0.4186176061630249,
          -0.759376049041748,
          -0.2996514141559601,
          -0.6135011315345764,
          0.306317538022995,
          0.7873199582099915,
          -0.3373739719390869,
          0.17417268455028534,
          0.8985416889190674,
          0.5120274424552917,
          -0.7251431345939636,
          -0.17178697884082794,
          -0.561444878578186,
          -0.7133139967918396,
          0.6923279762268066,
          0.00889112614095211,
          -0.3306939899921417,
          0.3942168354988098,
          0.8789275884628296,
          -0.20394597947597504,
          1.0611335039138794,
          -0.09090074896812439,
          0.46876707673072815,
          0.9204360842704773,
          -0.35958823561668396,
          -0.5785730481147766,
          -0.7021269798278809,
          0.5047570466995239,
          -0.15983058512210846,
          -0.9416229128837585,
          0.8447816371917725,
          0.09392830729484558,
          -0.666412889957428,
          -0.7569157481193542,
          0.21607625484466553,
          -0.736575186252594,
          -0.0776117593050003,
          -0.5597229599952698,
          -0.14127682149410248,
          -0.4140605926513672,
          -0.09356357157230377,
          1.2543853521347046,
          0.7664380669593811,
          -0.26913872361183167,
          -0.19498734176158905,
          -1.3618351221084595,
          -1.094942569732666,
          0.6059646606445313,
          0.13932308554649353,
          0.3915345370769501,
          0.8881670236587524,
          -0.4801967442035675,
          -0.5717713832855225,
          0.46127888560295105,
          -0.39377009868621826,
          0.6022032499313354,
          -0.5844073295593262,
          -0.5340728163719177,
          0.23440957069396973,
          0.7883796691894531,
          0.4230014979839325,
          0.3442985713481903,
          0.8357547521591187,
          0.09343407303094864,
          -0.06048324704170227,
          -0.4047469198703766,
          0.4779307544231415,
          0.2702203392982483,
          0.4525262415409088,
          0.6553037762641907,
          -0.19604243338108063,
          0.6934009194374084,
          0.8264203071594238,
          -0.1445000171661377,
          0.876545250415802,
          -0.0443788543343544,
          -0.3353179395198822,
          0.8387887477874756,
          0.5532619953155518,
          0.5431706309318542,
          -0.4952130913734436,
          0.31230857968330383,
          0.4633016586303711,
          -0.13238443434238434,
          -0.40819570422172546,
          -0.7418352365493774,
          -0.32527387142181396,
          0.7924442887306213,
          -0.4447934627532959,
          0.07971740514039993,
          -0.6914523243904114,
          0.13462094962596893,
          -0.15388835966587067,
          -0.37212610244750977,
          1.0910179615020752,
          1.1895618438720703,
          0.6916377544403076,
          0.4103752672672272,
          0.17513100802898407,
          -0.6724678874015808,
          0.006707963068038225,
          -0.43165427446365356,
          -0.05840381234884262,
          0.2889941334724426,
          0.39084964990615845,
          -0.2830199599266052,
          0.36300262808799744,
          0.37091580033302307,
          0.9827306866645813,
          -0.25600093603134155,
          0.0033749050926417112,
          0.8861297369003296,
          0.2787169814109802,
          0.3540867567062378,
          0.6070276498794556,
          -0.5859892964363098,
          -0.8995372653007507,
          -0.9218265414237976,
          -1.2679046392440796,
          0.19293001294136047,
          0.10652903467416763,
          -0.4416147768497467,
          0.5906321406364441,
          -1.2934257984161377,
          -0.888792097568512,
          -0.5153509974479675,
          -0.6000290513038635,
          0.5139866471290588,
          -0.7188495397567749,
          -0.47433021664619446,
          -0.5720120668411255,
          0.6462315917015076,
          -0.279375284910202,
          0.7108917236328125,
          -0.6649020910263062,
          0.7084190249443054,
          -0.7682883739471436,
          -0.48512911796569824,
          -0.5775799751281738,
          0.6545732021331787,
          0.8345909714698792,
          -0.07280679792165756,
          -0.026522766798734665,
          0.8612281680107117,
          -0.009588844142854214,
          -0.3160514831542969,
          0.7639276385307312,
          0.37603360414505005,
          -0.8425642251968384,
          -0.23363341391086578,
          -0.019053926691412926,
          -0.5764825344085693,
          0.718360424041748,
          0.16751956939697266,
          -0.3085591495037079,
          0.7391265630722046,
          0.21716342866420746,
          0.26440826058387756,
          -0.7294237017631531,
          -0.7845537066459656,
          -0.008784832432866096,
          -0.49040085077285767,
          -0.9019235372543335,
          0.4683644771575928,
          -0.0928785502910614,
          0.5187016725540161,
          0.7168456315994263,
          -0.6790350079536438,
          -0.6752738952636719,
          0.4173944890499115,
          -0.7771404385566711,
          -0.0765129029750824,
          -0.11478419601917267,
          0.5042568445205688,
          0.8357194662094116,
          0.706000566482544,
          0.7245900630950928,
          0.9838548302650452,
          0.1852617710828781,
          0.9088549613952637,
          1.1621354818344116,
          0.4547576308250427,
          1.1884617805480957,
          0.34379929304122925,
          0.4706585109233856,
          1.0074046850204468,
          -0.6116133332252502,
          -0.09671645611524582,
          -0.24583931267261505,
          -0.7099645733833313,
          -0.4967249929904938,
          0.053990308195352554,
          0.6421515345573425,
          0.5696447491645813,
          -0.9381453990936279,
          0.5991739630699158,
          0.8706678748130798,
          0.38109222054481506,
          0.3386138677597046,
          -0.22513006627559662,
          0.12977801263332367,
          0.590200662612915,
          -0.21454766392707825,
          0.6011391282081604,
          0.6438213586807251,
          1.067032814025879,
          -0.2126113921403885,
          1.7570924758911133,
          0.946416437625885,
          0.9712159633636475,
          -0.04889737442135811,
          0.9892246723175049,
          -0.04455728456377983,
          -0.3447939455509186,
          -0.5358942151069641,
          -0.21964655816555023,
          0.3462049961090088,
          0.5754478573799133,
          0.7967876195907593,
          -0.2907668650150299,
          0.14307424426078796,
          -0.6478063464164734,
          0.7539870738983154,
          0.5614870190620422,
          -0.4790520668029785,
          0.3354571759700775,
          0.7691196799278259,
          -0.35856977105140686,
          0.8839151263237,
          -0.8101459741592407,
          0.498892217874527,
          0.7899627089500427,
          0.08862391859292984,
          -0.6393150687217712,
          0.9630879163742065,
          0.5348286032676697,
          0.8562076091766357,
          -0.6309394836425781,
          -0.7659379243850708,
          0.13822238147258759,
          0.327186644077301,
          0.31218913197517395,
          -0.4887683689594269,
          0.7231916189193726,
          -0.450936883687973,
          0.12111218273639679,
          0.6421024203300476,
          0.9300155639648438,
          -0.8684471249580383,
          0.8142927885055542,
          -0.23867057263851166
        ],
        [
          -0.3491850793361664,
          -0.48902222514152527,
          -0.010069107636809349,
          0.590928316116333,
          -0.21634504199028015,
          -0.3861849009990692,
          0.15389934182167053,
          -0.8720772862434387,
          0.957594096660614,
          0.38649848103523254,
          -0.634199321269989,
          0.08497381210327148,
          0.8414500951766968,
          -0.9214653968811035,
          -0.4272977113723755,
          -0.8970376253128052,
          -0.5218946933746338,
          -0.6059240102767944,
          -0.20548808574676514,
          0.08864720910787582,
          0.6973761320114136,
          0.31598347425460815,
          -0.6771749258041382,
          0.4225926399230957,
          -0.5064314603805542,
          -0.22159115970134735,
          0.20362521708011627,
          0.7207913994789124,
          -0.955657958984375,
          0.8952124118804932,
          -0.7847516536712646,
          0.10625802725553513,
          0.03248676657676697,
          0.5250569581985474,
          -0.23489432036876678,
          -0.504108726978302,
          -0.16899271309375763,
          -0.792197585105896,
          0.19088640809059143,
          0.5493667125701904,
          0.06853141635656357,
          -0.20071133971214294,
          0.9483125805854797,
          0.41545021533966064,
          -0.3724350929260254,
          0.22715458273887634,
          0.1657392680644989,
          -0.2982116937637329,
          -0.8140261173248291,
          0.12958376109600067,
          0.9387296438217163,
          0.12421731650829315,
          0.1224040687084198,
          -0.9315706491470337,
          0.5151557326316833,
          0.03841347619891167,
          0.10406448692083359,
          -0.2889513373374939,
          -0.13432948291301727,
          0.2552601993083954,
          0.6845490336418152,
          -0.35366976261138916,
          0.6692812442779541,
          -0.5482193231582642,
          -0.9325248003005981,
          -1.1846424341201782,
          -0.9961600303649902,
          0.37365463376045227,
          0.22838197648525238,
          0.1594536304473877,
          -0.5554846525192261,
          0.3404782712459564,
          1.0028475522994995,
          0.2371722012758255,
          0.8748617768287659,
          -0.2461400181055069,
          0.17120087146759033,
          0.23703692853450775,
          -0.5821545720100403,
          0.7942417860031128,
          0.20090681314468384,
          0.8291025757789612,
          0.7664339542388916,
          0.8026229739189148,
          0.8053455948829651,
          0.13048546016216278,
          0.866787314414978,
          0.7335600852966309,
          0.6524691581726074,
          -0.23214669525623322,
          0.4383193552494049,
          -0.29056617617607117,
          1.0071842670440674,
          0.003124623093754053,
          -1.5559033155441284,
          -0.5343048572540283,
          -0.41196250915527344,
          0.9926575422286987,
          0.3063022196292877,
          0.4900752305984497,
          -0.300931841135025,
          0.46393245458602905,
          0.2067122906446457,
          0.49475330114364624,
          -0.14863036572933197,
          0.37759727239608765,
          -0.31923097372055054,
          -0.0767129585146904,
          0.7353089451789856,
          -0.3635696470737457,
          0.49103590846061707,
          0.6937763690948486,
          -0.6515651345252991,
          0.10903015732765198,
          0.6421095728874207,
          0.33083075284957886,
          0.6339524388313293,
          -0.14384767413139343,
          0.009173075668513775,
          0.4163285791873932,
          -0.6590217351913452,
          0.36958980560302734,
          -0.06871019303798676,
          0.7084658145904541,
          -0.9747185111045837,
          -0.5127663016319275,
          -0.10466782003641129,
          -0.0735873132944107,
          0.5692802667617798,
          -0.5048332214355469,
          -0.428871214389801,
          0.407743364572525,
          -0.13039427995681763,
          -0.013575372286140919,
          0.8200101256370544,
          0.6847655177116394,
          0.2702612578868866,
          -0.12120998650789261,
          -0.5921822786331177,
          0.8609635829925537,
          0.28323668241500854,
          -0.19178633391857147,
          -0.6601516008377075,
          0.4991458058357239,
          0.9238368272781372,
          0.01449858769774437,
          -0.9687693119049072,
          0.05436939746141434,
          0.21275588870048523,
          0.08630736917257309,
          -1.2652579545974731,
          0.1792418211698532,
          -0.19396857917308807,
          -1.1387906074523926,
          -0.12060566991567612,
          -0.02991206757724285,
          -0.6118699908256531,
          0.3926374912261963,
          -1.1024771928787231,
          -0.5201839804649353,
          0.6061459183692932,
          -0.22068016231060028,
          -0.07858379185199738,
          -0.06640017032623291,
          -0.22783932089805603,
          -0.6802568435668945,
          -0.6305817365646362,
          -0.7808449268341064,
          0.695367693901062,
          0.5451207756996155,
          -0.6148762106895447,
          -0.13068020343780518,
          -0.20748938620090485,
          0.9721711874008179,
          0.06097032129764557,
          0.41332072019577026,
          -0.6804565191268921,
          0.4764542579650879,
          -0.6552891731262207,
          -0.19660237431526184,
          -0.6088730096817017,
          -0.34363260865211487,
          -0.4906180202960968,
          0.2609347999095917,
          0.7595549821853638,
          -0.7759226560592651,
          -0.4704618453979492,
          0.42985913157463074,
          0.2660004496574402,
          0.25444409251213074,
          -0.3818705379962921,
          0.9647156000137329,
          0.6734045743942261,
          0.4068245589733124,
          0.056929055601358414,
          -0.9591285586357117,
          -0.3947751224040985,
          -0.33135437965393066,
          -0.6250786185264587,
          0.6912151575088501,
          1.1419671773910522,
          -0.39695852994918823,
          0.8048345446586609,
          -0.3196401000022888,
          -0.6658085584640503,
          1.1417090892791748,
          0.2557435929775238,
          0.22688962519168854,
          0.7594372630119324,
          -0.015582061372697353,
          -0.48785102367401123,
          -0.1696445494890213,
          0.45766207575798035,
          0.4707571566104889,
          1.0871816873550415,
          -0.2152334451675415,
          0.7305631637573242,
          -0.3941878378391266,
          0.39748701453208923,
          1.2736672163009644,
          0.9394468069076538,
          0.8367736339569092,
          -0.5883254408836365,
          -0.9657761454582214,
          -0.593247652053833,
          -0.9107973575592041,
          0.0046875993721187115,
          0.22904038429260254,
          0.15410982072353363,
          0.3498961925506592,
          -0.03138333931565285,
          0.007403167430311441,
          -0.07413695752620697,
          -0.12464407831430435,
          -0.04964429512619972,
          0.28458893299102783,
          0.038782138377428055,
          -0.18960262835025787,
          0.5314310193061829,
          -0.048520490527153015,
          0.8696067929267883,
          0.27933958172798157,
          0.7072048783302307,
          -0.060309406369924545,
          0.5841434597969055,
          0.8132244944572449,
          -0.15057030320167542,
          0.8944956660270691,
          0.24389232695102692,
          0.3812468945980072,
          -0.5284594893455505,
          0.5306359529495239,
          -0.021521395072340965,
          0.9223556518554688,
          -0.48023420572280884,
          -0.46734967827796936,
          0.19744212925434113,
          0.2496728152036667,
          -0.02240743674337864,
          -0.5710853338241577,
          -0.26303336024284363,
          0.4914569556713104,
          -0.8232038021087646,
          -1.596232295036316,
          0.238944873213768,
          0.6765314936637878,
          0.9269556999206543,
          -0.38464996218681335,
          -0.38951799273490906,
          0.5544934868812561,
          -0.1454228013753891,
          0.9725026488304138,
          0.09847579896450043,
          0.3188880980014801,
          -0.34123387932777405,
          -0.8148468732833862,
          0.5096043348312378,
          0.8998933434486389,
          0.9082056283950806,
          0.6428671479225159,
          -0.3151111304759979,
          -0.13805435597896576,
          -0.3409980833530426,
          -0.3998868763446808,
          -0.2696889042854309,
          -1.013366937637329,
          -0.1851196587085724,
          0.07633814960718155,
          -0.07707860320806503,
          -0.8160237073898315,
          0.06258374452590942,
          -0.2759702801704407,
          0.4202940762042999,
          0.9677426815032959,
          0.6197092533111572,
          0.27452847361564636,
          -1.1208932399749756,
          -0.11422760039567947,
          -0.0955442488193512,
          -0.13154754042625427,
          -0.6086587905883789,
          -0.19010137021541595,
          1.0301578044891357,
          1.1262320280075073,
          0.4508795440196991,
          -0.02827945537865162,
          -0.1896199882030487,
          0.6123144626617432,
          -0.09888047724962234,
          -0.27382519841194153,
          -0.5887762904167175,
          0.9754927754402161,
          0.9996065497398376,
          -0.24738430976867676,
          -0.1620187610387802,
          0.6358069777488708,
          -0.7091295123100281,
          0.718519926071167,
          -0.011326362378895283,
          0.8526068925857544,
          0.8300768136978149,
          1.6275237798690796,
          1.4297465085983276,
          1.1213924884796143,
          0.935863733291626,
          0.9199728965759277,
          0.3256394863128662,
          0.015149075537919998,
          0.7414907813072205,
          0.014933721162378788,
          0.7201759815216064,
          1.1827069520950317,
          -0.21887259185314178,
          1.2628037929534912,
          0.2569348216056824,
          0.18128396570682526,
          -0.1841624677181244,
          0.41185277700424194,
          0.23650045692920685,
          0.16531381011009216,
          0.13633976876735687,
          -0.7829300165176392,
          0.2476944774389267,
          0.45673826336860657,
          0.06375645101070404,
          0.5199292898178101,
          0.1296849250793457,
          1.7706531286239624,
          1.2988982200622559,
          0.3928501009941101,
          0.4870648980140686,
          1.6057854890823364,
          1.1755071878433228,
          0.7520066499710083,
          -0.04074285179376602,
          1.1477848291397095,
          -1.1749271154403687,
          0.8049377202987671,
          -0.2720591127872467,
          -0.47349581122398376,
          -0.27473267912864685,
          0.4487832188606262,
          -0.7070462107658386,
          0.18570692837238312,
          -0.6372822523117065,
          0.36306002736091614,
          0.6055414080619812,
          1.1916671991348267,
          0.5491347908973694,
          0.734860360622406,
          0.5411434173583984,
          -0.9526585936546326,
          0.25535404682159424,
          0.11168098449707031,
          0.2840295135974884,
          0.9951488375663757,
          0.9304004907608032,
          0.06547677516937256,
          1.0426424741744995,
          0.5339585542678833,
          1.1711024045944214,
          0.4532737731933594,
          0.07273256033658981,
          -0.28743186593055725,
          -0.16012467443943024,
          0.5145283937454224,
          0.9061908721923828,
          -1.5371590852737427,
          -0.2280646115541458,
          -0.00023368395341094583,
          0.5553219318389893,
          0.5225347280502319,
          0.9262797236442566,
          -0.6207238435745239,
          -0.32916679978370667,
          0.19659169018268585,
          -0.23377953469753265,
          -0.25209710001945496,
          -1.1833857297897339,
          -0.3465302288532257,
          0.28167960047721863,
          -0.6151929497718811,
          -0.5889009833335876,
          1.032009243965149,
          0.8732109665870667,
          0.6302059888839722,
          0.31417280435562134,
          0.7082916498184204,
          -0.8985040187835693,
          -0.038803793489933014,
          0.8117695450782776,
          0.6311454176902771,
          -0.06637450307607651,
          0.1866275668144226,
          0.14851360023021698,
          -0.8544541001319885,
          -0.6565657258033752,
          -0.42729586362838745,
          -0.020850270986557007,
          0.8924314379692078,
          0.8235282301902771,
          0.28136855363845825,
          0.8647240400314331,
          -1.382171869277954,
          0.3468059301376343,
          0.6413354277610779,
          -0.9943552017211914,
          -0.5123742818832397,
          -1.0608936548233032,
          0.3640781044960022,
          -0.43939417600631714,
          0.16837383806705475,
          -0.9995895624160767,
          0.5396893620491028,
          -0.7348779439926147,
          0.6849116683006287,
          0.6406718492507935,
          -0.20837236940860748,
          0.5015669465065002,
          -0.18812978267669678,
          0.7459816336631775,
          0.010904706083238125,
          -0.6142541766166687,
          -1.0618191957473755,
          -0.6872120499610901,
          -0.902144193649292,
          0.22435730695724487,
          -0.6015001535415649,
          0.5320327877998352,
          0.8027893900871277,
          -0.37866324186325073,
          0.1456247717142105,
          -0.3917715847492218,
          -0.8782313466072083,
          -0.7484132051467896,
          -0.17045742273330688,
          -1.3028799295425415,
          -1.4696322679519653,
          -0.17754249274730682,
          0.29023686051368713,
          0.577595055103302,
          -0.1963246911764145,
          1.1245381832122803,
          0.5179983377456665,
          -0.749930739402771,
          0.17204831540584564,
          0.6738042235374451,
          0.38682860136032104,
          0.014347286894917488,
          0.9416561126708984,
          -0.8627170920372009,
          -0.18667589128017426,
          0.28906577825546265,
          -1.06266188621521,
          -0.626700222492218,
          -0.9906113147735596,
          0.23959341645240784,
          0.19781161844730377,
          -0.4000391662120819,
          0.4989977777004242,
          -0.3120734393596649,
          -0.8362865447998047,
          -1.2075589895248413,
          -0.8147764801979065,
          -0.895311176776886,
          0.4207659661769867,
          -0.5302697420120239,
          -0.33124545216560364,
          -0.9605435132980347,
          -0.5579937696456909,
          -0.9536036849021912,
          0.3891604244709015,
          0.3652488887310028,
          0.2592089772224426,
          0.19799542427062988,
          1.563274621963501,
          -0.4649856984615326,
          -0.48136717081069946,
          -1.1571228504180908,
          -1.2044833898544312,
          -0.8229646682739258,
          -1.0662568807601929,
          -0.3824653923511505,
          -0.03260336071252823,
          -0.21420517563819885,
          -0.08018407225608826,
          -0.30588147044181824,
          0.4824887216091156,
          -0.848991334438324,
          0.21664635837078094,
          -0.2007705271244049,
          -0.7239985466003418,
          -0.2424059510231018,
          -1.3417282104492188,
          -0.4871472418308258,
          -0.5846552848815918,
          -1.611739158630371,
          0.15690751373767853,
          -0.6912704706192017,
          -0.8555983304977417,
          0.7031683325767517,
          -0.829820454120636,
          0.4740501344203949,
          0.4454508125782013,
          -1.0439159870147705,
          0.11240145564079285,
          -0.1973344087600708,
          -0.9200155735015869,
          -1.5487899780273438,
          -0.7351250052452087,
          0.571283221244812,
          0.0034266598522663116,
          0.7762003540992737,
          -0.1269095093011856,
          -0.27741897106170654,
          -0.17058372497558594,
          0.39222392439842224,
          -0.23938819766044617,
          0.9255620837211609,
          -1.6999958753585815,
          -0.4971397817134857,
          -0.768147349357605,
          0.19240021705627441,
          0.16413629055023193,
          -0.9076350927352905,
          -0.7299992442131042,
          0.4444716274738312,
          0.21413378417491913,
          0.40722233057022095,
          0.7017464637756348,
          0.17032016813755035,
          -0.35986635088920593,
          -0.8515441417694092,
          -0.5813249349594116,
          -0.3760949671268463,
          -0.31862586736679077,
          -1.3339027166366577,
          0.35867181420326233,
          0.4208438992500305,
          0.5666601657867432,
          -0.033373091369867325,
          0.1319791078567505,
          -0.18229572474956512,
          -0.14522966742515564,
          -0.8879481554031372,
          0.010422849096357822,
          -0.3516293466091156,
          0.4458400309085846,
          0.23128589987754822,
          -0.7780970335006714,
          -0.8592685461044312,
          -1.249761700630188,
          -0.21402384340763092,
          -0.017243478447198868,
          -0.6960127353668213,
          0.09189949184656143,
          -0.24325451254844666,
          -1.0176873207092285,
          0.4100399315357208,
          -0.3346259593963623,
          -0.7199796438217163,
          -0.06338366121053696,
          -1.0110563039779663,
          -1.1316508054733276,
          -0.23191003501415253,
          0.06832832843065262,
          -0.39567679166793823,
          -0.9321044683456421,
          0.882973313331604,
          -0.769234299659729,
          0.17302778363227844,
          -0.37256309390068054,
          -0.28577491641044617,
          0.9667419791221619,
          -0.8887691497802734,
          -0.08348773419857025,
          -0.1917446106672287,
          0.9371476173400879,
          -0.0063588437624275684,
          0.10318819433450699,
          -0.35883402824401855,
          1.1944414377212524,
          -0.957983672618866,
          0.07797475904226303,
          0.23227661848068237,
          -0.021399373188614845,
          -0.8919431567192078,
          -1.5036542415618896,
          -0.9206145405769348,
          0.39350977540016174,
          -0.46270591020584106,
          -0.33785682916641235,
          -0.3153485953807831,
          0.8392210006713867,
          0.618766725063324,
          0.5508004426956177,
          -0.6945159435272217,
          0.45093974471092224,
          0.5987212061882019,
          -0.4573662579059601,
          0.2569752633571625,
          -0.02466062642633915,
          1.0234317779541016,
          1.1201660633087158,
          -0.14294429123401642,
          -0.24916979670524597,
          -0.23992781341075897,
          0.2248942255973816,
          -0.07908965647220612,
          0.05452365428209305,
          -0.18739844858646393,
          0.8462589383125305,
          -0.5467384457588196,
          0.17952924966812134,
          -0.7997951507568359,
          0.0925641655921936,
          -0.4347946047782898,
          -0.8707698583602905,
          0.20307551324367523,
          -1.2495920658111572,
          0.6553828120231628,
          -0.7417376637458801,
          -0.5706450939178467,
          -0.27347010374069214,
          -0.3176281750202179,
          -0.6611859798431396,
          0.8500025868415833,
          -0.961097776889801,
          0.03177143633365631,
          0.8359545469284058,
          -0.7181990742683411,
          0.06994379311800003,
          -0.285938560962677,
          -0.4243018329143524,
          0.30383163690567017,
          0.37214407324790955,
          0.6400122046470642,
          0.46311289072036743,
          0.2778703272342682,
          0.10035402327775955,
          0.0406130850315094,
          -0.017262855544686317,
          -0.1923549622297287,
          -0.9163795113563538,
          -0.004665270447731018,
          -0.5444329380989075,
          -1.0049155950546265,
          -0.6689373254776001,
          -0.07805482298135757,
          -0.17461073398590088,
          -0.5188983678817749,
          -0.014608724974095821,
          0.07226599007844925,
          0.4240604043006897,
          -0.7098095417022705,
          0.8542830944061279,
          0.4294395446777344,
          1.106611728668213,
          -0.5008566975593567,
          0.826309323310852,
          -0.5777673125267029,
          -0.07064676284790039,
          0.7726907730102539,
          0.6626567244529724,
          -0.3455975651741028,
          -0.22723117470741272,
          0.61628258228302,
          0.5893940329551697,
          0.05788286775350571,
          -0.4827970862388611,
          0.12113655358552933,
          -0.5465326309204102,
          0.12236851453781128,
          -0.027002528309822083,
          -0.6738221645355225,
          -0.15382856130599976,
          -0.9719488620758057,
          0.8489126563072205,
          -0.03500119224190712,
          -0.9514564871788025,
          -0.4172033667564392,
          0.8902584910392761,
          -0.7244670987129211,
          0.6001510620117188,
          0.049832914024591446,
          0.7347277998924255,
          0.9450284838676453,
          1.7387642860412598,
          1.238779902458191,
          0.44707080721855164,
          1.8647040128707886,
          1.9476760625839233,
          0.18090082705020905,
          0.7818199396133423,
          1.6439129114151,
          1.0284717082977295,
          -0.002793001476675272,
          0.041347913444042206,
          0.151951864361763,
          -0.18875595927238464,
          -0.3498576581478119,
          0.30414247512817383,
          0.15891586244106293,
          -0.7990285158157349,
          -0.8181394338607788,
          -0.2068583220243454,
          -0.8010828495025635,
          0.3028017580509186,
          -0.5675894021987915,
          -0.8888656497001648,
          -0.9399094581604004,
          0.2854779362678528,
          0.23085348308086395,
          -0.571067750453949,
          -0.5881216526031494,
          -0.8903665542602539,
          0.7417806386947632,
          -0.30511876940727234,
          -0.5561559200286865,
          0.9221045970916748,
          0.8716050982475281,
          0.08886952698230743,
          0.4794657826423645,
          0.8906939625740051,
          -0.5446631908416748,
          1.0285993814468384,
          -0.8655884861946106,
          0.8209508657455444,
          1.1737139225006104,
          0.02394465170800686,
          -0.8648263216018677,
          0.24271319806575775,
          0.7184851765632629,
          0.2897588610649109,
          -0.16957496106624603,
          0.6888749599456787,
          0.16238664090633392,
          -0.8173355460166931,
          0.1257575899362564,
          -0.769716203212738,
          -0.5941727757453918,
          -0.4647286832332611,
          -0.1461549550294876,
          -0.27223846316337585,
          0.921241283416748,
          0.8777387738227844,
          -0.39270779490470886,
          -0.5723161697387695,
          -0.18752461671829224,
          -0.34783273935317993,
          -0.13282738626003265,
          0.8793717622756958,
          0.41475993394851685,
          0.5132893919944763,
          0.12484535574913025,
          0.14947372674942017,
          -0.8627076148986816,
          0.18191462755203247,
          0.8952699303627014,
          -0.608349621295929,
          -0.17576731741428375,
          0.5538805723190308,
          -0.8189966678619385,
          -0.6811053156852722
        ],
        [
          0.029768137261271477,
          -0.03208618983626366,
          0.775101363658905,
          -0.2854723334312439,
          -0.5682762861251831,
          -0.6199904680252075,
          -0.3949441611766815,
          0.7733332514762878,
          -0.5277283787727356,
          0.634914755821228,
          -0.1906607300043106,
          -0.47177982330322266,
          0.22910457849502563,
          0.18930022418498993,
          -0.4279506802558899,
          0.8096170425415039,
          0.2990919351577759,
          -0.4893808960914612,
          0.4840000569820404,
          -0.8469145894050598,
          0.05341963842511177,
          0.49659329652786255,
          0.6843340396881104,
          -0.3228607475757599,
          -0.06555598974227905,
          0.28730568289756775,
          -0.5417490601539612,
          -0.030238095670938492,
          -0.15405091643333435,
          -0.914120614528656,
          0.4756656289100647,
          -0.5246720314025879,
          -0.4636203348636627,
          -0.13543523848056793,
          0.6903408169746399,
          -0.12871640920639038,
          0.7521640658378601,
          0.7053027153015137,
          -0.4290093779563904,
          -0.9373870491981506,
          0.5647816061973572,
          0.17584030330181122,
          -0.15291769802570343,
          -0.8932198286056519,
          -0.28706952929496765,
          -0.9864463210105896,
          -0.666057288646698,
          0.9262790083885193,
          -0.8103684782981873,
          -0.5105948448181152,
          -0.6232975125312805,
          0.9396162033081055,
          -0.9369219541549683,
          0.8942130208015442,
          0.7630899548530579,
          -0.906241774559021,
          -0.42782363295555115,
          -0.5887790322303772,
          0.7987989187240601,
          -0.9018372297286987,
          0.8318048119544983,
          0.5730164051055908,
          -0.13333925604820251,
          0.8247537612915039,
          -0.878484845161438,
          -0.4683949053287506,
          -0.2286696881055832,
          0.47962573170661926,
          0.8041585683822632,
          1.0547515153884888,
          -0.007797468453645706,
          -0.6238676309585571,
          0.5080524682998657,
          0.7418769001960754,
          -0.4312368929386139,
          0.33798179030418396,
          -0.5067518353462219,
          -0.055987510830163956,
          0.10676092654466629,
          0.40413421392440796,
          0.8100452423095703,
          -0.4574049413204193,
          -0.02911853976547718,
          0.555709719657898,
          0.9522926807403564,
          -0.3595188558101654,
          0.04796486720442772,
          0.2586859464645386,
          0.3404519855976105,
          1.1727617979049683,
          0.1678394377231598,
          -0.11123532056808472,
          0.26574647426605225,
          0.29639509320259094,
          0.6516454219818115,
          0.03936917707324028,
          -0.10847771167755127,
          0.12868203222751617,
          -0.44972938299179077,
          -0.26445242762565613,
          0.23038895428180695,
          -0.35551005601882935,
          -0.50714111328125,
          0.1503099948167801,
          -0.6440333724021912,
          0.6190823316574097,
          1.215283989906311,
          0.25555145740509033,
          -0.6188957691192627,
          0.36667075753211975,
          -0.9591801166534424,
          0.5058181285858154,
          0.018864072859287262,
          0.21696628630161285,
          0.20456041395664215,
          -0.06984919309616089,
          1.1648253202438354,
          0.32255902886390686,
          -1.6597506999969482,
          -0.23070918023586273,
          0.422770619392395,
          0.756507396697998,
          -0.8273906111717224,
          0.20670922100543976,
          0.4219827353954315,
          0.3251287341117859,
          0.22501888871192932,
          -0.5805859565734863,
          -0.13125605881214142,
          -0.033907633274793625,
          0.4110787510871887,
          -1.334391474723816,
          1.648003101348877,
          -0.4259783923625946,
          1.1747050285339355,
          0.7469945549964905,
          -0.04757652431726456,
          -0.7994524240493774,
          -0.40228012204170227,
          -0.27286773920059204,
          0.49148985743522644,
          0.23579607903957367,
          0.3511010706424713,
          0.10320825129747391,
          0.41733360290527344,
          -0.03202544152736664,
          0.7302692532539368,
          -0.3390554189682007,
          0.27215325832366943,
          0.23773396015167236,
          0.6062402129173279,
          0.980396032333374,
          -0.22781351208686829,
          -0.6331216096878052,
          -0.06499814987182617,
          -0.03792109340429306,
          0.4649876356124878,
          -0.21339872479438782,
          -0.06404358148574829,
          1.0417460203170776,
          0.11927017569541931,
          -0.25488725304603577,
          1.570809006690979,
          0.5924754738807678,
          -0.06441570818424225,
          -0.06269482523202896,
          -0.48340120911598206,
          -0.40712472796440125,
          0.9863881468772888,
          -0.4990120530128479,
          -0.3541981279850006,
          -0.11331784725189209,
          -0.6993193030357361,
          -0.9236887097358704,
          -0.24193790555000305,
          0.5036230087280273,
          -0.6641704440116882,
          -0.47778210043907166,
          0.29320386052131653,
          -0.22953824698925018,
          -0.7081179022789001,
          -0.11809273809194565,
          0.3254205286502838,
          1.429434061050415,
          -0.414415180683136,
          0.9185628294944763,
          -0.7377451658248901,
          -1.1240824460983276,
          -0.4741823077201843,
          -0.3484027683734894,
          1.910377860069275,
          1.713765025138855,
          -1.0836812257766724,
          -0.07926299422979355,
          -0.9194917678833008,
          0.14071059226989746,
          -0.8763231039047241,
          0.16200627386569977,
          -0.38715583086013794,
          -0.24820542335510254,
          -0.20548094809055328,
          0.20025141537189484,
          -0.40553560853004456,
          0.3149626553058624,
          0.0018248000415042043,
          0.032785750925540924,
          1.4948627948760986,
          -0.24095305800437927,
          -0.5944144129753113,
          0.5688689947128296,
          -0.5233327746391296,
          -0.12992502748966217,
          0.3960334360599518,
          0.697792649269104,
          -0.3454897999763489,
          0.8949246406555176,
          1.1160073280334473,
          -0.8569729328155518,
          -0.38983041048049927,
          0.674978494644165,
          1.3190115690231323,
          0.5422998666763306,
          -0.897899329662323,
          -0.44561514258384705,
          0.843304455280304,
          -0.620089590549469,
          0.28699013590812683,
          0.34176105260849,
          -0.3631552755832672,
          0.6109660267829895,
          -0.14370153844356537,
          -0.4055812358856201,
          -0.0456341989338398,
          -0.12709616124629974,
          0.29926612973213196,
          0.5932255983352661,
          1.1142855882644653,
          -0.5645809173583984,
          -0.5858681201934814,
          -0.2891036868095398,
          0.35998186469078064,
          0.7482917904853821,
          -0.06696906685829163,
          -0.11430824548006058,
          0.6644032001495361,
          0.030408542603254318,
          -0.1692073494195938,
          1.1776164770126343,
          1.8967047929763794,
          -0.002001767512410879,
          -0.09302061051130295,
          -0.3297560513019562,
          0.6674783825874329,
          -0.26755017042160034,
          0.8881736397743225,
          -0.17183855175971985,
          -0.01220620609819889,
          -1.6040228605270386,
          -0.4973869025707245,
          0.7434865236282349,
          -0.5483126044273376,
          0.1921772062778473,
          1.3850841522216797,
          0.16619302332401276,
          -0.0820373073220253,
          -0.710965096950531,
          -1.1022628545761108,
          -0.7841989994049072,
          -0.23322033882141113,
          -0.2099657952785492,
          0.038525812327861786,
          -0.18162168562412262,
          -1.1483007669448853,
          0.4006742537021637,
          0.04119211807847023,
          0.28935012221336365,
          -0.03713202476501465,
          0.6489693522453308,
          0.3132547438144684,
          -0.047971226274967194,
          -0.24640031158924103,
          -0.7911913394927979,
          -0.9254918098449707,
          0.01259545236825943,
          0.13067594170570374,
          -1.13059663772583,
          1.7410869598388672,
          -0.17662088572978973,
          0.8693556785583496,
          0.8348302841186523,
          0.628919243812561,
          0.19582726061344147,
          0.054302748292684555,
          -0.28817009925842285,
          -0.8401967883110046,
          -0.6809371113777161,
          -0.44933226704597473,
          -0.6272665858268738,
          -0.10886361449956894,
          -0.9805240631103516,
          -0.1660815328359604,
          -0.28042981028556824,
          -0.40129777789115906,
          0.8954272270202637,
          0.704011857509613,
          0.2730618119239807,
          -0.40557610988616943,
          -0.8857828378677368,
          -0.6179594993591309,
          0.0189047884196043,
          1.499347448348999,
          -0.841040313243866,
          -0.2720522880554199,
          -0.951198160648346,
          1.0346788167953491,
          0.9976670742034912,
          0.822765588760376,
          0.9106802344322205,
          1.040834665298462,
          0.13864608108997345,
          0.33899250626564026,
          -0.41778987646102905,
          -0.4481164216995239,
          -1.1060080528259277,
          -0.8015923500061035,
          -0.2946208417415619,
          0.3550892770290375,
          0.08106418699026108,
          -0.4109112322330475,
          0.4315529465675354,
          -1.3218066692352295,
          -1.127038598060608,
          1.635255217552185,
          0.6250887513160706,
          -0.10483769327402115,
          0.5147367715835571,
          0.8867982029914856,
          0.643076479434967,
          1.1166619062423706,
          0.5761417150497437,
          -0.17210547626018524,
          1.3216346502304077,
          0.9357785582542419,
          1.0609158277511597,
          -0.2753600776195526,
          1.1040700674057007,
          -0.2247428297996521,
          -0.4443424940109253,
          0.3449050188064575,
          0.25090837478637695,
          -0.22115163505077362,
          -0.16143351793289185,
          0.5783663988113403,
          0.231419175863266,
          -0.3680550754070282,
          0.8788930773735046,
          0.42979225516319275,
          -0.30153200030326843,
          0.6629214286804199,
          0.4469846189022064,
          0.4800403118133545,
          0.17322860658168793,
          0.8277724385261536,
          -0.8340121507644653,
          -0.6421284079551697,
          -0.2723744511604309,
          -0.43759605288505554,
          0.40340760350227356,
          -0.2929377555847168,
          -0.06248638778924942,
          -0.6922197937965393,
          0.1768944263458252,
          0.4346327483654022,
          0.3842218816280365,
          0.9511138200759888,
          0.6737598776817322,
          -0.27573055028915405,
          -0.4080306887626648,
          -1.6351513862609863,
          -0.11191678792238235,
          -0.7434108257293701,
          -0.8341053128242493,
          -0.2226337045431137,
          -0.1247873529791832,
          0.4162571430206299,
          0.11361777782440186,
          1.2897064685821533,
          0.4809921085834503,
          1.0592584609985352,
          -0.5145028829574585,
          -0.7662348747253418,
          0.12294051796197891,
          -0.7435458302497864,
          -0.0651964545249939,
          -0.6487178802490234,
          0.6118254065513611,
          0.2953132092952728,
          -0.5812215805053711,
          0.4397311210632324,
          -0.38969850540161133,
          0.07937800884246826,
          0.1525764912366867,
          0.09161307662725449,
          -0.12052420526742935,
          -0.9514554738998413,
          -0.05279875546693802,
          -0.13451552391052246,
          0.7546719312667847,
          0.016094671562314034,
          0.06402681767940521,
          1.2749083042144775,
          -0.8441368937492371,
          0.14657436311244965,
          1.437411904335022,
          -0.46187645196914673,
          0.793419361114502,
          1.6474509239196777,
          0.14487676322460175,
          0.6536450982093811,
          0.9539138674736023,
          0.25658541917800903,
          -0.829451858997345,
          -0.8566352725028992,
          -0.03763159364461899,
          0.9587529897689819,
          0.7879626154899597,
          -0.3559536039829254,
          1.3865244388580322,
          -0.18901289999485016,
          1.2044497728347778,
          0.5971500277519226,
          0.5961699485778809,
          0.2597616910934448,
          -0.012245647609233856,
          -0.5291464328765869,
          -0.48496395349502563,
          0.4860880970954895,
          -0.578793466091156,
          0.1941009908914566,
          -0.5863010287284851,
          0.6691837310791016,
          -0.5234547853469849,
          -0.581784188747406,
          -0.3791082501411438,
          0.002839283552020788,
          0.6871222853660583,
          0.4626273512840271,
          0.7419204115867615,
          0.49024125933647156,
          -0.3263871669769287,
          -0.9833464026451111,
          -0.0683680921792984,
          0.37689271569252014,
          -0.40779784321784973,
          -0.5965774059295654,
          1.1030393838882446,
          -1.1506284475326538,
          1.0432722568511963,
          0.3539826273918152,
          -0.8326180577278137,
          -0.02303115651011467,
          -1.3907164335250854,
          -0.579541802406311,
          -0.7587195634841919,
          -0.16557541489601135,
          0.28381550312042236,
          0.4981735646724701,
          -0.46515214443206787,
          -0.38373178243637085,
          -1.2009036540985107,
          -1.523104190826416,
          -0.029584351927042007,
          -0.8045156002044678,
          1.1589525938034058,
          0.12938043475151062,
          -0.7760646939277649,
          0.6183171272277832,
          -0.7316956520080566,
          0.38697147369384766,
          -0.8632968068122864,
          -0.48683491349220276,
          0.17011988162994385,
          1.1769535541534424,
          -0.21716628968715668,
          0.5268943905830383,
          0.7853026986122131,
          0.42390498518943787,
          0.5048841238021851,
          1.1601756811141968,
          -0.19424749910831451,
          0.3393842279911041,
          0.49829819798469543,
          0.705365777015686,
          0.610331654548645,
          0.3238241672515869,
          -0.11257731169462204,
          0.25589409470558167,
          0.225731760263443,
          -0.4803765118122101,
          -0.24730737507343292,
          0.4884853959083557,
          1.8034666776657104,
          0.1786719262599945,
          -0.4798034131526947,
          -0.02483055554330349,
          -0.7086517810821533,
          -1.6014431715011597,
          -0.9909382462501526,
          -0.2789941430091858,
          0.7540196776390076,
          -0.12668482959270477,
          -1.3970218896865845,
          0.14362508058547974,
          0.9465458393096924,
          0.6529875993728638,
          0.9039669036865234,
          1.2421894073486328,
          -0.0903148278594017,
          0.06366265565156937,
          -0.20964013040065765,
          0.09395914524793625,
          -0.024229146540164948,
          -0.5947561860084534,
          -1.1346560716629028,
          0.8957698941230774,
          0.38871368765830994,
          1.2528412342071533,
          1.6787776947021484,
          1.0866583585739136,
          2.0730226039886475,
          -0.06732282042503357,
          0.03467540815472603,
          -0.3193180561065674,
          0.3248180150985718,
          0.18164557218551636,
          -0.8755728006362915,
          -0.16385208070278168,
          0.21547828614711761,
          -0.2627163231372833,
          0.503220796585083,
          -0.597089409828186,
          -0.2268192023038864,
          0.4137391746044159,
          0.24136841297149658,
          0.8515511751174927,
          0.0624263696372509,
          0.8059207797050476,
          -0.8057072758674622,
          1.0292054414749146,
          0.23795023560523987,
          0.3729623556137085,
          0.3929312229156494,
          0.4352489411830902,
          0.1273617148399353,
          -0.32353881001472473,
          -0.21125921607017517,
          1.1369481086730957,
          0.5046521425247192,
          0.8750067353248596,
          -0.7836101651191711,
          0.650375247001648,
          0.9709077477455139,
          -0.03168526291847229,
          -0.530432403087616,
          0.5126523375511169,
          0.8885690569877625,
          0.4809284210205078,
          -0.9653273224830627,
          0.3672582805156708,
          0.25400403141975403,
          -0.6669788956642151,
          -0.3202722370624542,
          -0.5203118324279785,
          1.1276010274887085,
          -0.8906342387199402,
          -0.49980419874191284,
          0.6614245176315308,
          0.6953771114349365,
          -0.11177675426006317,
          0.15459957718849182,
          0.47915512323379517,
          0.18639183044433594,
          0.28327658772468567,
          1.4152920246124268,
          0.4618363380432129,
          -0.44464924931526184,
          0.31013262271881104,
          0.6618015170097351,
          -0.5348857045173645,
          0.07111410051584244,
          0.11512775719165802,
          -0.5735615491867065,
          -0.09977877885103226,
          0.03438924625515938,
          -0.2160118669271469,
          0.7115412354469299,
          -0.5872573256492615,
          0.11340110003948212,
          -0.4915950894355774,
          0.8032091856002808,
          -1.1084117889404297,
          -0.013481540605425835,
          -0.05910789594054222,
          0.4995519518852234,
          -0.4036088287830353,
          -0.1333370953798294,
          0.3206798732280731,
          0.4012352228164673,
          -0.9158542156219482,
          0.46742650866508484,
          0.5751534104347229,
          0.5667135715484619,
          0.033061373978853226,
          0.8092789649963379,
          -1.0805914402008057,
          -0.6170676946640015,
          -0.9497844576835632,
          0.8106045126914978,
          0.9715722799301147,
          1.2503312826156616,
          -1.0714972019195557,
          -1.1888630390167236,
          0.18466398119926453,
          -0.1804158091545105,
          -0.0611252561211586,
          0.21049116551876068,
          0.3278447091579437,
          0.49164217710494995,
          0.2252577245235443,
          -0.6714140772819519,
          -0.24536462128162384,
          -0.6070390343666077,
          -0.45453110337257385,
          -0.46483057737350464,
          -0.45205268263816833,
          -0.10435497760772705,
          -0.503582775592804,
          1.2192447185516357,
          -0.641191303730011,
          0.9747968316078186,
          1.0174506902694702,
          0.210691437125206,
          -0.16815371811389923,
          -0.0080913370475173,
          -0.4208334982395172,
          -0.047809332609176636,
          -0.6445940136909485,
          0.3554319143295288,
          0.036909375339746475,
          -0.4234868884086609,
          -0.7585197687149048,
          0.7153059244155884,
          0.98228520154953,
          0.10985102504491806,
          -1.3049365282058716,
          -0.11217314004898071,
          0.25161606073379517,
          -0.4892933964729309,
          -0.37912413477897644,
          0.3023666739463806,
          -0.20377522706985474,
          -0.38212850689888,
          0.31682267785072327,
          0.011795056983828545,
          0.04772770777344704,
          0.9109797477722168,
          1.3657362461090088,
          1.399396300315857,
          0.8049852848052979,
          0.9240248799324036,
          0.356729656457901,
          0.45143961906433105,
          -0.9381181001663208,
          0.38936474919319153,
          1.0144150257110596,
          -0.525083065032959,
          -0.33135226368904114,
          -1.0447286367416382,
          -0.35303983092308044,
          -0.7571547031402588,
          0.24586158990859985,
          -0.9476538300514221,
          0.5927664041519165,
          -0.6121432781219482,
          0.5724812746047974,
          -1.1374129056930542,
          -0.02246869169175625,
          0.4832136034965515,
          1.9598042964935303,
          -0.39838898181915283,
          -0.19636912643909454,
          -0.784582793712616,
          1.3648253679275513,
          0.7526631951332092,
          0.6504088640213013,
          0.8058812618255615,
          -0.3409680724143982,
          0.22663262486457825,
          -0.3164878785610199,
          -0.9310640096664429,
          -0.3252204656600952,
          0.4745085835456848,
          -0.2631124258041382,
          -0.7628756165504456,
          -0.5202810168266296,
          0.7020154595375061,
          -0.5860555171966553,
          -0.4208812415599823,
          -1.8394068479537964,
          -0.7310069799423218,
          0.049279019236564636,
          -0.7546074986457825,
          0.19895629584789276,
          0.2368796169757843,
          0.382409006357193,
          -0.3368825912475586,
          0.4627765715122223,
          0.5196000337600708,
          -0.09604382514953613,
          0.6101622581481934,
          -0.4381100535392761,
          -0.7397709488868713,
          -0.09323028475046158,
          0.46209701895713806,
          -0.05546604096889496,
          0.7203341126441956,
          0.16204994916915894,
          0.4322933554649353,
          0.2790583670139313,
          -0.960595428943634,
          0.07080227881669998,
          -0.08727876096963882,
          -0.9833694100379944,
          -0.6898630261421204,
          -0.11678726971149445,
          0.006338197272270918,
          0.2797202467918396,
          -0.5773703455924988,
          0.06453121453523636,
          -0.18185940384864807,
          1.1800177097320557,
          0.280078649520874,
          -0.027612807229161263,
          1.1807502508163452,
          1.3389497995376587,
          -0.45479586720466614,
          0.28052106499671936,
          0.7357435822486877,
          -0.6475741267204285,
          0.3903934359550476,
          0.6415663957595825,
          0.6344731450080872,
          -0.1673799455165863,
          0.7100105881690979,
          -0.008731966838240623,
          0.26969924569129944,
          0.8517999053001404,
          0.307603657245636,
          0.46262994408607483,
          -0.17090843617916107,
          0.5827042460441589,
          0.8291674256324768,
          -0.32976293563842773,
          -0.011878742836415768,
          -0.9879775047302246,
          0.6199369430541992,
          -0.9260207414627075,
          -0.31482982635498047,
          -0.14584973454475403,
