{
  "layers": [
    {
      "type": "FullyConnected",
      "numInput": 784,
      "numOutput": 128,
      "weights": [
        [
          -0.8540117543779814,
          -0.594345742437639,
          -0.03837767895786093,
          0.8166017470714539,
          0.1812719128039828,
          0.02887065892920937,
          -0.3561253492470532,
          0.5232913565718174,
          -0.8864581376491072,
          -0.2237558424882402,
          -0.4541437686844172,
          0.5922258366881412,
          -0.7964847007359707,
          0.17675490187927667,
          -0.5916786029011056,
          -0.643828075329683,
          -0.08627154029735074,
          0.6245229114290094,
          0.3056317648522724,
          0.3351682966838967,
          0.4406553354578886,
          -0.9794418626567455,
          -0.06906816949781325,
          -0.4884152163780572,
          0.16987717851023731,
          0.6100984395857936,
          0.07204135440792347,
          -0.7158383933659764,
          -0.4509992272152644,
          -0.2244289269193811,
          0.30087945001007177,
          -0.8010510107972818,
          0.6549190342577392,
          0.9643685018878092,
          0.9509825253561909,
          0.017571472880264737,
          0.837424851818889,
          -0.6029992522782407,
          -0.6300329651329111,
          -0.8322003058628592,
          -0.8749092750288782,
          0.10234012546280638,
          0.5365557866900791,
          -0.12171809800729312,
          0.5969380802634466,
          0.6872768608135781,
          -0.9175961794523603,
          -0.9990176923083274,
          0.3772013867940742,
          0.7804196028374968,
          0.5316837884872472,
          0.40643907388325395,
          -0.6454085154873466,
          0.9220152224055671,
          -0.5553262695112543,
          -0.9844562054599962,
          -0.5478645351076453,
          -0.04928578443811327,
          -0.6044183124173605,
          -0.42763424904611025,
          0.22318828924408565,
          -0.3914569971922225,
          -0.6843670066183973,
          0.9094749396288191,
          -0.04391619072095458,
          -0.908242301913642,
          -0.6719462789852738,
          -0.4134985241565911,
          0.4333043456742375,
          -0.5884492184967675,
          0.058241488725837474,
          0.9065230248437155,
          -0.05949597827219462,
          0.09782175273476791,
          0.155029672765484,
          -0.6676586773804902,
          -0.9340203057907935,
          -0.2759709958829645,
          0.8374990537396222,
          0.3462138163233751,
          0.4361516578421874,
          0.7906508642990846,
          -0.5510594403880876,
          0.7126294506042063,
          -0.928617520250979,
          -0.9370705177097483,
          -0.7504696125203694,
          -0.9271992141755884,
          0.6091978666871661,
          0.5318756571072479,
          -0.43806788239647243,
          0.9873464214446634,
          -0.2729217705575556,
          -0.6362221692980439,
          0.5752903872989775,
          0.837385850544226,
          -0.7708692362216426,
          -0.9166413274226566,
          0.9165712339108552,
          -0.30490648233286244,
          0.4756519059047028,
          0.09751413873960513,
          -0.645507833196769,
          0.2619620360797456,
          -0.2775098892443494,
          -0.34115403762750673,
          -0.7242557589697489,
          0.6335773547739132,
          -0.5165461311002014,
          0.7531440774596375,
          0.059524762614197736,
          -0.7019369863763967,
          -0.2677693079366231,
          -0.5537288060089639,
          -0.9819137048663285,
          -0.2982403821097389,
          -0.3781969504118567,
          0.0063292742905495716,
          0.18318248000795373,
          -0.06425808216694485,
          0.7227127822077436,
          0.5573655221590853,
          -0.8114033787912279,
          0.46852120869883324,
          -0.7835257863811474,
          0.07503295287092379,
          0.39688983682651696,
          -0.07247623111003548,
          -0.8844179045278392,
          -0.1844294875000184,
          -0.2774271544164554,
          -0.13470287283934143,
          -0.19595644155982203,
          0.1623379219755379,
          0.4262576278722155,
          -0.07542503310290664,
          0.8413304202575476,
          -0.38337290200136637,
          0.7840604441702022,
          -0.059601635367806646,
          0.18681405258503814,
          0.8810841574060762,
          0.49143298685754805,
          -1.0000566032829412,
          0.35976531676956375,
          -0.7871578764736024,
          -0.4090384076886239,
          0.581721023272214,
          -0.3805575996260758,
          -0.4277155577645042,
          0.7890793655203342,
          -0.7411074700272187,
          0.12190332344503452,
          0.5991522799734658,
          -0.27658401170417213,
          0.7431702905963737,
          -0.47863936550711605,
          -0.7337812538898318,
          -0.13310139120616976,
          -0.8134300097934246,
          0.8330914296973657,
          0.14355130781327896,
          0.7364058707291748,
          0.503653661281893,
          -0.7850291337286083,
          0.557303215974588,
          0.17394990947511974,
          -0.814449018087419,
          -0.6982249254544377,
          -0.8239463891957933,
          0.13139996410853222,
          0.5920552789206065,
          0.20610300481415356,
          -0.0925015103995778,
          -0.12796189961166765,
          -0.26128253266342183,
          -1.011705803241202,
          0.8468136149343843,
          -0.1115154504038362,
          0.7344568350081339,
          -0.572091155933337,
          -0.8713861134123276,
          0.6386433946269652,
          -0.504499342739378,
          -0.26190197823264555,
          0.586107630573141,
          0.040380392679060954,
          -0.6503839985781507,
          -0.48652408864752944,
          0.31987123999391964,
          -0.1313644684429751,
          -0.01132556863012719,
          0.5670447816719597,
          -0.44217296220159696,
          -0.22695478476722472,
          -0.017407648785927328,
          -0.5694005130012565,
          0.9824922019841348,
          0.5279500373653085,
          0.4694568124817293,
          0.5772238227934438,
          0.7617542650047263,
          -0.4266809601940839,
          0.9555890093916927,
          0.18537213787329565,
          -0.9441164982324419,
          -0.46906350122846063,
          0.31818681161504253,
          0.677753582125962,
          0.019276544591845145,
          0.3762107360301503,
          -0.3866983871629599,
          0.21208344374001054,
          -0.3329009717310311,
          0.33524786609353613,
          0.7415989638330066,
          0.7368277024550224,
          -0.2662414559974213,
          -0.7070034613192511,
          0.7324708185125441,
          0.175336232998315,
          0.18151081315320036,
          0.5613431409980493,
          0.8058914958423775,
          0.19130057133707767,
          -0.08627648158914049,
          0.8554656091625641,
          -0.9072821076785433,
          -0.693692141811091,
          0.8387370972677969,
          -0.3797093359995292,
          0.015127978889700872,
          -0.20145023664516887,
          0.741048271812705,
          -0.26521003171219826,
          -0.6103565757301027,
          0.27117407903550494,
          1.0600201990145957,
          -0.2730456907130633,
          -0.27630644246659003,
          0.24156115191782293,
          -0.19926865395555937,
          -0.7712232760205469,
          0.022981961215714164,
          -0.6241036884269603,
          0.36836743219831686,
          -0.7722404712815393,
          -0.3197569846362862,
          0.1439519003498286,
          0.7647059230625367,
          -0.5510305401541807,
          0.17860166660313734,
          0.46587447104125146,
          -0.3811557435362535,
          0.2938869660742249,
          -0.48146813696157376,
          -0.29563577297789145,
          0.34997701585839003,
          0.3240610992307898,
          0.2978574542225071,
          -0.8014896579241984,
          0.328167715321508,
          0.11517274225069316,
          -0.054246517130195106,
          -0.6436033725847229,
          -0.904840175655365,
          -0.28805151620149444,
          0.3020956258597233,
          -0.3744080900800565,
          0.9332528819747287,
          0.7082371229701739,
          -0.39597173580003303,
          0.5268003896347343,
          0.824201222975828,
          -0.8747838781162312,
          -0.023447077765624613,
          0.6414488138699109,
          -0.6565665054016947,
          -0.5058569050220085,
          -0.6719881316781092,
          -0.9959643943636203,
          -0.8383013210616861,
          0.3161404597264494,
          -0.8487189582670218,
          0.9786261281278283,
          -0.555502290548638,
          -0.41878781076341487,
          -0.9550128552930757,
          0.8192874558375405,
          0.875551821030341,
          -0.2714559926964417,
          -0.344513601089626,
          -0.3231568556740155,
          -0.12158517054321594,
          -0.1897364873044944,
          -0.19907321697300834,
          0.441836642563386,
          -0.8440629496154383,
          0.5461670306396685,
          -0.8870486373535262,
          0.08130040429557217,
          0.5399803511106138,
          -0.5821097989310883,
          0.023417164320448058,
          -0.48208955214061994,
          -0.04505333119854054,
          -0.9735592361283889,
          0.47129861174510634,
          -0.8006513704312876,
          -0.6180409437476728,
          -0.2437733741052818,
          0.3499330912884895,
          0.40901417465407225,
          0.1836186244191859,
          0.5703745197346344,
          -0.15929087439843756,
          -0.37873175685703375,
          0.9443566405984211,
          -0.5794614318632294,
          0.7137206404815016,
          -0.748098995006893,
          0.3922367524910285,
          1.0173868645283475,
          0.48609962738651313,
          -0.6117096487966055,
          -0.06045243121249203,
          -0.23049282534598045,
          -0.36555207595959666,
          -0.43685505704271793,
          0.2699973897758792,
          -0.2454610882133742,
          0.1925328507255472,
          -0.9286553678755116,
          -0.5932298744710304,
          -0.8422412183163995,
          -0.5132053646472841,
          0.4696825934750355,
          -0.748302348904248,
          0.21911386044902925,
          0.7167331777060604,
          0.6538061694901421,
          0.36207091652998746,
          0.09418274746110983,
          -0.7980942291504018,
          -0.08147217868262605,
          0.3906478633085406,
          -0.40493653921370865,
          0.5135021790179141,
          -0.7201030052541599,
          -0.37957758267477354,
          0.23566863421562265,
          0.7107404484938203,
          0.6956572387698704,
          -0.24079337954947921,
          0.4135735037907927,
          -0.33915014834591367,
          -0.5199756545054717,
          -0.8369644770697366,
          0.7902537242301872,
          -0.22492465747551132,
          -0.7290348332861241,
          -0.869489795751347,
          0.7462637430954115,
          0.8892435261057945,
          0.8329936097532967,
          -0.8120717126396991,
          -0.39022720359967294,
          0.2469197502506121,
          -0.11314655049220458,
          -0.5359079512732378,
          -0.050841616645548766,
          0.8504168869987311,
          -0.01719916952622132,
          0.8765149923489804,
          0.619578570235493,
          0.8013284110824497,
          0.7975071736613957,
          -0.6283078902210201,
          -0.10355020739751378,
          0.5823494206675224,
          0.3914191676206991,
          -0.9718917421328654,
          0.5040323072738835,
          -0.7349169108651692,
          -0.8925599688558535,
          -0.532196283195211,
          0.4706927379638522,
          0.39367748596506225,
          -0.016726333233448548,
          -0.2663553257519504,
          -0.5934573524578466,
          0.8746445039176414,
          0.11761730507255577,
          0.8542509504000527,
          -0.7652922889923712,
          -0.3068134833081478,
          0.6669071877869179,
          -0.7479003960580001,
          -0.43330639391399667,
          -0.859549585931768,
          0.3993532618676708,
          0.49549911839656136,
          0.31066152533464714,
          -0.13967592726228698,
          0.5147896090009055,
          -0.9397208387793345,
          0.3523558013482491,
          0.6322344233538848,
          0.9084243618742104,
          0.679899285398245,
          0.7218041511578209,
          0.6998295865595107,
          0.1602837637487622,
          0.6296757637923387,
          0.7511692364428874,
          0.2094448397388032,
          -0.49272541443799145,
          -0.30747962702374837,
          -0.36037250038450924,
          0.8617805591479734,
          -0.031348649222100025,
          -0.5426848110671059,
          0.18719811154004298,
          0.2514920236718711,
          -0.603856338397092,
          0.5449991556516681,
          0.8363720281299313,
          -1.007967884119577,
          0.09913117246182397,
          -0.9586416491933768,
          -0.28325418911721534,
          -0.17935322905793488,
          0.6611024116117321,
          -0.41366356467923626,
          -0.9531446599236658,
          0.7059725453171519,
          0.3857872206425092,
          0.32418987148389405,
          -0.49099923680949353,
          -0.8827683813180522,
          -0.5931747855123031,
          -0.687731782308248,
          0.09387430604931588,
          0.5117206742253084,
          -0.1790495403467502,
          0.9087771866592896,
          0.04429077163781854,
          -0.5312326676814835,
          -0.4710012052200142,
          0.18850748131864095,
          0.5090138756304303,
          0.4605848406290229,
          -0.6344471011644526,
          -0.45103698784111473,
          -0.1375983298893067,
          0.7028837407604765,
          -0.49778149377940084,
          0.6204833667011422,
          0.2319295378336049,
          -0.7361443482437843,
          -0.587826831899816,
          0.2468358753602019,
          -0.4070491885441565,
          0.5497608136473969,
          -1.01904776100224,
          0.5947124723036135,
          0.31343946414462287,
          0.9017138998559665,
          -0.9071496528101483,
          0.045912985317378675,
          -0.07686566334011598,
          0.7955804641649694,
          0.02878622184493697,
          -0.14199206714609172,
          -0.027244384772750634,
          0.19296452339578482,
          0.8859576373991216,
          0.5236160248151258,
          0.09402759238892079,
          0.7278011113930043,
          0.09162315212116662,
          -0.3505920299198114,
          -0.6642804525637634,
          0.5683024007498745,
          0.609502485442171,
          -0.7880598419741796,
          -0.3561015845915724,
          0.46240505129203474,
          0.7403545462849124,
          -0.029931276219254538,
          0.4199759875027744,
          -0.8507576575761301,
          -0.8646117391188006,
          -0.9995516454668154,
          -0.49431346811783405,
          -0.22376185331479978,
          -0.15560733339253927,
          -0.3353861507967806,
          0.41253206358735856,
          0.8973648760225403,
          0.9084410848864707,
          0.692615855581937,
          0.010723018301554685,
          -0.02250676095346744,
          -0.9487394339288827,
          0.48018387536793283,
          -0.6553306569057114,
          -0.8495950564802476,
          0.12912808589031866,
          0.8326370029186139,
          0.785153822215109,
          0.23942769285028226,
          0.4192650972804716,
          -0.8681490497161066,
          -0.8423981051299204,
          0.7169071652523614,
          -0.28284719618640086,
          -1.0510960747434863,
          -0.9063394017039873,
          -0.5097686758346988,
          -0.06900853238225038,
          0.19845813589872693,
          -0.357721001502795,
          0.9436595525547248,
          0.41006141278212666,
          -0.7880422266012288,
          0.47049905800194536,
          0.3354992468189303,
          0.512941298301311,
          0.28683828624922775,
          0.7082685823781785,
          -0.15955968209967103,
          -0.5300314543007791,
          0.13885191066166205,
          -0.7855582993784972,
          0.46166577141247384,
          0.5059012378771158,
          -0.9369264212166285,
          0.934604527320967,
          -0.7978689103376965,
          -0.7030995809537458,
          -0.07731744101619568,
          -0.9005639291416095,
          -0.9024086530391543,
          -0.7968806787559959,
          -0.8761892504748975,
          0.3423299022389061,
          0.7770050855266529,
          -0.4782946557557614,
          0.8234856172616715,
          -0.0344972860856544,
          -0.20255433556970884,
          -0.7000573447769698,
          0.0859148588840363,
          0.3060854409871806,
          0.22507043394981194,
          0.4534117456124129,
          -0.8398610483242307,
          -0.544207755543206,
          0.4005016718800881,
          0.36151280945347697,
          -0.6779437400768523,
          0.3630578636881869,
          -0.9928858010185436,
          0.7171773985951928,
          -0.9509581553348958,
          0.9944499360218034,
          0.319371433946813,
          0.5502279074726265,
          0.4663669771857405,
          0.08215727137581552,
          -0.6003031592260443,
          0.8296267499924664,
          -0.7233443987982501,
          -0.4174797471247457,
          -0.15949040495798616,
          -0.6465434640900872,
          -0.9229535721049966,
          -0.2788591404638132,
          0.36952023785577903,
          -0.013120799398852462,
          0.6846565709614308,
          -0.6831535015451836,
          0.8732509007355981,
          0.07796874813660452,
          -0.6812490358786808,
          -0.8047719512338063,
          0.6276680994343455,
          -0.709367412188211,
          -0.504666515459524,
          -0.19252226076145876,
          -0.21498266296848556,
          0.1476208865344103,
          0.964094033700414,
          0.7811020778899235,
          -0.29847441743585723,
          0.5774022523336207,
          0.8248506628419049,
          -0.8789222523277472,
          -0.5571570913926033,
          -0.938333763943908,
          -0.6973089067013774,
          0.7602121695307682,
          0.511737795714428,
          0.3250901112797512,
          0.6761948152027353,
          -0.7709575238141948,
          0.6161927636799073,
          0.13530223962693155,
          0.7135478578873055,
          0.9015504864433623,
          -0.9140808575923933,
          -0.17967054493684195,
          0.15119540800517334,
          0.13980268420118835,
          -0.06950111012407034,
          0.8814618507886562,
          -0.006998453422350057,
          0.2400542184991468,
          0.7002381599605174,
          -0.42317826506559064,
          -0.30823796166859224,
          0.8550136896535886,
          -0.37995042747554375,
          -0.7602031649691381,
          0.9517911315121869,
          -0.27242983917428704,
          0.28839087848365996,
          -0.813867170399012,
          -0.5553630661151723,
          -0.1747138363446057,
          0.5524683175843612,
          -0.21078619139325352,
          0.05953967651347856,
          0.11875079864767568,
          -0.6146817665028363,
          -0.27811990421856214,
          -0.7302455788039001,
          -0.9969609567856041,
          -0.8330777035431857,
          -0.6706112476716936,
          0.685996729026217,
          0.2264787244808157,
          -0.83626963862048,
          0.4616043844918478,
          -0.2497301882053573,
          -0.25420585239037274,
          -1.003811627667541,
          -0.3895779857811531,
          -0.377750097837983,
          0.9355321267792814,
          -0.5308916559619455,
          1.0058342152005117,
          -0.3510490493474036,
          0.8707351820860492,
          0.1328901393169019,
          0.10064971429640467,
          0.8000306084654295,
          -0.4445079357371956,
          -0.8078897093110631,
          -0.20732384258413936,
          -0.38944458815553173,
          -0.5793496444986584,
          0.7126983297777392,
          -0.17263566094001784,
          -0.20625953405630254,
          0.21932015828840692,
          0.43024812024294695,
          -0.6694522755499729,
          0.836548915964537,
          -0.052495346910903365,
          0.9134331385435943,
          -0.6460441941290894,
          -0.17949315782643127,
          0.224643259606698,
          -0.5486430645476306,
          -0.3997822480329729,
          0.3671439950547162,
          0.6414265651797905,
          -0.7641000241854135,
          -0.13653710928619905,
          0.7921325814197305,
          -0.7315787602535709,
          0.5422865331369923,
          0.26137354911181787,
          -0.4284535918027112,
          -0.7706770341330857,
          0.3205989043378826,
          0.10247598987230414,
          0.9678541129470644,
          -0.8832828416529119,
          -0.4273992075975321,
          -0.4128584493455706,
          0.9663561531423599,
          0.9041211013061621,
          0.4067883550946698,
          -0.4601968453324892,
          -0.525759011671824,
          0.7522147352435997,
          0.8661651366224541,
          -0.3639213531430845,
          -0.4805725251895151,
          -0.25934759126586304,
          -0.042823556648783644,
          0.20008052501048737,
          0.6984374874890491,
          0.8612486133533367,
          0.8947772354393265,
          -0.7352967366072655,
          -0.4272825586984483,
          -0.6957862725347754,
          -0.6673368101053058,
          -0.8743884918369346,
          -0.10957643496177726,
          0.41517962005331666,
          -0.8265925837362208,
          -0.697041105529891,
          0.5343596144797197,
          -0.3937981039285062,
          -0.4487645939886576,
          -0.8663640715851151,
          -0.4092275568197141,
          -0.1579836022044031,
          -0.953984928785156,
          0.9716145178035575,
          -0.41686412866969047,
          -0.7432779606376844,
          -0.8525616362471852,
          -0.9990643533858439,
          0.25424155568763096,
          0.9463572456035938,
          0.8005339137047761,
          0.474426744858324,
          -0.806129181786448,
          -0.8429933116382071,
          -0.8844761359739418,
          -0.9976524882160924,
          0.8739294542706093,
          -0.5342314322042842,
          0.6093926517925404,
          0.09957094875496394,
          -0.7989436218433067,
          0.8455370732654404,
          -0.6695217387520552,
          0.7219754720405264,
          0.35557689039861146,
          0.3602257190663255,
          -0.2851849976965522,
          0.29848396052261805,
          0.8110423597129724,
          0.5547223499750288,
          0.32952614279961256,
          0.8706805659813781,
          0.529478103616648,
          -0.511030922446748,
          -0.5187968548212494,
          -0.6189726816760572,
          0.11373925964923148,
          0.29565841651950575,
          -0.9792064840848291,
          -0.1418541782053574,
          0.3740972639088791,
          0.0701401154267729,
          -0.9373251086999665,
          -0.8406421817755133,
          0.6589030850451483,
          -0.5759569497647306,
          0.011408030146554464,
          0.07638322659028166,
          0.05222717931455768,
          -0.3018475455962866,
          0.620492214265209,
          -0.2427834718955895,
          -0.08418376825549169,
          -0.2649554425799722,
          0.0012280749073003408,
          0.4704055465042539,
          0.8710903461463368,
          0.6705503666388312,
          0.44818099832052255,
          0.46198750892871754,
          0.9995837405925432,
          -0.15690458957398667,
          -0.03549023382724115
        ],
        [
          -0.7157676193474427,
          -0.8827707263921765,
          -0.9573995250015185,
          0.4781141117567773,
          -0.2343777295384274,
          -0.6790368072787474,
          -0.2709752483080886,
          -0.6168169848199617,
          -0.3425050155145758,
          -0.9714706459750713,
          0.2246256894514591,
          0.5014008471528515,
          0.09538166054558017,
          -0.9343092000232219,
          -0.7537109698265488,
          -0.395499609794973,
          -0.41104942741406536,
          0.7677914330102096,
          -0.5345051007545456,
          -0.2361330155425866,
          0.0602708912074974,
          0.6454775090959852,
          0.6318855803855643,
          0.5588608904168646,
          0.15356760043957474,
          -0.627885396465846,
          -0.5877358691342025,
          -0.14341151881277714,
          -0.098836734292435,
          0.054901673242270466,
          0.6155329728684404,
          0.9384872540816367,
          0.44956767907827566,
          0.4861001291791087,
          0.41963811124047967,
          -0.5273271134141269,
          0.5960364543569335,
          -0.2794385315505137,
          -0.003057269352374286,
          -0.3814864234032829,
          -0.9019623923838851,
          0.4105846971363011,
          0.23601174491652552,
          -0.7536331625524855,
          0.7575582414675033,
          -0.6764155779540193,
          0.4095305103087691,
          0.413843411947771,
          0.17095286647128277,
          -0.8548037714283052,
          0.5132253362404064,
          0.5884097164094957,
          -0.6590799354208916,
          0.3943077586987762,
          0.2252393131780983,
          0.5807478105424047,
          -0.34185520124043556,
          -0.08138548095197917,
          -0.34120976824878657,
          -0.36034321044666606,
          0.5803073337574894,
          -0.10652352807828558,
          0.33023707838816163,
          -0.4280910888791013,
          0.8342550309300142,
          0.8284283615610133,
          0.27885073311722275,
          0.9814258313089302,
          0.3673334235233738,
          -1.000139757669657,
          0.05017981519850218,
          0.5961625030115608,
          0.4497123125326731,
          0.5145561404063885,
          0.9231126914613421,
          0.8662771773698164,
          -0.20612181906046645,
          -0.06883348898408188,
          -0.46505793109165144,
          -0.17409491230343396,
          0.3051469229691126,
          0.5857852489935887,
          0.009737705900258575,
          0.20744794590808624,
          -0.06312870896006939,
          -0.3734964641042664,
          -0.9557685182033343,
          -0.34975934249871715,
          -0.27557014292320203,
          0.6795821756660946,
          -0.921193361913877,
          0.6921460183772178,
          0.8870820683512747,
          0.9292867489627975,
          0.5986062625449475,
          -0.4734609825931918,
          -0.8566777509711708,
          0.33415087944737915,
          0.4217210112381216,
          -1.0119717955042797,
          0.45483007113272306,
          0.8684158806303353,
          -0.5187240263092555,
          0.029670299899205884,
          -0.7410008228543397,
          -0.20742705888403387,
          -0.6503112153156516,
          -0.49360756459797556,
          0.5364618719669312,
          0.5678565193776604,
          0.6388279557444018,
          0.9730075934029556,
          0.4093807387361226,
          -0.9932823439258751,
          0.7452754948008337,
          -0.07287250849570207,
          -0.20566790732461784,
          0.7110123189481925,
          -0.5737355059925701,
          0.6281479454746428,
          0.13221830849434948,
          -0.12199481480061156,
          0.24939284303481046,
          -0.944872709849536,
          -0.7440526514976923,
          -0.763950257822218,
          0.024869974297501544,
          -0.5844601133830992,
          -0.9685663944329937,
          0.340003713294451,
          0.8265968763512264,
          0.80942498914754,
          0.0381696333932558,
          0.8886335168375062,
          0.8760581701862284,
          -0.5035038151858561,
          0.1687057522518925,
          -0.5662684047265701,
          -0.7124816055753957,
          -0.6457203586531436,
          0.8411309597023906,
          -0.8898871725159934,
          0.7781178802168294,
          0.5523391791977005,
          0.74748341646039,
          0.9157302924347988,
          0.4350667879212435,
          -0.0742701826430652,
          -0.2505435193098663,
          0.12613284999554245,
          0.8331581094045106,
          -0.35627427466501743,
          -0.5357520214588251,
          -0.08862506968611682,
          0.5765719325240746,
          0.9247622019339231,
          0.5446270861914748,
          0.3018498079520143,
          0.8947095582265828,
          -0.2182910837593544,
          -1.0097347234806893,
          -0.4113029213246207,
          -0.21888362506851572,
          0.5039304612922098,
          0.022666878472994156,
          0.8923979700748798,
          0.4742744370373603,
          0.9357219200566317,
          -0.8478221836350093,
          -0.45216236557238954,
          -0.05357758712822413,
          -0.15865583474897452,
          0.7307904649938776,
          0.8298069760769466,
          -0.4784564526071439,
          0.31738784976784185,
          0.10140538447099584,
          0.1047328798118156,
          -0.38266647177991425,
          -0.23827804437869843,
          -0.7621265669698853,
          -0.7314236046417808,
          0.01448624450025741,
          -0.050105915805319576,
          -0.1263549308985748,
          0.5896245700252273,
          0.5378664418208667,
          0.8806108768446402,
          0.3680202862996267,
          -0.9557461612539908,
          -0.007394073195139895,
          -0.6927091236472958,
          -0.8207507140789269,
          -0.72988532309496,
          0.4570722130986983,
          0.47169664063375016,
          -0.3740732479700426,
          0.37468862656727203,
          0.3814985274906759,
          -0.7739019380564232,
          0.40091377132202655,
          -0.7102212446396767,
          0.3155805744255083,
          -0.3602994446037889,
          0.07238506792790142,
          -0.3008040832873549,
          -0.5918947276367102,
          -0.22321547345527482,
          -0.6717177254202307,
          -0.4762785354433013,
          0.5879652375335992,
          -0.7737750637083564,
          0.6823424502019086,
          -0.15923983275223316,
          0.720458874114704,
          0.4447140863429456,
          -0.48499233026430194,
          -1.078521461084609,
          0.47616883646655556,
          0.7228417304865967,
          0.7766417259803456,
          -0.6584845288854881,
          -0.74385741701746,
          -0.23632267181182465,
          -0.6426495392048627,
          -0.08438529382263558,
          -0.3661741264434808,
          -0.9862407998435526,
          -0.04699325616711942,
          -0.7413925041868755,
          0.6795768747708326,
          0.017500102175695403,
          -0.9977468412012627,
          0.23169540219813162,
          -0.06473576647294867,
          0.8416252078072344,
          0.060883233509219196,
          -1.0552380121902598,
          -0.8995035037507924,
          0.8871102933763584,
          0.8376383714731487,
          -0.5914636290934957,
          0.6360776827228378,
          0.35128361346875087,
          0.27105269358898526,
          -0.8319006847073424,
          0.34804332218746514,
          -0.5699476911519884,
          -0.33197958244350195,
          0.0981834597734939,
          0.3826634122672327,
          -0.2955856001399494,
          -0.0022410539768663927,
          -0.31642895305878216,
          -0.7995189950033909,
          -0.33916655124759965,
          -0.7340029754435289,
          0.010390971831690429,
          0.23384684799916317,
          -0.10593805555712797,
          -0.552850155687073,
          -0.25854264483622436,
          -0.0492055614811793,
          0.25079348177974514,
          0.34662799933971616,
          0.5867245211151896,
          0.3358289791539882,
          -0.8684668691521026,
          -0.8487022886383986,
          0.7183247366003964,
          -0.8209096927592593,
          0.7066994073128955,
          -0.6673200358616599,
          -1.0534030461004769,
          -0.5802689333339766,
          -0.7463095925066905,
          -0.9675878401303659,
          -0.9627796638882227,
          0.4553187014572133,
          -0.414341967099812,
          -0.9874042206537604,
          -0.49686387529265236,
          -0.9778545725303665,
          0.16995398091024003,
          0.6589579541625538,
          -0.7304477508103524,
          -0.4596690594989796,
          -0.8382270335533997,
          -0.2884253624194912,
          0.7240040411538383,
          0.3066183911610398,
          0.8984435083497363,
          0.36775143985362874,
          -0.9203418650312266,
          0.8357562869890892,
          0.44414255468735847,
          1.0159237902875566,
          -0.45915215731542636,
          0.0801963468394755,
          0.07616713374234556,
          -0.7207990750040292,
          -0.7980115286989469,
          -0.237619406190921,
          -0.6026379574283967,
          0.39828408963418527,
          0.7177305340802214,
          0.49208664300881144,
          -0.9246782208350732,
          -0.7004539614192297,
          0.25333324660808654,
          -0.4686931970480209,
          0.5493825659749544,
          -0.26138788363113585,
          -0.44591038647487174,
          -0.10867964524263729,
          0.48225634578487636,
          -0.6599751207046989,
          -0.998879892417288,
          0.9055818323010251,
          0.7377480952387726,
          -0.8293374957167222,
          0.6876302932957631,
          0.12561978661910175,
          0.7267857667321937,
          0.0415655622281286,
          -0.08477825799116145,
          -0.9198159222269652,
          0.06653753417862701,
          0.14372147778462607,
          -0.3273292512118757,
          0.4061962004952253,
          0.7841091356330883,
          -0.42022186254927374,
          0.04787928013219959,
          0.2627723046717023,
          -0.5885769888936938,
          0.8307422632202845,
          0.9364917875873624,
          0.13857017091109103,
          0.9471651383578323,
          -0.24765189135351615,
          0.5673926070568516,
          -0.7350760787604936,
          -1.0286890929141028,
          0.9115709334219307,
          0.933658968332889,
          -0.28309783601144656,
          0.4616728205692458,
          -0.03635996760186814,
          0.29563577243038897,
          0.944085874092247,
          0.08755771878121832,
          -0.6600868301087411,
          -0.8875505424226383,
          0.16161374036038448,
          -0.7180248941739155,
          0.6869315775315213,
          -0.23813882343860301,
          -0.38585237590264865,
          0.5624984500269631,
          -0.973965296947737,
          0.17381395676286615,
          -0.21806380188448587,
          -0.3747487046772903,
          0.12742558747948987,
          -0.7460636466691314,
          -0.42286570398767553,
          -0.746105326470892,
          0.8656022849973747,
          0.463498954246283,
          0.6560095825641068,
          0.780545983388769,
          0.40117777154490086,
          -0.9614234919712263,
          -0.5534887728927745,
          -0.5951857278952108,
          -0.2005007840750493,
          -0.558292222835937,
          -0.2835322958977214,
          -0.7869393902615812,
          0.6970341975179395,
          -0.9289643378497638,
          -0.31773213728882715,
          -0.7552153018688528,
          0.8712925360754238,
          -0.8271366347543228,
          -0.8042409917299864,
          -0.5158145904743101,
          -0.9737041580497439,
          0.42706431089653185,
          0.13053544699436165,
          0.24776463357409412,
          0.6881694597738359,
          0.20770783175763177,
          -0.352476857132805,
          0.8980962017153838,
          -0.6745119785720327,
          0.8814991232314183,
          -0.7559356893206173,
          -0.4389706414864406,
          0.6769609124918263,
          0.31816566870651236,
          0.19599652411162646,
          -0.02678523352035439,
          -0.23616718380919297,
          -0.03165417983528601,
          0.5612671744477352,
          -0.36696484416060854,
          -0.5155423083503847,
          0.9635696330486696,
          -0.26588633600581957,
          0.0778425876188062,
          0.4167117002859874,
          -0.11449539245352122,
          0.4796596648170763,
          -0.06771634568250069,
          0.4376947041178153,
          -0.023908720912096632,
          -0.8255902901973985,
          -0.4249196517130288,
          0.8246131549646687,
          0.7148497112751324,
          -0.9283837818934835,
          0.20304598073535765,
          0.05219696229926857,
          0.36763634847022547,
          -0.8262333208794567,
          0.4728252349662157,
          -0.7123640971751514,
          0.4906980079622647,
          -1.025783370881632,
          -0.05458688243956604,
          0.5683866758528192,
          0.6262826898060737,
          0.9774324196338694,
          -0.288640534190122,
          0.9525071734030093,
          0.5175765649283959,
          0.10959757088159769,
          -0.6157123425254296,
          -0.24877456975383969,
          -0.9854036362585308,
          -0.7297717298271753,
          -0.06690116825240136,
          -0.6162491875985934,
          -0.9019984788344326,
          0.4346404042051458,
          0.7550342823932147,
          -0.4959303121942997,
          -0.4689119584270075,
          0.65086232898406,
          0.8937242950644277,
          -0.09474188946044104,
          -0.7039083777115034,
          -0.8719905519612086,
          -0.524959829516494,
          -0.3734051643272728,
          -0.5725930982115179,
          -0.9483936122734328,
          0.05597793613980341,
          0.8035083851930478,
          0.7716073622255393,
          -0.027819345434489034,
          -0.5888604208742393,
          0.2701524143434791,
          -0.08238638538260715,
          -1.0143423734912098,
          -0.4873648830975211,
          0.7078274534869423,
          -0.6598334330959412,
          0.7564944821045201,
          -0.29489903594391625,
          0.33011973605221623,
          0.756802429233459,
          0.7051415913845533,
          0.1455248797508469,
          -0.5299591567981249,
          0.5228914029365054,
          0.010559684525342863,
          -0.9509458811845746,
          -0.4296710221190816,
          -0.17730113058136462,
          -0.020487741819209735,
          -0.4924957669478978,
          0.06979522503097511,
          -0.8459617637739913,
          -0.3581756225140974,
          0.14031815425562344,
          -0.592153409570897,
          0.8062204411649622,
          0.3261073509530621,
          -0.5812359878323783,
          -0.8409964069796312,
          -0.3734924585875067,
          -0.765158777887048,
          0.9472878662521919,
          -0.6293260186977462,
          0.657942195982773,
          0.3075421133590875,
          0.3583793800331272,
          0.04715665160787171,
          0.6489628774634971,
          -0.6825960135415838,
          0.5415775134745262,
          -0.2650861780472,
          0.6977484554218445,
          -0.8125167664039961,
          -0.48867973478407456,
          0.20528813369880233,
          0.2047950785456773,
          -0.4749520854415797,
          0.2990223543894532,
          -0.36321552978937544,
          -0.4137463192826348,
          -0.9151677408028848,
          -0.30901567854591383,
          0.3971571663823696,
          0.10499311495465365,
          -0.0275397669914315,
          -0.1363305410851275,
          0.8347786925786652,
          -1.0282151016386054,
          -0.7793606543380528,
          0.6969267210782949,
          -0.5486286553792121,
          -0.5593769477449164,
          -0.002292150636783103,
          0.3776103027093667,
          0.9309543650073322,
          0.6180882301900482,
          -0.9331985550508592,
          0.07622344345523031,
          0.5942669117541436,
          0.1613916789690376,
          -0.6340031717181557,
          -0.9732874073146194,
          0.8137529039426655,
          0.6674149679816058,
          0.6404473200534238,
          -0.6755029641181007,
          0.3425694121925676,
          -0.7994627875479485,
          -0.0630901788338931,
          -0.7400186842325727,
          0.3093943282991893,
          0.8195998659230316,
          0.9126381202356462,
          0.5223304915289724,
          0.0200989502927617,
          -0.17098793857304018,
          0.2257539380673485,
          -0.3833410381606168,
          0.19823670825367606,
          0.9750816386008551,
          -0.256400931138408,
          0.8580432097400195,
          0.05964528582203508,
          -0.8525519252643051,
          0.6617266616498897,
          -0.014742120845378322,
          -0.4980159249320679,
          -0.02703230961214574,
          0.07403912905079586,
          0.24338665686749283,
          -0.4370095067554618,
          -0.18867303340783761,
          -0.8758243814084506,
          0.3267226850832402,
          -0.9922780764118765,
          0.5460891000790765,
          0.6084102371448481,
          -0.15273189544718782,
          0.5082339946352961,
          0.25942116429426265,
          -0.40962158589705716,
          -0.5778232964649733,
          -1.0016047794122036,
          0.37131036570112286,
          0.9498046413058663,
          -0.5354006533732812,
          -0.9724547253558864,
          -0.44795809022226607,
          0.4894665334254622,
          0.879550800777406,
          -0.8035343289124923,
          0.8515336150751375,
          -0.46451557440460184,
          0.7214026087836023,
          -0.08191739764765246,
          -0.8423204042164529,
          -0.5529093483790637,
          0.7936386212045698,
          0.914158002734935,
          -0.22619725205143343,
          -0.7586562661201564,
          0.636762168555865,
          -0.9832278080677271,
          -0.6271623533523562,
          -0.47100695670182785,
          0.8090179506095156,
          0.2111657610148818,
          0.8990502183026293,
          0.2065670291335427,
          -0.37767433890818963,
          -1.0356848568561576,
          0.7676625364312951,
          0.43422566348261754,
          -0.6357915464256905,
          -0.7934137054742245,
          -0.29737978009383575,
          -0.12866955355772078,
          -0.5068231183032821,
          -0.8851091989815789,
          -0.3037941174039454,
          0.28741206216957454,
          0.9947865466607442,
          0.21108256426293234,
          -0.20871351879550706,
          0.4407950076021002,
          -0.5340845171457472,
          -0.9287046964502513,
          0.05105937447609202,
          -0.25880862402583654,
          -0.04829453037349785,
          -0.45752911410623526,
          -0.06258759479148084,
          -0.10176958109096226,
          0.2954575970070715,
          0.20286476086474,
          -0.43698297140197623,
          0.8053628167883248,
          -0.41336170405599326,
          -0.8179561253623217,
          -0.5805091548014135,
          -0.7263331072028041,
          -0.4841101614085306,
          -0.45538616714675817,
          -0.9113010005350533,
          -0.6809643208812173,
          -0.05992224676759149,
          -0.3949506286500642,
          -0.5632412720769648,
          0.008315935864982686,
          -0.33382549410855844,
          0.0871150340505038,
          -0.3626157699448076,
          0.07381916672228711,
          -0.8622781140016148,
          -0.042753961806560735,
          -0.705795098932744,
          -0.008093088887383046,
          -0.6580811867701643,
          -0.0703450817343775,
          -0.8746497990885527,
          0.1798151955118048,
          0.7000597983181729,
          0.5496518480445224,
          0.4896245026684308,
          -0.6476659636502686,
          0.15029733135335008,
          0.2682564968040639,
          -0.5925401041620774,
          0.6198024719589488,
          0.11363141520323566,
          0.04587662835743268,
          -0.24774019858851845,
          0.8354595842903718,
          0.6903048565984584,
          0.9201309027810686,
          -0.10968639060565297,
          -0.19291632939572328,
          0.3748357594814906,
          -0.8259312185244635,
          -0.4065703527963189,
          0.12983135296042878,
          0.7539148490878039,
          0.90180728769248,
          -0.18487415453646627,
          0.8841396422108825,
          0.17852040947063189,
          0.6139773806411004,
          -0.39416384000726173,
          -0.629704207971242,
          0.20631372583679505,
          -0.49319218282715516,
          -0.49899787954041536,
          0.32980340078012693,
          0.2242513849144735,
          -0.6610945500900162,
          0.6040379872479371,
          0.5916830567345422,
          0.10898132894359289,
          0.630841267702858,
          0.832736995380554,
          0.8983799617130603,
          0.5553440748588894,
          0.6230922564856032,
          -0.6924652740892002,
          -0.8696331134059978,
          -0.30621030118599446,
          -0.45248500376290446,
          -0.8118257474602631,
          0.4766061190112876,
          0.6919618062164339,
          -0.31102765024107726,
          0.009783473199735137,
          0.7916643397570098,
          -0.38972234190829225,
          -0.6738036183282216,
          0.35799728179166024,
          -0.07243881774948278,
          0.03320970749249576,
          -0.17407679698621706,
          -0.5441707969625545,
          -0.9183526137691023,
          -0.7473828008778516,
          0.9295315877077435,
          -0.2992856658627654,
          0.7586128155510012,
          -0.2218603280366478,
          -0.11363795254561389,
          0.8406628177497213,
          0.9786154547166882,
          0.5296726871041033,
          0.5949105476209059,
          -0.26193093977094173,
          0.6434707724872417,
          -0.9134408837118004,
          0.2944866864355129,
          -0.5903009458472743,
          -0.17695607454005058,
          0.373265015791729,
          -0.8941987659436341,
          0.5437330433325562,
          0.03435479625178489,
          0.10250724141284898,
          0.7966011565667563,
          0.18772519741490315,
          0.8492888879756644,
          0.04551595839942863,
          -0.21662303521012866,
          -0.4761648253007702,
          -0.283724613983453,
          0.15235070810092832,
          -0.5039650349332596,
          0.5666075557823537,
          -0.07671238400980075,
          0.6789544843399039,
          -0.18860505664434363,
          -0.35098589154958554,
          -0.7567341582157263,
          0.5441979256681161,
          0.34721918447352706,
          -0.9348264275822266,
          0.8825667649648425,
          0.8908263531897407,
          -0.7564499494799812,
          0.20396645771590793,
          -0.6424520421153748,
          0.6670495548779021,
          -0.03654682370368261,
          -0.7528933739471373,
          -0.7327599180067722,
          -0.4021115886679534,
          0.33012859803007344,
          -0.32904844021433244,
          -0.6341093882820416,
          0.8590268059012831,
          -0.4031464695157323,
          0.44926791945395367,
          0.7139707988089802,
          0.508388954196954,
          -0.8201948468458199,
          -0.6802671454240746,
          0.43957582192380584,
          0.6706439637626873,
          0.08061570930173582,
          0.45720328538889543,
          0.7969630044626761,
          -0.3456789001048256,
          0.16375937062980706,
          -0.7241668678804466,
          0.732789170911452,
          0.5782031507118706
        ],
        [
          -0.06695275877222584,
          -0.914141146660993,
          0.7978606712944518,
          -0.4430503290143908,
          -0.6677058699096424,
          0.7220397684720574,
          -0.04623944152199544,
          -0.08176381801626453,
          0.32328674733621465,
          0.8598240311345267,
          0.47173807616867136,
          0.4317152410041547,
          -0.7398438724079044,
          0.24739646586447697,
          -0.5509804279811522,
          -0.6971671484336432,
          0.22817028125942884,
          0.5265483809595206,
          0.8407896311309846,
          0.6618502648015374,
          0.7620315675700158,
          -0.9379813407591641,
          0.24343262655517828,
          0.5730026206513028,
          0.4836618459483364,
          -0.8014203748195474,
          -0.8864785154778609,
          0.4080667577935453,
          0.3375618147694124,
          0.6571275754793444,
          0.019453888299401534,
          0.9389591792996115,
          0.009597509099727595,
          0.4138949714968288,
          0.7518121023527187,
          0.27331722258402513,
          0.38610580754457646,
          -0.6344197020283477,
          -0.25136593181563144,
          0.8354288011218042,
          -0.3825914154288977,
          0.7878905939944445,
          0.5796991944922236,
          -0.724828897370011,
          0.8598643540082918,
          0.3689805329630819,
          0.15010053845287397,
          0.7862815456063388,
          0.7817708147906699,
          0.11893845429427738,
          -0.03514247469534488,
          -0.20968654765667147,
          -0.6168088199079255,
          -0.13426872175473592,
          -0.9390377601085762,
          0.5130690659199086,
          0.40470187897864385,
          -0.31677227032504174,
          -0.7388904451356101,
          0.8036060826990987,
          0.880981267487458,
          -0.04897333113797824,
          -0.8019094661332642,
          0.43550003553507566,
          -0.7092433574965433,
          0.04169813703500029,
          -0.47351918800963544,
          -0.5335635225995811,
          -0.7104315744211481,
          -0.3705831490238465,
          -0.8382560356880923,
          0.3064345698592292,
          -0.4011405167792355,
          0.9553733450799926,
          -0.16905039938747776,
          -0.06097989858960876,
          -0.8380756382617065,
          -0.3973408237527548,
          -0.12260337280349835,
          0.566367722074158,
          0.41795041977631664,
          0.8989317710415652,
          -0.3669737610830611,
          -0.4166037424200244,
          0.19465294116091614,
          0.4002894547567979,
          0.851663835616621,
          -0.21009029227657822,
          0.5076975320968524,
          0.6590036673034713,
          0.9420412514912156,
          0.49846632632874915,
          0.9672368553411651,
          -0.09390583387235123,
          -0.6882539913764746,
          -0.8396830306815053,
          -0.16826526590349708,
          -0.27368542417198816,
          0.4333088273149151,
          0.6961012847475038,
          -0.09862696738810489,
          0.7749919582181145,
          0.46392605555156696,
          0.4550054986591994,
          -0.24324111785079325,
          0.058423825876726385,
          0.9278251417976319,
          -0.4099259508581296,
          0.2482920787779463,
          -0.0876152825670053,
          0.2700195281394718,
          0.724880661786877,
          -0.1616993660594479,
          0.0017934063333797422,
          -0.7513860131210015,
          0.5640343055493033,
          0.731518313352169,
          -0.5687848883622855,
          -0.48414067972198666,
          -0.659882373432555,
          0.8469525565572972,
          0.22196001768858248,
          -0.09037484081276953,
          -0.5272419556019408,
          0.35571091205429467,
          0.7553334068703119,
          0.04666439758664345,
          0.3582680759697222,
          0.23456277271475012,
          0.41497747388971634,
          -0.22546876371336533,
          -0.33846055893511445,
          -0.03259376205723866,
          -0.3124885711284824,
          0.7604518655170246,
          0.05443815957712972,
          -0.5603026147790365,
          -0.1546447383017851,
          -0.41689078750777425,
          0.7385797559677958,
          0.7886726860144777,
          -0.9800882217299738,
          0.7981437995447193,
          0.6951041235729749,
          0.4956440619666301,
          0.41845499996014346,
          0.8362305356332309,
          0.8991399400390049,
          0.40408971745100986,
          -0.8530583532605349,
          0.3735754739195422,
          0.8592651622977429,
          -0.19674694209260718,
          -0.29593768899319955,
          -0.6729207702440665,
          -0.8142335856209351,
          0.3762008596634076,
          -0.8547022108494422,
          -0.02665600590877262,
          0.9170853790058777,
          0.1350612790907827,
          0.9297835145103914,
          0.18527937347464815,
          -0.30787359209094073,
          -0.4345973312608782,
          0.9075660397673457,
          -0.9105641240930091,
          0.8567402933483016,
          0.44811349991715677,
          -0.8203639073250739,
          0.6881782397477691,
          0.9473167768978946,
          -0.9601407763226599,
          -0.461354888984385,
          -0.15263129089193045,
          0.09919456139388938,
          0.8060587992125137,
          0.1833856590671181,
          0.9003625342559809,
          0.9156442423426239,
          0.22560229762894368,
          -0.37522101404307273,
          0.929983053985789,
          -0.10778142112987546,
          -0.3590061142029257,
          0.853670665594364,
          0.7720688473443782,
          0.28045930220150067,
          0.13289049995563262,
          -0.8608056965896237,
          -0.2461790734252705,
          0.9253135920373209,
          -0.10161125187867534,
          -0.7431399519279615,
          0.6474876300538942,
          0.8009946452445681,
          0.6884943369532315,
          0.8558189980580211,
          -0.13464231717028055,
          0.5009332063759446,
          0.27278715491600924,
          -0.9351901739972807,
          -0.28782646953986973,
          -0.08355678632557413,
          0.0008986601301551369,
          -0.6382736626959765,
          0.4959993307066072,
          0.7557138985474792,
          -0.8829660981571008,
          0.3801084319013242,
          -0.7020871161159691,
          0.10656395202361678,
          0.6142027010309642,
          -0.9524210781274782,
          0.9805669216631389,
          0.004313807677765106,
          0.731097813166023,
          0.7656297021513199,
          0.38711541103635094,
          0.07223999052681557,
          -0.31862721885909884,
          -0.5231703721793681,
          -0.674090048657056,
          -0.46452152157656623,
          0.14996127935163556,
          -0.42214468491060725,
          -0.8202030398162387,
          -0.6928610260100047,
          -0.3469808093105416,
          0.6752653635637595,
          0.21667594805725202,
          0.2715833674884675,
          -0.6149403935803509,
          0.4442139438793411,
          1.0248669805724595,
          -0.3317070198289554,
          -0.4879384350526139,
          0.8155668558612927,
          -0.07305981208981259,
          -0.7611139011843012,
          -0.2899528868172329,
          0.507201106148578,
          -1.0129383157783205,
          -0.8879963727722497,
          0.38754794132181675,
          -0.014020290568274231,
          0.3115979742434583,
          0.12542660005556236,
          -0.7228277364784236,
          0.7082875620188778,
          0.22438310850265786,
          0.6863744700348064,
          0.8021055091001459,
          -0.28064117204279865,
          0.08879686541949941,
          -0.6051426199405147,
          -0.9070207935174671,
          0.5211524113753772,
          -0.4641771105142356,
          0.615779479145926,
          0.8577623353305953,
          0.5989703713248592,
          0.1384106235293604,
          0.11547804298158935,
          -0.9355985370226918,
          -0.29622768033441305,
          0.46153697414336964,
          -0.25047463796243014,
          0.160942051102851,
          0.27472326159529215,
          0.6094690540180279,
          -0.7658757665087622,
          -0.500669007415034,
          -0.2202897266921211,
          -0.21205138510204713,
          -0.10414131893305284,
          0.07478390916583116,
          -0.3890538770795562,
          -0.19245440132154648,
          0.8932092030103829,
          -0.1530184018748022,
          0.4912005888259763,
          -0.19473420131260727,
          0.8033375331754601,
          0.5924429015573506,
          0.10527656778681438,
          -0.6154302269956233,
          -0.7942849110973792,
          -0.3994622562961025,
          -0.02063097247333022,
          1.0691174732958448,
          0.726180144270543,
          -0.09840270683732241,
          0.6523367384029911,
          0.8799360871217042,
          -0.6745504087478328,
          -0.6700364374918665,
          0.48076896679470515,
          -1.0791552716446,
          -1.055997248583019,
          0.8220159147745677,
          0.03214332478254688,
          0.2308192116321709,
          0.14538835788003823,
          0.08565994441288792,
          -0.8436438801076598,
          -0.04080225887788062,
          0.15760220226812272,
          -0.6251577351663365,
          0.7272251178443625,
          -0.4888726671883314,
          -0.6769139590463581,
          0.10064851717834533,
          1.0450632319139184,
          0.856607658451033,
          -0.6659478851089984,
          0.06417150400532078,
          -0.8852590656870604,
          0.08393094621731777,
          0.5031045728052805,
          -0.172346982673391,
          0.12232034209697693,
          -0.9693105569280402,
          0.4594151864392213,
          -0.13418286527201576,
          0.2587467302553554,
          0.9062754813035034,
          -0.8903988903503646,
          -0.9177779032678676,
          -0.739034247695603,
          0.2472975430306824,
          -0.4722810256602211,
          -0.7812101337172274,
          0.9455771654978897,
          -0.5386233893119319,
          -0.6525135811112638,
          0.09134145394624182,
          -0.22081644403870626,
          -0.846529784502981,
          0.24523902685163085,
          -0.3630268172035887,
          -0.6318271936283227,
          0.6785116714780897,
          0.679730254882917,
          0.31642607374657006,
          -0.721811378449982,
          -0.6627362433856648,
          0.6683196040044388,
          -0.49292927335564,
          -0.588301956608302,
          0.21155521867951893,
          0.1387547616924205,
          -0.8823165967176421,
          0.5648146830982371,
          0.7977727319403287,
          0.13532442146460674,
          0.8534131374858183,
          -0.46610369651055233,
          0.7821539237831265,
          -0.7248031467887458,
          0.7156638756683497,
          -0.6577943143652981,
          0.9189863031930423,
          -0.5911549346574185,
          0.9574524274686751,
          0.45635626828646575,
          -0.30167252692115054,
          -0.6955257271684958,
          -0.7906797686738678,
          0.28594612091391786,
          -0.8999457171070434,
          1.0587932833872744,
          -0.7079662415146522,
          -0.7348695294045893,
          0.7541272111105005,
          -0.39063776691358776,
          0.10705364301310907,
          -0.4694314584462915,
          -0.2919480821919294,
          -0.2113680759135078,
          0.6626400274680783,
          -0.1418361402836363,
          -0.04311930051481667,
          -0.1170292418454368,
          0.24521029807960018,
          0.8409375967894701,
          -0.2520430128007951,
          0.6151455836186729,
          0.0006382305190200179,
          -0.4325144174495575,
          -0.0239739613611424,
          0.8499505512627861,
          -0.1803745986436723,
          0.8368103330497361,
          0.7097069730955207,
          -0.15745345135331013,
          0.048610814482615616,
          -0.7282532765290004,
          -0.9027301025651147,
          -0.015855921276871927,
          1.059283054103478,
          0.1241811449394022,
          -0.56305947286985,
          -0.24947250959009365,
          -0.7954251325266665,
          -0.7296813963454951,
          0.298417912233129,
          -0.27211267872929884,
          0.7333194285385928,
          -0.946797529340775,
          -0.5784953680622066,
          0.21133973090581742,
          0.4609993152120885,
          0.6613989502475036,
          0.1033352765140786,
          -0.36273700825998273,
          -0.9836087500423091,
          -0.9103512163715302,
          -0.3666956022524183,
          0.9622069917174083,
          0.11997742595538288,
          0.538661123473013,
          0.6984096216363009,
          -0.576064095605279,
          -0.30153422137034736,
          -0.5259670014114881,
          0.4413901570535566,
          0.4222099895245496,
          0.20263896340873466,
          -0.7080464804441117,
          0.9148461125728129,
          0.12424845032990205,
          -0.8416409690019602,
          -0.6219269553184023,
          -0.7943240192755858,
          -0.9616959942435601,
          0.6565308787390776,
          -0.10385932178554728,
          0.5172293029127238,
          -0.5638273039608247,
          -0.010575470351446311,
          0.8831935455343485,
          -0.41309128347360735,
          -0.7844696496473467,
          0.4023813388673086,
          -0.14269093923790335,
          -0.6460094021458377,
          0.750223060584147,
          0.8427186675550506,
          -0.06980057799286965,
          -0.6111841588083253,
          -0.6264293975654425,
          0.3592880530679129,
          -0.23210980829708813,
          -0.4315382111812377,
          1.010294919382338,
          0.6568315007637424,
          0.5614200871040379,
          -0.08573115759921855,
          0.9095983389667325,
          0.6014251193574387,
          0.2935868853757465,
          -0.30441418358598277,
          -0.16018505357742419,
          0.8454494834187237,
          -0.32605462428453136,
          0.611249811977217,
          0.21302278234284883,
          -0.023830098485902517,
          -0.14690397516365133,
          -0.19542709731511163,
          -0.7079292955295434,
          -0.7655062758248606,
          -0.7860438565182661,
          -0.7858319349000117,
          0.7910605624607985,
          -0.043253393917881744,
          -0.4112607271278515,
          0.07743752756472366,
          -0.5674105177606081,
          -0.011519097176502615,
          -0.39527800977718686,
          0.5872381450123593,
          0.715688607799792,
          -0.5658115112635713,
          0.5617316397235151,
          -0.43879290681341926,
          0.07776764038621585,
          -0.5728492891262448,
          0.5694488506960392,
          -0.9940883328593166,
          -0.89314424759947,
          -0.4944678205524509,
          -0.3692972976106622,
          0.653991632969845,
          0.1432864788415673,
          0.7684896464057578,
          0.8386360928819984,
          -0.3799801278188688,
          0.18575113716464645,
          -0.22110098660815905,
          -0.7165943654036881,
          -0.4114621961434383,
          -0.0116455374668917,
          0.6709676092055163,
          -0.7972848744592289,
          -0.366176182255188,
          -0.5431454780629036,
          0.3248415564471683,
          -0.2575927667926192,
          -1.0125118090539815,
          -0.3363232828483531,
          -7.673819714413675e-05,
          -0.5384559733805742,
          0.04334851449010846,
          -0.7810547641720667,
          -0.37537659285972996,
          0.672958077517459,
          0.5914866261943134,
          -0.30622236807074626,
          0.8741531959956245,
          0.6637531645231678,
          0.8253405119432695,
          0.8314221580145489,
          -0.3244779731294074,
          -0.5192850323407657,
          0.41310930170971877,
          0.5531603480734805,
          -0.11928011677332138,
          -0.4028155106843556,
          0.9944351102816427,
          -0.9845064919944888,
          0.8609960217927572,
          -0.977655734507962,
          0.692636743338787,
          -0.2460560617580666,
          0.05149939201149945,
          0.5562607805541164,
          -0.7998080772332481,
          -0.23367956032550005,
          0.7544009940275387,
          0.3395811388219046,
          0.3199043709295217,
          0.5099065920887373,
          0.25656892687115535,
          0.7615947019443482,
          -0.5341505251695733,
          -0.555179440931713,
          0.5389067783720076,
          -0.7003451371374981,
          -0.8928051760874943,
          0.5641393133668235,
          -0.3648187031367837,
          0.2151155908757374,
          -0.5397796363734962,
          -0.11400018847087016,
          -0.8736288889059503,
          0.29192144260542907,
          0.2578586442565667,
          -0.634024376704871,
          -0.04150958904850166,
          0.7279184257203201,
          -0.5778488648068312,
          -0.3840609220888295,
          0.12150278207560952,
          0.6519574819666721,
          -0.9876323483044543,
          -0.4370691881603602,
          -0.39886207327946965,
          -0.7237181934158943,
          0.9564665429342116,
          -0.6397843416106189,
          -0.9144932757221387,
          -0.812865554839781,
          0.030946000677396394,
          -0.1095166685301631,
          -0.020864604793903042,
          0.0878815125383696,
          0.6704429540296922,
          -0.9174844749268949,
          -0.6958666270349178,
          0.2174649643249455,
          -0.3358457678977095,
          0.838275942856832,
          -0.44942303911602527,
          0.4394428811819389,
          0.2325267237905817,
          -0.9124663712945639,
          0.7443743335422839,
          0.7635483838755579,
          -0.08347306565071566,
          -0.848691856202533,
          -0.31025547160559275,
          0.5484672027606592,
          -0.20669968795388766,
          0.8892892662428988,
          0.6921139608479404,
          -0.34540017238343285,
          -0.5896814219089355,
          -0.24733461547748442,
          -0.7162026204928583,
          -0.04141435507095115,
          -0.6946465258969597,
          -0.20606098897798666,
          -0.40135430246791476,
          0.36396817362892275,
          -0.6393793220255503,
          0.7907494930688037,
          -0.9308701309262055,
          0.4130726152037822,
          -0.16956972384994326,
          -0.22761879174222394,
          0.0611543248898034,
          0.03738493238847538,
          0.24485050793462454,
          0.37354432847931623,
          0.7782639553399178,
          0.3050938608281498,
          0.3105827820699822,
          0.36529611403219386,
          0.7209165443488362,
          0.5581118531348376,
          0.6059839355911658,
          0.7081754985014619,
          -0.12286036379636345,
          -0.21130339925754715,
          0.950400933745262,
          -0.1015043404721397,
          1.0247564818382247,
          0.6793742422610022,
          -0.1843815458783103,
          -0.4824004855413828,
          0.8333114875206586,
          -0.8616232690663445,
          -0.7319163428074149,
          0.8454766183503459,
          0.6523674396041118,
          -0.7084743124606478,
          -0.2868786085564182,
          -0.18579305566225623,
          -0.8613125206072423,
          0.5945663293156598,
          -0.633840015319854,
          0.5864404365550618,
          0.8619780983987768,
          0.15292981325099175,
          0.7945591307852531,
          -0.7384394304209607,
          -0.7352060802090618,
          -0.19223201985739857,
          0.4690787854983826,
          -0.07909232574334747,
          0.8401288050459041,
          -0.7356748120543485,
          1.0252916245493584,
          -0.8189266810846733,
          0.49023483551334196,
          -0.8988115763403743,
          -0.6242228071290102,
          0.7217972515908742,
          -1.02206201746396,
          0.815869673777988,
          -0.24383461328457226,
          0.4357109686399641,
          0.4446279352645729,
          0.5383469429132585,
          0.29047186364727867,
          -0.5729538339281737,
          0.5635551815756689,
          0.30202411852542516,
          0.33985892614709456,
          0.27395150318564054,
          0.591303559154845,
          -0.8433997588497003,
          -0.8560662925157695,
          0.08653175028220435,
          -0.6661813703725781,
          -0.7494404604155354,
          -0.5651845694085372,
          -0.80863417555475,
          -0.5281654562866637,
          -0.020180705506733138,
          0.5419323922920269,
          0.604072226060403,
          0.7922180055575931,
          0.04685694809378457,
          0.7257257626801957,
          -0.43984941632283314,
          0.8373676740402192,
          -0.2341898040952417,
          -0.447802142783429,
          0.8338052939214943,
          0.42173863665341665,
          -0.5196413050133348,
          0.003916245707946052,
          -0.44002478889541724,
          -0.6921228310775381,
          0.981059531423291,
          0.8974595924323339,
          -0.2672591762998927,
          -0.13736032609330706,
          0.13885837672301538,
          -0.3585106050930477,
          0.1208801975276178,
          -0.9815655900771773,
          0.6838540682630521,
          -0.7629370816905731,
          -0.8416727260256058,
          -0.19070926651681536,
          0.47808736213172537,
          0.8617703563081404,
          -0.38804463701595404,
          0.13203603993901458,
          0.3891932551614372,
          -0.5782907529513953,
          -0.8256926856591085,
          -0.3628124575519678,
          -0.1914984009074664,
          0.11666851795174109,
          -0.6458660563446472,
          0.306176961470815,
          0.6520937624033278,
          -0.4141401219713088,
          -0.6271247821916501,
          0.4929336403371768,
          0.2513179050625924,
          0.8408020805362053,
          -0.988528955900656,
          0.019381467386136553,
          -0.4641795799548174,
          -0.8052453827581152,
          -0.3780284485919405,
          -0.4495849475129812,
          0.9144844682104767,
          0.655169332004961,
          -0.5556107584376959,
          0.3625212354320294,
          -0.6335909516844414,
          0.11373208326988409,
          0.20119237959537498,
          -0.22739595167344126,
          0.8962345593339381,
          0.19396411038821473,
          -0.11490322598411927,
          -0.6899665056100603,
          -0.8460686882875195,
          0.23769985357881313,
          -0.7026287420984552,
          -0.43893984240445105,
          0.7272127275274173,
          -0.7016340035871956,
          0.5863343723696701,
          0.04979792179127594,
          -0.5209414690055896,
          -0.1814249225162352,
          -0.5417023249453409,
          0.23399646331263124,
          0.928851033573358,
          -0.3714904060288956,
          0.8226910609476346,
          0.4251887613821074,
          0.22445357052016626,
          -0.32353840238083376,
          0.37988682472293905,
          0.9083926074880468,
          -0.7385064943788562,
          0.7866735151191461,
          0.6594417234126599,
          -0.8458083273741464,
          0.9530368520683188,
          -0.2850039025638102,
          -0.024236963283428527,
          0.8583957026271931,
          0.07269488015963235,
          -0.8077857230176666,
          -0.6151470469905111,
          0.33652554547640406,
          0.9044580587401596,
          0.464972407877228,
          -0.43126123818503953,
          -0.02393743813011473,
          -0.8343890856731234,
          -0.9011574954662799,
          -0.6701043999271493
        ],
        [
          0.6310123914695718,
          0.6967785531041841,
          0.01152730359667209,
          0.21820633469626172,
          -0.2911138019091286,
          0.4905519468610391,
          -0.7069992917641508,
          -0.9837650683281138,
          0.4451175236379119,
          0.5238396281438398,
          0.7060809182483048,
          0.05055305855072478,
          -0.31020665115589996,
          0.1864035276371417,
          0.15418485345114052,
          -0.9145429618997446,
          -0.14855957301701894,
          -0.4969356118578697,
          0.11890374642028645,
          -0.001324237637857495,
          -0.27298939881152073,
          0.35853585346219186,
          0.28173570095319045,
          -0.5596469523255653,
          -0.4265162508534307,
          0.4887977688120322,
          0.8493294568265217,
          -0.23187866764787313,
          0.666207624822361,
          -0.31783377953974035,
          -0.5650822656310024,
          0.3559733338612461,
          -0.1484273050641783,
          -0.14558917563583304,
          -0.1768396808889675,
          -0.2997346726658077,
          -0.48632486262490526,
          0.0052398268075208344,
          0.1533898870437689,
          0.8017341379989591,
          -0.32471405440137824,
          0.7557098924519406,
          0.3251695591428312,
          -0.5072530156833494,
          -0.7126847430611536,
          0.8042523135469773,
          -0.10371738560243927,
          0.5457559373977645,
          -0.911375642424646,
          -0.5748537882224007,
          -0.5247079956646983,
          -0.40973122216200475,
          -0.6937076231245476,
          -0.5649984571710636,
          0.3400128829680804,
          0.6103371223321374,
          -0.16998058075483158,
          0.6892355480971055,
          -0.2482542444579107,
          0.8663657182454805,
          0.0173051188708216,
          -0.5324494082816226,
          -0.7492642699317911,
          0.02183955744455971,
          0.8164770730867603,
          0.7490433915742313,
          -0.07362296022660449,
          0.23292462745941417,
          0.38521166448309285,
          -0.7197589947686859,
          -0.9119796548083825,
          -0.3201236168403527,
          0.883403225396897,
          -0.019383484580355503,
          -0.45735567061223736,
          -0.2619244407411765,
          -0.29704419818125505,
          -0.5975347164514974,
          0.9636702234848339,
          -0.7913533112548983,
          -0.18640018816090673,
          0.533699642726934,
          -0.039240820423226075,
          -0.8377574026145498,
          -0.29167491311968463,
          0.8523753211845437,
          -0.34985151526381353,
          -0.15512578518189785,
          -0.9452919363015994,
          0.05244618092097156,
          -0.21039434051211506,
          -0.7458365288124225,
          -0.3634117700974332,
          0.24894298282039337,
          0.8255521621931924,
          0.34319361204198673,
          1.0587694957079317,
          0.701568638208133,
          -0.5788628316237634,
          -0.6177038795722073,
          0.7459772082756201,
          0.8549656031476421,
          0.43031869487468277,
          -0.07814797140151843,
          0.6529627177092479,
          -0.7093051429245314,
          0.18271209921982257,
          -0.3975153558147478,
          -0.9179349331632225,
          0.23076386455038161,
          0.6852136020568868,
          -0.3292687381018832,
          -0.5740914469373264,
          -0.6961430350826479,
          -0.6580658369163307,
          -0.469407637624816,
          0.25050651884879366,
          0.6596918750742428,
          -0.8322165224882372,
          0.25467715426959775,
          0.42922452944851097,
          -0.8040111631411575,
          0.39741433957055233,
          -0.05672663779656038,
          0.6226431320356405,
          -0.9406979869172452,
          0.43635782458411204,
          -0.09931387390669018,
          -0.661406286217947,
          -0.2993126903343685,
          -0.7760910866384415,
          0.12497922151173378,
          -0.2572851660741466,
          0.9420244507779598,
          0.1898872546764978,
          0.10877839086412405,
          0.7022838806559275,
          -0.40391234559896066,
          -0.2622759086771432,
          0.23718374631517006,
          0.4933783170977748,
          -0.07938572575345682,
          0.6618966254431605,
          -0.9246375371872388,
          0.5400937167544139,
          -0.4571746352889722,
          0.13000420963049658,
          0.6421436976857341,
          0.9475929180454584,
          0.8789270507122465,
          0.16624248386048207,
          -0.36775284438489386,
          0.5769519691939914,
          -0.15539119498962708,
          -0.752641426513472,
          -0.9849889864835136,
          -0.9682185183719204,
          -0.056345839042219424,
          -0.3380456671992851,
          -0.68535008102914,
          -0.2980097877531393,
          -0.034702339963736485,
          0.6948164465611846,
          -0.1176397733022812,
          -0.5612615630356276,
          0.11464077529911305,
          0.9040315677505361,
          0.4070910937092072,
          0.45007245670239726,
          0.02441479092264988,
          -0.5397542682438984,
          0.06574567578204457,
          0.8700984433851366,
          -0.6175893616045315,
          -0.7201440459916146,
          -1.0000947943105718,
          -0.09587140389295011,
          0.3333019626683563,
          0.3290681155329449,
          -0.7411745006586488,
          0.4747668206981575,
          -0.9204482716581885,
          -0.4887885244483495,
          -0.7796529332949459,
          0.1705126022352411,
          0.1021110492118239,
          0.4116299042651912,
          0.31226267046288403,
          -0.4547368038033687,
          -0.1147349593546442,
          0.39891836588753415,
          -0.38613774733411393,
          0.39527238653132174,
          0.24404008653923093,
          0.23287932010454568,
          -0.6871461089208265,
          0.5000618476965927,
          0.8953545611121652,
          -0.07182968068791887,
          -0.6562498303297787,
          0.8932711532026508,
          0.24718779259979845,
          0.5964628112795602,
          0.9910693168063753,
          0.2935808090200693,
          -0.14432611450809765,
          -0.32497382467898006,
          -0.8560378714098903,
          -0.6861748547445653,
          -0.06173385560619291,
          -0.8847716192434403,
          -0.34045718417335336,
          1.0118413997675837,
          0.6809399826378696,
          -0.3711435431916611,
          -0.5967179744402169,
          -0.2668527786350683,
          -0.8216021937927799,
          -0.5158420278089231,
          0.796013403585535,
          0.25536305520509034,
          0.15438753715959905,
          -0.5791765496917729,
          -0.022863616840993667,
          -0.7117942122327704,
          0.7897781894126843,
          0.03272838885109549,
          -0.4727795968737267,
          0.3386816883691168,
          -0.029862189341389653,
          0.5915830866176791,
          -0.860531278060263,
          -0.5050337321008938,
          -0.04521176636210188,
          0.3027308974431425,
          -0.6992617931003868,
          0.14388698680858827,
          -0.374690668366288,
          0.7836587133611096,
          0.6173482218234704,
          -0.2582388085370249,
          0.8264485729881823,
          0.7709725168289288,
          0.2645222027863724,
          0.6578504384642432,
          0.8048212307266337,
          -0.22920711687196332,
          0.7389393535277041,
          0.19596390734591201,
          -0.2962515839957284,
          -0.21333202436053136,
          0.6039110657436492,
          -0.019323825780831364,
          0.4229270751825193,
          0.8789021957303198,
          -0.6494126496889052,
          -0.06141762778066523,
          1.0243146314377582,
          -0.37201512324975416,
          -0.5253009665320558,
          -0.73961754911647,
          0.04290376817102154,
          0.7268502821552325,
          0.5598712021589294,
          -0.9668302311837816,
          0.9521558053903328,
          0.6642308043514278,
          -0.598427818025944,
          -0.1853249383417246,
          0.4562846384846327,
          0.5400803285826854,
          0.3999456338885673,
          -0.7322384406440191,
          -0.2696261677956039,
          0.779955285001135,
          -0.19853614137657535,
          0.4052815787381114,
          -0.30373846402197263,
          -0.9337772219893589,
          0.4042933644857046,
          0.7506753448147868,
          -0.2911493721713041,
          0.660484076582368,
          0.2712292480642784,
          0.17549562049067144,
          0.12611159152833612,
          0.48264845763033326,
          0.49449966164007875,
          -0.6407279301785339,
          0.6039852356783451,
          -0.09166375256568178,
          0.1869915633070431,
          0.9056217987805497,
          0.7582921065327851,
          0.7804174231063576,
          0.521051688964633,
          -0.7413193383630032,
          0.21886901751372076,
          -0.17671061636036245,
          0.08316717266387776,
          0.991157157818938,
          0.9515688475954663,
          0.48691488954253187,
          -0.6064396352265214,
          0.9653373483550771,
          -0.967393823186522,
          0.800143224852273,
          -0.7986033949744226,
          0.754979050210767,
          -0.6271159798304126,
          0.31931974537315216,
          0.007728619436799365,
          -0.6307941084276146,
          -0.8935174641920326,
          -0.7313393358169927,
          -0.6180364122661185,
          -0.5250154726746863,
          0.030813564873011227,
          -0.5169736746190688,
          0.5864663251637343,
          0.6868231280542099,
          0.3508386655884022,
          0.04973194757987205,
          -0.4721407963211129,
          0.298152211521121,
          -0.33046713228443925,
          -0.6432938637783611,
          -0.5928548108236844,
          0.0643686076825875,
          0.9958027037859811,
          0.13434999369792697,
          -0.0027825904344055993,
          -0.7168993560833854,
          -0.5313618664338531,
          -0.5063445545778398,
          -0.8577451590566155,
          0.9834470389245183,
          -0.6796879181683564,
          0.5001565494707914,
          0.6208547575986016,
          -0.32754507422031115,
          -0.3600238609632389,
          0.03940727028196974,
          -0.9264845632509925,
          -0.4604422679237393,
          0.7494066651423695,
          0.38274715149824645,
          -0.3360534889533847,
          -0.7650212619070441,
          0.6062168414086586,
          0.2506398484153737,
          0.05802914066612724,
          -0.7492835219539862,
          0.86715521939979,
          0.8161819315290205,
          0.4617358720084826,
          -0.15649854017549766,
          0.09875118785749376,
          -0.37666469404690944,
          -0.49451966961356963,
          0.653209597167305,
          -0.7155945773690372,
          -0.7365120298441611,
          0.41689145329151506,
          0.5203600886094508,
          0.8777366260504721,
          0.7928352679123375,
          -0.7279211774053626,
          0.7374063306727388,
          -0.008922743440348432,
          0.08636507721355308,
          0.8903572561247834,
          -0.17531221842282096,
          -0.845090747114321,
          -0.5891966867920906,
          -0.9883614782283249,
          -0.9850305002962818,
          -0.7363362602957787,
          0.472242812171007,
          0.029283420498133116,
          -0.26836133396410233,
          -0.5363978779025452,
          -0.5340897608582187,
          0.5026116989117966,
          0.6165849429875045,
          0.39946348868045567,
          0.8968744426701528,
          0.13961878512645992,
          -0.29286558629977816,
          0.5313305238582968,
          -0.6029883856075812,
          -0.6334892079805248,
          0.8372232301248337,
          0.5958036810052454,
          -0.2815217872964394,
          -0.016415295666274234,
          0.2437342425939602,
          0.10586838453324944,
          -0.28694635563471804,
          -0.19609761405404197,
          0.8257992296300428,
          0.7216842916218142,
          0.5302251543799215,
          0.06437955570417506,
          -0.3369780314760347,
          0.6904584439689591,
          -1.0921272980336463,
          0.6840403877222935,
          0.6592676194441046,
          -0.2709192356075451,
          -0.7415017461324013,
          0.5679408538103572,
          -0.947265264990793,
          0.18615078901647272,
          0.3282348418134398,
          -0.676222640067156,
          -0.8117990042577649,
          -0.6748290471183624,
          -0.6989030592695412,
          0.21292602654780501,
          -0.6984662216717328,
          -0.7508454500996422,
          0.25488442145344675,
          -0.06672257412745262,
          -0.14628564168946845,
          -0.8947651307288462,
          -0.2777276300060359,
          -0.786053631141709,
          -0.691944357048345,
          0.20411593779713558,
          0.3400358068233601,
          0.5326907700387815,
          0.44870797552283853,
          0.5674238162750731,
          -1.1559989222196372,
          -0.8687706285109968,
          -0.2537616687585381,
          0.3939740296439249,
          -0.8164777314315337,
          -0.6376254439267967,
          -0.29957646965040396,
          0.05244037902727622,
          -0.6964769197383807,
          -0.48947429936139,
          0.12965632702578297,
          -0.06827377984049246,
          0.13162566336838227,
          -0.5327984572542903,
          -0.23731199672814016,
          0.7182216919062572,
          0.5719557280065566,
          -0.4924994462632771,
          0.900339317710157,
          0.7543000812195703,
          -0.33337057724982844,
          -0.9714285964112879,
          0.5510162955959635,
          -0.13005870089212684,
          0.13054737365053276,
          0.30617419200937324,
          0.6086630262999525,
          -0.21598006809102158,
          -0.6977536404998526,
          0.642594167894505,
          0.11268757971549787,
          -0.3248734641647602,
          -0.6515334180470854,
          -0.5611528393608256,
          -0.21073165025404889,
          0.1368384030533059,
          -0.6180323565359696,
          0.089491246966144,
          -0.8152959615273873,
          -0.6135641857487248,
          -0.4323047854620436,
          0.25156060703070005,
          -0.6430088763202004,
          -0.9704343460223911,
          -0.34345210937603965,
          -0.8639681978512684,
          -0.473387692835397,
          0.992129002003872,
          0.21628687056524085,
          0.8609401099156808,
          -0.6323796474397306,
          -0.341047031283471,
          -0.11093593604364176,
          0.14476787168319283,
          0.5512703013541648,
          -0.7460682740027114,
          -0.8314253203064851,
          0.5692699625652946,
          0.3655049893073075,
          -0.13832995627058525,
          0.8163736847932144,
          0.8880371933162089,
          -0.4019160080682226,
          0.07142370314239388,
          0.6295618511885086,
          -0.8540300112730134,
          0.9582512484944798,
          -0.2993942948042308,
          0.3589136448835757,
          0.17753150504031126,
          -0.8979342335052575,
          -0.7701745309925363,
          0.2226508815558276,
          -0.9467843373413645,
          -0.9311477181511422,
          -0.7679346688029528,
          0.2198809136720136,
          -0.023860535492364266,
          -0.04693546921772326,
          0.10895152436771767,
          -0.8088944374897158,
          -0.5574231921018108,
          -0.9664912975563165,
          -0.26201940390987577,
          -0.09625552472349656,
          0.7352937696349638,
          0.7017296989553456,
          0.2304618846462047,
          0.9618806902913875,
          0.6971039802481204,
          0.41103844191437144,
          -0.23994809340472953,
          -0.8943628157413447,
          0.17066841195049345,
          0.6031484881404716,
          -0.41258603560309975,
          -0.3151406051092161,
          -0.5520547404140173,
          -0.8577912887643566,
          -0.46571958233682864,
          0.9969393189089745,
          -0.884290323451767,
          -0.7031936247720856,
          -0.6680250748984549,
          0.5160257141834846,
          0.9696353592410818,
          0.03467187071503895,
          -0.3614669419911308,
          0.28643680490081713,
          -0.22466538964233781,
          0.9579881489627786,
          0.13488559116316082,
          -0.34144739600041235,
          0.34369845723512493,
          0.9100608011584087,
          0.13907160735952648,
          0.7152513292282927,
          0.8209916604057814,
          0.7028242573487007,
          0.3608270604387851,
          -0.8390478421887302,
          -0.49287387795675647,
          0.1602993009440024,
          -0.006116931748894312,
          0.5333132546436263,
          0.7185811231013839,
          0.1251979324296284,
          -0.29365248427610136,
          -0.7884076477506755,
          -0.6665327962411944,
          0.7492762979623971,
          -0.7085231472073898,
          -0.5550430255054188,
          -0.12403701844465356,
          -0.8623456995175475,
          -0.5009282723738931,
          0.1692362063757505,
          0.4985845101572623,
          0.2773047402918745,
          -0.6543399913500506,
          0.013838531736158576,
          0.07726035762776502,
          -0.6946880835435871,
          0.6455324065666749,
          -0.12125365698510784,
          0.5451427838043279,
          0.07379631525812959,
          -0.6258893368153826,
          0.09971694631945914,
          0.5474719670718057,
          -0.04998534198565935,
          0.11824136840125432,
          -0.33124559573859513,
          0.5053306830520189,
          0.989832115728173,
          -0.4064184822000421,
          -0.8492932024396451,
          -0.9978579010395887,
          -0.06422904628779458,
          -0.30568260203090264,
          -0.7667685242248795,
          -0.893373667843026,
          0.4791414875366837,
          0.07366804580308138,
          -0.3909673144287896,
          0.39600884155418725,
          0.12554859734382018,
          -0.800129823751721,
          0.7428987149509647,
          0.9238718553267027,
          0.1589290088273275,
          0.17051350328929016,
          0.6145052999870175,
          -0.44790368403936226,
          -0.9292643606936261,
          -0.18356172397436468,
          0.5707702563373848,
          -0.7154012887455742,
          -0.7857407317402563,
          0.4495461421468092,
          0.7293650444061149,
          0.10765571316100866,
          0.32104823514992775,
          0.05827673317197791,
          -0.10856742654351915,
          0.8032131542295184,
          -0.6681470908067291,
          0.5687020340685338,
          -0.6744445904929067,
          0.24722806178155415,
          0.04556078035104399,
          -0.6457214999857126,
          0.1766174399711841,
          -0.5138213638069585,
          -0.4969291658817521,
          -0.9251583593198242,
          0.2611355440625658,
          -0.2450741756683732,
          0.4239911665723699,
          -0.1231259577805088,
          0.059082604364661596,
          -0.1712881930970273,
          -0.5845871168541681,
          0.3894815527623617,
          0.026986343083958215,
          0.37125098378010907,
          0.3116757679613866,
          -0.9821618516791996,
          -0.4219086704047068,
          0.848261578184828,
          0.8130213139039748,
          0.3717259224430529,
          -0.6688530021170801,
          0.14092227199915924,
          0.46385443999936116,
          0.6562551163253284,
          -0.4807481244089531,
          -0.5994954279046009,
          -0.37054630897546675,
          0.7811521441260313,
          0.9151698869865996,
          0.3356356008988343,
          -0.029579210553599758,
          0.6660926045759525,
          -0.8026807758189798,
          -0.8139864771969143,
          0.5276551577284918,
          0.3665019633901679,
          -0.6506431996807339,
          0.14540599778683286,
          -0.39665984807349525,
          0.37364300213561924,
          0.6870486633637432,
          -0.2596469498676766,
          0.8715018058669916,
          0.21865232541572135,
          0.7080393872443,
          -0.3090051856896677,
          0.4218968677852559,
          0.5105526985288946,
          0.3534553561224341,
          -0.8904522904117287,
          -0.08851351145684162,
          0.7748377105982112,
          -0.8816201646796206,
          -0.9596124688494733,
          -0.5431313779960467,
          0.6010679231015299,
          -0.25662833526614365,
          0.6627001293848567,
          0.7045711129416816,
          0.445325785557997,
          -0.22063815654242544,
          0.41896760405714933,
          -0.7712262356361772,
          -0.3684589637247031,
          -0.8786284823154243,
          -0.4706506378937578,
          0.025125220921685433,
          -0.09202739471127383,
          0.049924160521415274,
          0.06767270427591696,
          -0.34838544784810804,
          -0.5563440679311157,
          -0.8665910099406718,
          -0.47654936534118364,
          -0.022053297208725953,
          -0.02149404483171502,
          0.21154733236280684,
          0.14730543805982485,
          0.336776699898658,
          0.31149018405985973,
          0.017487420305521566,
          -0.0017417782710000631,
          0.449072971804093,
          0.6869535840555863,
          0.5786681684291174,
          -0.24236232582100115,
          0.4180196751570997,
          0.36770550365182253,
          -0.7148287676479658,
          0.6582045367719083,
          -0.4392127939035596,
          -0.3872995038568008,
          0.4574619642298306,
          -0.005609671296526432,
          0.36846074961952885,
          0.6301054171211827,
          -0.9720371620541016,
          0.9887688921038849,
          -0.21380705191571306,
          -0.4888759440355334,
          -0.41559712828162465,
          -0.3232697773467986,
          -0.8923976458259202,
          0.07456608936758746,
          -0.5484211117904894,
          0.4238992520153519,
          0.5596291210938499,
          -0.19946030703354012,
          -0.36528037439011113,
          0.8287839733788352,
          -0.1320841143129769,
          0.22710604373470175,
          0.7334567589836325,
          0.5240609753381981,
          -0.5811211685708279,
          0.7977055873849711,
          -0.9337174588548027,
          0.24969371114711797,
          -0.8035411741556556,
          -0.8833941957315404,
          -0.3015889347723774,
          -0.2754503072214891,
          0.04393053310618449,
          -0.15302811005599598,
          0.5448130783433042,
          -0.25122351168240703,
          0.2959331842846957,
          -0.28141892066694174,
          0.8975570213653372,
          0.6217875023621484,
          0.4035032081432939,
          -0.07663040505102714,
          0.28053401297305514,
          -0.5292186791235463,
          0.17522151627250582,
          0.6226529380455481,
          0.8671922172073339,
          -0.8314018930246175,
          -0.22404054145350696,
          0.15370179372028278,
          0.086980396630791,
          -0.3354498720314826,
          -0.09268568242823613,
          0.9324874823600123,
          -0.48758501302602125,
          -0.055818979777463584,
          -0.4290294280803022,
          0.17470992731453566,
          0.7949642459926839,
          -0.17087272421901425,
          0.34756247583070476,
          0.26227403762526724,
          0.11461691637987097,
          -0.022666029299526692,
          0.8019007659833366,
          0.323715426102571,
          0.21781853142684038,
          0.16398103025688826
        ],
        [
          -0.4329641627549864,
          -0.617260975059047,
          -0.5940357098081305,
          0.2015751764897502,
          -0.4212543011563713,
          0.6681583231592063,
          -0.48493737459789077,
          -0.7658813914091895,
          0.3708420398258525,
          0.13190775128358356,
          -0.8120418442088406,
          -0.9574885380078163,
          0.11153159841352935,
          0.7464541768918237,
          0.4573850751245655,
          -0.12064186979302144,
          0.6305152189370438,
          -0.6676329561057589,
          0.25908745386234555,
          -0.03496321920625445,
          -0.0047608685098188275,
          0.9221550049707621,
          0.0045077463734362055,
          -0.3962571717651592,
          0.8437547306047517,
          0.6095229934536286,
          -0.4807020388373763,
          -0.5712925847311534,
          -0.38480165203437633,
          0.5091114175614992,
          0.683412778873395,
          0.5089577887677494,
          0.3883706460908416,
          -0.7573989649727791,
          0.7027234705530259,
          -0.02813757245306367,
          -0.4429400114496219,
          -0.22152296291333604,
          -0.6178955638540324,
          0.29826217430931,
          -0.6569648781994057,
          0.45306111676363664,
          0.8316893100069361,
          -0.057177026625082616,
          -0.050259412590412125,
          -0.2123441326039754,
          0.6003463268607234,
          -0.2740042356590456,
          0.14281294326766306,
          0.4875540020551612,
          -0.3442751252447913,
          0.14709671440430006,
          -0.06042881816593526,
          -0.8569133255875172,
          -0.18149972497948164,
          0.5427042906369017,
          -0.19077728250317794,
          0.6456709475722764,
          0.977673445504076,
          -0.6541340943162635,
          0.6016390928550301,
          -0.2928234009176562,
          -0.424201695515979,
          0.12129213363830979,
          -0.7109975267633835,
          -0.6184227479321266,
          -0.53635765743284,
          0.9597784206413478,
          0.574774807007214,
          -0.5392426047037745,
          -0.029934995576832026,
          0.8506954277380748,
          -0.8576595697560735,
          0.7562293954681827,
          -0.17437832339045894,
          -0.7946287888653618,
          -0.7585000539640369,
          -0.8193433945704668,
          -0.1949431511994586,
          0.14134922058511734,
          0.36305199047799863,
          0.05597746492741325,
          -0.7544653724174413,
          -0.458757711547339,
          0.8715662456014093,
          -0.781594624838049,
          0.21159301215939133,
          -0.6245332056153512,
          0.5341727920165945,
          -0.2084899659673111,
          -0.38476024109024975,
          0.7632546837943475,
          0.25563188086595023,
          -0.4774856486875942,
          0.72584991467879,
          0.0623878869773751,
          -0.8274857230084289,
          0.5860518651910286,
          0.21875542599592046,
          -0.20654687044484446,
          -0.9373998810619316,
          -0.3784410406637672,
          0.021143960405885287,
          0.5998545774397197,
          -0.08239508433957873,
          -0.8632448561275834,
          -0.10250091257015392,
