{
  "layers": [
    {
      "biases": [
        0.023475617170333862,
        0.38789045810699463,
        -0.006020785309374332,
        -0.2264249324798584,
        -0.10194268822669983,
        -0.2258860021829605,
        -0.2666401267051697,
        0.4525347650051117,
        -0.010876085609197617,
        -0.07814469188451767,
        -0.18265752494335175,
        -0.17309804260730743,
        -0.23247991502285004,
        -0.06519047170877457,
        -0.27644938230514526,
        -0.2605285048484802,
        0.08018925040960312,
        -0.1272636502981186,
        -0.05898066610097885,
        0.1253528892993927,
        0.09913932532072067,
        0.27105554938316345,
        -0.025460749864578247,
        -0.03641105070710182,
        -0.04908568412065506,
        -0.2517413794994354,
        0.22370170056819916,
        0.14550437033176422,
        0.09294500946998596,
        -0.10462015122175217,
        0.11610382050275803,
        -0.11877216398715973
      ],
      "inChannels": 1,
      "kernelHeight": 5,
      "kernelWidth": 5,
      "outChannels": 32,
      "pad": 2,
      "stride": 1,
      "type": "Conv2D",
      "weights": [
        [
          0.01539858803153038,
          0.07443977147340775,
          -0.12950168550014496,
          -0.5032062530517578,
          -0.6408737301826477,
          0.10506879538297653,
          -0.059378959238529205,
          -0.14506648480892181,
          0.1497085690498352,
          -0.0589621365070343,
          0.18946704268455505,
          0.4608139097690582,
          0.22779743373394012,
          0.29737213253974915,
          0.030035415664315224,
          0.10212007164955139,
          0.14438331127166748,
          0.23706017434597015,
          0.3919643461704254,
          0.30079561471939087,
          0.14266186952590942,
          0.26183727383613586,
          0.3479088246822357,
          0.27615171670913696,
          0.24445149302482605
        ],
        [
          0.1194462776184082,
          0.15271314978599548,
          0.1461135596036911,
          0.21018803119659424,
          -0.16916532814502716,
          0.28109660744667053,
          0.04424034059047699,
          0.12156693637371063,
          0.21017929911613464,
          -0.19999104738235474,
          0.3166801631450653,
          0.30286192893981934,
          0.012868231162428856,
          0.030400007963180542,
          0.0299607552587986,
          -0.3796452283859253,
          -0.20421329140663147,
          0.06954213231801987,
          0.023525308817625046,
          0.3362715542316437,
          -0.11104799807071686,
          0.23448683321475983,
          -0.06604506075382233,
          -0.18525980412960052,
          0.27793800830841064
        ],
        [
          -0.21953453123569489,
          0.20977210998535156,
          -0.2659570574760437,
          0.017390012741088867,
          0.35355454683303833,
          -0.2973920702934265,
          -0.2162894904613495,
          -0.11356978863477707,
          0.23537753522396088,
          0.07569728046655655,
          0.12378626316785812,
          -0.12128584086894989,
          -0.6204949021339417,
          0.23261162638664246,
          0.2846962809562683,
          0.004542183130979538,
          0.2197277843952179,
          -0.46438872814178467,
          -0.17338652908802032,
          -0.001252661575563252,
          0.10366705060005188,
          -0.5292531847953796,
          -0.5612572431564331,
          -0.2390086054801941,
          -0.0650775358080864
        ],
        [
          -0.05524342879652977,
          -0.08321291208267212,
          0.08559755980968475,
          0.07444784045219421,
          -0.08035779744386673,
          0.011325479485094547,
          0.1304316371679306,
          0.11073605716228485,
          -0.24831059575080872,
          -0.11906968802213669,
          0.11713693290948868,
          -0.07664839178323746,
          0.07780945301055908,
          -0.23483143746852875,
          -0.14515957236289978,
          -0.3008953332901001,
          -0.13138963282108307,
          -0.00195620721206069,
          -0.18894807994365692,
          -0.25084659457206726,
          -0.13172924518585205,
          -0.11094862222671509,
          -0.4418596029281616,
          -0.05304720997810364,
          -0.1297377198934555
        ],
        [
          -0.09562668204307556,
          0.06209862604737282,
          -0.31174108386039734,
          -0.2883213460445404,
          0.13532420992851257,
          0.3178989291191101,
          -0.15840551257133484,
          -0.03802361711859703,
          -0.15419109165668488,
          -0.12006017565727234,
          -0.1254596710205078,
          0.1950383186340332,
          0.08534754812717438,
          -0.2714309096336365,
          -0.05729089304804802,
          -0.06019299104809761,
          -0.01848788745701313,
          0.2151988297700882,
          -0.17182911932468414,
          -0.11376020312309265,
          -0.26933252811431885,
          0.2724297344684601,
          0.09562687575817108,
          0.08066315948963165,
          -0.23734363913536072
        ],
        [
          -0.14298467338085175,
          -0.0422346331179142,
          0.07568690180778503,
          -0.09070603549480438,
          -0.389372855424881,
          0.06457820534706116,
          -0.15248310565948486,
          -0.03074798360466957,
          -0.10968416929244995,
          -0.2577989995479584,
          -0.12521085143089294,
          0.2900749444961548,
          -0.26679226756095886,
          -0.04887824505567551,
          0.0559411384165287,
          -0.22837664186954498,
          -0.14027242362499237,
          0.30016815662384033,
          -0.41547879576683044,
          -0.1133963093161583,
          -0.17791198194026947,
          -0.040695298463106155,
          0.10860009491443634,
          0.03390603885054588,
          -0.2622641921043396
        ],
        [
          -0.3470042645931244,
          -0.00043407847988419235,
          0.017024435102939606,
          0.0054238056764006615,
          -0.01905408874154091,
          -0.500601589679718,
          -0.5671879649162292,
          -0.41096919775009155,
          0.13992221653461456,
          0.014980180189013481,
          -0.22221462428569794,
          0.042462460696697235,
          -0.24982628226280212,
          -0.28059908747673035,
          -0.07076521962881088,
          -0.09456467628479004,
          0.12679876387119293,
          0.018789153546094894,
          0.06744188815355301,
          -0.24764767289161682,
          0.18585598468780518,
          -0.16821902990341187,
          0.019650856032967567,
          -0.2957189381122589,
          -0.06579781323671341
        ],
        [
          0.3132897615432739,
          0.46887487173080444,
          0.10580533742904663,
          -0.20006833970546722,
          -0.1416468620300293,
          0.09835268557071686,
          0.2465871423482895,
          0.284984827041626,
          0.27882927656173706,
          -0.0034174844622612,
          0.3877442479133606,
          -0.1494801789522171,
          0.011910307221114635,
          0.2090836465358734,
          0.45167940855026245,
          0.6561917662620544,
          0.35462239384651184,
          0.2507994771003723,
          0.7538158893585205,
          0.7546525001525879,
          0.43544086813926697,
          0.7335748672485352,
          0.768269419670105,
          0.5059037804603577,
          0.5580423474311829
        ],
        [
          -0.12121005356311798,
          0.10241255909204483,
          -0.3383297920227051,
          -0.5163004994392395,
          -0.2588304579257965,
          -0.09799548983573914,
          0.16525495052337646,
          -0.2188567817211151,
          -0.2892753481864929,
          -0.13371099531650543,
          0.29702329635620117,
          0.0018361179390922189,
          -0.26703909039497375,
          -0.18942388892173767,
          -0.08757471293210983,
          0.09924940764904022,
          0.46068036556243896,
          0.03317737579345703,
          -0.19636774063110352,
          -0.13446985185146332,
          -0.03250942751765251,
          0.2639961540699005,
          0.3614278733730316,
          0.30818015336990356,
          -0.1597955971956253
        ],
        [
          -0.08518359065055847,
          -0.45646482706069946,
          -0.3624469041824341,
          -0.40162041783332825,
          -0.48796769976615906,
          -0.12291136384010315,
          0.06922999769449234,
          -0.32658514380455017,
          -0.36989495158195496,
          -0.32245954871177673,
          0.03661559522151947,
          0.09111206978559494,
          0.2023862898349762,
          0.11416161805391312,
          -0.22261454164981842,
          0.011990698054432869,
          0.23965495824813843,
          -0.1598639041185379,
          0.19978339970111847,
          0.10399255901575089,
          0.13246825337409973,
          -0.3039275109767914,
          -0.21588945388793945,
          -0.1366713047027588,
          -0.0016621251124888659
        ],
        [
          0.16060151159763336,
          -0.12477046251296997,
          -0.26886776089668274,
          -0.016861556097865105,
          -0.0658477172255516,
          -0.20560753345489502,
          -0.10200599581003189,
          -0.40799689292907715,
          -0.4081842303276062,
          -0.13377287983894348,
          -0.20167183876037598,
          -0.290298193693161,
          0.1949494481086731,
          0.011028209701180458,
          -0.00900157168507576,
          0.05046117305755615,
          0.3238465487957001,
          -0.045608215034008026,
          0.07752799242734909,
          -0.29247376322746277,
          0.21039462089538574,
          -0.28020039200782776,
          -0.20687250792980194,
          -0.5521894693374634,
          -0.3563103973865509
        ],
        [
          -0.14855439960956573,
          -0.1395411193370819,
          -0.20052257180213928,
          0.10933803766965866,
          0.003747595939785242,
          0.07060866802930832,
          0.1042494922876358,
          0.1800599992275238,
          0.006954897195100784,
          0.036652788519859314,
          -0.09274500608444214,
          -0.4833753705024719,
          -0.2907225489616394,
          0.19000062346458435,
          -0.3638897240161896,
          -0.08730343729257584,
          -0.34645551443099976,
          -0.17438000440597534,
          0.2447861284017563,
          -0.2965764105319977,
          -0.05431034415960312,
          -0.2931216061115265,
          -0.03490714356303215,
          0.1637478917837143,
          0.10665527731180191
        ],
        [
          -0.18228714168071747,
          -0.27038171887397766,
          -0.07758456468582153,
          -0.018184149637818336,
          0.1569320261478424,
          -0.09639263153076172,
          0.14293907582759857,
          0.04617580398917198,
          0.10746950656175613,
          -0.3291358947753906,
          0.02024207077920437,
          0.1429731249809265,
          0.28033924102783203,
          -0.32704079151153564,
          -0.2646033763885498,
          0.009858096949756145,
          -0.15320180356502533,
          -0.17630848288536072,
          -0.11124864965677261,
          -0.2653626501560211,
          -0.5567154288291931,
          -0.020356690511107445,
          0.10139801353216171,
          -0.013591378927230835,
          0.17488978803157806
        ],
        [
          0.3381362855434418,
          0.19083338975906372,
          0.07596888393163681,
          0.17242783308029175,
          -0.3699817955493927,
          0.116503044962883,
          0.2780154049396515,
          0.10598566383123398,
          -0.036777786910533905,
          -0.19094736874103546,
          0.36798059940338135,
          -0.23090961575508118,
          -0.3079875111579895,
          -0.41728052496910095,
          -0.5856448411941528,
          -0.35269686579704285,
          -0.252049058675766,
          -0.11560291796922684,
          -0.37399399280548096,
          -0.1787036508321762,
          -0.4890664517879486,
          -0.325499564409256,
          -0.23566295206546783,
          0.15112215280532837,
          0.13101358711719513
        ],
        [
          -0.28768211603164673,
          0.1188291385769844,
          -0.17117130756378174,
          -0.2250560075044632,
          -0.29947131872177124,
          0.06336718797683716,
          -0.12457937747240067,
          -0.3811440169811249,
          0.135683074593544,
          0.10533842444419861,
          -0.09223601222038269,
          -0.06383296847343445,
          0.018360944464802742,
          -0.16585059463977814,
          -0.18717347085475922,
          0.040012069046497345,
          0.16690446436405182,
          0.0881565734744072,
          0.06543999165296555,
          0.08720173686742783,
          -0.04258827120065689,
          -0.28570258617401123,
          -0.18300865590572357,
          -0.08910203725099564,
          -0.02471223473548889
        ],
        [
          -0.35228094458580017,
          -0.07725982367992401,
          -0.2993232309818268,
          -0.4273000657558441,
          -0.3341018855571747,
          -0.03663887456059456,
          0.03094923309981823,
          0.0019195462809875607,
          0.11930713802576065,
          -0.17205354571342468,
          0.04312871769070625,
          -0.2304844856262207,
          0.006344020366668701,
          0.090755395591259,
          -0.006053905934095383,
          0.06290461122989655,
          -0.23233911395072937,
          -0.17721791565418243,
          -0.002366991713643074,
          -0.14518611133098602,
          -0.0990065336227417,
          0.14916417002677917,
          -0.4261617958545685,
          -0.1628984957933426,
          0.1208634153008461
        ],
        [
          0.013115950860083103,
          0.42124608159065247,
          0.10343818366527557,
          0.46851181983947754,
          0.48389920592308044,
          0.2393997311592102,
          -0.061654407531023026,
          0.017712879925966263,
          0.3295779824256897,
          0.2673252522945404,
          0.21200132369995117,
          0.324551522731781,
          0.5200151801109314,
          0.11367234587669373,
          0.2913531959056854,
          0.27872058749198914,
          0.6991792321205139,
          0.34965962171554565,
          0.17886191606521606,
          -0.09436213970184326,
          0.08419687300920486,
          0.5196685791015625,
          -0.018380677327513695,
          0.4069878160953522,
          0.31080806255340576
        ],
        [
          -0.3270125985145569,
          -0.13832847774028778,
          -0.10563003271818161,
          -0.13055920600891113,
          0.02847062610089779,
          -0.30706050992012024,
          -0.10568583756685257,
          0.07850845158100128,
          0.1071096882224083,
          0.10012698918581009,
          -0.0012941602617502213,
          0.19545842707157135,
          0.039541881531476974,
          0.35956138372421265,
          0.22190074622631073,
          -0.29754069447517395,
          0.15704409778118134,
          0.29406672716140747,
          0.13256415724754333,
          -0.243892103433609,
          -0.3255752921104431,
          -0.3850115239620209,
          -0.5720027089118958,
          -0.4637724459171295,
          -0.644733190536499
        ],
        [
          -0.2575761675834656,
          -0.1209036260843277,
          0.022185873240232468,
          0.0034235564526170492,
          0.4081592261791229,
          -0.14662083983421326,
          -0.22160400450229645,
          -0.09712959825992584,
          0.20425422489643097,
          -0.14933349192142487,
          0.5061226487159729,
          0.04835229739546776,
          -0.043435629457235336,
          0.14022721350193024,
          -0.2751409709453583,
          0.31624388694763184,
          0.42804059386253357,
          0.1975439339876175,
          -0.16818489134311676,
          -0.14061297476291656,
          -0.09486044198274612,
          0.21707242727279663,
          0.2135820984840393,
          0.05841633677482605,
          -0.011787661351263523
        ],
        [
          -0.2848132848739624,
          -0.22658394277095795,
          -0.0025736303068697453,
          -0.06907656788825989,
          0.06641695648431778,
          0.2270081490278244,
          0.06903162598609924,
          0.20927758514881134,
          -0.028893761336803436,
          -0.28701406717300415,
          -0.01691930927336216,
          0.36825239658355713,
          0.391120046377182,
          0.0844060629606247,
          -0.1479136347770691,
          0.13440200686454773,
          0.41171911358833313,
          0.30794090032577515,
          0.1509387195110321,
          -0.0918615311384201,
          0.17073191702365875,
          0.49824467301368713,
          0.3950967788696289,
          -0.026344316080212593,
          0.04045639932155609
        ],
        [
          -0.3887746036052704,
          0.0912415087223053,
          -0.02246069349348545,
          -0.0669366717338562,
          -0.14333850145339966,
          -0.25761762261390686,
          -0.14255788922309875,
          -0.14669787883758545,
          -0.5305940508842468,
          0.07074985653162003,
          -0.31095191836357117,
          -0.672761857509613,
          -0.11504486203193665,
          -0.18136419355869293,
          -0.2613610327243805,
          0.18991532921791077,
          -0.22809281945228577,
          -0.39586499333381653,
          -0.5931738018989563,
          -0.35440823435783386,
          -0.2196335792541504,
          -0.30721020698547363,
          0.1946304589509964,
          0.17889313399791718,
          0.15671294927597046
        ],
        [
          0.6369176506996155,
          0.402736097574234,
          0.6892295479774475,
          0.2689991295337677,
          0.25467440485954285,
          0.3914923667907715,
          0.5842930674552917,
          0.3022688925266266,
          0.13344399631023407,
          0.5528731346130371,
          0.2932986319065094,
          0.6186420321464539,
          0.7477707862854004,
          0.35950928926467896,
          0.533440887928009,
          0.4899587035179138,
          0.6785619854927063,
          0.4544169008731842,
          0.32067954540252686,
          0.5526586174964905,
          0.5686582326889038,
          0.40275171399116516,
          0.5065241456031799,
          0.6925923228263855,
          0.3446965217590332
        ],
        [
          0.04610120877623558,
          -0.03141309320926666,
          0.1898133009672165,
          0.34808358550071716,
          0.32571324706077576,
          -0.25016236305236816,
          -0.6687783598899841,
          -0.19524051249027252,
          -0.559238076210022,
          -0.5373178720474243,
          -0.15872107446193695,
          -0.4014539122581482,
          -0.5392094850540161,
          -0.6068581342697144,
          -0.362216591835022,
          0.12327887117862701,
          0.2954435348510742,
          0.4131411910057068,
          0.027055339887738228,
          -0.16668710112571716,
          0.13893382251262665,
          0.24636563658714294,
          0.18703988194465637,
          0.1327999234199524,
          0.27154770493507385
        ],
        [
          -0.31598296761512756,
          -0.21423038840293884,
          0.12321766465902328,
          -0.18380798399448395,
          0.10217566788196564,
          -0.22713685035705566,
          -0.3609282374382019,
          -0.3631341755390167,
          0.2548755705356598,
          0.2862425148487091,
          -0.3255566358566284,
          0.04066336527466774,
          -0.016280921176075935,
          -0.019396783784031868,
          0.28523194789886475,
          -0.20949478447437286,
          -0.5325521230697632,
          -0.06452539563179016,
          -0.35716500878334045,
          0.09300900995731354,
          -0.042110491544008255,
          -0.24338383972644806,
          0.23762726783752441,
          -0.4362974166870117,
          -0.5356653928756714
        ],
        [
          0.05976758524775505,
          -0.4651806950569153,
          -0.06028243899345398,
          -0.2014625072479248,
          -0.3021731376647949,
          -0.37327340245246887,
          -0.16705769300460815,
          0.13983570039272308,
          0.2174532413482666,
          -0.3628048598766327,
          0.0694832056760788,
          0.3930266499519348,
          0.28814202547073364,
          -0.12472470849752426,
          -0.3868734538555145,
          0.1834806501865387,
          -0.030805442482233047,
          -0.17305994033813477,
          0.08365292102098465,
          -0.1985708475112915,
          0.05966563895344734,
          -0.2016550898551941,
          -0.34234684705734253,
          0.00572157884016633,
          -0.027035456150770187
        ],
        [
          0.277931272983551,
          0.1807037591934204,
          -0.10756629705429077,
          0.28774774074554443,
          -0.11964667588472366,
          0.12032029777765274,
          0.09433722496032715,
          0.08097925782203674,
          0.049593642354011536,
          -0.1174529492855072,
          0.18000473082065582,
          0.06315331161022186,
          -0.08693130314350128,
          0.007240588311105967,
          0.036813799291849136,
          -0.26495298743247986,
          -0.03760572522878647,
          -0.04956084117293358,
          -0.23547734320163727,
          0.018605269491672516,
          -0.19229358434677124,
          -0.3944360315799713,
          -0.06088078022003174,
          -0.28646376729011536,
          -0.47282907366752625
        ],
        [
          -0.20247842371463776,
          -0.24997127056121826,
          0.028742104768753052,
          0.09722135215997696,
          0.008281255140900612,
          -0.01839165762066841,
          0.19697068631649017,
          -0.09836515784263611,
          0.08406610041856766,
          0.3709214925765991,
          0.09104246646165848,
          0.16822394728660583,
          0.03275830298662186,
          0.5021790266036987,
          0.5856208801269531,
          -0.2554108202457428,
          0.15989287197589874,
          0.3447910249233246,
          0.03470864146947861,
          0.3083592653274536,
          0.07118009030818939,
          0.25820261240005493,
          0.14740698039531708,
          0.2836660146713257,
          0.28228938579559326
        ],
        [
          0.40832585096359253,
          0.3199230432510376,
          -0.23025238513946533,
          0.06411372125148773,
          0.1174880787730217,
          0.13504278659820557,
          -0.04730294644832611,
          -0.13998696208000183,
          -0.0008499325485900044,
          0.3219257891178131,
          -0.004630739334970713,
          0.027177857235074043,
          -0.06581432372331619,
          0.1795213371515274,
          -0.30957531929016113,
          -0.46779823303222656,
          0.19738388061523438,
          0.06449047476053238,
          0.011463235132396221,
          -0.6159281134605408,
          0.02292623370885849,
          0.3561159372329712,
          0.4088788330554962,
          -0.06438671797513962,
          0.07278505712747574
        ],
        [
          0.3046947717666626,
          0.571537971496582,
          0.030335191637277603,
          0.2770347595214844,
          -0.03272197023034096,
          0.03161197155714035,
          0.05019482970237732,
          0.055111363530159,
          0.35964661836624146,
          0.3758590519428253,
          0.3926504850387573,
          -0.0779358521103859,
          0.3213699758052826,
          0.35973119735717773,
          0.5438439846038818,
          0.1820194572210312,
          0.29170966148376465,
          0.22901858389377594,
          0.03335300087928772,
          0.14989833533763885,
          0.09560758620500565,
          0.3860201835632324,
          -0.05544501170516014,
          0.3390064835548401,
          0.21430273354053497
        ],
        [
          0.03038882650434971,
          -0.18179106712341309,
          0.06675665080547333,
          -0.21709251403808594,
          0.1442752331495285,
          0.10474136471748352,
          0.2353469431400299,
          0.23491623997688293,
          -0.1631965935230255,
          0.0029943257104605436,
          0.3071565628051758,
          -0.03165861964225769,
          -0.19532418251037598,
          -0.238454207777977,
          -0.36571016907691956,
          -0.24450047314167023,
          0.2369099259376526,
          0.19753897190093994,
          -0.07623482495546341,
          -0.5062572956085205,
          -0.28013312816619873,
          0.279320627450943,
          0.3949313163757324,
          -0.28955456614494324,
          -0.12394534796476364
        ],
        [
          0.4519456624984741,
          -0.04979122057557106,
          -0.2465287446975708,
          -0.04520178213715553,
          0.3847080171108246,
          0.2583291828632355,
          0.30011680722236633,
          -0.2253202646970749,
          -0.022317074239253998,
          0.17451463639736176,
          0.2464161217212677,
          0.10938405245542526,
          -0.3007727563381195,
          -0.3601738512516022,
          -0.03260793536901474,
          0.12865960597991943,
          0.25026735663414,
          0.30483803153038025,
          -0.10526828467845917,
          -0.14221899211406708,
          0.12681664526462555,
          0.1755191683769226,
          0.05485851317644119,
          -0.25844332575798035,
          0.035896703600883484
        ],
        [
          -0.14227169752120972,
          0.20584021508693695,
          -0.07402364909648895,
          0.2549445331096649,
          -0.1688990443944931,
          -0.45171210169792175,
          0.24779753386974335,
          0.18817801773548126,
          -0.26386821269989014,
          0.12466339766979218,
          -0.32590046525001526,
          -0.5224980711936951,
          -0.5097282528877258,
          -0.2825964093208313,
          -0.1816301941871643,
          -0.3631768226623535,
          -0.32443830370903015,
          -0.14406180381774902,
          -0.2190302014350891,
          0.1692248284816742,
          -0.4349736273288727,
          0.02922683209180832,
          0.09630787372589111,
          -0.23606115579605103,
          0.031587664037942886
        ]
      ]
    },
    {
      "type": "ReLU"
    },
    {
      "channels": 32,
      "inputHeight": 28,
      "inputWidth": 28,
      "pad": 0,
      "poolHeight": 2,
      "poolWidth": 2,
      "stride": 2,
      "type": "MaxPooling"
    },
    {
      "biases": [
        -0.13544166088104248,
        -0.16728734970092773,
        -0.13713428378105164,
        0.030550090596079826,
        -0.1763606071472168,
        0.14140941202640533,
        -0.09546047449111938,
        -0.22681336104869843,
        -0.23865161836147308,
        0.08179441094398499,
        -0.08004167675971985,
        -0.3845401108264923,
        0.0920930951833725,
        -0.001223862636834383,
        -0.09554027765989304,
        -0.13275104761123657
      ],
      "inChannels": 32,
      "kernelHeight": 5,
      "kernelWidth": 5,
      "outChannels": 16,
      "pad": 0,
      "stride": 1,
      "type": "Conv2D",
      "weights": [
        [
          -0.05661473795771599,
          -0.19238141179084778,
          -0.07962306588888168,
          0.018026884645223618,
          -0.07133851945400238,
          0.3562771677970886,
          -0.046259716153144836,
          -0.06389673054218292,
          -0.02581694908440113,
          -0.11787977814674377,
          0.07977999001741409,
          -0.30513811111450195,
          -0.32380548119544983,
          -0.07544833421707153,
          -0.20148715376853943,
          -0.08268745243549347,
          -0.4532625675201416,
          -0.43108120560646057,
          -0.024260079488158226,
          -0.08781082928180695,
          0.30252712965011597,
          0.2046036720275879,
          -0.29652440547943115,
          -0.05572865158319473,
          0.23858074843883514,
          -0.0843859612941742,
          0.017733922228217125,
          0.0813382938504219,
          -0.0610547699034214,
          -0.15481579303741455,
          0.08402793109416962,
          -0.06308984756469727,
          -0.030184993520379066,
          0.06610797345638275,
          -0.09482071548700333,
          0.07218571752309799,
          -0.019733851775527,
          -0.0057501718401908875,
          0.12197259813547134,
          -0.07459542900323868,
          0.028079185634851456,
          -0.1608797311782837,
          0.050971612334251404,
          0.053889624774456024,
          -0.09620912373065948,
          0.004184765741229057,
          -0.3418334722518921,
          -0.11161794513463974,
          0.008236171677708626,
          -0.01928553730249405,
          -0.23997260630130768,
          0.06580298393964767,
          -0.21557354927062988,
          -0.4084569811820984,
          -0.6845191717147827,
          -0.09643618762493134,
          0.07859966158866882,
          -0.08504419773817062,
          -0.2847195267677307,
          -0.3714357018470764,
          0.22169126570224762,
          -0.0514218844473362,
          0.020074205473065376,
          0.10438628494739532,
          -0.12852059304714203,
          0.4232253432273865,
          -0.04735323414206505,
          0.19360613822937012,
          0.20816200971603394,
          0.25566455721855164,
          -0.1666475534439087,
          -0.16031990945339203,
          0.1560376137495041,
          0.2798405587673187,
          0.25319164991378784,
          0.06526559591293335,
          0.17843076586723328,
          0.015368985943496227,
          -0.2580401599407196,
          0.026560241356492043,
          0.08278251439332962,
          0.08423597365617752,
          -0.4142903983592987,
          -0.09175097942352295,
          -0.055217914283275604,
          0.12754909694194794,
          0.07612822204828262,
          -0.4671022593975067,
          -0.13115079700946808,
          -0.014143968932330608,
          0.24085715413093567,
          -0.030838729813694954,
          -0.5003997683525085,
          0.05064675211906433,
          0.0047926404513418674,
          -0.093468077480793,
          -0.5501121282577515,
          -0.1457735151052475,
          0.15193502604961395,
          -0.107907734811306,
          -0.004831917583942413,
          -0.03381970152258873,
          -0.4685642123222351,
          -0.21150483191013336,
          0.014756035059690475,
          0.47181132435798645,
          0.1550777703523636,
          0.033006150275468826,
          0.04956592991948128,
          0.31338098645210266,
          0.31800904870033264,
          -0.022420942783355713,
          0.1581815630197525,
          0.2837653160095215,
          0.18865874409675598,
          0.2066328078508377,
          -0.16286268830299377,
          -0.205777108669281,
          -0.017136745154857635,
          0.025411903858184814,
          -0.08619540184736252,
          -0.005813764873892069,
          0.13337475061416626,
          -0.03892985358834267,
          0.06254785507917404,
          0.17694497108459473,
          -0.05526274815201759,
          -0.1537512093782425,
          -0.031999412924051285,
          -0.03096102923154831,
          0.24038532376289368,
          0.33025801181793213,
          0.153707817196846,
          -0.0206367839127779,
          0.18588648736476898,
          0.036893319338560104,
          -0.0723695382475853,
          -0.03379923477768898,
          0.1440296173095703,
          0.05777667835354805,
          -0.08688680082559586,
          -0.2077239751815796,
          -0.007244989275932312,
          0.07932712882757187,
          -0.03683376684784889,
          -0.11329150944948196,
          0.03522703796625137,
          0.11699984967708588,
          0.18912532925605774,
          -0.027242587879300117,
          0.07676311582326889,
          -0.0032107147853821516,
          -0.24021604657173157,
          -0.1424420326948166,
          0.1090039610862732,
          0.03620550408959389,
          -0.01879529282450676,
          -0.09405086934566498,
          0.023463046178221703,
          -0.15115883946418762,
          0.07598380744457245,
          -0.06528421491384506,
          -0.11167243868112564,
          0.22995615005493164,
          -0.1313939243555069,
          0.12120604515075684,
          -0.12018594890832901,
          -0.17879876494407654,
          0.13366380333900452,
          -0.09732918441295624,
          -0.03105195425450802,
          0.012199793010950089,
          0.0447036437690258,
          0.1666141003370285,
          -0.12755855917930603,
          0.047330912202596664,
          -0.05944674834609032,
          -0.05101003497838974,
          0.006946156267076731,
          0.006535393185913563,
          0.07455987483263016,
          0.0012390569318085909,
          -0.0359630212187767,
          0.0010050085838884115,
          -0.016998866572976112,
          0.05840041860938072,
          -0.14027272164821625,
          -0.1810988336801529,
          -0.15626616775989532,
          -0.12812931835651398,
          -0.40433523058891296,
          -0.39047837257385254,
          -0.36682432889938354,
          -0.028924208134412766,
          0.04735993966460228,
          -0.010568499565124512,
          0.12119345366954803,
          0.023005658760666847,
          -0.1639382392168045,
          0.1723925620317459,
          -0.18799754977226257,
          -0.18848992884159088,
          -0.4519265592098236,
          -0.08608201891183853,
          0.16338059306144714,
          0.20826826989650726,
          -0.17223292589187622,
          -0.20779311656951904,
          -0.05651221424341202,
          0.16836920380592346,
          0.11435248702764511,
          -0.12242403626441956,
          -0.4696352481842041,
          0.183803528547287,
          0.39322629570961,
          0.22230906784534454,
          -0.5927377939224243,
          -0.580873966217041,
          0.4507961571216583,
          0.3705378770828247,
          -0.04330265522003174,
          -0.13963067531585693,
          -0.15736740827560425,
          0.23593439161777496,
          0.3296581506729126,
          -0.1830838918685913,
          0.019850945100188255,
          -0.21039527654647827,
          0.16583433747291565,
          0.24149784445762634,
          0.04995504766702652,
          0.09846696257591248,
          -0.07081592082977295,
          -0.06009558588266373,
          0.24884985387325287,
          0.2763005793094635,
          -0.059698883444070816,
          -0.15399561822414398,
          -0.17167304456233978,
          0.03254997357726097,
          0.3198709785938263,
          -0.2142595797777176,
          -0.39042845368385315,
          -0.25265631079673767,
          -0.07181931287050247,
          0.020695501938462257,
          0.09574060887098312,
          0.023419775068759918,
          -0.28308090567588806,
          -0.06476925313472748,
          0.17822326719760895,
          0.27511072158813477,
          0.19645246863365173,
          -0.05894426256418228,
          0.10609102249145508,
          -0.20279522240161896,
          -0.0016352583188563585,
          -0.21540316939353943,
          -0.21889397501945496,
          0.07278794795274734,
          -0.10725364834070206,
          -0.24437005817890167,
          -0.5172920227050781,
          -0.6459627747535706,
          -0.23201680183410645,
          -0.13329361379146576,
          -0.7545565962791443,
          -0.6161175966262817,
          -0.3113948702812195,
          -0.16519583761692047,
          -0.1602984368801117,
          -0.07411415129899979,
          0.13594137132167816,
          -0.1354486346244812,
          -0.3356960713863373,
          -0.059893134981393814,
          0.07225442677736282,
          0.0787155032157898,
          -0.06134232506155968,
          0.08215317130088806,
          0.022628596052527428,
          0.07188215851783752,
          0.030377065762877464,
          0.017177576199173927,
          -0.17670273780822754,
          0.004472453147172928,
          -0.17714914679527283,
          -0.1508076936006546,
          0.06514742970466614,
          0.14307639002799988,
          -0.01783536560833454,
          -0.24206788837909698,
          -0.12797585129737854,
          -0.17871791124343872,
          -0.05650314688682556,
          0.0833527147769928,
          -0.2332334816455841,
          0.04959365725517273,
          -0.10702604800462723,
          0.1932256519794464,
          0.09100857377052307,
          0.04579615220427513,
          -0.04970799386501312,
          0.08198016881942749,
          -0.22672851383686066,
          0.3349848985671997,
          0.07428838312625885,
          -0.08309265226125717,
          -0.06723279505968094,
          -0.29186493158340454,
          0.06259823590517044,
          -0.12662868201732635,
          0.012887432239949703,
          -0.05755358189344406,
          -0.2522517144680023,
          -0.15552401542663574,
          0.028184058144688606,
          -0.21232272684574127,
          -0.13381074368953705,
          -0.19588406383991241,
          0.028312770649790764,
          0.24185752868652344,
          -0.18574747443199158,
          -0.31976547837257385,
          -0.2826217710971832,
          0.1699281483888626,
          0.16017861664295197,
          0.22076986730098724,
          -0.005177743267267942,
          -0.5030631422996521,
          -0.16687420010566711,
          -0.12116044014692307,
          -0.08955052495002747,
          -0.5795896053314209,
          -0.3859378695487976,
          -0.12253548204898834,
          -0.022621752694249153,
          -0.3224644958972931,
          -0.8269479870796204,
          -0.1234167218208313,
          0.15371395647525787,
          -0.03130142763257027,
          -0.5369038581848145,
          -0.5891683101654053,
          0.19603928923606873,
          0.47069236636161804,
          -0.7742870450019836,
          -0.7603885531425476,
          0.06487318873405457,
          0.3577350080013275,
          0.04580516740679741,
          -0.015537009574472904,
          0.10093103349208832,
          0.06494570523500443,
          -0.22386300563812256,
          0.00966879166662693,
          -0.07681046426296234,
          0.11210457980632782,
          0.08798209577798843,
          -0.24452009797096252,
          -0.11121261119842529,
          -0.07459967583417892,
          0.1098998636007309,
          0.0013454753207042813,
          -0.2768545150756836,
          -0.09795717895030975,
          -0.14001567661762238,
          -0.016105011105537415,
          -0.05591025575995445,
          -0.17235150933265686,
          0.04312337189912796,
          0.0006131341797299683,
          -0.019798044115304947,
          -0.14479707181453705,
          -0.1604750007390976,
          0.15362508594989777,
          0.06581978499889374,
          0.048074062913656235,
          -0.1632169932126999,
          0.023501116782426834,
          -0.09582695364952087,
          -0.05660006031394005,
          0.0794844999909401,
          0.15116934478282928,
          -0.1956672966480255,
          0.027299754321575165,
          0.18206702172756195,
          0.14400944113731384,
          -0.0361722894012928,
          -0.024326512590050697,
          -0.1319335699081421,
          -0.2451087087392807,
          -0.19453632831573486,
          -0.05214248225092888,
          0.050209276378154755,
          -0.06538639962673187,
          -0.06830283254384995,
          0.03520848974585533,
          -0.0007982069510035217,
          0.06834545731544495,
          -0.03691263124346733,
          0.044109199196100235,
          -0.058113180100917816,
          0.033869899809360504,
          0.08590083569288254,
          0.025980649515986443,
          -0.07758856564760208,
          -0.05091790482401848,
          0.08898743242025375,
          0.07294698059558868,
          0.16530480980873108,
          -0.213277205824852,
          0.07472936809062958,
          0.07959840446710587,
          0.024136440828442574,
          0.052658580243587494,
          -0.2577909529209137,
          0.10844119638204575,
          0.1288415491580963,
          -0.07149150967597961,
          -0.1339094042778015,
          -0.1038922592997551,
          0.20333032310009003,
          0.10328883677721024,
          -0.3220919668674469,
          0.019109508022665977,
          0.033432286232709885,
          -0.6363746523857117,
          -0.6630585193634033,
          -0.09509987384080887,
          -0.12927007675170898,
          -0.1953783929347992,
          -0.6261250972747803,
          -0.4486270844936371,
          -0.19540515542030334,
          0.30228814482688904,
          -0.21558795869350433,
          -0.7639283537864685,
          -0.5229443311691284,
          -0.6036121845245361,
          0.36975881457328796,
          -0.24159805476665497,
          -0.40873655676841736,
          -0.2320278137922287,
          0.04579610750079155,
          -0.1290934532880783,
          -0.7068611979484558,
          -0.2059929072856903,
          -0.12871389091014862,
          0.2668978273868561,
          0.22582469880580902,
          -0.20125488936901093,
          -0.09511072933673859,
          -0.2629738748073578,
          -0.3954755365848541,
          0.20513364672660828,
          -0.19805282354354858,
          -0.37449124455451965,
          -0.06667929142713547,
          -0.32157519459724426,
          -0.15542736649513245,
          -0.20983874797821045,
          -0.07092595100402832,
          0.07879627496004105,
          -0.059212539345026016,
          -0.37872037291526794,
          -0.5836601257324219,
          -0.3723836839199066,
          0.09247080236673355,
          0.04564443975687027,
          -0.38328424096107483,
          0.007750821299850941,
          -0.025872571393847466,
          0.12251487374305725,
          -0.0007669556071050465,
          -0.2191835641860962,
          -0.1752360463142395,
          -0.2593218684196472,
          -0.23166294395923615,
          -0.02101297862827778,
          0.48492151498794556,
          0.10352511703968048,
          -0.11740240454673767,
          0.012774506583809853,
          0.2647917866706848,
          0.35640454292297363,
          0.25331664085388184,
          0.09623249620199203,
          0.27029532194137573,
          0.3035489618778229,
          0.2012009620666504,
          0.030614666640758514,
          0.18221232295036316,
          0.32993459701538086,
          0.12222259491682053,
          -0.06972213089466095,
          0.20011821389198303,
          0.25390052795410156,
          0.14660759270191193,
          -0.3122706115245819,
          0.10015185177326202,
          -0.22209107875823975,
          -0.1161872074007988,
          -0.04863322526216507,
          0.2434655725955963,
          0.23234228789806366,
          -0.0953180342912674,
          -0.002233013743534684,
          -0.14463573694229126,
          0.0014166987966746092,
          -0.21841080486774445,
          -0.29562658071517944,
          -0.4568972587585449,
          -0.07336177676916122,
          0.03786737471818924,
          -0.1961110234260559,
          -0.2563028335571289,
          -0.2771005928516388,
          -0.12072339653968811,
          0.16899047791957855,
          -0.04677126184105873,
          -0.11780893802642822,
          -0.3969162106513977,
          -0.14122503995895386,
          -0.17919649183750153,
          -0.07537035644054413,
          -0.14407037198543549,
          -0.04848288372159004,
          0.08743758499622345,
          0.08312971144914627,
          0.10991279035806656,
          -0.06313374638557434,
          -0.10500571131706238,
          0.14097385108470917,
          0.18886081874370575,
          0.36968401074409485,
          -0.05935340002179146,
          -0.15928931534290314,
          0.3296363055706024,
          0.27196452021598816,
          0.3159962594509125,
          -0.24479585886001587,
          -0.2272205650806427,
          0.3037155270576477,
          0.22411172091960907,
          0.09895741194486618,
          -0.12253490835428238,
          0.05562266334891319,
          0.34898698329925537,
          0.09555783867835999,
          -0.046114444732666016,
          -0.38367408514022827,
          -0.24305124580860138,
          -0.1853780746459961,
          0.24071955680847168,
          0.24096401035785675,
          0.08520960062742233,
          -0.18198299407958984,
          -0.1705598384141922,
          0.03180398419499397,
          0.2061457633972168,
          -0.2007472962141037,
          -0.8893114328384399,
          -0.5204468369483948,
          -0.14217694103717804,
          0.07112449407577515,
          -0.4868701994419098,
          -1.055390477180481,
          -0.8364455103874207,
          -0.45016881823539734,
          0.592584490776062,
          0.241960346698761,
          -0.4894964098930359,
          -0.697014331817627,
          -0.42671340703964233,
          0.10725970566272736,
          0.05678708106279373,
          -0.5452501177787781,
          -0.6878688931465149,
          -0.5563140511512756,
          -0.16100595891475677,
          -0.12130510807037354,
          -0.3238750994205475,
          -0.8239423632621765,
          -0.03133871406316757,
          0.18392786383628845,
          -0.056578975170850754,
          -0.19330644607543945,
          -0.1619098037481308,
          0.07730193436145782,
          0.39837566018104553,
          -0.014807824045419693,
          -0.002028905088081956,
          0.04806611314415932,
          0.5371218323707581,
          -0.1371563822031021,
          -0.2783975899219513,
          0.07237573713064194,
          0.26312610507011414,
          0.6020777821540833,
          -0.11403671652078629,
          -0.2613939940929413,
          -0.41088637709617615,
          -0.2996692359447479,
          0.458362877368927,
          -0.30713945627212524,
          -0.1666501760482788,
          -0.24052470922470093,
          -0.19209307432174683,
          0.227657750248909,
          -0.1571696549654007,
          -0.346413791179657,
          -0.47919613122940063,
          0.42509183287620544,
          0.5108814835548401,
          -0.16950953006744385,
          -0.3341650366783142,
          0.12542936205863953,
          0.431262731552124,
          -0.06366987526416779,
          -0.5720227360725403,
          -0.38993358612060547,
          -0.0165189690887928,
          0.32220500707626343,
          -0.28717800974845886,
          0.03157438710331917,
          0.0606381893157959,
          0.044013217091560364,
          0.07335346937179565,
          -0.22369199991226196,
          0.007650821935385466,
          -0.10877528786659241,
          -0.12161029130220413,
          0.17138592898845673,
          0.05551480874419212,
          0.033696793019771576,
          -0.18669432401657104,
          -0.04064035043120384,
          0.07859688997268677,
          -0.006066892761737108,
          0.09143401682376862,
          -0.2711077034473419,
          -0.11802360415458679,
          0.11276239156723022,
          0.12381838262081146,
          0.08534856140613556,
          -0.36284908652305603,
          -0.08514823019504547,
          0.13501816987991333,
          0.09492812305688858,
          -0.11147600412368774,
          -0.11031342297792435,
          0.03562532737851143,
          0.008620170876383781,
          -0.12945598363876343,
          0.025268137454986572,
          -0.07210174202919006,
          0.10461671650409698,
          0.09579842537641525,
          -0.1784500926733017,
          -0.0015849677147343755,
          -0.09028426557779312,
          0.18744240701198578,
          -0.0033773265313357115,
          -0.1799212396144867,
          -0.18367624282836914,
          -0.12064629048109055,
          0.19182385504245758,
          0.03073827363550663,
          -0.19898176193237305,
          -0.04864450544118881,
          0.13888850808143616,
          0.23108895123004913,
          -0.1322537362575531,
          -0.31419163942337036,
          0.08047870546579361,
          0.012793258763849735,
          -0.16043949127197266,
          0.4045044481754303,
          0.2549589276313782,
          0.28133803606033325,
          0.012968861497938633,
          -0.5391673445701599,
          0.479061096906662,
          0.3606468141078949,
          0.046023305505514145,
          -0.18916413187980652,
          -0.45545458793640137,
          0.22508786618709564,
          0.5074707269668579,
          0.09924142807722092,
          -0.45644062757492065,
          -0.32892534136772156,
          0.13223545253276825,
          0.16331714391708374,
          0.1718476116657257,
          -0.3708688020706177,
          0.1191614493727684,
          0.10142194479703903,
          0.058889053761959076,
          0.0027991808019578457,
          -0.021825045347213745,
          0.02133524976670742,
          0.08360246568918228,
          -0.16748514771461487,
          0.05369020998477936,
          -0.07157668471336365,
          0.11218803375959396,
          0.11673372983932495,
          -0.12059095501899719,
          0.12630876898765564,
          -0.14797386527061462,
          0.123415507376194,
          -0.04342982918024063,
          -0.17058932781219482,
          -0.07725478708744049,
          -0.2842927575111389,
          0.06623542308807373,
          0.0402522087097168,
          -0.2097717970609665,
          0.03378898277878761,
          0.06570238620042801,
          0.20306062698364258,
          -0.006651627365499735,
          -0.31631821393966675,
          0.18483300507068634,
          0.21291767060756683,
          -0.22582703828811646,
          0.043948035687208176,
          -0.137553870677948,
          0.7287826538085938,
          0.2778712511062622,
          -0.3756219446659088,
          0.350386381149292,
          0.04207577928900719,
          0.3031887710094452,
          0.12307115644216537,
          -0.33260905742645264,
          0.05896245688199997,
          0.03998607024550438,
          -0.07247357070446014,
          -0.40491554141044617,
          -0.3701232075691223,
          0.031803034245967865,
          -0.13130991160869598,
          -0.07748015224933624,
          0.1178116723895073,
          -0.11901895701885223,
          0.1751536875963211,
          0.134058877825737,
          -0.1751999408006668,
          -0.04924815893173218,
          0.029546352103352547,
          -0.009651374071836472,
          0.008121411316096783,
          0.04820777475833893,
          -0.016652259975671768,
          -0.08700882643461227,
          0.03290823847055435,
          0.173994779586792,
          0.11090763658285141,
          0.010291660204529762,
          -0.03481569141149521,
          -0.006136180832982063,
          0.258345365524292,
          0.21378271281719208,
          -0.08852101862430573,
          -0.13188965618610382,
          -0.023755555972456932,
          0.3343617022037506,
          0.1556665450334549,
          -0.13058653473854065,
          -0.03901594877243042,
          0.05973551422357559,
          0.3038080632686615,
          0.05956130474805832,
          -0.05173828825354576,
          0.3568110764026642,
          0.04733062535524368,
          -0.1905653029680252,
          0.06375912576913834,
          0.3271786570549011,
          -0.05069274082779884,
          -0.3507002890110016,
          -0.26593780517578125,
          -0.21193666756153107,
          -0.06086521968245506,
          -0.12028449773788452,
          -0.8435021042823792,
          -0.22001534700393677,
          -0.13815075159072876,
          -0.18699903786182404,
          -0.3486611545085907,
          -1.203436255455017,
          -0.6237590312957764,
          0.03385811671614647,
          0.15022534132003784,
          -0.29524871706962585,
          -0.22394084930419922,
          0.23783260583877563
        ],
        [
          -0.04886333644390106,
          -0.11540566384792328,
          -0.3544102609157562,
          -0.6263647079467773,
          -0.4907403588294983,
          -0.4418831169605255,
          -0.36592623591423035,
          0.04866870492696762,
          0.11616761982440948,
          0.07268955558538437,
          0.06274976581335068,
          0.3134470283985138,
          0.3264242708683014,
          0.1678755283355713,
          0.15489177405834198,
          0.20177461206912994,
          0.10869333148002625,
          -0.06700393557548523,
          -0.10006894171237946,
          0.038973793387413025,
          -0.4223041832447052,
          -0.6337357759475708,
          -0.23294401168823242,
          -0.026370801031589508,
          0.02021375298500061,
          -0.08248313516378403,
          -0.009424103423953056,
          -0.1189100369811058,
          -0.07733821123838425,
          0.12462638318538666,
          -0.1301964521408081,
          -0.08304822444915771,
          -0.06359311193227768,
          -0.18453864753246307,
          -0.014808903448283672,
          0.0031731699127703905,
          -0.07691197097301483,
          -0.1752801090478897,
          -0.03976934403181076,
          0.0387563593685627,
          0.1403520107269287,
          0.0470164529979229,
          0.07677088677883148,
          0.18066060543060303,
          0.2050648033618927,
          0.09475024789571762,
          0.08659397810697556,
          0.1345079243183136,
          -0.03310157731175423,
          -0.12839952111244202,
          0.2821100056171417,
          -0.18311820924282074,
          0.0047062719240784645,
          0.905976414680481,
          0.6639295816421509,
          -0.013788970187306404,
          -0.38734108209609985,
          -0.2595054507255554,
          0.2802130877971649,
          0.27227121591567993,
          -0.28721824288368225,
          -0.3118443489074707,
          -0.2589024007320404,
          0.1651006042957306,
          -0.6677989363670349,
          -0.5419699549674988,
          -0.3170488178730011,
          -0.24158653616905212,
          0.2293597310781479,
          0.019321197643876076,
          -0.29687413573265076,
          -0.14437232911586761,
          -0.1335519552230835,
          0.05708031356334686,
          0.004055841360241175,
          0.017269477248191833,
          0.10152824968099594,
          -0.04398106783628464,
          -0.10796168446540833,
          0.18254756927490234,
          -0.002512244274839759,
          0.06863100081682205,
          -0.01128322072327137,
          -0.1296038031578064,
          -0.09850084781646729,
          -0.18639187514781952,
          -0.077081099152565,
          -0.16488194465637207,
          -0.015515248291194439,
          -0.034737229347229004,
          0.1396186202764511,
          0.17329087853431702,
          0.24950891733169556,
          0.17177067697048187,
          0.03687715157866478,
          0.0347931906580925,
          0.18940484523773193,
          -0.11338705569505692,
          -0.21659661829471588,
          -0.23233044147491455,
          0.02719668298959732,
          0.14453913271427155,
          0.25068479776382446,
          0.11634240299463272,
          -0.14472047984600067,
          0.12381966412067413,
          -0.0496080256998539,
          -0.19400185346603394,
          -0.3050428032875061,
          -0.3007379472255707,
          -0.07738536596298218,
          -0.4592702388763428,
          -0.607958197593689,
          -0.5613561272621155,
          -0.1558108925819397,
          -0.10325304418802261,
          -0.30919697880744934,
          -0.10150375962257385,
          -0.08985476940870285,
          0.02240297943353653,
          -0.03258366510272026,
          0.2073594182729721,
          0.1290193349123001,
          0.3337169587612152,
          -0.14429008960723877,
          -0.017840076237916946,
          0.12287148833274841,
          -0.06021754816174507,
          -0.44136667251586914,
          0.06027086824178696,
          -0.08552027493715286,
          -0.17668446898460388,
          -0.2136859893798828,
          -0.15399883687496185,
          -0.22429999709129333,
          -0.04900716617703438,
          -0.1339288204908371,
          -0.3973052501678467,
          -0.2393697202205658,
          -0.025397760793566704,
          0.04599299654364586,
          -0.09704309701919556,
          0.0035449948627501726,
          0.20539501309394836,
          0.17135871946811676,
          -0.06634920835494995,
          0.14244593679904938,
          0.05565433204174042,
          0.05038566514849663,
          0.007401896640658379,
          0.11915748566389084,
          0.0259369146078825,
          0.0589882992208004,
          0.0912914052605629,
          -0.015743425115942955,
          0.08422637730836868,
          -0.08523614704608917,
          -0.1288217008113861,
          0.06667216122150421,
          -0.17397001385688782,
          0.2281869649887085,
          -0.14444264769554138,
          0.06834726780653,
          0.08049818873405457,
          -0.1859583705663681,
          -0.0038242246955633163,
          -0.1408931165933609,
          -0.17102858424186707,
          0.05918058753013611,
          -0.17725029587745667,
          -0.15245112776756287,
          -0.14480043947696686,
          -0.11078527569770813,
          0.09219609946012497,
          0.0051668439991772175,
          0.07785871624946594,
          -0.14808373153209686,
          -0.13867199420928955,
          -0.20474959909915924,
          -0.4078289270401001,
          0.05944833531975746,
          -0.24274590611457825,
          -0.04213593900203705,
          -0.04041186347603798,
          0.031405117362737656,
          -0.0385599248111248,
          0.31047162413597107,
          0.353230744600296,
          0.292524129152298,
          0.13465717434883118,
          0.2860770523548126,
          0.2937987148761749,
          -0.011016038246452808,
          -0.03146514669060707,
          -0.09488464891910553,
          -0.04017290845513344,
          -0.23407968878746033,
          0.025434592738747597,
          0.044636234641075134,
          0.1670282781124115,
          -0.2835487425327301,
          -0.03466709703207016,
          0.01186839397996664,
          -0.5158631801605225,
          -0.6656027436256409,
          -0.42365774512290955,
          -0.6812742948532104,
          -0.8481289148330688,
          -0.4109818637371063,
          -0.3105420172214508,
          -0.22698870301246643,
          0.003452506847679615,
          -0.44801291823387146,
          -0.08758720755577087,
          0.1726430356502533,
          -0.13317421078681946,
          -0.05991842597723007,
          0.041001927107572556,
          0.19618485867977142,
          0.23969513177871704,
          -0.13526691496372223,
          -0.19199395179748535,
          -0.24208912253379822,
          0.008477382361888885,
          0.12174633890390396,
          -0.10341263562440872,
          0.09745287150144577,
          0.05598384514451027,
          -0.5288404822349548,
          -0.39945992827415466,
          -0.5215227603912354,
          -0.4771575629711151,
          -0.41465869545936584,
          -0.15317215025424957,
          0.24678480625152588,
          -0.22977404296398163,
          -0.08083188533782959,
          0.09334248304367065,
          0.6356571316719055,
          0.6012448072433472,
          0.3068774342536926,
          0.43218380212783813,
          0.2976863384246826,
          0.08021509647369385,
          -0.0635794922709465,
          -0.32410120964050293,
          -0.14708803594112396,
          -0.22114220261573792,
          -0.3922435939311981,
          -0.1530759036540985,
          0.2615763545036316,
          0.3744271397590637,
          -0.02599472366273403,
          0.07600027322769165,
          -0.09803666174411774,
          -0.1340547502040863,
          -0.3294561803340912,
          -0.35146257281303406,
          -0.002208768157288432,
          -0.0764942318201065,
          -0.12434402853250504,
          0.13388396799564362,
          0.9179157018661499,
          0.6860790848731995,
          0.5689545273780823,
          -0.14898677170276642,
          0.5632968544960022,
          0.6238927245140076,
          0.42739883065223694,
          0.46912235021591187,
          -0.5878520011901855,
          -0.21698884665966034,
          -0.3034895956516266,
          0.6143139004707336,
          0.7194080352783203,
          0.1595504730939865,
          -0.1899992674589157,
          -0.10767298191785812,
          -0.06955580413341522,
          0.053996168076992035,
          -0.08728516846895218,
          -0.35088974237442017,
          -0.17440229654312134,
          -0.2399766892194748,
          -0.08505647629499435,
          -0.096656933426857,
          -0.23479914665222168,
          -0.01548832468688488,
          -0.17615067958831787,
          0.10719165951013565,
          0.367575466632843,
          0.2739342153072357,
          0.4890628755092621,
          0.49026525020599365,
          0.3145354986190796,
          0.14116449654102325,
          0.304421603679657,
          0.30424270033836365,
          0.345257967710495,
          0.21451285481452942,
          -0.1800510585308075,
          -0.10664248466491699,
          -0.14005935192108154,
          -0.09896127879619598,
          -0.16872191429138184,
          -0.32683324813842773,
          -0.20988406240940094,
          -0.06546706706285477,
          0.03522253409028053,
          0.16517528891563416,
          0.008247356861829758,
          0.15661971271038055,
          0.2167697250843048,
          0.14830364286899567,
          0.38532131910324097,
          -0.044026654213666916,
          -0.13915272057056427,
          -0.04664187878370285,
          0.25179678201675415,
          0.01141830813139677,
          -0.10447870194911957,
          -0.03952435776591301,
          0.028810953721404076,
          0.09427247196435928,
          -0.20394432544708252,
          0.11996766179800034,
          0.21947427093982697,
          0.23167863488197327,
          -0.01953679695725441,
          -0.21749497950077057,
          0.12030263990163803,
          0.2431214153766632,
          0.3211807906627655,
          -0.0066870576702058315,
          -0.09193570166826248,
          -0.08248236030340195,
          -0.05636722221970558,
          -0.1999627649784088,
          -0.11042316257953644,
          -0.26136013865470886,
          0.029336420819163322,
          0.06669173389673233,
          0.37614956498146057,
          0.004559873137623072,
          -0.21635740995407104,
          -0.030730225145816803,
          0.14849399030208588,
          0.22666598856449127,
          -0.1031114012002945,
          -0.21574068069458008,
          -0.07520252466201782,
          -0.05405249819159508,
          -0.1449624001979828,
          -0.11720296740531921,
          -0.05212113633751869,
          -0.07045511901378632,
          -0.2252366691827774,
          -0.10393054783344269,
          -0.06092580407857895,
          0.04886428639292717,
          0.12448224425315857,
          0.1679723858833313,
          0.15877750515937805,
          0.22809278964996338,
          0.24235349893569946,
          0.07305564731359482,
          0.21221913397312164,
          0.2604854106903076,
          0.1655547022819519,
          0.059464503079652786,
          0.012655415572226048,
          -0.14219218492507935,
          -0.05679117143154144,
          -0.0036804599221795797,
          -0.04507400467991829,
          -0.29061824083328247,
          -0.21339406073093414,
          -0.2159315049648285,
          -0.16745758056640625,
          0.0013395335990935564,
          -0.20053143799304962,
          -0.4064949154853821,
          -0.3181179165840149,
          0.06646628677845001,
          -0.05954845994710922,
          -0.10966770350933075,
          -0.12221858650445938,
          -0.17332440614700317,
          0.06672549247741699,
          0.41778993606567383,
          -0.07675408571958542,
          -0.21564742922782898,
          0.0645696371793747,
          0.004356570541858673,
          0.1004403680562973,
          0.339406281709671,
          0.1511765569448471,
          0.41186782717704773,
          0.1507657915353775,
          0.15170559287071228,
          -0.023312417790293694,
          0.22179414331912994,
          -0.013691947795450687,
          0.09761521220207214,
          0.2397506982088089,
          0.09692943096160889,
          0.06915677338838577,
          -0.2860947251319885,
          0.1258680522441864,
          -0.0055364035069942474,
          0.22015774250030518,
          -0.04791694134473801,
          -0.05092557892203331,
          0.07515928149223328,
          -0.045777786523103714,
          0.0811024159193039,
          0.1101975291967392,
          0.13320204615592957,
          0.04837872087955475,
          -0.0031357596162706614,
          0.3121062219142914,
          0.2529408037662506,
          -0.04341346025466919,
          0.013040863908827305,
          0.007826416753232479,
          -0.2965385615825653,
          -0.3164801299571991,
          -0.1785111278295517,
          0.6013296246528625,
          0.49135035276412964,
          -0.0658983662724495,
          -0.44967377185821533,
          -0.20888136327266693,
          0.26088041067123413,
          -0.08563140779733658,
          -0.38573989272117615,
          -0.23028632998466492,
          0.009126916527748108,
          0.2736515700817108,
          0.25387874245643616,
          -0.02837819792330265,
          -0.13308288156986237,
          0.033961035311222076,
          0.38337934017181396,
          0.3785519599914551,
          -0.28532230854034424,
          -0.1300375759601593,
          -0.12186965346336365,
          -0.04709770530462265,
          -0.02664952725172043,
          0.178960382938385,
          0.16979385912418365,
          0.1630171537399292,
          -0.07043574005365372,
          0.08481191098690033,
          -0.04397682100534439,
          -0.24104008078575134,
          -0.41451865434646606,
          -0.0005946973105892539,
          -0.04930936545133591,
          0.17612846195697784,
          0.20888462662696838,
          0.22910402715206146,
          0.2585993707180023,
          0.40616151690483093,
          -0.1578904390335083,
          0.34434980154037476,
          0.6138730049133301,
          0.3545500636100769,
          0.40315714478492737,
          -0.25619351863861084,
          0.09899796545505524,
          0.1930287629365921,
          0.37056273221969604,
          0.22641371190547943,
          0.09142819046974182,
          0.19154474139213562,
          0.1372961699962616,
          -0.2537069022655487,
          0.10159911215305328,
          -0.08311814814805984,
          0.008579847402870655,
          -0.4178634583950043,
          -0.1973646730184555,
          -0.24055233597755432,
          -0.1899837702512741,
          -0.5109284520149231,
          -0.6446773409843445,
          -0.24209651350975037,
          -0.22934481501579285,
          -0.08647994697093964,
          -0.31786540150642395,
          -0.38405078649520874,
          -0.08853111416101456,
          -0.00845383107662201,
          -0.17734159529209137,
          0.23916980624198914,
          0.08161322772502899,
          -0.19177468121051788,
          0.0020852431189268827,
          -0.32644495368003845,
          -0.15376430749893188,
          -0.1822570264339447,
          -0.2681214511394501,
          -0.41955676674842834,
          -0.4928041398525238,
          -0.4283936321735382,
          -0.05125633627176285,
          0.14546774327754974,
          0.2885085940361023,
          0.04329552873969078,
          0.2996833920478821,
          0.1987304538488388,
          0.24924631416797638,
          -0.009498737752437592,
          -0.23836462199687958,
          -0.5000479221343994,
          -0.46604207158088684,
          -0.35706666111946106,
          -0.5109441876411438,
          -0.5284678936004639,
          -0.42448270320892334,
          -0.34762147068977356,
          -0.2919451594352722,
          -0.41984620690345764,
          -0.09476380050182343,
          0.09381202608346939,
          0.14473211765289307,
          -0.08915755897760391,
          -0.03204527124762535,
          -0.057463888078927994,
          -0.005427311174571514,
          -0.09857730567455292,
          -0.15127277374267578,
          -0.013395910151302814,
          0.033937692642211914,
          -0.007071437314152718,
          0.013599173165857792,
          0.1482783406972885,
          -0.0990774929523468,
          -0.11839672178030014,
          -0.05881557613611221,
          -0.16110268235206604,
          -0.19743013381958008,
          -0.0958390012383461,
          -0.05226622521877289,
          -0.0638502910733223,
          -0.03979567810893059,
          -0.11876020580530167,
          0.018522633239626884,
          -0.34044304490089417,
          0.02710920386016369,
          -0.22437088191509247,
          -0.3102603852748871,
          -0.23929224908351898,
          -0.6428362131118774,
          -0.4827966094017029,
          -0.10578221082687378,
          0.47638630867004395,
          0.5068093538284302,
          -0.36003178358078003,
          -0.4490542411804199,
          0.0864519253373146,
          0.2186061590909958,
          0.061507608741521835,
          0.48535990715026855,
          0.5409807562828064,
          0.47925177216529846,
          0.3831382691860199,
          0.12021481990814209,
          -0.11442890763282776,
          0.008682610467076302,
          0.06174357235431671,
          0.37503576278686523,
          0.18222077190876007,
          -0.07275805622339249,
          -0.4204919934272766,
          0.13336685299873352,
          0.6936823725700378,
          0.5412183403968811,
          -0.1077849492430687,
          -0.3791961371898651,
          -0.010503829456865788,
          -0.23952434957027435,
          0.03252555802464485,
          -0.256060928106308,
          -0.3509189486503601,
          -0.14414796233177185,
          -0.07429292798042297,
          -0.29100537300109863,
          -0.24673937261104584,
          -0.17793947458267212,
          -0.07626114785671234,
          0.37569254636764526,
          0.2524210810661316,
          -0.14214636385440826,
          0.03379840403795242,
          0.11967316269874573,
          0.16322964429855347,
          0.15577302873134613,
          0.13393597304821014,
          0.05556255206465721,
          0.36360105872154236,
          0.2837252914905548,
          0.11349695920944214,
          0.1522330790758133,
          0.22875039279460907,
          0.13494618237018585,
          0.05220166966319084,
          -0.327724814414978,
          -0.004265639930963516,
          0.05488971993327141,
          0.5046197175979614,
          0.23135635256767273,
          -0.1561640352010727,
          -0.3875388503074646,
          0.1749941110610962,
          0.5750489830970764,
          0.289400577545166,
          -0.04042961448431015,
          -0.5940845012664795,
          -0.17285874485969543,
          -0.22926373779773712,
          -0.13602721691131592,
          0.3685291111469269,
          -0.03525722399353981,
          -0.06327848881483078,
          -0.03850119933485985,
          -0.05363661050796509,
          0.022429727017879486,
          -0.1269368976354599,
          -0.06712658703327179,
          -0.05128943547606468,
          -0.1748744696378708,
          -0.005898748990148306,
          -0.042308587580919266,
          0.032000742852687836,
          -0.04288848116993904,
          -0.014997267164289951,
          0.038102224469184875,
          0.13635388016700745,
          0.09249261021614075,
          0.0627860352396965,
          0.04733821749687195,
          0.0246160626411438,
          0.07689065486192703,
          0.05801768600940704,
          0.015143235214054585,
          -0.13911543786525726,
          -0.10084058344364166,
          0.030353643000125885,
          -0.09380311518907547,
          -0.27403873205184937,
          -0.020080946385860443,
          -0.07082940638065338,
          -0.032297197729349136,
          -0.19920942187309265,
          -0.11501576751470566,
          0.032894883304834366,
          0.004753947723656893,
          0.03661694750189781,
          0.16410869359970093,
          0.22997276484966278,
          0.12532822787761688,
          0.10359367728233337,
          0.20756690204143524,
          0.2293221652507782,
          -0.0014428551075980067,
          -0.029999971389770508,
          -0.020046355202794075,
          -0.008828169666230679,
          -0.24754859507083893,
          -0.1968013346195221,
          -0.13617871701717377,
          0.025659142062067986,
          0.047722529619932175,
          0.4002247452735901,
          -0.04210551455616951,
          -0.03010566160082817,
          -0.05858907848596573,
          0.08922556787729263,
          -0.005416494328528643,
          -0.2510703206062317,
          0.018013684079051018,
          -0.14679346978664398,
          -0.10906209051609039,
          -0.19646818935871124,
          -0.2305568903684616,
          -0.405947208404541,
          -0.1772707998752594,
          0.023422876372933388,
          0.18152429163455963,
          0.10238923877477646,
          0.016799617558717728,
          0.06652843952178955,
          0.30978959798812866,
          0.5559501647949219,
          0.08651860803365707,
          0.09499145299196243,
          -0.01861964352428913,
          0.020481638610363007,
          -0.01069431472569704,
          -0.12932325899600983,
          0.016086122021079063,
          0.085493303835392,
          -0.10592429339885712,
          -0.17485561966896057,
          -0.22899304330348969,
          -0.03010416030883789,
          0.04707546904683113,
          -0.015472877770662308,
          -0.0018226341344416142,
          0.13492222130298615,
          0.2570435106754303,
          0.19236312806606293,
          0.144991934299469,
          0.22918257117271423,
          0.1850435584783554,
          0.08117134869098663,
          -0.03733045607805252,
          0.03332192450761795,
          -0.060274191200733185,
          -0.14289206266403198,
          -0.07557875663042068,
          -0.011499196290969849,
          -0.0038998285308480263,
          0.22413621842861176,
          -0.07048377394676208,
          -0.3125530183315277,
          -0.15939895808696747,
          0.09214739501476288,
          0.0903143361210823,
          -0.5375796556472778,
          -0.18177922070026398,
          -0.05724331736564636,
          0.006191268563270569,
          -0.28416112065315247,
          -0.47498032450675964,
          -0.4146839678287506,
          -0.025165671482682228,
          -0.10006602853536606,
          0.2914162874221802,
          0.14048445224761963,
          0.457980215549469,
          0.4498039484024048,
          -0.09140695631504059,
          0.5377693772315979,
          0.03996453434228897,
          0.09074559807777405,
          -0.1365319937467575,
          -0.0863223746418953,
          -0.020306341350078583,
          0.09740910679101944,
          0.003370091086253524,
          -0.20705436170101166,
          0.012179676443338394,
          -0.13085933029651642,
          -0.12470462918281555,
          -0.014383755624294281,
          -0.042081765830516815,
          0.06124384328722954,
          0.09202476590871811,
          0.023290570825338364,
          -0.18686699867248535,
          -0.09127512574195862,
          -0.10997706651687622,
          0.03724020719528198,
          -0.1288357675075531,
          -0.18891513347625732,
          -0.16064579784870148,
          0.07826586812734604,
          0.008518308401107788,
          -0.027711302042007446,
          -0.032175395637750626,
          -0.08776383846998215,
          -0.05094369128346443,
          -0.14223532378673553,
          -0.2316330224275589,
          -0.33374324440956116,
          -0.28740784525871277,
          -0.4745432436466217,
          -0.9014225602149963,
          -0.4341786801815033,
          -0.011868705041706562,
          0.03139223903417587,
          -0.41604456305503845,
          0.025854501873254776,
          -0.10233733803033829,
          0.2773462235927582,
          -0.084312804043293,
          0.1745324283838272,
          -0.1826939731836319,
          0.11730918288230896,
          -0.03247777745127678,
          0.04933185502886772,
          0.006086007226258516,
          -0.28270959854125977,
          -0.1951601505279541,
          0.05229922756552696,
          0.44424861669540405
        ],
        [
          -0.17024140059947968,
          -0.1223931685090065,
          -0.30556777119636536,
          -0.1846436709165573,
          0.26117488741874695,
          -0.1780528873205185,
          -0.354366272687912,
          -0.4853709638118744,
          -0.04065994173288345,
          0.5483517646789551,
          -0.2645644247531891,
          0.03377196565270424,
          -0.014505719766020775,
          -0.31400927901268005,
          0.29415589570999146,
          -0.4008905291557312,
          0.20886863768100739,
          0.05334296077489853,
          -0.3512035012245178,
          -0.12274254113435745,
          -0.2984033226966858,
          0.04743760824203491,
          0.22445860505104065,
          0.1408289074897766,
          -0.17353397607803345,
          -0.09897788614034653,
          -0.05053875595331192,
          0.00011809178977273405,
          0.022585760802030563,
          0.07294442504644394,
          -0.15175925195217133,
          -0.04306474328041077,
          -0.06491345912218094,
          -0.014631290920078754,
          0.002983713522553444,
          -0.05859635770320892,
          0.015594159252941608,
          -0.04717851057648659,
          -0.3283202052116394,
          0.038165945559740067,
          0.07899779081344604,
          0.1360323429107666,
          -0.02829037234187126,
          -0.3176625669002533,
          0.05926479026675224,
          -0.06881099194288254,
          0.10468609631061554,
          0.010121320374310017,
          -0.07513656467199326,
          -0.08432523161172867,
          -0.15009677410125732,
          -0.40911006927490234,
          -0.25785505771636963,
          -0.2312733232975006,
          -0.11307752132415771,
          0.015382830053567886,
          -0.16442343592643738,
          -0.2134314775466919,
          -0.02667623572051525,
          -0.10938219726085663,
          0.36921587586402893,
          -0.15369877219200134,
          -0.19641707837581635,
          -0.06887874007225037,
          0.25424152612686157,
          0.469187468290329,
          0.16787518560886383,
          -0.1595185250043869,
          0.28006961941719055,
          0.30423417687416077,
          0.3698999285697937,
          0.3107999861240387,
          -0.16478967666625977,
          -0.1516285240650177,
          -0.042179450392723083,
          -0.3994724750518799,
          -0.12755326926708221,
          0.18432804942131042,
          0.20735064148902893,
          0.21373584866523743,
          -0.508609414100647,
          -0.010472889989614487,
          0.08578406274318695,
          0.06049194559454918,
          -0.030561789870262146,
          -0.4017256498336792,
          -0.09830667078495026,
          -0.11958540230989456,
          -0.4220147430896759,
          0.04401944577693939,
          -0.19015300273895264,
          -0.004678673110902309,
          0.09263715893030167,
          -0.07940204441547394,
          0.04829467833042145,
          -0.19690513610839844,
          0.1262994110584259,
          -0.03155555948615074,
          -0.07120265066623688,
          -0.04710175469517708,
          0.06578300148248672,
          0.017725655809044838,
          -0.07851938903331757,
          0.00907481461763382,
          0.12990474700927734,
          -0.26584500074386597,
          -0.31439459323883057,
          0.09623909741640091,
          0.14985065162181854,
          0.05838765949010849,
          -0.4444104731082916,
          -0.04122449830174446,
          0.1511363834142685,
          0.18474602699279785,
          0.09322153776884079,
          -0.10248623043298721,
          0.044206880033016205,
          0.38235536217689514,
          0.28155559301376343,
          0.06163187697529793,
          0.49855101108551025,
          0.07576131820678711,
          0.22518830001354218,
          0.17030751705169678,
          0.11075940728187561,
          0.17858494818210602,
          -0.1979791671037674,
          -0.2997455596923828,
          -0.1392347514629364,
          -0.011485667899250984,
          0.010604540817439556,
          0.04433510825037956,
          -0.06517008692026138,
          -0.060469113290309906,
          -0.0029321303591132164,
          0.14348000288009644,
          0.3132608234882355,
          0.15024252235889435,
          -0.24403870105743408,
          0.06861557066440582,
          0.1703680455684662,
          0.30377480387687683,
          0.3238445818424225,
          -0.15414877235889435,
          0.062441837042570114,
          0.14909158647060394,
          0.10530994087457657,
          -0.00964559055864811,
          0.1908121407032013,
          0.05352351441979408,
          0.1565549373626709,
          0.05560603365302086,
          -0.0016053866129368544,
          -0.1135130301117897,
          0.13966378569602966,
          0.16899645328521729,
          0.14875994622707367,
          -0.2026241272687912,
          -0.09044952690601349,
          0.06513453274965286,
          0.1919398307800293,
          -0.04771348088979721,
          -0.1638767123222351,
          0.1111326813697815,
          0.13383813202381134,
          0.13342183828353882,
          -0.10263079404830933,
          -0.2118806391954422,
          0.15765927731990814,
          0.2793075442314148,
          0.1278725415468216,
          0.07802406698465347,
          -0.23304280638694763,
          -0.04004698246717453,
          0.19563542306423187,
          -0.03824319317936897,
          0.04717571660876274,
          -0.10889812558889389,
          -0.21532051265239716,
          -0.1547611802816391,
          0.05129184201359749,
          -0.2007978856563568,
          -0.15065905451774597,
          0.0530204102396965,
          0.39245638251304626,
          -0.06290051341056824,
          -0.1892525851726532,
          -0.07987411320209503,
          -0.06829959154129028,
          0.20793463289737701,
          -0.13361410796642303,
          0.1108437106013298,
          -0.10598403215408325,
          -0.13260945677757263,
          -0.03725455701351166,
          -0.20751634240150452,
          0.15778787434101105,
          0.16220511496067047,
          -0.0035656290128827095,
          -0.07870756089687347,
          -0.06984829902648926,
          -0.016902578994631767,
          -0.388592928647995,
          -0.31993499398231506,
          0.08856812864542007,
          -0.08719446510076523,
          0.15453986823558807,
          -0.22368639707565308,
          -0.4338040053844452,
          0.006883756723254919,
          -0.0863058939576149,
          0.5638733506202698,
          0.420431524515152,
          -0.16398179531097412,
          -0.11589765548706055,
          -0.33866506814956665,
          0.42085501551628113,
          0.41601619124412537,
          0.04810769110918045,
          -0.3586885631084442,
          -0.22070027887821198,
          0.16424119472503662,
          0.12580759823322296,
          0.310817688703537,
          -0.05214860290288925,
          0.2890132665634155,
          0.15263254940509796,
          0.007578213699162006,
          -0.32170647382736206,
          -0.25289976596832275,
          -0.13376419246196747,
          0.040281254798173904,
          -0.19909675419330597,
          -0.13326843082904816,
          0.48487263917922974,
          0.06326080113649368,
          -0.14443179965019226,
          -0.17226874828338623,
          0.14595076441764832,
          0.1517796367406845,
          -0.11762641370296478,
          -0.24613898992538452,
          -0.024603160098195076,
          0.07868792861700058,
          0.030076151713728905,
          -0.19206640124320984,
          -0.530901312828064,
          -0.31012439727783203,
          0.008601842448115349,
          0.06113790348172188,
          -0.009914703667163849,
          -0.09593497961759567,
          -0.11936464160680771,
          -0.22990848124027252,
          -0.1436275690793991,
          -0.391509085893631,
          -0.1343804895877838,
          -0.3529264032840729,
          -0.009210930205881596,
          0.40387454628944397,
          0.0558638796210289,
          -0.7228520512580872,
          -0.21604317426681519,
          0.2814352810382843,
          0.02867225557565689,
          -0.22070369124412537,
          -0.2767384648323059,
          0.04198241978883743,
          0.0320422425866127,
          -0.4700908660888672,
          -0.25453341007232666,
          -0.5360938906669617,
          -0.5560863614082336,
          -0.3128802180290222,
          -0.47447624802589417,
          0.012431450188159943,
          0.19263561069965363,
          0.10656068474054337,
          0.08563616126775742,
          0.0036528492346405983,
          0.1793203353881836,
          -0.16822116076946259,
          -0.0871332660317421,
          -0.03355039283633232,
          -0.09039294719696045,
          0.06386691331863403,
          0.0011432217434048653,
          -0.27561354637145996,
          -0.1265440285205841,
          -0.1137385442852974,
          0.19738778471946716,
          0.22558586299419403,
          -0.0927472785115242,
          -0.13639886677265167,
          0.01633291505277157,
          0.1691005825996399,
          0.13887308537960052,
          -0.011354409158229828,
          -0.08603131026029587,
          -0.19153907895088196,
          0.30446767807006836,
          0.09304571151733398,
          -0.2762983441352844,
          -0.2954791188240051,
          0.1078009158372879,
          0.22551749646663666,
          0.05801261588931084,
          -0.3340877294540405,
          -0.16175539791584015,
          0.07283814251422882,
          0.08513331413269043,
          0.33342036604881287,
          -0.0011609344510361552,
          -0.3619741201400757,
          0.1787392795085907,
          0.09107233583927155,
          0.12550318241119385,
          0.2320266216993332,
          0.12095844000577927,
          -0.06248864904046059,
          -0.20991794764995575,
          0.042124632745981216,
          0.033611103892326355,
          0.17027144134044647,
          -0.027229608967900276,
          -0.5468754768371582,
          -0.33787286281585693,
          -0.0016765808686614037,
          0.31472671031951904,
          0.6380200386047363,
          -0.6433483362197876,
          -0.39242511987686157,
          0.1663600504398346,
          0.15102705359458923,
          0.37557584047317505,
          -0.7834399342536926,
          -0.4111892282962799,
          -0.3250623047351837,
          -0.6070826649665833,
          -0.2685066759586334,
          -0.5737871527671814,
          -0.14457637071609497,
          -0.03048211708664894,
          -0.38358476758003235,
          -0.15047402679920197,
          -0.12938925623893738,
          0.15739694237709045,
          0.16656678915023804,
          0.05788985639810562,
          -0.09968487918376923,
          0.17034316062927246,
          0.02074342966079712,
          -0.16306421160697937,
          -0.028898203745484352,
          -0.061062656342983246,
          0.10470421612262726,
          -0.11374877393245697,
          -0.29325157403945923,
          -0.1436646431684494,
          0.22723489999771118,
          0.04262876138091087,
          -0.06846905499696732,
          -0.21095994114875793,
          -0.14921699464321136,
          0.2341524362564087,
          -0.08982425183057785,
          0.06724734604358673,
          -0.009200208820402622,
          -0.13337881863117218,
          0.09277460724115372,
          -0.08093410730361938,
          0.09450826793909073,
          0.08870769292116165,
          -0.014208066277205944,
          -0.018378719687461853,
          0.36672577261924744,
          0.34214290976524353,
          -0.023797810077667236,
          -0.13497839868068695,
          -0.1095537543296814,
          0.1941012293100357,
          -0.15810881555080414,
          -0.13843944668769836,
          -0.08335985988378525,
          0.015111993066966534,
          0.08731911331415176,
          -0.02280525676906109,
          -0.0070963408797979355,
          0.0545295849442482,
          0.2639017403125763,
          0.005251931492239237,
          0.18873021006584167,
          -0.032174576073884964,
          -0.15307438373565674,
          0.23317469656467438,
          0.07092694193124771,
          0.10768552124500275,
          0.036721717566251755,
          -0.04693327099084854,
          0.14099805057048798,
          -0.16155174374580383,
          0.14598563313484192,
          0.24157999455928802,
          0.0440392903983593,
          0.019942592829465866,
          0.02720213495194912,
          0.16517972946166992,
          0.0810287818312645,
          -0.0813356563448906,
          0.10762482136487961,
          0.07688654959201813,
          0.009371915832161903,
          -0.14047199487686157,
          -0.2106674462556839,
          0.14012357592582703,
          0.05052928626537323,
          -0.05788711830973625,
          -0.017739487811923027,
          -0.04342370852828026,
          0.1414477825164795,
          0.05027510225772858,
          0.03797883540391922,
          -0.08262645453214645,
          -0.0027227692771703005,
          0.19240625202655792,
          -0.0059214490465819836,
          -0.1251303106546402,
          -0.2345760017633438,
          -0.012178058736026287,
          0.2503523826599121,
          -0.3770446181297302,
          -0.37534287571907043,
          -0.5567306280136108,
          -0.23324914276599884,
          0.09734828770160675,
          -0.05781315639615059,
          -0.049583662301301956,
          -0.5173318982124329,
          -0.0649593397974968,
          0.1370055377483368,
          0.3366455137729645,
          0.1496557891368866,
          -0.12261594831943512,
          0.17911604046821594,
          0.27677592635154724,
          0.07139818370342255,
          0.16276058554649353,
          -0.157051682472229,
          -0.3420242667198181,
          -0.30436959862709045,
          -0.04284987226128578,
          -0.14100594818592072,
          -0.15443575382232666,
          0.07112110406160355,
          0.021318048238754272,
          0.046602364629507065,
          -0.2803567349910736,
          -0.3521116077899933,
          -0.3529703617095947,
          -0.2646338641643524,
          -0.27381226420402527,
          -0.04717789590358734,
          -0.2239232361316681,
          -0.4141553044319153,
          0.06253087520599365,
          -0.198839008808136,
          -0.29724857211112976,
          0.010905544273555279,
          -0.11545310169458389,
          -0.0990457609295845,
          0.4064313769340515,
          -0.13153135776519775,
          -0.27664715051651,
          0.0931401327252388,
          -0.16904869675636292,
          -0.11451403796672821,
          0.06610932946205139,
          0.12631304562091827,
          0.26090866327285767,
          -0.29111209511756897,
          0.09282342344522476,
          0.22259774804115295,
          0.01649441197514534,
          -0.26376721262931824,
          -0.050563566386699677,
          0.012695852667093277,
          0.26543039083480835,
          -0.07484468817710876,
          -0.09211117029190063,
          0.17438653111457825,
          0.006275044288486242,
          -0.052676327526569366,
          -0.04113020375370979,
          -0.0073093874379992485,
          0.004256177693605423,
          -0.0359865166246891,
          -0.03997001796960831,
          -0.09093643724918365,
          0.23595251142978668,
          0.13853603601455688,
          -0.12868307530879974,
          -0.2192712277173996,
          -0.19575966894626617,
          -0.2714082598686218,
          0.34861814975738525,
          -0.06954242289066315,
          -0.08683153241872787,
          -0.2070239782333374,
          -0.15529055893421173,
          0.18073660135269165,
          -0.22548820078372955,
          0.05025869235396385,
          -0.15009252727031708,
          -0.3100896179676056,
          -0.18253642320632935,
          -0.2075771987438202,
          -0.0020084392745047808,
          0.16189846396446228,
          -0.2698533535003662,
          -0.39644330739974976,
          -0.04829424247145653,
          -0.028600212186574936,
          -0.0149315744638443,
          0.07795264571905136,
          -0.08596289157867432,
          -0.1967684030532837,
          0.12339130789041519,
          0.07614034414291382,
          0.00063215137924999,
          -0.08734434098005295,
          -0.20156089961528778,
          0.31154322624206543,
          0.13432088494300842,
          -0.19703328609466553,
          -0.08466391265392303,
          -0.05225947126746178,
          0.34467971324920654,
          0.08943550288677216,
          -0.3009553849697113,
          -0.16440051794052124,
          -0.07592902332544327,
          0.301796019077301,
          0.1452360898256302,
          -0.1968008577823639,
          -0.1464504599571228,
          -0.07368765026330948,
          0.07953690737485886,
          0.07640779763460159,
          0.014876183122396469,
          0.005598016548901796,
          -0.17961817979812622,
          -0.38416239619255066,
          -0.8472604155540466,
          -0.5857086181640625,
          0.03597891330718994,
          -0.14778479933738708,
          -0.212444007396698,
          -0.3522520661354065,
          0.19704703986644745,
          0.5216988921165466,
          -0.6946032047271729,
          -0.4208647906780243,
          -0.17749062180519104,
          -0.23419079184532166,
          -0.019528204575181007,
          -0.7750586271286011,
          -0.32102036476135254,
          0.08335548639297485,
          -0.04667584225535393,
          -0.0806482806801796,
          0.09338407963514328,
          -0.504447877407074,
          -0.201858252286911,
          0.2300276756286621,
          0.06928512454032898,
          -0.3530402183532715,
          -0.4938757121562958,
          -0.15002985298633575,
          -0.2059636265039444,
          -0.00408268952742219,
          -0.35105910897254944,
          -0.2510683536529541,
          0.1154586598277092,
          -0.11202754080295563,
          -0.048423316329717636,
          0.016971921548247337,
          -0.3789757490158081,
          -0.10767795145511627,
          0.021039685234427452,
          0.16437721252441406,
          0.3040768504142761,
          -0.08451825380325317,
          -0.10238431394100189,
          0.15512144565582275,
          0.18192589282989502,
          0.3237818777561188,
          0.2134728729724884,
          -0.29480788111686707,
          -0.3575267791748047,
          -0.0570702888071537,
          -0.058632876724004745,
          0.22013895213603973,
          0.2456701099872589,
          0.2712618112564087,
          0.3099737763404846,
          0.10462714731693268,
          0.12455733120441437,
          -0.19032427668571472,
          -0.02610446698963642,
          0.31799399852752686,
          0.30285778641700745,
          0.2146475613117218,
          -0.3034972548484802,
          0.11932320147752762,
          0.27079761028289795,
          0.37808844447135925,
          0.18038532137870789,
          0.44614240527153015,
          -0.02311662770807743,
          -0.2442343533039093,
          -0.23577308654785156,
          -0.013650606386363506,
          0.2667003571987152,
          -0.06530115753412247,
          -0.020594626665115356,
          -0.16850538551807404,
          0.028500689193606377,
          0.11443063616752625,
          0.1775701344013214,
          0.09373555332422256,
          -0.23567776381969452,
          0.02784522995352745,
          0.04529568925499916,
          -0.04232574999332428,
          -0.06989692151546478,
          -0.2716919183731079,
          0.05814181640744209,
          0.0071288044564425945,
          -0.4141884744167328,
          -0.1435846984386444,
          -0.12459678202867508,
          0.06038094684481621,
          0.13763031363487244,
          -0.1847739964723587,
          -0.1466994732618332,
          -0.16301219165325165,
          0.11337209492921829,
          0.1414550393819809,
          -0.023920636624097824,
          -0.1351829469203949,
          0.06006110832095146,
          0.06160183250904083,
          0.10213238000869751,
          -0.020827263593673706,
          -0.16775541007518768,
          0.12462504953145981,
          0.03750060871243477,
          -0.22952178120613098,
          -0.1703697293996811,
          0.06945376098155975,
          0.12262407690286636,
          0.015957297757267952,
          -0.07192396372556686,
          -0.14416512846946716,
          0.10448740422725677,
          0.03410204127430916,
          0.17443086206912994,
          -0.07144533842802048,
          -0.07101389020681381,
          0.022240450605750084,
          -0.044262781739234924,
          0.08534768223762512,
          0.07466250658035278,
          0.004729663487523794,
          0.0739910751581192,
          -0.21603363752365112,
          0.5618677139282227,
          0.1397704780101776,
          -0.013321158476173878,
          0.10569728165864944,
          0.07582966238260269,
          0.38331976532936096,
          0.026213139295578003,
          -0.07844419032335281,
          0.2890816926956177,
          -0.08108309656381607,
          0.2437203973531723,
          0.1687183380126953,
          -0.3150472342967987,
          -0.06280335783958435,
          -0.38328734040260315,
          0.11241669952869415,
          0.26179829239845276,
          0.017346501350402832,
          -0.0855439305305481,
          -0.21665866672992706,
          0.03266468644142151,
          0.21031637489795685,
          0.15266093611717224,
          -0.3070821464061737,
