{
  "layers": [
    {
      "biases": [
        -0.12975135445594788,
        0.08743247389793396,
        -0.0855603739619255,
        -0.14239411056041718,
        -0.186998650431633,
        0.3793005347251892
      ],
      "inChannels": 1,
      "kernelHeight": 5,
      "kernelWidth": 5,
      "outChannels": 6,
      "pad": 2,
      "stride": 1,
      "type": "Conv2D",
      "weights": [
        [
          0.2401600331068039,
          -0.07068048417568207,
          -0.21844418346881866,
          -0.06431173533201218,
          0.11132742464542389,
          0.1122574731707573,
          -0.11625558882951736,
          -0.10995958000421524,
          0.15466806292533875,
          0.2707681357860565,
          0.2702047824859619,
          0.2310340702533722,
          -0.07752175629138947,
          0.07258491218090057,
          0.2775620222091675,
          -0.13879074156284332,
          0.32919177412986755,
          -0.13419099152088165,
          -0.08596205711364746,
          0.18982958793640137,
          0.041832488030195236,
          0.2324407547712326,
          0.23674868047237396,
          0.07782348245382309,
          -0.1941179633140564
        ],
        [
          -0.03719692304730415,
          -0.22061188519001007,
          0.060888342559337616,
          -0.05722896382212639,
          -0.3150576055049896,
          -0.25189825892448425,
          -0.30602556467056274,
          -0.06057101488113403,
          -0.44447869062423706,
          -0.2346077710390091,
          -0.2978176772594452,
          0.12695260345935822,
          0.14555351436138153,
          -0.1481294333934784,
          0.20777690410614014,
          -0.010342687368392944,
          -0.29087430238723755,
          -0.24306637048721313,
          -0.051586467772722244,
          0.09482899308204651,
          0.048412155359983444,
          0.09775124490261078,
          0.12993882596492767,
          0.22770212590694427,
          0.21985004842281342
        ],
        [
          -0.13876040279865265,
          -0.3674355447292328,
          -0.3693610727787018,
          -0.09723074734210968,
          0.036423906683921814,
          -0.3817882537841797,
          -0.45795997977256775,
          -0.2633424401283264,
          -0.08421243727207184,
          0.4104293882846832,
          -0.1920921355485916,
          -0.2764580249786377,
          0.22225861251354218,
          0.23966114223003387,
          0.2353244125843048,
          0.10555218905210495,
          -0.12849222123622894,
          -0.15974284708499908,
          0.11863051354885101,
          0.34816426038742065,
          0.15454143285751343,
          -0.03017205186188221,
          -0.11058229953050613,
          0.035756003111600876,
          -0.11697420477867126
        ],
        [
          0.25392836332321167,
          0.23920805752277374,
          0.3663329780101776,
          0.21072444319725037,
          0.31727784872055054,
          0.022213278338313103,
          -0.08938430994749069,
          0.13973797857761383,
          0.639096200466156,
          0.7284634113311768,
          0.1127922311425209,
          -0.12411361187696457,
          0.030719777569174767,
          0.442705899477005,
          0.41730600595474243,
          -0.2263079583644867,
          -0.012234648689627647,
          0.20796988904476166,
          0.1700826734304428,
          0.4532824456691742,
          -0.11497744172811508,
          0.20892728865146637,
          -0.07477102428674698,
          0.2882320284843445,
          0.19574688374996185
        ],
        [
          0.3869897425174713,
          0.5243467688560486,
          0.030469439923763275,
          0.157432422041893,
          -0.0012644758680835366,
          0.20376768708229065,
          0.2343432456254959,
          0.09550401568412781,
          -0.03621729463338852,
          0.1449219435453415,
          0.1093202605843544,
          0.4198669195175171,
          0.3293626606464386,
          0.4903210401535034,
          0.3266514539718628,
          0.0433158315718174,
          -0.13513614237308502,
          -0.13956323266029358,
          0.0006613364676013589,
          0.08568213135004044,
          -0.23736612498760223,
          0.14796161651611328,
          0.19538554549217224,
          -0.13976159691810608,
          -0.058636460453271866
        ],
        [
          0.06285703182220459,
          -0.19008281826972961,
          -0.3115777373313904,
          -0.08097414672374725,
          -0.13798250257968903,
          -0.4264669120311737,
          -0.017441976815462112,
          -0.3219173550605774,
          -0.30167967081069946,
          -0.2470068782567978,
          -0.17830903828144073,
          0.06298775225877762,
          0.09029283374547958,
          0.14657998085021973,
          -0.2771866023540497,
          -0.3442603647708893,
          -0.14841510355472565,
          0.19956998527050018,
          0.08509966731071472,
          -0.09332866221666336,
          -0.0562741681933403,
          6.222445517778397e-05,
          -0.01776697114109993,
          0.02562391385436058,
          -0.13183476030826569
        ]
      ]
    },
    {
      "type": "ReLU"
    },
    {
      "channels": 6,
      "inputHeight": 28,
      "inputWidth": 28,
      "pad": 0,
      "poolHeight": 2,
      "poolWidth": 2,
      "stride": 2,
      "type": "MaxPooling"
    },
    {
      "biases": [
        0.02136065624654293,
        0.023059779778122902,
        -0.03209284320473671,
        -0.028841733932495117,
        0.045881085097789764,
        0.054781947284936905,
        0.10744429379701614,
        0.0707988366484642,
        -0.059574954211711884,
        -0.2073422223329544,
        0.02836722508072853,
        0.01580461487174034,
        -0.06750274449586868,
        -0.0239830631762743,
        -0.003777742153033614,
        0.04950164631009102
      ],
      "inChannels": 6,
      "kernelHeight": 5,
      "kernelWidth": 5,
      "outChannels": 16,
      "pad": 0,
      "stride": 1,
      "type": "Conv2D",
      "weights": [
        [
          -0.13771726191043854,
          -0.10519158095121384,
          0.01238312292844057,
          -0.0646694228053093,
          0.06737519055604935,
          -0.05686481297016144,
          -0.039618272334337234,
          -0.09065250307321548,
          0.050040021538734436,
          -0.10739775747060776,
          -0.09334740787744522,
          -0.10115707665681839,
          -0.04615653678774834,
          -0.001490834285505116,
          0.09492754936218262,
          -0.04454534128308296,
          -0.07184894382953644,
          -0.08834748715162277,
          0.08470148593187332,
          -0.02066020481288433,
          -0.11438366025686264,
          -0.13848668336868286,
          0.055068034678697586,
          0.04031280800700188,
          0.006051583681255579,
          -0.02911062352359295,
          0.01601012609899044,
          -0.039992403239011765,
          0.10253042727708817,
          0.07958147674798965,
          -0.09819081425666809,
          0.04133955389261246,
          0.03937958553433418,
          -0.11550513654947281,
          -0.12603390216827393,
          0.07169825583696365,
          0.054894816130399704,
          -0.009524784982204437,
          0.09789679199457169,
          0.05238022655248642,
          0.07569820433855057,
          0.006753978785127401,
          -0.05470893904566765,
          0.1379549354314804,
          0.17989817261695862,
          -0.06661893427371979,
          -0.09336291253566742,
          -0.02678491547703743,
          -0.07750984281301498,
          -0.08849339187145233,
          0.15090949833393097,
          0.05255783349275589,
          0.04750747233629227,
          0.06648056954145432,
          0.21218980848789215,
          0.030817771330475807,
          0.11547121405601501,
          -0.06422579288482666,
          0.14258447289466858,
          0.17043346166610718,
          -0.1685333400964737,
          -0.10941591113805771,
          0.09788181632757187,
          0.0065063959918916225,
          -0.07692672312259674,
          0.12423204630613327,
          0.01655971258878708,
          -0.048293981701135635,
          0.013730808161199093,
          0.1964862048625946,
          0.14459356665611267,
          0.11508442461490631,
          -0.16741999983787537,
          -0.08047299087047577,
          0.18133656680583954,
          0.0657171830534935,
          -0.23586446046829224,
          -0.2775816023349762,
          -0.05649193003773689,
          -0.10804643481969833,
          -0.019180117174983025,
          0.03911809250712395,
          0.05667747184634209,
          -0.18958893418312073,
          -0.10234545916318893,
          -0.0738290399312973,
          -0.07327395677566528,
          -0.06027624011039734,
          -0.1743822544813156,
          -0.12652994692325592,
          0.05629123002290726,
          -0.19240908324718475,
          -0.17229421436786652,
          -0.005131869111210108,
          -0.02983163483440876,
          0.09510602056980133,
          -0.09247417002916336,
          0.050409555435180664,
          -0.11187006533145905,
          -0.037537578493356705,
          0.06395403295755386,
          0.09083965420722961,
          0.031646475195884705,
          -0.04803302511572838,
          0.07138020545244217,
          0.13825833797454834,
          0.2192309945821762,
          -0.07010026276111603,
          0.018197836354374886,
          0.12555018067359924,
          -0.11411917954683304,
          0.052328333258628845,
          0.12227526307106018,
          -0.06957462430000305,
          0.04476014897227287,
          -0.0707261860370636,
          0.13332070410251617,
          -0.0756680816411972,
          -0.04067191854119301,
          -0.0789400041103363,
          -0.016169440001249313,
          0.09977345913648605,
          0.10033680498600006,
          0.10134778916835785,
          0.17622171342372894,
          0.09060744196176529,
          0.03587816655635834,
          -0.02977784536778927,
          -0.019386548548936844,
          0.01201411709189415,
          -0.058612748980522156,
          -0.07400631904602051,
          -0.10249456763267517,
          0.11176696419715881,
          0.10522572696208954,
          -0.02904243767261505,
          0.10538799315690994,
          0.17544196546077728,
          -0.038190778344869614,
          -0.009417803026735783,
          0.10688045620918274,
          0.12922951579093933,
          -0.026178043335676193,
          0.0634208619594574,
          -0.029957134276628494,
          -0.023366127163171768,
          0.01944795995950699,
          -0.008598658256232738,
          -0.010237480513751507,
          -0.0633043646812439
        ],
        [
          -0.046538811177015305,
          0.06483664363622665,
          -0.07077176123857498,
          -0.08422227203845978,
          0.044098373502492905,
          0.13851766288280487,
          -0.07271025329828262,
          0.010529630817472935,
          0.10013914853334427,
          -0.051308613270521164,
          0.12418687343597412,
          -0.07045019418001175,
          0.0991608202457428,
          -0.10533086210489273,
          -0.10523030161857605,
          -0.07795992493629456,
          -0.014090204611420631,
          0.06919462233781815,
          0.024870766326785088,
          -0.03458286449313164,
          0.14674432575702667,
          0.0482633113861084,
          0.13448141515254974,
          0.03402455896139145,
          0.02376748062670231,
          0.039969123899936676,
          -0.05300518125295639,
          0.06528516858816147,
          -0.10282886773347855,
          -0.09174907207489014,
          -0.14808465540409088,
          0.10696928203105927,
          -0.057645682245492935,
          -0.056130558252334595,
          -0.03663969039916992,
          -0.02854657918214798,
          0.061136726289987564,
          -0.0710344985127449,
          -0.024899199604988098,
          -0.008957848884165287,
          0.0705956444144249,
          -0.11756137013435364,
          -0.054576974362134933,
          -0.07409866154193878,
          0.03529604151844978,
          -0.1542709916830063,
          -0.04092784225940704,
          0.060500651597976685,
          0.039849381893873215,
          0.0668209120631218,
          0.020731773227453232,
          0.05080948770046234,
          0.11650911718606949,
          0.1606236845254898,
          0.19177395105361938,
          0.027254700660705566,
          0.12988196313381195,
          -0.16734616458415985,
          -0.11579588055610657,
          0.06777781248092651,
          -0.016163773834705353,
          -0.03221798315644264,
          -0.18156327307224274,
          0.15591803193092346,
          -0.017069900408387184,
          0.1789494752883911,
          0.1446264386177063,
          0.18269595503807068,
          0.20517794787883759,
          0.11122693866491318,
          -0.01666286587715149,
          0.1680333912372589,
          -0.13092148303985596,
          -0.17389430105686188,
          0.15073390305042267,
          -0.012423650361597538,
          -0.21108205616474152,
          0.03974046930670738,
          0.025187861174345016,
          0.0566764697432518,
          -0.1497935950756073,
          0.033558834344148636,
          -0.07717673480510712,
          -0.17108014225959778,
          -0.012028633616864681,
          -0.13680416345596313,
          -0.10492193698883057,
          0.061184756457805634,
          -0.14928168058395386,
          -0.12269856780767441,
          0.06214044988155365,
          -0.10432083904743195,
          -0.04858935996890068,
          0.1822327822446823,
          0.06344059109687805,
          -0.23282073438167572,
          -0.07448886334896088,
          -0.07902459800243378,
          -0.23155979812145233,
          -0.03810415416955948,
          0.089024618268013,
          -0.0924055352807045,
          -0.027376776561141014,
          -0.13151930272579193,
          -0.19241870939731598,
          0.1686229556798935,
          0.01464750338345766,
          0.12862712144851685,
          0.0800773873925209,
          -0.07959069311618805,
          0.12414698302745819,
          0.11785721778869629,
          0.073753722012043,
          0.06906446069478989,
          0.3205054998397827,
          0.1101239025592804,
          -0.11367063969373703,
          -0.1003534346818924,
          -0.02633361704647541,
          -0.03158792853355408,
          0.1238328367471695,
          -0.07258216291666031,
          0.01596679352223873,
          0.017226070165634155,
          -0.05311332270503044,
          -0.05307924374938011,
          -0.07853733003139496,
          0.00023681922175455838,
          0.08918948471546173,
          -0.016341345384716988,
          -0.1102157011628151,
          -0.0710265189409256,
          -0.11496496200561523,
          -0.13914766907691956,
          0.08966553211212158,
          -0.047445859760046005,
          -0.009315195493400097,
          0.0532500334084034,
          -0.06961643695831299,
          0.10005310922861099,
          -0.010505297221243382,
          -0.04090290516614914,
          0.15910957753658295,
          -0.04965560510754585,
          0.01899183727800846,
          -0.030109472572803497,
          -0.05728752166032791,
          0.070459745824337,
          -0.04117049649357796,
          0.07629022002220154
        ],
        [
          -0.130573108792305,
          -0.01449259277433157,
          0.006345806177705526,
          -0.008056449703872204,
          -0.08700304478406906,
          0.061567340046167374,
          0.039236001670360565,
          0.03603973984718323,
          0.041120707988739014,
          -0.014626896940171719,
          -0.006162887904793024,
          0.024552593007683754,
          0.0715833380818367,
          0.08564584702253342,
          0.07353188842535019,
          -0.11511439830064774,
          0.07244900614023209,
          -0.061016056686639786,
          -0.07998184114694595,
          -0.14743803441524506,
          -0.02951044961810112,
          -0.07353386282920837,
          0.014599538408219814,
          -0.027235770598053932,
          0.025327462702989578,
          0.04890792444348335,
          0.10099214315414429,
          0.026421738788485527,
          0.06366191804409027,
          0.030081085860729218,
          -0.07328067719936371,
          -0.00962184090167284,
          0.00808805413544178,
          -0.0676286518573761,
          -0.08514281362295151,
          -0.03148524835705757,
          0.1876034438610077,
          -0.16671769320964813,
          -0.043685346841812134,
          0.017112331464886665,
          0.034919656813144684,
          -0.003978818189352751,
          -0.018561363220214844,
          0.054203566163778305,
          0.031840816140174866,
          -0.0796065628528595,
          -0.13127265870571136,
          0.04884987324476242,
          -0.07509710639715195,
          0.10263475775718689,
          -0.04548666998744011,
          0.11442950367927551,
          -0.028251465409994125,
          -0.022824417799711227,
          0.04172513261437416,
          -0.038864705711603165,
          -0.08946363627910614,
          -0.1273479163646698,
          0.05557235702872276,
          -0.07457716017961502,
          -0.027219785377383232,
          -0.042989328503608704,
          -0.025110848248004913,
          -0.07781890034675598,
          -0.024095522239804268,
          -0.18756859004497528,
          0.07980560511350632,
          0.03521696478128433,
          -0.07228488475084305,
          -0.11961609125137329,
          -0.10506384819746017,
          -0.06510772556066513,
          -0.11529643088579178,
          -0.09872633218765259,
          0.004268731456249952,
          0.020180365070700645,
          0.19312050938606262,
          0.20923317968845367,
          0.05193636938929558,
          0.05056753009557724,
          0.03253992274403572,
          -0.014120013453066349,
          0.05281535163521767,
          0.12054944783449173,
          -0.10492102801799774,
          -0.18399272859096527,
          0.06355652213096619,
          0.13737118244171143,
          -0.12088803201913834,
          -0.13774850964546204,
          0.022199083119630814,
          0.08739893138408661,
          0.16822554171085358,
          -0.005662910174578428,
          0.22597527503967285,
          0.18307198584079742,
          -0.06866686791181564,
          0.0045813145115971565,
          0.05850176140666008,
          0.01266576535999775,
          0.18363547325134277,
          -0.09710919857025146,
          -0.07572907954454422,
          0.11304699629545212,
          -0.14149223268032074,
          0.020738163962960243,
          -0.013788612559437752,
          0.06738598644733429,
          0.04290987551212311,
          -0.04808332398533821,
          0.009243128821253777,
          0.13398945331573486,
          0.11566264927387238,
          0.1292378455400467,
          0.0054624066688120365,
          0.15111827850341797,
          0.1870170533657074,
          -0.05583920702338219,
          0.19892433285713196,
          0.12850525975227356,
          -0.10837095975875854,
          -0.09211749583482742,
          0.09498624503612518,
          -0.018375545740127563,
          0.02296369895339012,
          -0.10417602956295013,
          -0.1563657969236374,
          -0.06532824784517288,
          -0.1350773125886917,
          0.09394285827875137,
          -0.0800614058971405,
          -0.1017797514796257,
          -0.11630268394947052,
          -0.08866111934185028,
          0.11729305237531662,
          0.15352584421634674,
          0.039490122348070145,
          0.06784588098526001,
          0.06203477457165718,
          0.061731044203042984,
          0.02633916400372982,
          -0.11353372782468796,
          0.0009922588942572474,
          -0.02655322663486004,
          0.07057583332061768,
          0.0562584362924099,
          -0.03245498239994049,
          -0.05627211555838585,
          -0.016625599935650826,
          -0.08878809213638306
        ],
        [
          -0.09366927295923233,
          0.07881227135658264,
          0.017928842455148697,
          0.07569236308336258,
          0.029007384553551674,
          -0.02559731900691986,
          0.03348987177014351,
          0.09129095822572708,
          -0.04668319225311279,
          0.10209967941045761,
          0.03885086625814438,
          -0.076200932264328,
          0.11645181477069855,
          0.09237988293170929,
          -0.09808836877346039,
          -0.1521662026643753,
          0.02777830883860588,
          0.009206056594848633,
          0.051788508892059326,
          0.0028268303722143173,
          0.018982049077749252,
          0.1532033532857895,
          0.0010492970468476415,
          0.14721287786960602,
          0.02944912575185299,
          0.011717325076460838,
          0.034351885318756104,
          -0.0933864563703537,
          0.0002480349794495851,
          -0.016287680715322495,
          -0.16461357474327087,
          -0.061141252517700195,
          -0.14553126692771912,
          -0.14238044619560242,
          0.008220749907195568,
          0.07288108766078949,
          -0.11904934793710709,
          4.729956708615646e-05,
          0.22254180908203125,
          -0.09477918595075607,
          -0.0973939374089241,
          0.162002295255661,
          -0.08059006929397583,
          -0.08892112970352173,
          0.036390189081430435,
          -0.1334117203950882,
          -0.15478818118572235,
          -0.1554589718580246,
          -0.037745874375104904,
          -0.12055299431085587,
          0.1341291069984436,
          -0.036619633436203,
          -0.18639911711215973,
          0.04328393563628197,
          -0.16872510313987732,
          0.06898234039545059,
          -0.09068501740694046,
          -0.026732441037893295,
          0.11666084825992584,
          0.08081763237714767,
          0.014951982535421848,
          -0.006757544353604317,
          0.066776804625988,
          0.09557659924030304,
          0.1053055077791214,
          0.16780143976211548,
          -0.08582091331481934,
          -0.13132382929325104,
          0.11739907413721085,
          -0.04959416389465332,
          0.07185505330562592,
          -0.10659264773130417,
          -0.06315010786056519,
          0.17121492326259613,
          0.024672213941812515,
          -0.1041206419467926,
          -0.033706020563840866,
          0.028268685564398766,
          -0.13458500802516937,
          0.06824185699224472,
          0.21719890832901,
          0.13570407032966614,
          0.025212610140442848,
          0.1393013596534729,
          0.10774789750576019,
          0.13237568736076355,
          -0.10924577713012695,
          -0.11298578232526779,
          0.1021604835987091,
          -0.1617061048746109,
          -0.09680146723985672,
          0.1740114986896515,
          -0.0032180477865040302,
          -0.05579560995101929,
          0.1414201557636261,
          0.18046404421329498,
          0.13040128350257874,
          0.09943188726902008,
          0.049761395901441574,
          0.1600593775510788,
          0.21240417659282684,
          0.07680577784776688,
          0.04272553697228432,
          0.26171624660491943,
          0.042417265474796295,
          -0.08127845078706741,
          0.03289644047617912,
          -0.11608627438545227,
          -0.0603666827082634,
          0.2092064917087555,
          0.030566072091460228,
          0.10522391647100449,
          -0.03571547567844391,
          0.009159659966826439,
          0.10262865573167801,
          0.1086820587515831,
          0.15453019738197327,
          0.06806349009275436,
          0.06842002272605896,
          0.0472911112010479,
          0.06555462628602982,
          0.01068380568176508,
          -0.21765093505382538,
          0.04125918075442314,
          -0.031144853681325912,
          0.021675463765859604,
          -0.092729851603508,
          -0.01099484134465456,
          -0.09656360745429993,
          -0.17488062381744385,
          -0.1106041669845581,
          -0.11971918493509293,
          -0.06699546426534653,
          -0.13052771985530853,
          -0.13845211267471313,
          -0.00940670631825924,
          0.04452415555715561,
          -0.1398957520723343,
          0.12217796593904495,
          0.06146033853292465,
          -0.028206633403897285,
          0.05983445420861244,
          0.04621053859591484,
          0.011835316196084023,
          -0.02353230118751526,
          -0.12652172148227692,
          -0.03325694054365158,
          -0.14004109799861908,
          -0.15802112221717834,
          -0.19234199821949005
        ],
        [
          -0.09552394598722458,
          0.06425108015537262,
          0.012681200169026852,
          0.10255207866430283,
          0.10075021535158157,
          -0.028738142922520638,
          -0.0937151312828064,
          0.053983792662620544,
          -0.07763788104057312,
          0.04785839468240738,
          0.09011029452085495,
          0.010950367897748947,
          -0.050460778176784515,
          -0.11909492313861847,
          -0.00037108673132024705,
          -0.07474056631326675,
          0.08757136017084122,
          -0.014802834019064903,
          0.14890116453170776,
          0.11711772531270981,
          -0.1310405135154724,
          0.08280055224895477,
          0.015455247834324837,
          -0.06321725249290466,
          0.09347779303789139,
          -0.11324481666088104,
          -0.0031285593286156654,
          0.03864329680800438,
          -0.03669044375419617,
          -0.00937611237168312,
          0.1389421969652176,
          0.08826976269483566,
          -0.044936664402484894,
          -0.02760283090174198,
          0.06782308220863342,
          0.0407043881714344,
          -0.1828988641500473,
          0.13702617585659027,
          0.0262061208486557,
          -0.20018818974494934,
          -0.18395943939685822,
          -0.1618231236934662,
          -0.22273710370063782,
          -0.2138454169034958,
          -0.14939475059509277,
          -0.046877969056367874,
          -0.05721117556095123,
          -0.08405774086713791,
          -0.04525934159755707,
          0.061330776661634445,
          0.07300421595573425,
          -0.05969465151429176,
          -0.07832540571689606,
          0.1573498249053955,
          -0.03830799460411072,
          -0.27056750655174255,
          0.04636653512716293,
          0.08920666575431824,
          -0.19240741431713104,
          -0.15839090943336487,
          0.12514454126358032,
          0.10048745572566986,
          0.056747227907180786,
          -0.10581010580062866,
          -0.04435979574918747,
          0.03998831287026405,
          0.03951283544301987,
          -0.06452297419309616,
          0.09758346527814865,
          -0.08304007351398468,
          -0.03684443607926369,
          -0.08176115155220032,
          0.0653562992811203,
          -0.005842279642820358,
          -0.02449430152773857,
          0.08897802978754044,
          0.0038131626788526773,
          0.010733069851994514,
          0.09637657552957535,
          -0.18741649389266968,
          -0.005065970588475466,
          0.08234263211488724,
          0.09183847159147263,
          0.019626980647444725,
          -0.10229738056659698,
          -0.012067713774740696,
          -0.19168823957443237,
          -0.12935709953308105,
          -0.10693087428808212,
          -0.2477521151304245,
          0.020390572026371956,
          0.04379916563630104,
          -0.003787086810916662,
          0.06398104131221771,
          0.0382818840444088,
          -0.12808635830879211,
          0.04974295571446419,
          -0.07885836809873581,
          -0.007636287249624729,
          -0.04271559789776802,
          -0.10266411304473877,
          0.008337672799825668,
          0.15501263737678528,
          -0.13933567702770233,
          0.14184163510799408,
          0.17651616036891937,
          0.4044435918331146,
          0.18845564126968384,
          0.13789738714694977,
          0.37697359919548035,
          0.14613007009029388,
          -0.006669400725513697,
          -0.06852906942367554,
          0.03754774481058121,
          0.14032737910747528,
          -0.07593174278736115,
          0.014178772456943989,
          0.15581734478473663,
          0.03704584017395973,
          0.09896276146173477,
          0.11800482869148254,
          0.27924641966819763,
          0.209730327129364,
          0.037342607975006104,
          0.34671205282211304,
          0.034211814403533936,
          0.09841547161340714,
          -0.14307093620300293,
          -0.16261473298072815,
          0.02640664204955101,
          0.03760746493935585,
          -0.020059024915099144,
          -0.022717799991369247,
          -0.03320293501019478,
          -0.12046419829130173,
          0.025583907961845398,
          -0.011617960408329964,
          0.034024059772491455,
          -0.011777174659073353,
          -0.06391958147287369,
          -0.09164554625749588,
          0.1280221790075302,
          0.0016700956039130688,
          -0.15996786952018738,
          0.005461578257381916,
          -0.14729256927967072,
          0.033929385244846344,
          -0.12664420902729034,
          -0.030891379341483116,
          0.007091376464813948
        ],
        [
          -0.036497537046670914,
          -0.07136694341897964,
          -0.09966152161359787,
          -0.0743364542722702,
          0.04161499813199043,
          0.07637906074523926,
          -0.0002420927630737424,
          -0.07390446960926056,
          0.015630250796675682,
          0.030241521075367928,
          -0.04744267836213112,
          0.07486218214035034,
          -0.021980343386530876,
          -0.11280796676874161,
          -0.0603901669383049,
          -0.1417868733406067,
          0.04645676538348198,
          -0.02548258751630783,
          -0.16271276772022247,
          -0.07937272638082504,
          -0.12514913082122803,
          -0.13047100603580475,
          -0.00587267754599452,
          -0.03109038434922695,
          -0.13845688104629517,
          -0.04870287701487541,
          0.1504071205854416,
          0.150612473487854,
          -0.010234929621219635,
          0.1336211860179901,
          -0.13771621882915497,
          -0.07106301933526993,
          -0.09809606522321701,
          -0.154560387134552,
          -0.09189894050359726,
          0.15580041706562042,
          0.07350723445415497,
          -0.1307857781648636,
          0.10952198505401611,
          0.07841217517852783,
          0.13537324965000153,
          0.0720612108707428,
          0.09750547260046005,
          0.13654251396656036,
          0.15290223062038422,
          -0.10833179205656052,
          -0.06809854507446289,
          -0.15575629472732544,
          -0.2164139300584793,
          -0.04672372713685036,
          0.11276405304670334,
          0.07936309278011322,
          -0.12512828409671783,
          0.06069158762693405,
          0.08829393982887268,
          0.07776106148958206,
          -0.2552853524684906,
          0.03858819976449013,
          0.030868150293827057,
          -0.011356394737958908,
          -0.003121432848274708,
          0.09580517560243607,
          -0.08935216814279556,
          -0.07351324707269669,
          -0.005179620813578367,
          -0.09967305511236191,
          0.057407036423683167,
          0.0570065900683403,
          0.014884281903505325,
          -0.022618398070335388,
          0.17791838943958282,
          -0.14363659918308258,
          -0.006753501482307911,
          0.18110378086566925,
          0.07364016771316528,
          -0.13234344124794006,
          -0.022440282627940178,
          -0.1290171891450882,
          -0.024361036717891693,
          -0.07535439729690552,
          0.09471877664327621,
          -0.012815795838832855,
          0.13348421454429626,
          -0.08357662707567215,
          0.12184608727693558,
          0.052964743226766586,
          0.07430843263864517,
          -0.03087356500327587,
          -0.03398801013827324,
          0.012300761416554451,
          0.028487255796790123,
          -0.027682390064001083,
          -0.031365565955638885,
          -0.18002071976661682,
          -0.03493010625243187,
          -0.057974498718976974,
          0.01734638772904873,
          0.1136733666062355,
          0.10166825354099274,
          0.11489734053611755,
          -0.008590598590672016,
          -0.20700612664222717,
          -0.10670454800128937,
          -0.11033084988594055,
          -0.12449286133050919,
          -0.13319258391857147,
          -0.09357297420501709,
          -0.27651160955429077,
          -0.29665425419807434,
          -0.05129125341773033,
          -0.09428077191114426,
          -0.09763386100530624,
          0.09688923507928848,
          -0.13833190500736237,
          0.005390288773924112,
          0.01714431494474411,
          -0.2202787697315216,
          -0.043841470032930374,
          0.055915717035532,
          -0.2073998898267746,
          -0.2308836579322815,
          -0.20201052725315094,
          -0.22467921674251556,
          -0.2541338801383972,
          -0.11709601432085037,
          0.03538159281015396,
          0.09209417551755905,
          0.061838049441576004,
          0.09521089494228363,
          0.20389452576637268,
          0.19451531767845154,
          0.1495608687400818,
          0.06628651171922684,
          0.17925995588302612,
          0.07238490879535675,
          -0.03240243345499039,
          0.017258506268262863,
          0.0457589216530323,
          0.02856086939573288,
          0.08662938326597214,
          -0.02414655312895775,
          -0.0353449247777462,
          0.08417072147130966,
          -0.014120448380708694,
          0.07783513516187668,
          0.13714556396007538,
          0.03229144588112831,
          0.20974785089492798,
          -0.036521509289741516,
          0.17288123071193695
        ],
        [
          -0.02939002402126789,
          -0.025511810556054115,
          -0.04874597489833832,
          0.00046070042299106717,
          -0.02742963843047619,
          0.07212483882904053,
          0.09001676738262177,
          -0.11302004009485245,
          0.006988813169300556,
          -0.006321464665234089,
          0.08083938807249069,
          -0.09850122034549713,
          -0.032116085290908813,
          0.05044378340244293,
          0.09479929506778717,
          0.11997303366661072,
          -0.11313481628894806,
          0.07299908250570297,
          -0.07034438103437424,
          0.02796744741499424,
          0.04254854843020439,
          0.030845412984490395,
          0.015353728085756302,
          0.038874171674251556,
          -0.12477212399244308,
          0.07617591321468353,
          -0.043684110045433044,
          -0.17973877489566803,
          -0.03837267681956291,
          -0.03712103143334389,
          0.062130026519298553,
          -0.055878255516290665,
          0.12947328388690948,
          -0.016031112521886826,
          0.051820170134305954,
          0.16165193915367126,
          -0.06087184697389603,
          0.032208167016506195,
          0.1646018773317337,
          0.0663546472787857,
          0.1300346553325653,
          -0.17073415219783783,
          -0.007916614413261414,
          -0.02663419581949711,
          -0.1203383281826973,
          -0.04898249730467796,
          0.0494687594473362,
          0.13278552889823914,
          -0.0679837241768837,
          0.11055268347263336,
          -0.20443202555179596,
          0.04028526321053505,
          -0.015582787804305553,
          -0.11371838301420212,
          -0.1589455008506775,
          0.06146589666604996,
          0.015432768501341343,
          -0.03078901581466198,
          -0.009111355058848858,
          -0.126728817820549,
          -0.028976615518331528,
          0.017471494153141975,
          -0.08324706554412842,
          0.011079831048846245,
          0.08783847093582153,
          -0.05744883045554161,
          -0.08373107016086578,
          -0.05563996732234955,
          -0.08093997091054916,
          -0.21113801002502441,
          0.033113859593868256,
          -0.06700583547353745,
          -0.09507700055837631,
          -0.055027835071086884,
          -0.12584775686264038,
          -0.010707574896514416,
          -0.04718923568725586,
          -0.10142062604427338,
          -0.22265654802322388,
          -0.04823312163352966,
          -0.11347763985395432,
          -0.09003046154975891,
          -0.13863156735897064,
          -0.17933550477027893,
          -0.026838652789592743,
          0.05529390648007393,
          0.006777668371796608,
          0.06678925454616547,
          0.032221823930740356,
          0.08881892263889313,
          -0.03586973622441292,
          -0.05790606886148453,
          -0.08510047197341919,
          -0.21219387650489807,
          -0.0003795212833210826,
          -0.13713198900222778,
          -0.14304833114147186,
          -0.24956494569778442,
          -0.27984410524368286,
          -0.18166691064834595,
          0.17602261900901794,
          -0.09150346368551254,
          -0.18830786645412445,
          0.03588263690471649,
          -0.04717818275094032,
          -0.16455475986003876,
          -0.12084027379751205,
          0.07797939330339432,
          -0.11339796334505081,
          -0.16519899666309357,
          -0.20407716929912567,
          -0.10375812649726868,
          -0.008615273982286453,
          -0.16903312504291534,
          -0.20919284224510193,
          0.11345791071653366,
          -0.03580592945218086,
          -0.3463499844074249,
          0.026985405012965202,
          -0.18810664117336273,
          -0.04097488150000572,
          0.07227592915296555,
          0.028493713587522507,
          -0.07459771633148193,
          0.05393843352794647,
          -0.00727842329069972,
          0.04973369091749191,
          0.11895500868558884,
          0.07931580394506454,
          -0.047953519970178604,
          0.04349072277545929,
          0.047959104180336,
          -0.040744274854660034,
          0.0059081860817968845,
          -0.0662500187754631,
          -0.01933583803474903,
          -0.06584356725215912,
          -0.10962239652872086,
          0.046279363334178925,
          -0.09260708838701248,
          0.15759016573429108,
          0.016814865171909332,
          -0.007508147973567247,
          0.10160572081804276,
          0.05571800470352173,
          0.06038019806146622,
          0.12951022386550903,
          -0.0715910941362381,
          0.05306679755449295,
          0.07204332947731018
        ],
        [
          -0.021550705656409264,
          0.028514482080936432,
          -0.06253080815076828,
          0.057568784803152084,
          0.029012640938162804,
          0.03826240822672844,
          0.002929157577455044,
          -0.021902071312069893,
          -0.058414533734321594,
          -0.05429930239915848,
          -0.04508744180202484,
          0.06408154219388962,
          0.13390614092350006,
          -0.01399797573685646,
          0.11968576908111572,
          0.045721981674432755,
          0.05333878472447395,
          0.0011066871229559183,
          -0.02336934022605419,
          -0.09698375314474106,
          0.1232072189450264,
          0.06113895773887634,
          -0.02658694237470627,
          -0.04939745366573334,
          -0.075041763484478,
          0.16091732680797577,
          0.08140803873538971,
          0.15783202648162842,
          0.019775521010160446,
          0.1265411525964737,
          0.014161539264023304,
          0.08243975788354874,
          -0.07794123142957687,
          0.08547865599393845,
          -0.03152710199356079,
          -0.11366577446460724,
          -0.11626146733760834,
          -0.19600996375083923,
          -0.19617116451263428,
          -0.02600640058517456,
          -0.05947713553905487,
          0.19879722595214844,
          0.02878456376492977,
          0.17229974269866943,
          0.219156876206398,
          0.16012784838676453,
          0.14130820333957672,
          -0.04388892650604248,
          0.03871536627411842,
          0.1262536644935608,
          -0.07483217865228653,
          -0.17324639856815338,
          -0.20270736515522003,
          -0.21547408401966095,
          -0.13856403529644012,
          -0.11754284799098969,
          -0.10024503618478775,
          -0.12273778021335602,
          -0.15597043931484222,
          0.11500897258520126,
          0.06352943927049637,
          0.22044230997562408,
          0.058157455176115036,
          0.19328761100769043,
          0.16272792220115662,
          -0.0033457179088145494,
          -0.1296626776456833,
          -0.29320356249809265,
          -0.18385006487369537,
          -0.0771179124712944,
          -0.288670152425766,
          0.07862100750207901,
          -0.08470981568098068,
          -0.2504982054233551,
          0.08215421438217163,
          0.03172652795910835,
          -0.04917595535516739,
          0.033325180411338806,
          0.1610877960920334,
          -0.009672886691987514,
          -0.1443203091621399,
          -0.23310063779354095,
          -0.04886999726295471,
          0.005496901925653219,
          0.031060896813869476,
          0.08491151034832001,
          0.0336008183658123,
          -0.10752055048942566,
          -0.08578024804592133,
          0.16809165477752686,
          -0.1348687708377838,
          0.009565494954586029,
          -0.0028119885828346014,
          0.147903174161911,
          -0.009572661481797695,
          -0.18873825669288635,
          -0.22877171635627747,
          0.025593986734747887,
          -0.059585388749837875,
          -0.05230158567428589,
          0.0500488318502903,
          0.23523429036140442,
          0.16405928134918213,
          -0.018659885972738266,
          -0.050833847373723984,
          0.004762206692248583,
          -0.032094139605760574,
          0.034998953342437744,
          0.02881596051156521,
          0.16540522873401642,
          0.031154418364167213,
          -0.029529208317399025,
          0.19533728063106537,
          0.19813558459281921,
          -0.09155154228210449,
          0.028716685250401497,
          0.09678918868303299,
          0.06935849040746689,
          -0.19009727239608765,
          0.15697547793388367,
          -0.0603741854429245,
          -0.06270107626914978,
          0.12901844084262848,
          -0.06787718832492828,
          -0.025614522397518158,
          0.14732161164283752,
          0.046675361692905426,
          0.07460205256938934,
          -0.012375525198876858,
          -0.025836624205112457,
          -0.051203854382038116,
          0.09015677124261856,
          -0.035223588347435,
          0.016093099489808083,
          -0.1093929335474968,
          -0.04813307151198387,
          -0.03930442035198212,
          0.017644008621573448,
          0.02713702619075775,
          0.10885585099458694,
          0.017455289140343666,
          0.06254546344280243,
          0.0164932943880558,
          0.11731646209955215,
          0.11911007016897202,
          0.13843682408332825,
          0.06533311307430267,
          0.02253463864326477,
          0.07569992542266846,
          -0.013829236850142479
        ],
        [
          0.015046367421746254,
          -0.030480630695819855,
          -0.03041955456137657,
          0.08903021365404129,
          0.07119526714086533,
          -0.15920671820640564,
          0.015091842971742153,
          -0.1510632038116455,
          0.028789127245545387,
          0.034163493663072586,
          0.02853735163807869,
          -0.001509560039266944,
          -0.0690428763628006,
          0.07857954502105713,
          0.03844958171248436,
          -0.12156404554843903,
          -0.02147754095494747,
          0.07634589821100235,
          0.06596682965755463,
          -0.03823412209749222,
          -0.11148255318403244,
          -0.01908370852470398,
          -0.05370090529322624,
          -0.11373381316661835,
          -0.048958174884319305,
          -0.07124921679496765,
          -0.15102632343769073,
          -0.10460491478443146,
          -0.006183677352964878,
          -0.06954063475131989,
          0.10192263871431351,
          -0.02166469767689705,
          0.013879237696528435,
          0.09424830228090286,
          0.03915908932685852,
          -0.037058163434267044,
          -0.030959071591496468,
          -0.09719224274158478,
          0.00667772488668561,
          0.13809095323085785,
          -0.06568050384521484,
          -0.08079364150762558,
          0.004955333191901445,
          0.08020486682653427,
          0.01924174837768078,
          0.24013157188892365,
          -0.033884644508361816,
          0.2641580402851105,
          0.11129701137542725,
          0.01989665813744068,
          0.03306735306978226,
          0.13031357526779175,
          -0.14433826506137848,
          0.08000452816486359,
          -0.024369455873966217,
          -0.09401094913482666,
          -0.09166549891233444,
          0.11503706127405167,
          -0.1769057810306549,
          -0.2244809865951538,
          -0.01911652460694313,
          -0.08008721470832825,
          -0.014939793385565281,
          -0.0015013347147032619,
          -0.2033013552427292,
          -0.004287070594727993,
          0.09377825260162354,
          -0.057843003422021866,
          0.13518905639648438,
          -0.06235840171575546,
          -0.1811755895614624,
          -0.270924836397171,
          0.12398266047239304,
          -0.21404056251049042,
          -0.1630174070596695,
          0.17314743995666504,
          0.20014353096485138,
          -0.03866741806268692,
          0.22875969111919403,
          0.12946581840515137,
          0.16761216521263123,
          -0.13255545496940613,
          -0.14224782586097717,
          0.1246294304728508,
          -0.056738849729299545,
          -0.08518094569444656,
          -0.09614671021699905,
          -0.011896784417331219,
          -0.10684173554182053,
          0.09788072109222412,
          0.059919293969869614,
          0.2072821408510208,
          0.10415506362915039,
          0.024097418412566185,
          0.016888799145817757,
          0.08011883497238159,
          -0.08566899597644806,
          -0.13581977784633636,
          0.11604824662208557,
          -0.11824536323547363,
          0.009083710610866547,
          0.09938470274209976,
          -0.14594966173171997,
          -0.14732080698013306,
          0.11649292707443237,
          0.07057203352451324,
          0.06283830106258392,
          0.037248339504003525,
          -0.07752484828233719,
          -0.15415307879447937,
          -0.1021873876452446,
          -0.06958525627851486,
          -0.2767646610736847,
          -0.1520508974790573,
          -0.15763752162456512,
          0.00217539188452065,
          -0.06805025041103363,
          -0.23387904465198517,
          -0.11502506583929062,
          -0.026186184957623482,
          0.16945233941078186,
          -0.00500535499304533,
          0.02247657999396324,
          0.17646870017051697,
          -0.0419602207839489,
          -0.09046522527933121,
          0.062322136014699936,
          -0.1028340682387352,
          -0.02957996167242527,
          -0.014166983775794506,
          0.13512364029884338,
          0.02927195094525814,
          0.066739521920681,
          0.1439789980649948,
          0.012895886786282063,
          0.08027704805135727,
          0.010750953108072281,
          0.02633272111415863,
          0.036594364792108536,
          0.08135364949703217,
          -0.0013730755308642983,
          -0.022565703839063644,
          -0.12473185360431671,
          0.015016715042293072,
          -0.1303783357143402,
          -0.028754882514476776,
          0.10438032448291779,
          -0.07682184129953384,
          -0.05403127893805504,
          -0.07801584154367447
        ],
        [
          -0.04402429237961769,
          -0.022224867716431618,
          0.008183611556887627,
          -0.044038038700819016,
          -0.04475018382072449,
          0.012662654742598534,
          0.02752283215522766,
          -0.01922229304909706,
          -0.12697544693946838,
          -0.14947985112667084,
          -0.00018771195027511567,
          0.00429544085636735,
          0.01671164110302925,
          -0.060865625739097595,
          -0.1452362984418869,
          0.03353036940097809,
          0.05521789565682411,
          0.036088138818740845,
          -0.05445938557386398,
          0.10043995827436447,
          0.05888184905052185,
          -0.0723285973072052,
          -0.13361048698425293,
          -0.009454363957047462,
          -0.09258520603179932,
          0.03460676223039627,
          -0.07301520556211472,
          0.06713347136974335,
          0.21787478029727936,
          0.10065148025751114,
          0.013672508299350739,
          -0.005647392477840185,
          -0.007208927534520626,
          -0.0880216732621193,
          0.005340041592717171,
          0.004259320441633463,
          -0.06541789323091507,
          -0.09067777544260025,
          -0.11191054433584213,
          0.01289327908307314,
          0.16631600260734558,
          0.005078709218651056,
          0.08313249051570892,
          0.034920137375593185,
          0.10974206030368805,
          0.02438998781144619,
          0.034729015082120895,
          -0.14979177713394165,
          -0.022906817495822906,
          0.07661019265651703,
          -0.03741542249917984,
          -0.19382567703723907,
          -0.04953168332576752,
          -0.03525811806321144,
          -0.06077276170253754,
          -0.08942092210054398,
          0.08787950128316879,
          0.184379443526268,
          -0.18690872192382813,
          -0.04106263816356659,
          -0.01970132254064083,
          0.24855871498584747,
          0.03133463114500046,
          0.09876517951488495,
          0.1875556856393814,
          0.024206524714827538,
          -0.0913243368268013,
          0.06733674556016922,
          -0.03391796350479126,
          0.010672823525965214,
          -0.032971467822790146,
          0.15384890139102936,
          0.24402447044849396,
          -0.05288691446185112,
          0.08552397787570953,
          0.0026371649000793695,
          0.13890554010868073,
          0.03048119693994522,
          0.20963796973228455,
          -0.001639908878132701,
          0.1923951655626297,
          0.1610373705625534,
          0.13913901150226593,
          -0.023692982271313667,
          0.028956148773431778,
          -0.02952268347144127,
          0.0004896647296845913,
          0.2668211758136749,
          -0.010196533054113388,
          0.06836879253387451,
          0.08837178349494934,
          0.059822022914886475,
          0.052330464124679565,
          0.024056587368249893,
          0.03736722469329834,
          -0.03129059821367264,
          0.0783313438296318,
          -0.0555104985833168,
          -0.014699568040668964,
          -0.01864369586110115,
          0.08440418541431427,
          -0.04456638544797897,
          0.19679927825927734,
          0.019034989178180695,
          -0.01895604282617569,
          0.14482055604457855,
          0.007987679913640022,
          -0.04331739991903305,
          0.19447903335094452,
          0.027132147923111916,
          -0.08766813576221466,
          0.01286046952009201,
          -0.043063197284936905,
          -0.11703729629516602,
          -0.02381930500268936,
          -0.03504650294780731,
          -0.09412574768066406,
          -0.036409419029951096,
          -0.00917444285005331,
          -0.05199924111366272,
          0.10264379531145096,
          0.15519051253795624,
          -0.034585390239953995,
          0.1300707310438156,
          -0.03630206361413002,
          -0.05813094601035118,
          -0.18293459713459015,
          -0.039446327835321426,
          -0.14678075909614563,
          0.013094392605125904,
          -0.022947223857045174,
          0.05737680569291115,
          -0.16917479038238525,
          -0.09307146072387695,
          0.0696868970990181,
          -0.010093523189425468,
          -0.12259366363286972,
          -0.1344246119260788,
          0.016180681064724922,
          -0.13551101088523865,
          0.00624280609190464,
          -0.12394225597381592,
          -0.04987870156764984,
          -0.19171597063541412,
          -0.12411876022815704,
          0.012009365484118462,
          0.06746696680784225,
          -0.0980948656797409,
          -0.12921912968158722,
          -0.10428077727556229
        ],
        [
          -0.03745672106742859,
          -0.03724781051278114,
          0.0989122986793518,
          -0.040904201567173004,
          0.01309226080775261,
          0.06159847229719162,
          -0.02277716062963009,
          -0.1238107830286026,
          0.07644938677549362,
          0.07814561575651169,
          0.0103191202506423,
          0.08302971720695496,
          -0.05257086455821991,
          -0.10049423575401306,
          0.10875214636325836,
          -0.03496348485350609,
          0.01747434027493,
          -0.053731679916381836,
          0.03202784061431885,
          0.06702534109354019,
          -0.04068365693092346,
          -0.04210171476006508,
          -0.04857249930500984,
          0.07060407102108002,
          0.042304933071136475,
          0.09430426359176636,
          -0.004628905560821295,
          -0.17059315741062164,
          -0.0744323879480362,
          0.046077147126197815,
          0.03065428137779236,
          -0.1452399343252182,
          0.00015772253391332924,
          -0.14494772255420685,
          0.055038586258888245,
          0.1521761417388916,
          0.16518084704875946,
          0.14576829969882965,
          0.059583984315395355,
          0.09678372740745544,
          0.03366396948695183,
          -0.05262291058897972,
          -0.0897279754281044,
          -0.18378332257270813,
          0.015464991331100464,
          -0.034307751804590225,
          -0.018865840509533882,
          -0.08796795457601547,
          -0.09010465443134308,
          0.0268112700432539,
          0.1401052623987198,
          0.014948951080441475,
          0.1453806608915329,
          0.144942045211792,
          0.02142287977039814,
          0.13783007860183716,
          -0.024037372320890427,
          -0.19040648639202118,
          0.1919863075017929,
          0.07289689034223557,
          -0.11438475549221039,
          -0.024366553872823715,
          -0.21505142748355865,
          -0.08459033817052841,
          0.06923941522836685,
          0.15513591468334198,
          0.0069900620728731155,
          0.10814652591943741,
          0.3332037329673767,
          0.1081383153796196,
          0.28093117475509644,
          0.1494368016719818,
          -0.23849166929721832,
          0.21852916479110718,
          0.16953516006469727,
          -0.05624331161379814,
          0.058860041201114655,
          -0.009364794008433819,
          -0.18003520369529724,
          0.1324395090341568,
          0.23067079484462738,
          -0.08718160539865494,
          0.0379527248442173,
          0.03495524078607559,
          -0.06918338686227798,
          0.022459954023361206,
          -0.010644091293215752,
          0.10961642861366272,
          0.13224992156028748,
          0.008261114358901978,
          -0.1753416806459427,
          0.009937494061887264,
          0.02850128896534443,
          -0.06510191410779953,
          0.07191842794418335,
          0.10034413635730743,
          -0.10859471559524536,
          -0.04876686632633209,
          0.08665767312049866,
          0.07849810272455215,
          0.012384857051074505,
          0.07990469038486481,
          -0.18914484977722168,
          -0.14377641677856445,
          -0.03758452087640762,
          0.08611490577459335,
          -0.022807562723755836,
          -0.07234823703765869,
          0.06910163909196854,
          -0.09187469631433487,
          -0.03872033581137657,
          -0.07877055555582047,
          -0.2228497415781021,
          0.014211766421794891,
          -0.03151751682162285,
          0.11560335755348206,
          -0.07339999079704285,
          -0.04799756035208702,
          -0.00038868881529197097,
          0.030311904847621918,
          -0.013549728319048882,
          0.14017115533351898,
          -0.14784026145935059,
          0.13042938709259033,
          0.14334729313850403,
          0.18434345722198486,
          0.14843831956386566,
          0.1618206948041916,
          0.06518891453742981,
          0.1567554920911789,
          0.06468513607978821,
          0.06389674544334412,
          -0.09068107604980469,
          0.1230742484331131,
          0.014691573567688465,
          -0.019481465220451355,
          0.037905462086200714,
          -0.03572237119078636,
          -0.03175358474254608,
          -0.06413456052541733,
          0.04467993229627609,
          0.24498476088047028,
          0.08649387210607529,
          0.11991187930107117,
          0.08678523451089859,
          -0.07280407845973969,
          -0.07061628997325897,
          -0.057201139628887177,
          -0.012218035757541656,
          -0.06649461388587952
        ],
        [
          0.04567583277821541,
          -0.02292533963918686,
          0.049196112900972366,
          0.09054549783468246,
          0.06643377989530563,
          0.04029349610209465,
          -0.04711479693651199,
          -0.07348239421844482,
          -0.04912856966257095,
          -0.10513585805892944,
          -0.01651260256767273,
          0.008779251947999,
          -0.09331769496202469,
          0.008839793503284454,
          -0.05566994845867157,
          -0.042332567274570465,
          0.08070116490125656,
          -0.03577397018671036,
          -0.04206494614481926,
          -0.05229024961590767,
          -0.10600318759679794,
          0.0061978790909051895,
          -0.1372375637292862,
          -0.11541742086410522,
          -0.059349242597818375,
          -0.00824569258838892,
          -0.2181238830089569,
          0.050262998789548874,
          0.033796731382608414,
          -0.2324107587337494,
          -0.1257259100675583,
          0.00034756807144731283,
          0.11287306994199753,
          -0.09477945417165756,
          0.10431285947561264,
          -0.020664598792791367,
          -0.0016617645742371678,
          -0.26152727007865906,
          0.008060995489358902,
          -0.050849542021751404,
          -0.01491299644112587,
          -0.22718943655490875,
          -0.004127956926822662,
          0.012899241410195827,
          -0.21701779961585999,
          -0.0661352351307869,
          0.04876121133565903,
          0.16514986753463745,
          -0.0006813752697780728,
          0.012192034162580967,
          0.06288546323776245,
          0.16193802654743195,
          0.18029826879501343,
          0.2770889699459076,
          0.04855387657880783,
          -0.009929426945745945,
          -0.09528978168964386,
          0.03615332394838333,
          0.03547360375523567,
          -0.06768696755170822,
          0.04262116551399231,
          0.1713830530643463,
          0.2192566841840744,
          0.06717865914106369,
          0.13697710633277893,
          -0.037519313395023346,
          0.02198519930243492,
          -0.01936882734298706,
          0.15408851206302643,
          -0.02436707727611065,
          0.02194412238895893,
          -0.19844940304756165,
          -0.11194229871034622,
          -0.016105234622955322,
          -0.25434139370918274,
          -0.13941726088523865,
          0.09014614671468735,
          -0.13413463532924652,
          -0.004950183909386396,
          0.15046368539333344,
          -0.12464503943920135,
          -0.23110048472881317,
          0.012706010602414608,
          -0.03736892342567444,
          -0.061676617711782455,
          -0.15691499412059784,
          -0.2842073440551758,
          -0.2766866087913513,
          -0.04607614874839783,
          -0.10655692219734192,
          -0.11392543464899063,
          -0.02988910861313343,
          -0.25723835825920105,
          0.008541417308151722,
          0.01261955313384533,
          -0.0972420871257782,
          -0.10403711348772049,
          0.019568854942917824,
          -0.05125914514064789,
          -0.035443224012851715,
          0.04967990517616272,
          -0.107803113758564,
          0.09777350723743439,
          0.032859619706869125,
          -0.18886734545230865,
          -0.11922997981309891,
          0.04960768297314644,
          0.0018191415583714843,
          -0.21641045808792114,
          0.0010597038781270385,
          0.041898224502801895,
          -0.2308996468782425,
          -0.1855987310409546,
          -0.03726207837462425,
          -0.06707071512937546,
          -0.12389165163040161,
          -0.10882579535245895,
          0.04631204903125763,
          -0.025947952643036842,
          -0.2264012098312378,
          -0.019589949399232864,
          0.04116709157824516,
          -0.03788116201758385,
          -0.10293938964605331,
          -0.07297243922948837,
          -0.035952817648649216,
          -0.11618472635746002,
          -0.140865296125412,
          -0.0387796014547348,
          -0.14018860459327698,
          0.0798284262418747,
          -0.04930245876312256,
          -0.12613540887832642,
          -0.00913357175886631,
          -0.15064457058906555,
          -0.09381050616502762,
          0.012847920879721642,
          -0.09460494667291641,
          -0.09317396581172943,
          -0.09156615287065506,
          0.07704630494117737,
          0.04954060912132263,
          -0.14794033765792847,
          -0.025332286953926086,
          0.08497745543718338,
          0.006396490149199963,
          0.013247459195554256,
          0.06432511657476425,
          -0.08794789016246796,
          -0.0007356508867815137
        ],
        [
          -0.05283627659082413,
          -0.06785202771425247,
          0.08382219821214676,
          0.06083647161722183,
          -0.06870623677968979,
          -0.0727522149682045,
          -0.02349265292286873,
          -0.04623154550790787,
          0.023890435695648193,
          0.04693986847996712,
          -0.15746749937534332,
          -0.0035162088461220264,
          0.06556268036365509,
          0.036836978048086166,
          -0.08588404953479767,
          0.03790762275457382,
          0.031366363167762756,
          0.07478000968694687,
          0.08192557096481323,
          -0.0955047756433487,
          0.03643172234296799,
          -0.0211548563092947,
          -0.007677191402763128,
          -0.024852193892002106,
          -0.07551630586385727,
          -0.0498318150639534,
          0.05611801519989967,
          0.004876927472651005,
          0.10791237652301788,
          -0.050383374094963074,
          0.07542462646961212,
          0.2335185408592224,
          0.08000514656305313,
          0.03298739343881607,
          0.26731669902801514,
          -0.06788770854473114,
          -0.05456414073705673,
          -0.1465543508529663,
          -0.12107174843549728,
          -0.04069552943110466,
          0.053425878286361694,
          0.16862237453460693,
          0.12173037976026535,
          0.2134317308664322,
          0.24289384484291077,
          0.09682773798704147,
          0.19062864780426025,
          0.13759838044643402,
          0.004549012053757906,
          0.2133084535598755,
          -0.03097531571984291,
          -0.14138151705265045,
          -0.1906101554632187,
          -0.03847990185022354,
          -0.05633065477013588,
          0.11254110932350159,
          0.26763176918029785,
          0.01624729298055172,
          0.001339821028523147,
          0.0015595050062984228,
          -0.24209874868392944,
          -0.05234809219837189,
          -0.3000674843788147,
          -0.20270277559757233,
          0.017647065222263336,
          -0.16526584327220917,
          -0.20656375586986542,
          -0.06539112329483032,
          -0.11075049638748169,
          -0.09231047332286835,
          -0.012118217535316944,
          0.12508518993854523,
          0.16478165984153748,
          0.1454203575849533,
          0.10973651707172394,
          0.07013854384422302,
          0.044958796352148056,
          0.15091493725776672,
          -0.12601026892662048,
          0.04399929568171501,
          -0.021765144541859627,
          0.08684100955724716,
          -0.025993771851062775,
          -0.03653397783637047,
          0.07011763006448746,
          0.12350958585739136,
          -0.05829979479312897,
          -0.05329769849777222,
          0.19378182291984558,
          -0.06505285948514938,
          0.02233300916850567,
          0.006876054685562849,
          0.06940459460020065,
          -0.16419599950313568,
          -0.09875082224607468,
          -0.04490111395716667,
          0.07722324132919312,
          -0.0003679960500448942,
          -0.06172527000308037,
          -0.009226322174072266,
          0.09507347643375397,
          -0.04899051412940025,
          0.025681758299469948,
          0.05459429696202278,
          -0.05392177402973175,
          -0.10313286632299423,
          -0.020548908039927483,
          -0.04820363596081734,
          0.0464693084359169,
          -0.029850348830223083,
          0.06871780008077621,
          0.07348785549402237,
          -0.07539627701044083,
          0.04502817615866661,
          -0.10474295914173126,
          0.09072300791740417,
          -0.025447359308600426,
          0.08301250636577606,
          0.03985542804002762,
          -0.1531984955072403,
          0.12233559787273407,
          0.017323477193713188,
          0.005500645376741886,
          -0.1326446384191513,
          -0.010019402951002121,
          0.001897356123663485,
          0.10357490181922913,
          0.04382455721497536,
          -0.08501831442117691,
          -0.016118038445711136,
          0.0255583468824625,
          0.06949687004089355,
          -0.039501532912254333,
          -0.01746600680053234,
          -0.09387306123971939,
          0.10523103177547455,
          -0.05925828963518143,
          0.0396341048181057,
          -0.12940183281898499,
          0.030675046145915985,
          -0.02304821088910103,
          -0.07390207052230835,
          -0.055293306708335876,
          -0.06185896694660187,
          0.03141976520419121,
          0.13538633286952972,
          -0.06918315589427948,
          -0.02929537557065487,
          -0.04735855758190155,
          -0.12766151130199432
        ],
        [
          -0.08706210553646088,
          0.1024971678853035,
          -0.0005785225075669587,
          -0.056393589824438095,
          0.09500391781330109,
          0.007964994758367538,
          0.08167915046215057,
          0.1041753962635994,
          -0.02916894108057022,
          0.004910987336188555,
          0.11027423292398453,
          -0.0871339663863182,
          0.06912867724895477,
          0.11455860733985901,
          0.04950892925262451,
          0.06394831091165543,
          0.009590547531843185,
          -0.06842678040266037,
          0.09341350197792053,
          0.054187972098588943,
          -0.04337374493479729,
          0.007081594318151474,
          -0.03190044313669205,
          0.05645803362131119,
          0.12744662165641785,
          0.12962238490581512,
          0.228705495595932,
          -0.037667643278837204,
          -0.011745892465114594,
          -0.006825901567935944,
          -0.11603935062885284,
          -0.22232559323310852,
          -0.18571893870830536,
          -0.021639971062541008,
          -0.07582006603479385,
          0.08595304191112518,
          0.08381824195384979,
          0.037036996334791183,
          0.20347656309604645,
          -0.006676042452454567,
          0.20883949100971222,
          0.14234307408332825,
          0.0471094511449337,
          0.09889767318964005,
          0.1422056257724762,
          -0.06708572804927826,
          -0.01986900344491005,
          -0.1740940809249878,
          -0.14218473434448242,
          -0.15958306193351746,
          0.10685154795646667,
          -0.04954945668578148,
          0.09483137726783752,
          0.09481905400753021,
          -0.0710839256644249,
          0.011180083267390728,
          -0.07537360489368439,
          0.021058373153209686,
          0.02699822373688221,
          -0.11649566143751144,
          0.11140807718038559,
          -0.0841597318649292,
          0.061406105756759644,
          0.20445437729358673,
          -0.12612506747245789,
          0.0586320199072361,
          -0.0014461148530244827,
          0.03420310840010643,
          0.019313521683216095,
          -0.03303973376750946,
          0.08569267392158508,
          0.03169643506407738,
          0.11420530825853348,
          0.06874985247850418,
          -0.100042425096035,
          -0.16364459693431854,
          -0.006357796490192413,
          -0.24911296367645264,
          0.07591182738542557,
          0.005513899493962526,
          0.1852094978094101,
          -0.051804039627313614,
          0.1882733404636383,
          0.1345774084329605,
          -0.03508292883634567,
          -0.04321255162358284,
          -0.03434671461582184,
          -0.03647381067276001,
          -0.11259158700704575,
          -0.031558744609355927,
          -0.27040454745292664,
          0.06610904633998871,
          -0.18568888306617737,
          -0.04629607871174812,
          -0.11477530002593994,
          0.10028336942195892,
          0.08095211535692215,
          0.10980013757944107,
          0.13595204055309296,
          0.043918851763010025,
          -0.19430947303771973,
          -0.16849717497825623,
          -0.05495315045118332,
          -0.17970702052116394,
          -0.14018815755844116,
          0.09392103552818298,
          0.05983959883451462,
          0.08050021529197693,
          -0.007360434625297785,
          -0.1275879144668579,
          0.14798912405967712,
          -0.022114714607596397,
          -0.04278386011719704,
          0.13589170575141907,
          0.041945863515138626,
          0.003356123110279441,
          -0.03170161694288254,
          0.02813590317964554,
          -0.04085255786776543,
          -0.08211579918861389,
          0.20178352296352386,
          0.012728052213788033,
          0.07155965268611908,
          0.11103517562150955,
          -0.12799988687038422,
          0.1195041611790657,
          0.000661271158605814,
          0.08261170238256454,
          0.10413023829460144,
          0.0026205223985016346,
          0.14370214939117432,
          0.21409611403942108,
          0.13445886969566345,
          -0.027443530037999153,
          0.02536766231060028,
          0.03029654361307621,
          -0.1705954670906067,
          -0.11492788046598434,
          -0.036709949374198914,
          -0.13874414563179016,
          0.13418243825435638,
          0.05277825891971588,
          0.03156690299510956,
          0.15014398097991943,
          0.13333699107170105,
          0.016939662396907806,
          0.10238958895206451,
          -0.045890141278505325,
          0.08910930156707764,
          0.09037681668996811
        ],
        [
          -0.09452899545431137,
          0.08953976631164551,
          0.01459871418774128,
          -0.08819345384836197,
          -0.1253327578306198,
          0.046394605189561844,
          -0.08313672989606857,
          -0.029047202318906784,
          -0.007817943580448627,
          -0.04920709505677223,
          0.07147784531116486,
          -0.0038395202718675137,
          -0.042989332228899,
          0.08429308980703354,
          0.08449635654687881,
          -0.12760517001152039,
          0.07266911119222641,
          0.028047451749444008,
          -0.07451425492763519,
          -0.10401411354541779,
          -0.003854465438053012,
          -0.010259866714477539,
          -0.05014978349208832,
          -0.10749202966690063,
          0.006962029729038477,
          -0.06761784851551056,
          -0.050189416855573654,
          -0.0694730207324028,
          -0.04674304276704788,
          -0.13394051790237427,
          0.02808208018541336,
          0.0366252139210701,
          -0.03893157094717026,
          -0.021664313971996307,
          0.12490682303905487,
          0.1241426020860672,
          -0.059609305113554,
          -0.010488380677998066,
          0.19942276179790497,
          0.0777558907866478,
          0.10697850584983826,
          -0.19162708520889282,
          -0.17606297135353088,
          -0.1261170506477356,
          0.005784348584711552,
          -0.02917809784412384,
          0.021515483036637306,
          0.22360369563102722,
          0.08464598655700684,
          0.25928717851638794,
          -0.08887709677219391,
          0.11644633859395981,
          0.11680159717798233,
          -0.003075065091252327,
          0.12966664135456085,
          -0.04616245627403259,
          0.109148308634758,
          0.07026579231023788,
          0.05337066203355789,
          0.07296419143676758,
          -0.0688510313630104,
          0.06354958564043045,
          0.11593692004680634,
          0.061149828135967255,
          -0.0030693700537085533,
          -0.177294060587883,
          0.12250430136919022,
          -0.0028440963942557573,
          -0.07606273144483566,
          -0.06990861147642136,
          0.08184752613306046,
          0.00613020546734333,
          0.03888736665248871,
          0.17702768743038177,
          0.16064873337745667,
          0.1524866223335266,
          0.26288902759552,
          0.14714568853378296,
          0.1384797990322113,
          0.10471753776073456,
          -0.06582841277122498,
          -0.16488578915596008,
          0.05662839859724045,
          -0.10559964179992676,
          -0.07541364431381226,
          -0.1591096669435501,
          -0.20931477844715118,
          -0.02088017202913761,
          -0.012336569838225842,
          -0.22667138278484344,
          0.0631684884428978,
          0.12388088554143906,
          0.1367897242307663,
          0.07743582874536514,
          0.06934154033660889,
          0.0287415012717247,
          -0.1149306520819664,
          -0.03184950724244118,
          0.007318832445889711,
          -0.11783822625875473,
          0.022824449464678764,
          -0.005546899046748877,
          -0.10533616691827774,
          -0.09495318681001663,
          0.05279454588890076,
          0.043711431324481964,
          0.037141624838113785,
          -0.05345546081662178,
          -0.14381076395511627,
          0.09904437512159348,
          -0.06406012922525406,
          -0.02245437726378441,
          0.05115468055009842,
          -0.23620381951332092,
          0.069607213139534,
          -0.03826357424259186,
          -0.12164802849292755,
          -0.06393077224493027,
          0.03537491336464882,
          0.025677699595689774,
          0.05347419157624245,
          0.09777064621448517,
          -0.0031861315947026014,
          0.03962244465947151,
          0.14072076976299286,
          0.005668541882187128,
          0.009126358665525913,
          0.1129336878657341,
          -0.05271843448281288,
          0.06867382675409317,
          0.16055907309055328,
          -0.019073985517024994,
          0.08723171800374985,
          0.008954768069088459,
          0.01798952929675579,
          0.13965189456939697,
          0.14174503087997437,
          0.13774852454662323,
          0.03245930001139641,
          -0.04071572422981262,
          0.12722009420394897,
          0.009934816509485245,
          -0.07142230868339539,
          0.08149013668298721,
          -0.020320430397987366,
          -0.09148257970809937,
          0.09371750801801682,
          -0.015092456713318825,
          -0.037625763565301895,
          0.015336674638092518
        ],
        [
          0.025313688442111015,
          0.01964050531387329,
          0.05660265311598778,
          -0.0029479507356882095,
          -0.026181437075138092,
          -0.07997620105743408,
          -0.08830426633358002,
          -0.06473757326602936,
          -0.12317284941673279,
          -0.011530105024576187,
          -0.132240429520607,
          -0.09292158484458923,
          -0.08181804418563843,
          0.006042999215424061,
          0.008542675524950027,
          0.01866881176829338,
          0.04341890662908554,
          -0.05142591521143913,
          0.11169486492872238,
          -0.07460229098796844,
          -0.1505306214094162,
          -0.045335136353969574,
          -0.11520922183990479,
          -0.10919075459241867,
          -0.06292556971311569,
          -0.06654022634029388,
          -0.20453229546546936,
          -0.05960066616535187,
          -0.07970956712961197,
          -0.14073553681373596,
          0.02314089424908161,
          0.0020868275314569473,
          -0.08993367850780487,
          0.043825242668390274,
          0.05506381765007973,
          0.10544373840093613,
          0.02003662846982479,
          -0.05891861394047737,
          -0.08812937140464783,
          -0.18200497329235077,
          -0.05622012913227081,
          -0.04337862879037857,
          -0.0987437441945076,
          -0.055961355566978455,
          0.033163465559482574,
          0.09854074567556381,
          0.09677290916442871,
          -0.03703470900654793,
          0.06521309912204742,
          0.02045648731291294,
          -0.0228048674762249,
          0.1740538328886032,
          0.3337736427783966,
          0.12170691043138504,
          0.1910381317138672,
          -0.059956856071949005,
          -0.019015541300177574,
          -0.1610996276140213,
          -0.21237100660800934,
          -0.06092512235045433,
          0.13897614181041718,
          0.00032079830998554826,
          -0.05069173499941826,
          0.15737371146678925,
          -0.08305947482585907,
          0.12155427783727646,
          0.12524071335792542,
          0.15927061438560486,
          0.1795593947172165,
          0.05097327381372452,
          -0.0942552238702774,
          -0.05933301895856857,
          -0.19691486656665802,
          -0.10464166104793549,
          -0.06396178901195526,
          0.09799712151288986,
          -0.01985977403819561,
          0.06032643839716911,
          -0.11938262730836868,
          -0.10288801044225693,
          -0.04725302383303642,
          0.16416947543621063,
          0.17563626170158386,
          0.010041511617600918,
          0.03664902225136757,
          -0.16497264802455902,
          0.05053144693374634,
          0.05965244770050049,
          -0.03890853375196457,
          -0.16559889912605286,
          -0.045894164592027664,
          0.05203833058476448,
          -0.1176564022898674,
          -0.22913871705532074,
          -0.008932863362133503,
          0.03614833950996399,
          0.026003379374742508,
          0.04834602028131485,
          0.029914261773228645,
          0.02812982350587845,
          -0.24384835362434387,
          -0.2771023213863373,
          -0.006392024923115969,
          -0.15306591987609863,
          -0.04775252938270569,
          -0.0368465892970562,
          -0.09063832461833954,
          -0.19119100272655487,
          -0.04442695155739784,
          -0.005817708559334278,
          -0.09735941141843796,
          -0.1861007809638977,
          -0.02436874806880951,
          -0.18100973963737488,
          -0.020996028557419777,
          -0.2041907161474228,
          -0.1675744354724884,
          -0.03433479741215706,
          -0.11907989531755447,
          -0.18595297634601593,
          0.039926860481500626,
          -0.092158243060112,
          -0.0986194834113121,
          -0.0077988202683627605,
          -0.007603136822581291,
          0.05197697877883911,
          -0.15044479072093964,
          0.17629185318946838,
          -0.07138308137655258,
          0.053944721817970276,
          -0.031061450019478798,
          0.05656721070408821,
          -0.15030437707901,
          -0.12316866219043732,
          -0.09963905811309814,
          0.08499576151371002,
          0.11688050627708435,
          0.13046272099018097,
          0.017859937623143196,
          -0.08820713311433792,
          0.08699584752321243,
          -0.10217411071062088,
          -0.030825546011328697,
          0.028778595849871635,
          -0.09992678463459015,
          0.008670700713992119,
          -0.060011036694049835,
          -0.14568598568439484,
          -0.09381610155105591,
          -0.027078965678811073
        ]
      ]
    },
    {
      "type": "ReLU"
    },
    {
      "channels": 16,
      "inputHeight": 10,
      "inputWidth": 10,
      "pad": 0,
      "poolHeight": 2,
      "poolWidth": 2,
      "stride": 2,
      "type": "MaxPooling"
    },
    {
      "biases": [
        0.05614837259054184,
        0.005718559492379427,
        -0.02335812896490097,
        -4.287914634915069e-05,
        -0.00401235930621624,
        -0.02590188756585121,
        -0.002592152450233698,
        0.022251488640904427,
        -8.08539116405882e-05,
        -0.0003743632696568966,
        0.0038858831394463778,
        0.06677749007940292,
        0.008907686918973923,
        0.000545655086170882,
        -1.815781979530584e-05,
        0.02436233125627041,
        0.003980731591582298,
        0.0,
        -0.035885151475667953,
        0.013967846520245075,
        -0.02454584464430809,
        0.02007802575826645,
        0.0007979893125593662,
        0.009520850144326687,
        0.024424085393548012,
        0.00999457947909832,
        0.01127481646835804,
        0.03430745378136635,
        0.024702826514840126,
        -3.285407001385465e-05,
        0.014199071563780308,
        0.0006341927801258862,
        -2.0232189399393974e-06,
        0.04616175964474678,
        -0.005399377550929785,
        0.0027731836307793856,
        0.01267814077436924,
        -0.00899927131831646,
        0.005606323480606079,
        0.03217940032482147,
        0.051142096519470215,
        -0.011726073920726776,
        -0.02464190311729908,
        0.10055568814277649,
        -0.0002433489717077464,
        -0.019940165802836418,
        -0.003149909432977438,
        0.013637419790029526,
        -0.000575456244405359,
        0.00378866633400321,
        0.03003319725394249,
        0.061153706163167953,
        0.0170881450176239,
        -3.1844101613387465e-05,
        0.006879421882331371,
        0.017737645655870438,
        -0.005335613619536161,
        0.012848060578107834,
        -0.0005185973714105785,
        -0.004472729749977589,
        -0.0017342173960059881,
        0.0299940537661314,
        0.04254293069243431,
        -0.0011302391067147255,
        -0.049774810671806335,
        5.7188641221728176e-05,
        0.030406933277845383,
        0.027242101728916168,
        -0.04156778007745743,
        -0.0513790100812912,
        0.01883547753095627,
        -0.004916084930300713,
        0.019331395626068115,
        -8.101583807729185e-05,
        0.0,
        0.0,
        -9.650064021116123e-05,
        -0.05031091347336769,
        0.013314824551343918,
        0.007959037087857723,
        -0.037250760942697525,
        -0.003196464153006673,
        -0.04810860753059387,
        0.014414314180612564,
        0.03125031664967537,
        0.05392125993967056,
        0.008948742412030697,
        -0.000977874267846346,
        -0.022422069683670998,
        -0.00019494917069096118,
        -0.000756456924136728,
        -0.008078465238213539,
        -0.009893889538943768,
        -0.0006411710055544972,
        -0.05231068283319473,
        0.03917400538921356,
        0.01779625006020069,
        0.0016542670782655478,
        -0.01766100712120533,
        -0.014031448401510715,
        0.044998642057180405,
        0.014960655942559242,
        0.004625949542969465,
        -0.05189357325434685,
        -9.134520951192826e-06,
        -0.006027162540704012,
        -0.009247134439647198,
        -0.04681851342320442,
        -0.0054345265962183475,
        -0.043941646814346313,
        -0.0010364800691604614,
        0.04576104134321213,
        0.02066422626376152,
        7.227079095173394e-07,
        -3.654835745692253e-05,
        -0.00702954176813364,
        0.04800775647163391,
        0.012600795365869999,
        -0.00044895143946632743,
        -0.003512469818815589
      ],
      "inChannels": 16,
      "kernelHeight": 5,
      "kernelWidth": 5,
      "outChannels": 120,
      "pad": 0,
      "stride": 1,
      "type": "Conv2D",
      "weights": [
        [
          -0.04462578892707825,
          -0.027013057842850685,
          0.12108786404132843,
          -0.03975344076752663,
          -0.03777395561337471,
          -0.04754439368844032,
          -0.013750658370554447,
          -0.03045491874217987,
          0.06296342611312866,
          -0.04635593295097351,
          -0.0032410328276455402,
          0.006049303337931633,
          0.06794385612010956,
          0.0604671984910965,
          0.01287521980702877,
          0.06436384469270706,
          -0.03041435219347477,
          0.014953826554119587,
          -0.09582674503326416,
          0.028339235112071037,
          0.03315988928079605,
          -0.058374665677547455,
          0.00778710562735796,
          -0.10322611778974533,
          -0.03199656680226326,
          0.07218267023563385,
          -0.08559560030698776,
          0.045506544411182404,
          -0.029764022678136826,
          0.045905012637376785,
          0.008293190971016884,
          -0.0059011951088905334,
          0.0423254556953907,
          0.07487491518259048,
          0.025653213262557983,
          -0.035149749368429184,
          0.0490143708884716,
          -0.060797493904829025,
          0.026601187884807587,
          0.0011686235666275024,
          0.0401836559176445,
          -0.05811985582113266,
          0.04326751455664635,
          0.0427875854074955,
          -0.019484352320432663,
          -0.05372685194015503,
          -0.0036224627401679754,
          -0.02344156801700592,
          0.03871850669384003,
          0.04466310888528824,
          -0.08395314961671829,
          -0.01237531565129757,
          -0.016959650442004204,
          0.00040361008723266423,
          -0.04261166229844093,
          -0.08609550446271896,
          0.013961229473352432,
          0.014872808940708637,
          0.016322042793035507,
          -0.0096834572032094,
          -0.005996739026159048,
          0.010190342552959919,
          0.06604071706533432,
          -0.05910418555140495,
          0.04272251948714256,
          -0.04542706534266472,
          -0.0506356805562973,
          0.06366731226444244,
          -0.04563283920288086,
          -0.08373969048261642,
          -0.11808384954929352,
          -0.006678802892565727,
          -0.07310646772384644,
          -0.015287807211279869,
          -0.011700731702148914,
          -0.0763942301273346,
          -0.04209320619702339,
          -0.02826632931828499,
          -0.08215244114398956,
          0.002534004859626293,
          0.02401210367679596,
          -0.03364391624927521,
          0.03519904613494873,
          -0.08609531819820404,
          -0.010834082961082458,
          -0.041260987520217896,
          -0.030431894585490227,
          0.04937826842069626,
          -0.04038918390870094,
          0.020843397825956345,
          0.02288038842380047,
          0.04290211573243141,
          -0.06287679821252823,
          -0.03854706883430481,
          0.057127129286527634,
          0.022818943485617638,
          -0.0030539154540747404,
          0.058475326746702194,
          -0.012473215349018574,
          -0.04639453440904617,
          -0.07243596762418747,
          -0.07281617820262909,
          -0.10286442190408707,
          -0.021217448636889458,
          -0.013326263055205345,
          0.0165215153247118,
          -0.029852714389562607,
          0.031263839453458786,
          -0.0149386590346694,
          0.01013085339218378,
          -0.013683059252798557,
          -0.041117265820503235,
          -0.04306955263018608,
          -0.025398023426532745,
          0.009094269014894962,
          -0.10318483412265778,
          0.010865316726267338,
          0.045914940536022186,
          -0.07006708532571793,
          -0.061708442866802216,
          -0.04915720224380493,
          0.03849473595619202,
          0.1219126433134079,
          -0.029116325080394745,
          0.024964723736047745,
          0.021974489092826843,
          0.018690750002861023,
          0.00438024802133441,
          0.0664641335606575,
          0.09070881456136703,
          -0.011077342554926872,
          -0.005167962517589331,
          -0.01734401099383831,
          0.030197201296687126,
          -0.034250032156705856,
          0.06030237302184105,
          0.024087050929665565,
          0.06382633745670319,
          -0.03987741470336914,
          0.013183526694774628,
          -0.06375239044427872,
          0.08482028543949127,
          -0.021565932780504227,
          -0.0441737025976181,
          -0.005990559700876474,
          -0.001952191349118948,
          -0.022139066830277443,
          -0.0013854516437277198,
          0.055073291063308716,
          0.02746134251356125,
          0.034121688455343246,
          0.0319904126226902,
          -0.006403634790331125,
          -0.06141389161348343,
          -0.05898095667362213,
          0.09527548402547836,
          -0.07174698263406754,
          0.012975126504898071,
          0.005494958255439997,
          -0.015079619362950325,
          -0.0033980219159275293,
          0.00867152214050293,
          0.06462189555168152,
          0.03296027332544327,
          0.04867901653051376,
          0.07835569977760315,
          -0.002585749374702573,
          -0.07301110029220581,
          0.0010713725350797176,
          -0.027822967618703842,
          0.021272286772727966,
          0.015285377390682697,
          -0.0362078994512558,
          0.07050249725580215,
          0.07642621546983719,
          -0.05543491616845131,
          0.12778352200984955,
          -0.0855829194188118,
          -0.022054022178053856,
          0.02595362812280655,
          0.017057666555047035,
          0.04731195792555809,
          0.0875236988067627,
          -0.02195051498711109,
          0.03743411600589752,
          -0.0236833393573761,
          0.013886939734220505,
          0.030231354758143425,
          0.011532869189977646,
          -0.03664835914969444,
          -0.034558698534965515,
          -0.05005643889307976,
          0.04102813079953194,
          0.015561060979962349,
          -0.04047638922929764,
          -0.019138066098093987,
          -0.008325695060193539,
          0.025490211322903633,
          -0.0653742253780365,
          0.0416896678507328,
          -0.039337415248155594,
          -0.07801933586597443,
          0.017734043300151825,
          -0.0724455937743187,
          0.0009195218444801867,
          0.05605309084057808,
          -0.08210376650094986,
          -0.016110893338918686,
          -0.04784843325614929,
          -0.020149976015090942,
          0.06680934131145477,
          -0.03397100418806076,
          -0.059310343116521835,
          0.04506987705826759,
          0.009411368519067764,
          -0.03655638173222542,
          -0.051964160054922104,
          -0.003276153700426221,
          -0.07730007916688919,
          0.10176094621419907,
          -0.010216578841209412,
          0.021591538563370705,
          0.04405781626701355,
          0.0341993011534214,
          -0.05243178457021713,
          0.010955765843391418,
          -0.0924350917339325,
          -0.026949429884552956,
          0.025485612452030182,
          -0.09373476356267929,
          -0.020339231938123703,
          -0.0612979531288147,
          -0.07680114358663559,
          0.056438133120536804,
          0.04791879653930664,
          -0.03495261073112488,
          -0.01201221439987421,
          -0.04997933283448219,
          0.004019337240606546,
          -0.05291527509689331,
          -0.03699837252497673,
          0.03697989135980606,
          0.01403797697275877,
          0.005725924391299486,
          -0.04065670073032379,
          0.015902824699878693,
          0.003015435766428709,
          -0.033460572361946106,
          -0.0047016385942697525,
          0.0541498027741909,
          -0.0038286754861474037,
          0.012359458953142166,
          -0.005826284177601337,
          0.02859705686569214,
          0.0035294878762215376,
          0.0101413419470191,
          -0.023002322763204575,
          -0.013769665732979774,
          0.035440679639577866,
          -0.04209509864449501,
          0.003302762983366847,
          0.06600605696439743,
          0.07875820994377136,
          -0.0382811538875103,
          -0.062321729958057404,
          0.048694100230932236,
          0.051863763481378555,
          0.0431278720498085,
          0.01397790852934122,
          -0.0013972434680908918,
          0.047141287475824356,
          0.048578474670648575,
          0.019328828901052475,
          -0.04025863856077194,
          -0.06475302577018738,
          0.11779134720563889,
          0.051650721579790115,
          -0.0021552625112235546,
          -0.01890568993985653,
          -0.07368484139442444,
          -0.0685926154255867,
          -0.06859792768955231,
          0.09366034716367722,
          -0.08423089981079102,
          -0.04914688691496849,
          0.06431134045124054,
          -0.02222880907356739,
          -0.02539473958313465,
          -0.01074313186109066,
          0.11477102339267731,
          -0.03837253525853157,
          0.04620926082134247,
          0.07379014045000076,
          0.029693525284528732,
          -0.02924269437789917,
          -0.013832826167345047,
          0.10323372483253479,
          -0.07296250760555267,
          -0.015874110162258148,
          0.07248477637767792,
          0.034460052847862244,
          0.07154794782400131,
          -0.012411737814545631,
          -0.01054699532687664,
          -0.008108988404273987,
          0.0288521908223629,
          0.017570428550243378,
          -0.02713049203157425,
          0.019535984843969345,
          -0.05839266628026962,
          -0.022893240675330162,
          -0.1158909946680069,
          0.03282348811626434,
          0.03421502932906151,
          0.01911270059645176,
          -0.0004715606046374887,
          0.04630294814705849,
          0.06883537024259567,
          -0.05561374872922897,
          0.021860303357243538,
          0.024075161665678024,
          -0.01960202306509018,
          -0.0018708292627707124,
          -0.0642065480351448,
          -0.029216786846518517,
          0.07288681715726852,
          -0.039657607674598694,
          -0.025102032348513603,
          -0.01965978555381298,
          -0.01833452843129635,
          -0.03911354020237923,
          0.04548909142613411,
          -0.06993062049150467,
          -0.06389803439378738,
          -0.010151969268918037,
          0.03571471571922302,
          0.028016332536935806,
          0.05297785624861717,
          -0.07826507836580276,
          0.07250252366065979,
          -0.02506808191537857,
          -0.056364499032497406,
          0.08381495624780655,
          -0.0551297627389431,
          -0.03297826647758484,
          -0.0012054870603606105,
          -0.041494220495224,
          -0.14057134091854095,
          0.11449206620454788,
          0.052282821387052536,
          -0.03765898570418358,
          0.026427138596773148,
          0.07360261678695679,
          -0.03357468172907829,
          0.060647718608379364,
          0.00040395327960141003,
          -0.033175040036439896,
          -0.03532571718096733,
          0.07117760181427002,
          0.076575368642807,
          0.0342022143304348,
          0.08023077249526978,
          0.09315246343612671,
          0.03268078342080116,
          0.026196463033556938,
          0.09420154988765717,
          0.025564415380358696,
          0.009288650937378407,
          -0.04605980962514877,
          -0.06405806541442871,
          0.03479297459125519,
          0.0656135305762291,
          0.047201380133628845,
          -0.0802474245429039,
          -0.00882068183273077,
          0.12913104891777039,
          -0.0372774638235569,
          0.009593499824404716,
          -0.09409414976835251,
          0.06256788223981857,
          -0.028792066499590874,
          -0.00217203120701015,
          0.06142973154783249,
          -0.037924669682979584,
          -0.003776214085519314,
          0.0586751364171505,
          0.052087582647800446,
          -0.05116875469684601,
          -0.02582019567489624,
          0.08926961570978165,
          -0.02953367866575718,
          0.04779546335339546,
          0.053271591663360596,
          -0.0434933640062809,
          0.044547248631715775,
          0.027819816023111343,
          -0.009949671104550362,
          -0.028501009568572044,
          -0.0013114401372149587,
          -0.058159127831459045
        ],
        [
          -0.08191744983196259,
          -0.0022992342710494995,
          0.0007144720875658095,
          -0.012059074826538563,
          -0.03341664746403694,
          0.024064673110842705,
          -0.07548978924751282,
          -0.0366431400179863,
          0.06117354333400726,
          0.005958094261586666,
          0.03478359431028366,
          -0.02178691327571869,
          -0.015949038788676262,
          -0.06614832580089569,
          -0.03633357957005501,
          -0.05000336840748787,
          -0.01433501485735178,
          -0.026088615879416466,
          -0.06040991470217705,
          0.07679937034845352,
          -0.01069276686757803,
          0.024544432759284973,
          0.015489839017391205,
          0.03163420036435127,
          -0.0034559674095362425,
