{
  "layers": [
    {
      "biases": [
        -0.19493946433067322,
        -0.0041708736680448055,
        0.04775124415755272,
        0.07749845087528229,
        -0.03581567853689194,
        0.12893366813659668,
        0.0333794541656971,
        -0.1844610869884491,
        0.02681172452867031,
        0.09573554992675781,
        -0.1728210300207138,
        -0.030785953626036644,
        0.12874536216259003,
        -0.01369471661746502,
        0.17475898563861847,
        -0.005362255033105612,
        0.2221716046333313,
        -0.015851784497499466,
        -0.12058640271425247,
        -0.08145277947187424,
        0.19689002633094788,
        -0.14826318621635437,
        0.013348030857741833,
        0.04554973915219307,
        0.007650384679436684,
        0.171566441655159,
        0.15625694394111633,
        0.006206008139997721,
        0.09114944189786911,
        0.05135033652186394,
        0.241749107837677,
        -0.02902022749185562,
        -0.09697665274143219,
        0.06018075719475746,
        0.1086917370557785,
        0.034296680241823196,
        -0.032156046479940414,
        0.07667601108551025,
        0.11228297650814056,
        0.0862010195851326,
        0.10055584460496902,
        -0.06617864221334457,
        -0.036978140473365784,
        -0.09939016401767731,
        -0.035469796508550644,
        -0.017856832593679428,
        0.07428590208292007,
        0.04236447066068649,
        0.027275292202830315,
        0.09328769147396088,
        0.1500438004732132,
        -0.01360197551548481,
        0.11338958889245987,
        -0.018908526748418808,
        0.004495895933359861,
        0.11984844505786896,
        -0.11530828475952148,
        0.2848667800426483,
        -0.009216302074491978,
        -0.034359484910964966,
        0.03578604385256767,
        -0.07765079289674759,
        -0.005378818139433861,
        0.07253081351518631,
        0.0862637534737587,
        0.012594510801136494,
        0.03045046143233776,
        0.053814597427845,
        0.16967548429965973,
        0.05593107268214226,
        0.13922062516212463,
        0.005922410637140274,
        -0.1411072313785553,
        -0.056265123188495636,
        -0.006932094693183899,
        -0.10431474447250366,
        -0.07118874043226242,
        0.01748613268136978,
        0.08629325032234192,
        -0.0814465805888176,
        0.006532488856464624,
        0.07977543026208878,
        -0.013448436744511127,
        0.15197612345218658,
        0.06165634095668793,
        -0.01847105845808983,
        0.05565478280186653,
        0.03485777974128723,
        0.16435585916042328,
        -0.0009099207818508148,
        0.046437062323093414,
        -0.11021631956100464,
        -0.06489244103431702,
        -0.16714611649513245,
        -0.19278879463672638,
        0.039858974516391754,
        -0.23771050572395325,
        0.23293954133987427,
        0.0617973729968071,
        -0.005736225284636021,
        -0.12430679053068161,
        -0.0282741766422987,
        0.021677955985069275,
        0.15013916790485382,
        0.12460179626941681,
        0.06924712657928467,
        0.1599535048007965,
        -0.041092775762081146,
        -0.09984452277421951,
        -0.04214943200349808,
        -0.010976964607834816,
        -0.046297162771224976,
        0.004657398909330368,
        0.13070854544639587,
        0.19018147885799408,
        0.033155057579278946,
        0.08869388699531555,
        0.04245378077030182,
        -0.011147829703986645,
        -0.0012119326274842024,
        0.009593437425792217,
        0.09321057051420212,
        0.0341743603348732,
        0.01624743640422821,
        0.076034314930439,
        0.10280776768922806,
        -0.06682930141687393,
        -0.015107529237866402
      ],
      "numInput": 784,
      "numOutput": 128,
      "type": "FullyConnected",
      "weights": [
        [
          -0.03352861851453781,
          0.03963109478354454,
          -0.004885181784629822,
          0.015740223228931427,
          -0.04517555609345436,
          0.010527180507779121,
          -0.009451591409742832,
          0.04603021591901779,
          0.013165480457246304,
          -0.025258364155888557,
          0.026187052950263023,
          0.03450915217399597,
          -0.026148563250899315,
          0.0012821571435779333,
          0.04037593677639961,
          0.032536108046770096,
          -0.0328134261071682,
          -0.03966496139764786,
          0.02424013242125511,
          -0.008813134394586086,
          0.018122397363185883,
          -0.006290073040872812,
          -0.019588438794016838,
          -0.0037540763150900602,
          -0.028591779991984367,
          0.029942277818918228,
          0.01684398390352726,
          -0.01849096082150936,
          -0.038888055831193924,
          -0.030864866450428963,
          0.014775766059756279,
          0.001195640186779201,
          0.04057104140520096,
          -0.01592092588543892,
          0.009691627696156502,
          -0.043894506990909576,
          -0.01978299580514431,
          -0.025690656155347824,
          0.015755875036120415,
          0.04348836839199066,
          -0.015356000512838364,
          0.04438820853829384,
          -0.026244889944791794,
          -0.014296701177954674,
          0.0016860001487657428,
          0.0038904568646103144,
          -0.03417074307799339,
          0.028648145496845245,
          0.005208494141697884,
          -0.011882496066391468,
          0.009797814302146435,
          -0.01866975426673889,
          0.03335027024149895,
          -0.010759519413113594,
          0.031844668090343475,
          0.027303136885166168,
          0.031330883502960205,
          0.04001385718584061,
          -0.03724651411175728,
          -0.01324858982115984,
          -0.004036752041429281,
          -0.0029853982850909233,
          -0.03341732546687126,
          -0.00831449031829834,
          0.018736140802502632,
          0.015723850578069687,
          -0.026785528287291527,
          0.06145545840263367,
          0.012614407576620579,
          0.04674665629863739,
          -0.0052016195841133595,
          0.04061911627650261,
          0.05551404505968094,
          0.025520045310258865,
          -0.06033492833375931,
          -0.0098375603556633,
          0.03942398726940155,
          -0.02076183259487152,
          -0.01482416782528162,
          0.02865603193640709,
          -0.04190473631024361,
          -0.007731006480753422,
          -0.014959501102566719,
          -0.020557763054966927,
          -0.02745678648352623,
          0.03677815943956375,
          -0.017142347991466522,
          -0.04367031157016754,
          -0.03921371325850487,
          -0.023209726437926292,
          -0.0018863602308556437,
          0.047169994562864304,
          0.04717359319329262,
          0.044697098433971405,
          0.04152439907193184,
          0.10861508548259735,
          0.11501014232635498,
          0.09271126985549927,
          0.1014152243733406,
          0.1286429911851883,
          0.116478830575943,
          0.13504813611507416,
          0.07743751257658005,
          0.04728134721517563,
          -0.03390765190124512,
          -0.031134257093071938,
          0.014882227405905724,
          -0.05334734171628952,
          -0.00028215948259457946,
          -0.01536040659993887,
          0.017700422555208206,
          0.005188730079680681,
          0.031969260424375534,
          0.008029795251786709,
          -0.028617888689041138,
          -0.04251907765865326,
          0.006370083894580603,
          -0.04139624908566475,
          -0.029612435027956963,
          0.009527916088700294,
          0.06654296815395355,
          0.06593643873929977,
          0.025008395314216614,
          0.06604506820440292,
          0.05089973658323288,
          0.07624462246894836,
          0.17591053247451782,
          0.2321137636899948,
          0.18561404943466187,
          0.15959963202476501,
          0.09785326570272446,
          0.05760331451892853,
          0.08281306177377701,
          -0.08466508239507675,
          -0.09192930907011032,
          -0.05050396919250488,
          -0.0889090895652771,
          -0.005955797620117664,
          0.006783727090805769,
          -0.045535698533058167,
          0.001006944803521037,
          -0.020748771727085114,
          -0.033146314322948456,
          0.020877696573734283,
          -0.050750311464071274,
          0.03931277245283127,
          -0.031949520111083984,
          0.034160010516643524,
          -0.03455396741628647,
          -0.05874592438340187,
          -0.00554712675511837,
          -0.03460286185145378,
          0.1194361075758934,
          0.23472362756729126,
          0.19879145920276642,
          0.2639281749725342,
          0.22816972434520721,
          0.08373642712831497,
          0.09575845301151276,
          0.030113497748970985,
          0.03491441532969475,
          0.0390751026570797,
          -0.005299373064190149,
          -0.10966624319553375,
          -0.05189674347639084,
          -0.03698495030403137,
          0.008797191083431244,
          -0.0012014760868623853,
          0.012570981867611408,
          0.038774773478507996,
          -0.027760742232203484,
          0.047122787684202194,
          0.01003174763172865,
          -0.04321757331490517,
          -0.003688994562253356,
          -0.09421296417713165,
          -0.043843258172273636,
          -0.06057475879788399,
          0.126316100358963,
          0.10173800587654114,
          0.12254560738801956,
          0.2504296600818634,
          0.23219113051891327,
          0.26194775104522705,
          0.26625457406044006,
          0.10119566321372986,
          0.17888252437114716,
          0.07839245349168777,
          -0.010186176747083664,
          0.06466051936149597,
          0.005217747297137976,
          -0.037514835596084595,
          -0.06686607003211975,
          -0.009630649350583553,
          -0.01989820785820484,
          -0.024706384167075157,
          0.012848221696913242,
          0.002349303802475333,
          0.006852974183857441,
          -0.043863795697689056,
          0.01389571838080883,
          -0.02095753513276577,
          -0.00926781352609396,
          -0.0350060872733593,
          0.030890263617038727,
          0.04325079545378685,
          -0.012901468202471733,
          0.019919246435165405,
          0.03230482339859009,
          -0.07972697168588638,
          0.07404163479804993,
          0.23215557634830475,
          0.2952032685279846,
          0.1699569970369339,
          0.1320199817419052,
          0.24919386208057404,
          0.12338638305664063,
          0.0478239580988884,
          0.04533170536160469,
          -0.005021612625569105,
          -0.0729251429438591,
          -0.07537795603275299,
          -0.054645661264657974,
          -0.04606911912560463,
          0.030355602502822876,
          -0.025281544774770737,
          0.023299342021346092,
          0.023086735978722572,
          -0.034615401178598404,
          -0.05820709839463234,
          -0.031464833766222,
          -0.02268175780773163,
          0.09976288676261902,
          0.018467897549271584,
          -0.0504150465130806,
          -0.1569252908229828,
          -0.212621808052063,
          -0.2652226686477661,
          -0.06320392340421677,
          -0.0009889922803267837,
          0.15436936914920807,
          0.1059040054678917,
          0.16359341144561768,
          0.1929270327091217,
          0.0912286639213562,
          0.1561705321073532,
          0.1892511546611786,
          -0.031974632292985916,
          -0.057434070855379105,
          -0.053764909505844116,
          -0.04967372864484787,
          -0.03617176413536072,
          0.022920332849025726,
          0.04244014248251915,
          0.035368192940950394,
          -0.028601787984371185,
          -0.029976796358823776,
          -0.09949491918087006,
          -0.038012828677892685,
          0.013609133660793304,
          0.04690343514084816,
          -0.039954766631126404,
          -0.15920525789260864,
          -0.15002717077732086,
          -0.17434579133987427,
          -0.27379110455513,
          -0.27046841382980347,
          -0.12818126380443573,
          -0.019505929201841354,
          0.08137741684913635,
          0.1435488909482956,
          0.11394393444061279,
          0.12243945896625519,
          0.10137034952640533,
          0.1429876983165741,
          -0.0020740304607897997,
          -0.10599776357412338,
          -0.06284382194280624,
          0.036843281239271164,
          0.005187692120671272,
          0.03268570452928543,
          0.04176739603281021,
          0.03651381656527519,
          -0.019475778564810753,
          -0.05040925741195679,
          -0.06997263431549072,
          -0.009778158739209175,
          -0.0799059197306633,
          -0.03511276841163635,
          -0.23230642080307007,
          -0.1784839630126953,
          -0.13313449919223785,
          -0.2896328866481781,
          -0.3049672544002533,
          -0.24727284908294678,
          -0.19850203394889832,
          -0.04937161132693291,
          0.01709633134305477,
          0.05702799931168556,
          0.07350648194551468,
          0.10921157151460648,
          0.14035797119140625,
          0.11947684735059738,
          -0.0009331395849585533,
          -0.09080807864665985,
          0.02747640758752823,
          -0.015418079681694508,
          -0.003089958569034934,
          0.03979439660906792,
          -0.017242778092622757,
          0.00582913588732481,
          0.026394451037049294,
          -0.031395286321640015,
          -0.05661166459321976,
          -0.015963807702064514,
          -0.11304609477519989,
          -0.12797321379184723,
          -0.17385844886302948,
          -0.1615573614835739,
          -0.1003902330994606,
          -0.23282763361930847,
          -0.22805948555469513,
          -0.20617757737636566,
          -0.06576158106327057,
          -0.08409543335437775,
          0.05296770855784416,
          0.12212077528238297,
          0.08785688132047653,
          0.16165678203105927,
          0.14497216045856476,
          0.10150229185819626,
          -0.03370918333530426,
          -0.046458013355731964,
          -0.019292468205094337,
          0.01973624713718891,
          -0.0365532785654068,
          -0.046751413494348526,
          -0.035435862839221954,
          0.024158012121915817,
          -0.020177096128463745,
          0.036259956657886505,
          -0.12105925381183624,
          -0.11589046567678452,
          -0.17162573337554932,
          -0.14044702053070068,
          -0.08628097921609879,
          -0.03735477849841118,
          -0.004113318398594856,
          -0.10511989891529083,
          -0.2538904845714569,
          -0.13261455297470093,
          0.05177164822816849,
          -0.017540354281663895,
          -0.05768034979701042,
          0.001276887021958828,
          0.15631558001041412,
          0.160786435008049,
          0.07726670056581497,
          -0.017461547628045082,
          -0.05504632368683815,
          -0.043522078543901443,
          -0.046940650790929794,
          0.0021987291984260082,
          0.02358119748532772,
          0.0030240658670663834,
          0.0073902541771531105,
          0.038813188672065735,
          -0.04039674997329712,
          -0.007540317252278328,
          -0.08806996792554855,
          -0.05710764229297638,
          -0.01424387376755476,
          0.0005067017045803368,
          -0.015037073753774166,
          0.0456424281001091,
          0.0011376485927030444,
          0.019144413992762566,
          0.014991519041359425,
          -0.0024512256495654583,
          -0.005805700086057186,
          0.059477850794792175,
          -0.06717174500226974,
          0.04833778738975525,
          0.09554959088563919,
          0.1403881460428238,
          0.06893492490053177,
          -0.06922256201505661,
          -0.04995951056480408,
          -0.08504147827625275,
          -0.009414101019501686,
          0.029458263888955116,
          -0.014656945131719112,
          -0.017567692324519157,
          0.044800709933042526,
          0.014201666228473186,
          -0.046445246785879135,
          -0.012125481851398945,
          -0.007705208845436573,
          0.06402886658906937,
          0.07434052228927612,
          -0.04516555741429329,
          -0.07161616533994675,
          -0.019044902175664902,
          -0.05520324409008026,
          -0.1339491307735443,
          -0.010842302814126015,
          0.07094582915306091,
          0.09569345414638519,
          0.07671323418617249,
          0.030987119302153587,
          -0.05276357755064964,
          -0.007758836727589369,
          -0.015076164156198502,
          0.021317066624760628,
          -0.03771757706999779,
          -0.08910471200942993,
          -0.1113547831773758,
          -0.0061141918413341045,
          0.0143630625680089,
          -0.018388016149401665,
          -0.01276208646595478,
          0.01869910955429077,
          0.028134660795331,
          0.012557107955217361,
          0.005729297176003456,
          -0.006887875497341156,
          0.05136594921350479,
          -0.015160206705331802,
          0.014337616041302681,
          0.06791594624519348,
          0.0961562916636467,
          0.07780460268259048,
          -0.07409488409757614,
          0.013303468935191631,
          -0.01356558222323656,
          0.1496950387954712,
          0.11686372756958008,
          -0.07255858182907104,
          -0.08603871613740921,
          -0.09535231441259384,
          -0.09368231892585754,
          -0.06639910489320755,
          -0.10805602371692657,
          -0.12127728015184402,
          -0.020861074328422546,
          -0.03707973286509514,
          0.04216696694493294,
          -0.029530491679906845,
          -0.029103321954607964,
          0.020500149577856064,
          -0.002611689269542694,
          0.020357653498649597,
          0.055969756096601486,
          0.041650280356407166,
          -0.03232673928141594,
          -0.096592016518116,
          -0.014389291405677795,
          0.0668303519487381,
          0.033796876668930054,
          -0.04891003295779228,
          -0.040529265999794006,
          -0.006792696192860603,
          -0.035913337022066116,
          -0.003550691995769739,
          0.012028208002448082,
          0.07578565180301666,
          -0.028578419238328934,
          -0.12159685045480728,
          -0.12479278445243835,
          -0.04648570343852043,
          -0.0506804995238781,
          -0.04469708725810051,
          0.001587788457982242,
          0.04226723313331604,
          -0.012361272238194942,
          -0.03520587459206581,
          0.04171108454465866,
          0.005872330162674189,
          -0.0162498876452446,
          0.040334396064281464,
          0.09009772539138794,
          0.00657260324805975,
          -0.020032232627272606,
          -0.1383827179670334,
          -0.09083043038845062,
          0.03254924714565277,
          0.04267846792936325,
          0.017835479229688644,
          0.012968700379133224,
          0.06530114263296127,
          0.09546023607254028,
          0.03122512809932232,
          0.07498659193515778,
          0.016449738293886185,
          -0.12549932301044464,
          -0.15261219441890717,
          -0.09355704486370087,
          -0.07475490123033524,
          -0.10513047128915787,
          -0.08261866122484207,
          0.04309360310435295,
          0.018210582435131073,
          -0.013572313822805882,
          -0.004884331487119198,
          0.046218328177928925,
          0.0004409021930769086,
          0.03682779148221016,
          0.005789273418486118,
          0.0368683822453022,
          0.06022659316658974,
          -0.005424342583864927,
          -0.08240299671888351,
          0.024107079952955246,
          -0.06958229839801788,
          0.006504669785499573,
          -0.000839728454593569,
          -0.12648610770702362,
          0.05501909181475639,
          -0.010011257603764534,
          0.0395844392478466,
          0.07784232497215271,
          -0.05145346745848656,
          -0.09235984832048416,
          -0.05530313774943352,
          -0.03915311023592949,
          -0.015846654772758484,
          -0.05018993467092514,
          0.007982666604220867,
          0.08753523230552673,
          0.06377734988927841,
          -0.013304807245731354,
          0.02255631797015667,
          0.0312536396086216,
          -0.031699150800704956,
          0.006727046333253384,
          0.023571666330099106,
          0.051690246909856796,
          -0.009748364798724651,
          -0.003544617909938097,
          0.09862099587917328,
          0.06794344633817673,
          0.08068916201591492,
          0.10684968531131744,
          -0.03093634732067585,
          0.0874122753739357,
          0.07369523495435715,
          -0.09447336941957474,
          -0.08980553597211838,
          -0.021724874153733253,
          -0.030809951946139336,
          -0.06467430293560028,
          -0.005235371645539999,
          -0.010082697495818138,
          -0.07355435937643051,
          -0.010433877818286419,
          0.08518394082784653,
          0.033370934426784515,
          -0.012919420376420021,
          -0.03856224566698074,
          -0.028422947973012924,
          -0.043267201632261276,
          -0.010286351665854454,
          0.015379670076072216,
          0.03386206179857254,
          0.04547077789902687,
          0.05688384175300598,
          0.05561334639787674,
          0.003468084381893277,
          0.05177416652441025,
          0.07396623492240906,
          0.13925933837890625,
          0.1488787829875946,
          0.06476794183254242,
          0.05076427385210991,
          -0.029603200033307076,
          0.03159565106034279,
          -0.02481253631412983,
          0.03941347822546959,
          -0.003940983209758997,
          0.09291300177574158,
          -0.0327070914208889,
          0.020131411030888557,
          -0.04938167706131935,
          -0.030058396980166435,
          0.0047980924136936665,
          -0.012979506514966488,
          -0.02807328850030899,
          0.026350630447268486,
          0.02396208606660366,
          0.02694719284772873,
          -0.007699915673583746,
          0.06883984804153442,
          0.027559980750083923,
          0.015481587499380112,
          -0.018046125769615173,
          0.003968331962823868,
          -0.041115932166576385,
          0.05903925001621246,
          0.12945877015590668,
          0.04179150238633156,
          0.03989528492093086,
          0.03736875578761101,
          0.12333928793668747,
          -0.02395305223762989,
          0.0583808533847332,
          0.1113700345158577,
          0.04329557716846466,
          0.09075380861759186,
          -0.01570008136332035,
          0.02264268510043621,
          -0.0043388414196670055,
          -0.032246336340904236,
          -0.017353402450680733,
          0.04606643319129944,
          -0.004078450612723827,
          -0.011569097638130188,
          -0.042234569787979126,
          0.008837747387588024,
          -0.036383602768182755,
          0.026230014860630035,
          0.006985403131693602,
          0.001853102701716125,
          0.08562101423740387,
          0.054130539298057556,
          0.11334476619958878,
          -0.007319586351513863,
          0.06621067225933075,
          0.06096233054995537,
          -0.06377267837524414,
          0.00036635383730754256,
          0.15846656262874603,
          -0.007105732336640358,
          0.023383690044283867,
          0.05402129888534546,
          0.02100715972483158,
          -0.06057165935635567,
          -0.047121159732341766,
          -0.012512648478150368,
          0.045042090117931366,
          -0.02584000863134861,
          -0.005049770697951317,
          -0.030400631949305534,
          -0.02155720628798008,
          -0.029852980747818947,
          -0.0372968427836895,
          -0.044101689010858536,
          0.026997551321983337,
          0.013826603069901466,
          -0.0021145183127373457,
          0.0306247528642416,
          0.005436830688267946,
          0.0009580497280694544,
          0.04850661754608154,
          0.054414477199316025,
          0.05695423111319542,
          0.08638685941696167,
          0.09300442039966583,
          0.06197565048933029,
          -0.018156809732317924,
          -0.039549604058265686,
          0.00433669937774539,
          0.013323352672159672,
          0.0770924836397171,
          0.04827272146940231,
          0.03424191102385521,
          0.024551518261432648,
          0.05369723215699196,
          0.006589268799871206,
          -0.006088493391871452,
          -0.04168989509344101,
          -0.01647822931408882,
          0.04461771622300148,
          0.009675122797489166,
          0.03555936738848686,
          -0.001095225685276091,
          0.004272571299225092,
          -0.018284939229488373,
          0.05229904130101204,
          -0.0091478880494833,
          -0.0024972925893962383,
          0.03153051808476448,
          0.06967777013778687,
          0.0027800360694527626,
          0.058273252099752426,
          0.09883834421634674,
          0.06895800679922104,
          -0.028034597635269165,
          0.083199143409729,
          0.026010066270828247,
          0.06031448021531105,
          0.09603148698806763,
          0.05446252226829529,
          0.01845621131360531,
          0.017506932839751244,
          -0.022890595719218254,
          -0.01534827146679163,
          0.010585412383079529,
          -0.03555087000131607,
          -0.04570437967777252,
          -0.03315265476703644,
          -0.04430825263261795,
          -0.0038964329287409782,
          -0.033795006573200226,
          -0.0077073900029063225,
          -0.037519365549087524,
          0.008586457930505276,
          0.056583426892757416,
          -0.008254492655396461,
          0.07837094366550446,
          0.04867657274007797,
          0.03680158033967018,
          0.05500878766179085,
          0.04926939308643341,
          -0.02257261797785759,
          0.009553268551826477,
          -0.035607390105724335,
          0.008609247393906116,
          0.04119880124926567,
          0.0009045547340065241,
          0.04079518839716911,
          0.056483227759599686,
          0.018353132531046867,
          0.038521233946084976,
          -0.001242397353053093,
          -0.00047264728345908225,
          -0.0031094446312636137,
          0.010836860164999962,
          0.023571563884615898,
          -0.039992619305849075,
          -0.010867029428482056,
          -0.02632230333983898,
          -0.03405216708779335,
          0.04104497283697128,
          0.012547316029667854,
          0.049088068306446075,
          -0.01198701374232769,
          0.008510309271514416,
          0.08626210689544678,
          0.018001636490225792,
          -0.008241583593189716,
          -0.008278891444206238,
          0.009879969991743565,
          0.07691031694412231,
          0.011106652207672596,
          0.08345045149326324,
          0.07196098566055298,
          0.019958369433879852,
          0.07007314264774323,
          -0.02395704761147499,
          0.008919504471123219,
          0.01334443036466837,
          -0.017554521560668945,
          0.0019100139616057277,
          0.022051118314266205,
          0.00026881747180595994,
          0.036721520125865936,
          0.0364646315574646,
          -0.03107021003961563,
          0.013496775180101395,
          0.03522920235991478,
          0.016942448914051056,
          -0.028689291328191757,
          -0.0014360906789079309,
          0.04254953935742378,
          0.013719581998884678,
          -0.004653087351471186,
          -0.011706131510436535,
          0.0036307016853243113,
          0.0025352940429002047,
          -0.019668661057949066,
          0.02107948623597622,
          -0.009688653983175755,
          -0.03069920465350151,
          0.050380535423755646,
          -0.031231965869665146,
          -0.02604268491268158,
          0.027242422103881836,
          0.0012286911951377988,
          -0.03874313458800316,
          -0.03317731246352196,
          0.020716963335871696,
          0.03442378714680672,
          -0.012201101519167423,
          -0.002007315866649151
        ],
        [
          -0.006183790974318981,
          0.028203647583723068,
          -0.04026664048433304,
          -0.033147718757390976,
          0.029138807207345963,
          -0.03757267817854881,
          0.015079614706337452,
          -0.005984046030789614,
          -0.0443284697830677,
          0.018327049911022186,
          0.00805208645761013,
          -0.018353847786784172,
          -0.03592529892921448,
          -0.025119513273239136,
          0.030561471357941628,
          -0.027629531919956207,
          0.021494312211871147,
          0.009569535031914711,
          0.03199180215597153,
          -0.046296585351228714,
          -0.02151600830256939,
          -0.01907043345272541,
          -0.03279268369078636,
          0.023057373240590096,
          -0.037121303379535675,
          0.03365381062030792,
          -0.03326341137290001,
          -0.031488217413425446,
          -0.03132706508040428,
          -0.02493683062493801,
          0.007024035789072514,
          -0.012342850677669048,
          -0.031870972365140915,
          -0.012771219946444035,
          -0.0307412538677454,
          0.007279947400093079,
          0.019075630232691765,
          -0.043328698724508286,
          0.02759050577878952,
          0.0009209901909343898,
          0.028626764193177223,
          0.01616791822016239,
          0.0030613418202847242,
          0.05003407225012779,
          0.03419514745473862,
          -0.03282772749662399,
          -0.002328418428078294,
          -0.02567915804684162,
          0.0031221064273267984,
          -0.019435442984104156,
          0.03475188463926315,
          -0.04330579191446304,
          0.02847261168062687,
          0.04218626394867897,
          -0.03226355090737343,
          -0.019241109490394592,
          0.0418524444103241,
          -0.03710799664258957,
          -0.027779577299952507,
          -0.011437289416790009,
          0.043843094259500504,
          -0.04552153870463371,
          0.015148722566664219,
          0.019481632858514786,
          -0.047446109354496,
          -0.014626630581915379,
          0.03262577950954437,
          -0.04822807386517525,
          0.001406381605193019,
          -0.013105840422213078,
          0.016074078157544136,
          0.011904523707926273,
          0.02669881097972393,
          -0.05193547531962395,
          -0.04516890272498131,
          -0.011876538395881653,
          0.009784163907170296,
          -0.020521065220236778,
          -0.011587259359657764,
          -0.013546858914196491,
          -0.03604380786418915,
          0.021657045930624008,
          0.04457511007785797,
          -0.01066405326128006,
          0.019336408004164696,
          -0.029734443873167038,
          -0.02578440122306347,
          -0.030196892097592354,
          -0.033706773072481155,
          0.005971100647002459,
          -0.01920519769191742,
          0.03581435978412628,
          0.013286183588206768,
          -0.04473863169550896,
          -0.03949794918298721,
          -0.009312526322901249,
          0.06340822577476501,
          0.06275268644094467,
          0.02424454689025879,
          0.0020117175299674273,
          0.01215601246803999,
          -0.03414183482527733,
          0.00435640150681138,
          -0.04904139041900635,
          0.014081662520766258,
          0.023027697578072548,
          -0.01434632670134306,
          -0.03686721995472908,
          -0.00694509269669652,
          -0.015935758128762245,
          0.038107071071863174,
          -0.025233609601855278,
          -0.0027548109646886587,
          -0.00985652580857277,
          -0.008777477778494358,
          0.019490329548716545,
          0.04729291796684265,
          0.0428212434053421,
          0.002986796200275421,
          0.044673480093479156,
          0.011044822633266449,
          0.020884014666080475,
          -0.02433389611542225,
          0.02056504413485527,
          0.02658827416598797,
          0.06994032859802246,
          -0.025854123756289482,
          0.07469899207353592,
          0.016862457618117332,
          0.017046501860022545,
          0.0016838853480294347,
          0.005296388640999794,
          -0.008801402524113655,
          -0.008293773047626019,
          -0.0895746573805809,
          -0.04453224316239357,
          -0.023584861308336258,
          -0.0034147114492952824,
          0.04466677084565163,
          0.011364325881004333,
          -0.0015572811244055629,
          -0.028709521517157555,
          0.03946904093027115,
          -0.02694038301706314,
          0.05082361027598381,
          0.0030821312684565783,
          0.00829016137868166,
          0.0002872782642953098,
          0.0286085307598114,
          -0.020991843193769455,
          -0.03883381560444832,
          0.0005186164053156972,
          0.06434668600559235,
          0.047233086079359055,
          -0.01984373666346073,
          0.10258935391902924,
          -0.019904984161257744,
          -0.023355189710855484,
          -0.019004786387085915,
          -0.0028364125173538923,
          -0.023276111111044884,
          -0.03248912841081619,
          -0.05482354387640953,
          -0.03957601636648178,
          -0.01762262172996998,
          0.0445944182574749,
          0.047837138175964355,
          0.019129106774926186,
          0.03426438570022583,
          0.03041728399693966,
          0.008590505458414555,
          0.00012953348050359637,
          -0.013328448869287968,
          -0.029113665223121643,
          0.016301408410072327,
          0.003995027393102646,
          0.040301114320755005,
          0.05434158071875572,
          0.03920961543917656,
          0.07888925075531006,
          -0.003918965347111225,
          0.01825517602264881,
          0.03576387092471123,
          0.03621388226747513,
          0.0653262734413147,
          0.05332484096288681,
          0.08686821907758713,
          -0.05099248141050339,
          -0.040940061211586,
          -0.007945003919303417,
          -0.09699746966362,
          -0.026072945445775986,
          -0.01008538343012333,
          -0.02317648194730282,
          -0.01953021250665188,
          0.005555057432502508,
          0.040486469864845276,
          0.023096999153494835,
          -0.02466472052037716,
          -0.010546409524977207,
          0.03308610990643501,
          -0.0005871233879588544,
          -0.005138501059263945,
          -0.04554205387830734,
          -0.04035937786102295,
          0.05116548016667366,
          0.0236370749771595,
          -0.04117682948708534,
          0.10827868431806564,
          0.08200843632221222,
          0.02508332021534443,
          -0.013736981898546219,
          -0.018719665706157684,
          0.009532161056995392,
          -0.02076037786900997,
          -0.004704922437667847,
          -0.03437460958957672,
          -0.017102021723985672,
          -0.10891541093587875,
          -0.03750479593873024,
          -0.07688382267951965,
          -0.0599459707736969,
          -0.03982919454574585,
          0.024530507624149323,
          -0.03448757529258728,
          -0.008605961687862873,
          -0.013795062899589539,
          0.05144717916846275,
          0.05721200257539749,
          -0.004752546548843384,
          -0.05795896798372269,
          -0.05445779487490654,
          -0.022980142384767532,
          0.002880282700061798,
          0.08043953031301498,
          -0.032552700489759445,
          0.021271301433444023,
          0.05875968188047409,
          0.0839274525642395,
          0.06704073399305344,
          -0.047920193523168564,
          0.015927039086818695,
          0.07418912649154663,
          0.003067542100325227,
          -0.022814854979515076,
          0.05606436729431152,
          0.06496597081422806,
          -0.003467487171292305,
          -0.07072176039218903,
          -0.014164234511554241,
          -0.006289835087954998,
          -0.04524049162864685,
          -0.025072066113352776,
          -0.03666752576828003,
          0.03990459442138672,
          0.006168207619339228,
          0.010558019392192364,
          -0.030533265322446823,
          0.04627225548028946,
          0.02217702753841877,
          -0.010788507759571075,
          -0.02621988020837307,
          0.024503860622644424,
          0.008488432504236698,
          0.031333424150943756,
          0.13019871711730957,
          0.0859454795718193,
          0.02929658442735672,
          0.13302572071552277,
          0.15888825058937073,
          0.026737963780760765,
          0.07557924836874008,
          0.04125015437602997,
          0.049596067517995834,
          0.034237924963235855,
          0.04552549868822098,
          -0.060189057141542435,
          -0.053370263427495956,
          0.019363461062312126,
          -0.02450530417263508,
          0.008384991437196732,
          0.03219844400882721,
          -0.027551978826522827,
          0.04402194544672966,
          0.023372841998934746,
          -0.04678848013281822,
          0.014445565640926361,
          0.02628663368523121,
          0.022613517940044403,
          0.005767910275608301,
          0.03400903940200806,
          0.0365474671125412,
          0.0027329090517014265,
          0.068057581782341,
          0.1503347009420395,
          0.03424975275993347,
          0.1602822244167328,
          0.0037567175459116697,
          -0.025734642520546913,
          0.044709254056215286,
          0.0013933326117694378,
          -0.0518132708966732,
          0.06533827632665634,
          0.0569329597055912,
          0.0019920298364013433,
          -0.03925752267241478,
          0.04352996498346329,
          0.03781076520681381,
          -0.03907276317477226,
          -0.023224197328090668,
          0.033261820673942566,
          -0.0035418905317783356,
          0.07869955897331238,
          0.0240241140127182,
          -0.026339104399085045,
          0.008420987986028194,
          0.01336490549147129,
          0.01889045350253582,
          0.03358534723520279,
          0.048101652413606644,
          0.019077230244874954,
          0.09767241775989532,
          0.1359812170267105,
          0.07565390318632126,
          0.044785503298044205,
          0.06026909500360489,
          0.05884379893541336,
          -0.04513191804289818,
          0.011727189645171165,
          0.019151687622070313,
          0.06579169631004333,
          0.1073959693312645,
          0.06735340505838394,
          -0.012781629338860512,
          -0.03130358085036278,
          -0.00283001153729856,
          0.0005833677132613957,
          -0.007441213820129633,
          0.00917829480022192,
          0.019980600103735924,
          0.050546109676361084,
          0.0363931804895401,
          -0.0207846537232399,
          0.008061183616518974,
          -0.05645209923386574,
          0.013515097089111805,
          -0.037186238914728165,
          -0.02975081279873848,
          -0.07305463403463364,
          0.03003191575407982,
          0.18052349984645844,
          0.10369985550642014,
          0.02538185380399227,
          -0.048795703798532486,
          0.05844416469335556,
          0.0018427148461341858,
          0.019985077902674675,
          0.005214991047978401,
          0.046631794422864914,
          0.0595659464597702,
          0.02251897007226944,
          -0.0002675607393030077,
          0.029215814545750618,
          0.03239108622074127,
          0.04465217888355255,
          0.02293410897254944,
          -0.0380856916308403,
          0.020214280113577843,
          0.07914439588785172,
          -0.0014320637565106153,
          -0.05015522614121437,
          0.009053520858287811,
          -0.04391860216856003,
          -0.08182691782712936,
          -0.06368432939052582,
          0.0019196697976440191,
          -0.04885982722043991,
          0.07761801034212112,
          0.10402202606201172,
          0.12300813943147659,
          0.029652917757630348,
          0.027532005682587624,
          0.027254099026322365,
          -0.03296057507395744,
          -0.020329782739281654,
          0.033734600991010666,
          -0.011800175532698631,
          -0.03770691901445389,
          -0.06174083799123764,
          0.0003426846524234861,
          0.01965515688061714,
          -0.007614858448505402,
          0.030189618468284607,
          -0.0065017337910830975,
          0.040436726063489914,
          -0.03722978010773659,
          0.03337204083800316,
          -0.08534719794988632,
          -0.061885666102170944,
          -0.05710203945636749,
          -0.015495791099965572,
          -0.033982161432504654,
          -0.056442730128765106,
          -0.011092263273894787,
          -0.0015291584422811866,
          0.044607069343328476,
          0.034999869763851166,
          0.04375242441892624,
          0.01891353353857994,
          -0.009243369102478027,
          0.029233967885375023,
          0.06578544527292252,
          0.06773266196250916,
          0.0028820850420743227,
          -0.05906575173139572,
          -0.055609311908483505,
          -0.06483028829097748,
          0.023975413292646408,
          -0.039951011538505554,
          -0.027096716687083244,
          -0.025170333683490753,
          0.018168855458498,
          -0.035468898713588715,
          0.013746178708970547,
          0.02278367429971695,
          -0.014332003891468048,
          0.0058123404160141945,
          -0.0769086629152298,
          0.015931591391563416,
          0.0029079962987452745,
          -0.03833319991827011,
          0.02644980326294899,
          0.009997883811593056,
          0.09730826318264008,
          0.0822979137301445,
          0.017332307994365692,
          0.030933814123272896,
          0.02159670740365982,
          0.05826765298843384,
          0.07339025288820267,
          0.016735665500164032,
          0.02967235818505287,
          0.020138302817940712,
          -0.05694717913866043,
          -0.07164030522108078,
          -0.02656298317015171,
          -0.052326664328575134,
          0.037517521530389786,
          -0.04425954818725586,
          0.04689226672053337,
          -0.021478522568941116,
          0.011892447248101234,
          -0.0056226965971291065,
          -0.020246312022209167,
          -0.05339030176401138,
          -0.059214938431978226,
          -0.02365076169371605,
          0.0053670271299779415,
          0.02708701603114605,
          -0.026557382196187973,
          -0.07977869361639023,
          0.0058122677728533745,
          0.03134259209036827,
          -0.04397942125797272,
          0.03674178570508957,
          0.04117964953184128,
          -0.0009548054076731205,
          -0.007824872620403767,
          -0.007414740975946188,
          0.014452623203396797,
          -0.03079916723072529,
          -0.06511597335338593,
          -0.05455221235752106,
          -0.015244479291141033,
          -0.01498098112642765,
          -0.03925509378314018,
          -0.005636252928525209,
          0.02343348227441311,
          0.03180501610040665,
          -0.02614830620586872,
          -0.06459682434797287,
          -0.04223933443427086,
          -0.03185030072927475,
          0.02144932560622692,
          -0.009162644855678082,
          -0.012012734077870846,
          -0.062419112771749496,
          -0.09173065423965454,
          0.013941757380962372,
          0.034556303173303604,
          0.07352931052446365,
          0.01257987692952156,
          0.0047103301621973515,
          0.02221525087952614,
          -0.017987683415412903,
          0.027269884943962097,
          -0.0892401710152626,
          -0.06924248486757278,
          -0.031120410189032555,
          0.014351575635373592,
          -0.03574502840638161,
          -0.07232537120580673,
          -0.01593192294239998,
          -0.007487512193620205,
          -0.009302905760705471,
          0.01249188557267189,
          0.027225296944379807,
          0.05347206071019173,
          -0.00822653342038393,
          0.010459356009960175,
          -0.00930387806147337,
          -0.033962879329919815,
          -0.06161295622587204,
          -0.09479270130395889,
          -0.032952550798654556,
          -0.04629645124077797,
          -0.1438683569431305,
          0.04829053953289986,
          -0.01388043724000454,
          -0.012969586998224258,
          -0.03848806023597717,
          0.05555469170212746,
          -0.03883524611592293,
          0.0640222355723381,
          0.05257345736026764,
          -0.03944757953286171,
          0.030135031789541245,
          -0.08048033714294434,
          -0.1013946682214737,
          -0.06704980880022049,
          0.03617041930556297,
          -0.0448005236685276,
          0.009317835792899132,
          -0.01884901337325573,
          -0.04391542077064514,
          -0.017240449786186218,
          0.031260374933481216,
          0.006409771274775267,
          -0.02561796084046364,
          -0.017270375043153763,
          0.028193481266498566,
          -0.0817955732345581,
          -0.08161205053329468,
          -0.1031370535492897,
          -0.018683109432458878,
          0.02107985131442547,
          0.001328015816397965,
          0.013359999284148216,
          0.011153167113661766,
          0.07505523413419724,
          0.012477552518248558,
          0.13586534559726715,
          0.011624408885836601,
          -0.04460149258375168,
          -0.03684132546186447,
          -0.01633879356086254,
          -0.07198169082403183,
          0.01631787046790123,
          0.027875209227204323,
          0.038770053535699844,
          0.004692038055509329,
          -0.0385977104306221,
          -0.044640086591243744,
          0.0438179112970829,
          0.007235839031636715,
          0.03994801267981529,
          0.03981879726052284,
          0.018420757725834846,
          -0.03223326429724693,
          0.038204461336135864,
          -0.0788707360625267,
          -0.1112229973077774,
          -0.05884260684251785,
          0.008238608948886395,
          0.06700067222118378,
          -0.02645588479936123,
          0.03876401111483574,
          -0.0195948276668787,
          0.080445796251297,
          0.06623487919569016,
          0.04206816107034683,
          -0.0624207966029644,
          0.054143063724040985,
          -0.02801191806793213,
          -0.038775134831666946,
          0.03653424605727196,
          -0.015539873391389847,
          0.035585593432188034,
          0.04331657290458679,
          0.0004670640919357538,
          0.00644292589277029,
          -0.00584591506049037,
          -0.041544023901224136,
          -0.02258547581732273,
          0.054906245321035385,
          0.034641049802303314,
          0.029164616018533707,
          -0.06687478721141815,
          -0.02973381243646145,
          -0.06959031522274017,
          -0.07031431794166565,
          -0.04919498786330223,
          -0.034977395087480545,
          -0.006484088953584433,
          -0.0016784310573711991,
          0.01158098503947258,
          -0.030610742047429085,
          0.017805546522140503,
          -0.039706140756607056,
          0.003824286861345172,
          0.01629583165049553,
          0.013488510623574257,
          -0.011587017215788364,
          -0.03281772509217262,
          0.0037474019918590784,
          0.03149217739701271,
          0.005816468968987465,
          0.015462669543921947,
          -0.030681833624839783,
          -0.021325843408703804,
          0.0026823929511010647,
          0.04032472148537636,
          0.05137390270829201,
          0.03860361501574516,
          -0.023651665076613426,
          -0.017774801701307297,
          -0.04975777491927147,
          -0.061675023287534714,
          -0.08723977208137512,
          0.012510890141129494,
          0.1222049817442894,
          0.007907327264547348,
          -0.0005549221532419324,
          0.05343258008360863,
          -0.006568851415067911,
          0.018459845334291458,
          0.045899949967861176,
          -0.05835144221782684,
          -0.025695187970995903,
          -0.04743563011288643,
          -0.023301303386688232,
          0.00792831089347601,
          0.0052731395699083805,
          -0.044964876025915146,
          -0.001614176668226719,
          -0.015416826121509075,
          -0.010499265976250172,
          0.024156693369150162,
          -0.004374330397695303,
          0.025455178692936897,
          -0.003430182347074151,
          0.05463746562600136,
          -0.0189999770373106,
          -0.04349322244524956,
          -0.00010013885184889659,
          -0.024602731689810753,
          -0.03849926218390465,
          0.09777835011482239,
          0.009155681356787682,
          0.08034250140190125,
          0.05766521021723747,
          0.02744223177433014,
          0.004407714121043682,
          -0.03178361803293228,
          -0.0014424942201003432,
          -0.05244128406047821,
          -0.025672372430562973,
          -0.0175278689712286,
          -0.05005187168717384,
          0.026769541203975677,
          -0.00567205622792244,
          -0.008524909615516663,
          -0.027495810762047768,
          0.04303278774023056,
          -0.02980530448257923,
          0.00992744229733944,
          0.08175395429134369,
          0.01718197390437126,
          0.0815679207444191,
          0.08534982055425644,
          0.055200930684804916,
          0.01504749245941639,
          -0.0004943517851643264,
          0.03759819269180298,
          0.03545588627457619,
          0.010959731414914131,
          0.03647047281265259,
          0.02926393412053585,
          0.03159254044294357,
          0.029277648776769638,
          -0.07784390449523926,
          -0.032653678208589554,
          0.005151607561856508,
          0.014106052927672863,
          -0.02565792389214039,
          0.02653522603213787,
          -0.03868996724486351,
          0.023398587480187416,
          -0.0366470143198967,
          -7.10005042492412e-05,
          -0.023089345544576645,
          0.034433167427778244,
          -0.03928195685148239,
          0.033967141062021255,
          -0.011568366549909115,
          0.058453552424907684,
          0.09303665161132813,
          0.11992707848548889,
          0.06107645854353905,
          0.10326454788446426,
          0.17359687387943268,
          0.07491616159677505,
          0.08671264350414276,
          0.005835854914039373,
          0.10786058753728867,
          -0.017764007672667503,
          0.045775119215250015,
          0.021251337602734566,
          0.05869569629430771,
          0.10174712538719177,
          0.07309146970510483,
          0.07092474400997162,
          0.0029815402813255787,
          0.016748102381825447,
          -0.008427814580500126,
          -0.016341648995876312,
          0.029340416193008423,
          0.004147930070757866,
          0.02100539579987526,
          0.01057543233036995,
          0.0174386166036129,
          -0.0020956373773515224,
          0.013602146878838539,
          0.06038293614983559,
          0.076080821454525,
          0.061326079070568085,
          0.06105769798159599,
          0.09466735273599625,
          0.09356255829334259,
          0.038767192512750626,
          0.015673290938138962,
          0.0794917568564415,
          0.11166752129793167,
          0.033465396612882614,
          0.08833210915327072,
          0.1348918378353119,
          0.08825515955686569,
          0.02868843637406826,
          0.029485132545232773,
          0.009983387775719166,
          0.05356742814183235,
          0.025444041937589645,
          -0.03169361874461174,
          -0.015085987746715546,
          0.03323995694518089,
          0.026818588376045227,
          -0.020282641053199768,
          -0.03829943388700485,
          0.017234347760677338,
          -0.017826464027166367,
          -0.0324588343501091,
          0.003911660984158516,
          0.03121153451502323,
          -0.007188013754785061,
          -0.019369002431631088,
          -0.006245948374271393,
          0.006266527809202671,
          0.04367801174521446,
          -0.02907221019268036,
          0.028500426560640335,
          0.05400021746754646,
          -0.0013356214622035623,
          0.017266662791371346,
          -0.03505551815032959,
          0.031057197600603104,
          0.00028266795561648905,
          -0.012526998296380043,
          -0.026619527488946915,
          -0.018669147044420242,
          0.013449456542730331,
          0.022726375609636307,
          -0.036695290356874466,
          -3.731965261977166e-05,
          -0.004230626858770847
        ],
        [
          0.03796219453215599,
          -0.03656797111034393,
          -0.0040876297280192375,
          0.022644883021712303,
          0.026378359645605087,
          0.03683526813983917,
          0.029132384806871414,
          0.020607631653547287,
          0.02388237603008747,
          -0.027642739936709404,
          -0.0335383266210556,
          -0.009648995473980904,
          -0.042266275733709335,
          0.040632717311382294,
          -0.03784940764307976,
          0.02972595952451229,
          -0.030849328264594078,
          -0.04324044659733772,
          -0.03876371309161186,
          0.024776889011263847,
          -0.03102814592421055,
          -0.04417697340250015,
          -0.03884921222925186,
          0.01866343803703785,
          -0.003825863590463996,
          0.04317193850874901,
          0.015270400792360306,
          -0.044776514172554016,
          0.043914057314395905,
          -0.02926020696759224,
          -0.02458610199391842,
          0.015858035534620285,
          0.03852338343858719,
          -0.01690003089606762,
          -0.04905131086707115,
          -0.01577034778892994,
          -0.03141012787818909,
          -0.02249096892774105,
          0.030946580693125725,
          -0.02221023477613926,
          -0.016707278788089752,
          -0.026418743655085564,
          -0.01732604019343853,
          0.0371694378554821,
          0.011294052004814148,
          -0.045428693294525146,
          -0.03357268497347832,
          -0.034613918513059616,
          -0.026814108714461327,
          -0.04640475660562515,
          0.005959236528724432,
          0.009029909037053585,
          0.033101581037044525,
          0.001843028818257153,
          -0.032862868160009384,
          -0.0420982725918293,
          -0.0020305546931922436,
          0.004784383811056614,
          0.033723484724760056,
          -0.039900656789541245,
          0.011239896528422832,
          0.014026345685124397,
          -0.013494161888957024,
          0.029288841411471367,
          0.023351073265075684,
          -0.030621137470006943,
          -0.05526325851678848,
          -0.00025842993636615574,
          -0.051846541464328766,
          -0.01382332481443882,
          -0.0387452058494091,
          0.002026971662417054,
          0.017066972330212593,
          -0.029181335121393204,
          0.032159171998500824,
          -0.0503108985722065,
          -0.014258719980716705,
          0.007152549922466278,
          -0.04765693470835686,
          0.0054601505398750305,
          0.010699344798922539,
          0.005791483912616968,
          -0.006998418364673853,
          0.027576353400945663,
          0.04413313791155815,
          0.005023621488362551,
          0.012528638355433941,
          -0.04624010995030403,
          0.00465115113183856,
          0.0199756920337677,
          -0.03272712230682373,
          -0.01650220900774002,
          0.020846039056777954,
          0.001241027028299868,
          -0.0025232238695025444,
          -0.0211504977196455,
          -0.05152597278356552,
          -0.06615453958511353,
          0.00808876845985651,
          0.0048086922615766525,
          0.02043115720152855,
          -0.03589364513754845,
          -0.0014022429240867496,
          0.04204455390572548,
          -0.009517128579318523,
          0.04315834864974022,
          0.014786077663302422,
          0.0033138759899884462,
          -0.0038643651641905308,
          -0.010288815945386887,
          -0.015969248488545418,
          0.024175027385354042,
          0.024738838896155357,
          0.04146699234843254,
          -0.01180554274469614,
          -0.029277632012963295,
          -0.006018129643052816,
          -0.03573700413107872,
          0.007277558092027903,
          -0.04964078590273857,
          -0.001334833214059472,
          -0.07430277019739151,
          -0.0702710673213005,
          -0.005929046776145697,
          -0.03740186616778374,
          -0.10015015304088593,
          -0.014101139269769192,
          -0.03589726611971855,
          0.023371625691652298,
          0.044780291616916656,
          0.015830043703317642,
          0.01827777735888958,
          -0.026799548417329788,
          0.046744316816329956,
          0.06392436474561691,
          0.06129344180226326,
          -0.003624168923124671,
          -0.03644061088562012,
          0.031092876568436623,
          -0.006777363829314709,
          -0.02325100637972355,
          -0.04586481302976608,
          0.017282826825976372,
          -0.035086967051029205,
          0.05279642716050148,
          0.021288761869072914,
          -0.0005415938794612885,
          0.0671817734837532,
          -0.03608531877398491,
          -0.13548077642917633,
          -0.025063732638955116,
          -0.004239097237586975,
          -0.04793804883956909,
          -0.05524430796504021,
          -0.05127548426389694,
          -0.025491416454315186,
          -0.05290721729397774,
          -0.02968612313270569,
          0.006738987285643816,
          -0.022502649575471878,
          0.10199599713087082,
          0.09922276437282562,
          0.007862590253353119,
          0.06532134860754013,
          0.04227595403790474,
          0.05031666159629822,
          -0.025245599448680878,
          -0.02083265222609043,
          -0.017619546502828598,
          -0.027771424502134323,
          0.0450674407184124,
          -0.052721790969371796,
          0.008786643855273724,
          -0.0018422779394313693,
          0.06105760484933853,
          0.009597063064575195,
          0.0008623088360764086,
          -0.036051176488399506,
          0.031152009963989258,
          -0.05098005011677742,
          -0.0560099333524704,
          0.009718858636915684,
          -0.013642833568155766,
          -0.059249233454465866,
          -0.07222114503383636,
          -0.10682699829339981,
          -0.06350201368331909,
          0.04140603914856911,
          0.015623335726559162,
          0.050571709871292114,
          0.04647160321474075,
          0.06866642832756042,
          -0.019761009141802788,
          -0.03341135010123253,
          -0.000666702282615006,
          0.021060623228549957,
          0.003767724148929119,
          0.03662259504199028,
          -0.028980256989598274,
          -0.060529451817274094,
          -0.03895764797925949,
          0.0843045637011528,
          0.01433190144598484,
          -0.023200592026114464,
          0.07932532578706741,
          -0.012269607745110989,
          0.02546009048819542,
          -0.09700144827365875,
          -0.03766895458102226,
          -0.075357586145401,
          -0.10633613914251328,
          -0.032848067581653595,
          -0.06853462010622025,
          -0.09708817303180695,
          -0.07078516483306885,
          -0.025657692924141884,
          -0.002997679403051734,
          -0.024617625400424004,
          0.02176029048860073,
          -0.023610776290297508,
          -0.03461248427629471,
          0.04356006905436516,
          0.04841143265366554,
          -0.009968496859073639,
          0.043806396424770355,
          0.0008922740817070007,
          -0.030339810997247696,
          0.0333876833319664,
          0.06296191364526749,
          0.011416678316891193,
          0.012689977884292603,
          -0.006593999452888966,
          0.04557843878865242,
          -0.012990923598408699,
          -0.09534186869859695,
          -0.06963586807250977,
          -0.024314677342772484,
          -0.02561930939555168,
          0.019175151363015175,
          0.08647972345352173,
          0.03261875361204147,
          -0.0046966723166406155,
          -0.002031807554885745,
          0.0038336298894137144,
          0.008997641503810883,
          0.06092892587184906,
          0.016241183504462242,
          -0.06077128276228905,
          0.04837896302342415,
          -0.028017118573188782,
          0.0113215995952487,
          0.012343015521764755,
          0.01452097948640585,
          -0.005636217538267374,
          0.018778163939714432,
          -0.0045517184771597385,
          0.03253581002354622,
          0.019859572872519493,
          -0.03974049910902977,
          0.017241645604372025,
          0.026921775192022324,
          0.014198183082044125,
          -0.06671933084726334,
          0.008715914562344551,
          -0.009089534170925617,
          -0.07597032934427261,
          -0.029287541285157204,
          -0.02033923752605915,
          0.02265068143606186,
          0.036704592406749725,
          -0.09997434169054031,
          0.09264365583658218,
          0.07703535258769989,
          0.04699987173080444,
          0.06776449084281921,
          0.017644265666604042,
          -0.03243382275104523,
          0.017214225605130196,
          0.054976485669612885,
          -0.023789605125784874,
          -0.017587678506970406,
          0.009958869777619839,
          -0.0014876804780215025,
          -0.04531143978238106,
          0.007705569267272949,
          -0.011489327065646648,
          0.015886394307017326,
          0.04258301854133606,
          0.0011994973756372929,
          0.04431438818573952,
          0.02893354371190071,
          -0.04113929718732834,
          -0.024913502857089043,
          -0.15573398768901825,
          -0.1723930686712265,
          -0.12464868277311325,
          -0.10725582391023636,
          -0.05846933275461197,
          0.03231702372431755,
          0.03049793839454651,
          0.0676063522696495,
          0.10958730429410934,
          -0.012336335144937038,
          0.06811688840389252,
          -0.02713852934539318,
          -0.03486877307295799,
          0.03160033002495766,
          -0.010973828844726086,
          -0.035499293357133865,
          -0.006432188209146261,
          -0.04693957418203354,
          -0.057321541011333466,
          0.04676757752895355,
          -0.026238758116960526,
          0.01620791293680668,
          -0.035892993211746216,
          -0.031118076294660568,
          0.07360907644033432,
          0.03137321025133133,
          0.04484102502465248,
          0.010430572554469109,
          -0.22551049292087555,
          -0.18922746181488037,
          -0.22453278303146362,
          -0.10593561083078384,
          -0.08340799063444138,
          0.05598434433341026,
          0.03155026212334633,
          0.14987708628177643,
          0.08121497184038162,
          0.007189974654465914,
          0.053959544748067856,
          0.08167359977960587,
          0.04500807449221611,
          -0.02099396288394928,
          0.009061211720108986,
          -0.003935098648071289,
          -0.031538669019937515,
          0.013776169158518314,
          -0.01183332409709692,
          0.028265973553061485,
          -0.003681042231619358,
          0.010803688317537308,
          0.03807012364268303,
          -0.06725730001926422,
          0.04480099305510521,
          0.1574448049068451,
          0.055492475628852844,
          0.05775202810764313,
          -0.05932621657848358,
          -0.11778417974710464,
          -0.15469913184642792,
          -0.0700615718960762,
          -0.03578232601284981,
          -0.026014994829893112,
          0.12281281501054764,
          0.110413558781147,
          0.14812329411506653,
          0.04865895211696625,
          0.05117025598883629,
          0.07659029960632324,
          -0.03737856075167656,
          -0.04239708557724953,
          0.005786786321550608,
          -0.04369605705142021,
          -0.014037996530532837,
          -0.051515016704797745,
          0.002953103045001626,
          0.009312602691352367,
          0.04875945299863815,
          -0.002719875890761614,
          0.03151470795273781,
          0.12918268144130707,
          0.10559506714344025,
          0.056651003658771515,
          0.14013439416885376,
          0.07839064300060272,
          0.07684623450040817,
          -0.01337712723761797,
          -0.06933030486106873,
          0.05049436539411545,
          0.015879793092608452,
          0.04640079662203789,
          0.11407683789730072,
          0.08692856132984161,
          -0.007386326789855957,
          -0.014494980685412884,
          0.04607841372489929,
          -0.04057407006621361,
          -0.011467142961919308,
          0.04693533480167389,
          -0.0434979647397995,
          -0.002902199048548937,
          -0.04622631520032883,
          0.02209688536822796,
          0.04492419213056564,
          0.020242223516106606,
          -0.0015746165299788117,
          0.04865977168083191,
          0.06659065186977386,
          0.15600156784057617,
          0.0929466038942337,
          0.1267407387495041,
          0.0943451076745987,
          0.14427708089351654,
          0.13710977137088776,
          0.10022038221359253,
          0.09072093665599823,
          0.09276716411113739,
          0.14137884974479675,
          0.009984069503843784,
          0.01075960136950016,
          -0.13014815747737885,
          -0.09661556780338287,
          -0.06297285109758377,
          -0.047103401273489,
          -0.07044404000043869,
          0.0072684986516833305,
          0.009160648100078106,
          0.003845798783004284,
          0.01781773939728737,
          -0.03805938735604286,
          -0.0018065556650981307,
          0.0057591586373746395,
          0.004440933000296354,
          -0.023868445307016373,
          0.05851211026310921,
          -0.005621727555990219,
          0.059716030955314636,
          0.09552624076604843,
          0.029562218114733696,
          0.12745344638824463,
          0.21649101376533508,
          0.17586109042167664,
          0.19404207170009613,
          0.19476276636123657,
          0.21581138670444489,
          0.012831894680857658,
          -0.02861163578927517,
          -0.1630895435810089,
          -0.13799680769443512,
          -0.11992772668600082,
          -0.09980902075767517,
          -0.09203135222196579,
          -0.031168004497885704,
          0.02224966138601303,
          0.00041724450420588255,
          -0.031265538185834885,
          0.03862665966153145,
          0.00913848914206028,
          -0.012982627376914024,
          0.04396882653236389,
          -0.024644752964377403,
          -0.055304571986198425,
          0.0070167784579098225,
          -0.05544237419962883,
          -0.038831375539302826,
          0.003674054518342018,
          0.07181387394666672,
          0.11116170138120651,
          0.23323078453540802,
          0.21610425412654877,
          0.19481658935546875,
          0.21730276942253113,
          0.12032477557659149,
          -0.08717899769544601,
          -0.11442571133375168,
          -0.20252475142478943,
          -0.20329514145851135,
          -0.13251152634620667,
          -0.07335998117923737,
          -0.011028758250176907,
          -0.02158461883664131,
          0.042875561863183975,
          0.03252064064145088,
          0.035522621124982834,
          -0.01658572070300579,
          -0.030973613262176514,
          0.0361674539744854,
          0.04312419891357422,
          -0.04338563606142998,
          -0.04624469578266144,
          -0.02829686366021633,
          -0.011822251603007317,
          -0.022214367985725403,
          -0.13508978486061096,
          -0.165803000330925,
          0.03474956005811691,
          0.1194053664803505,
          0.16733385622501373,
          0.07987640053033829,
          -0.04825397580862045,
          0.006770733743906021,
          -0.09022925049066544,
          -0.08871675282716751,
          -0.0908542200922966,
          -0.14095963537693024,
          -0.03889172896742821,
          -0.05152325704693794,
          0.005913888104259968,
          -0.005792476236820221,
          -0.048940591514110565,
          -0.02871440164744854,
          -0.008206897415220737,
          0.0038814563304185867,
          0.009067317470908165,
          0.01609627902507782,
          0.03916499763727188,
          0.001864023506641388,
          0.012010416947305202,
          -0.03902500495314598,
          -0.07195281237363815,
          -0.08987269550561905,
          -0.10654519498348236,
          -0.0838526114821434,
          -0.06330594420433044,
          -0.13421590626239777,
          -0.0404539555311203,
          -0.03289979323744774,
          -0.03568744659423828,
          -0.10272633284330368,
          -0.050037842243909836,
          -0.003632470266893506,
          -0.020965781062841415,
          -0.0077705662697553635,
          -0.0018195209559053183,
          0.019173668697476387,
          0.06865984946489334,
          -0.040877364575862885,
          -0.008762432262301445,
          0.008650699630379677,
          0.029751598834991455,
          0.0011678786249831319,
          0.03672132268548012,
          -0.04463183879852295,
          0.017255334183573723,
          0.038243964314460754,
          0.03410700336098671,
          -0.015259752981364727,
          -0.11592206358909607,
          -0.10007276386022568,
          -0.08001349866390228,
          -0.12216594070196152,
          -0.21518078446388245,
          -0.21466512978076935,
          -0.15289512276649475,
          -0.08701766282320023,
          -0.043256837874650955,
          0.028949009254574776,
          0.04602335765957832,
          0.1514698714017868,
          0.03187284246087074,
          0.036603961139917374,
          0.04917706549167633,
          0.0469045490026474,
          0.09457963705062866,
          0.028249524533748627,
          -0.008817801252007484,
          -0.04271993413567543,
          -0.04557199031114578,
          -0.020848870277404785,
          0.029191788285970688,
          0.03771942853927612,
          -0.007042629644274712,
          0.05523362010717392,
          0.04056787118315697,
          0.025492316111922264,
          -0.007657932583242655,
          -0.015330981463193893,
          -0.05946024879813194,
          -0.08951073884963989,
          -0.06294241547584534,
          -0.13925892114639282,
          -0.07214056700468063,
          -0.02093931846320629,
          0.005121609196066856,
          0.03705571964383125,
          0.08563849329948425,
          0.14423595368862152,
          0.03695179149508476,
          0.04343198612332344,
          0.0527714379131794,
          -0.014598917216062546,
          0.035601064562797546,
          -0.0008732211426831782,
          -0.023277947679162025,
          -0.018585002049803734,
          0.041827864944934845,
          0.024960899725556374,
          0.016256827861070633,
          -0.0032137634698301554,
          0.03299356624484062,
          0.0033120913431048393,
          0.029705168679356575,
          0.01157346274703741,
          0.0008736057789064944,
          -0.002271846868097782,
          -0.09042589366436005,
          -0.019295746460556984,
          -0.005966062191873789,
          -0.026761122047901154,
          0.03746798262000084,
          0.014346481300890446,
          0.05961073935031891,
          0.03995620831847191,
          0.10608042776584625,
          0.05575535446405411,
          0.012922702357172966,
          0.023243799805641174,
          -0.001946424599736929,
          0.0563645176589489,
          -0.012422770261764526,
          0.03232584893703461,
          -0.01346586737781763,
          -0.005420520901679993,
          -0.03803189843893051,
          0.004017511382699013,
          0.0021838403772562742,
          0.010910071432590485,
          0.008315903134644032,
          0.027766866609454155,
          0.01885315217077732,
          0.002188483951613307,
          -0.045744188129901886,
          -0.06873345375061035,
          -0.05731264874339104,
          -0.04571337252855301,
          0.032678961753845215,
          0.031105000525712967,
          0.11006927490234375,
          0.1272946149110794,
          0.04884176328778267,
          -0.05823749303817749,
          0.025785231962800026,
          0.08301500976085663,
          0.03136318922042847,
          0.12758168578147888,
          0.0973668098449707,
          -0.012705497443675995,
          -0.011213653720915318,
          -0.03629365563392639,
          -0.01410235371440649,
          -0.04560282453894615,
          -0.04249187558889389,
          0.042881324887275696,
          -0.02935299091041088,
          0.007400954607874155,
          -0.021126236766576767,
          -0.011323245242238045,
          -0.04420052468776703,
          -0.01806296594440937,
          -0.01057148352265358,
          0.06923847645521164,
          0.009037667885422707,
          -0.010507083497941494,
          0.03257358819246292,
          -0.02417983114719391,
          0.04223582148551941,
          0.08201401680707932,
          0.02443304844200611,
          0.0030508472118526697,
          0.030364030972123146,
          0.024327795952558517,
          0.06024642288684845,
          0.08206412196159363,
          0.05530266836285591,
          0.000492748455144465,
          -0.03180604428052902,
          -0.03341289609670639,
          -0.018046123906970024,
          0.0017116148956120014,
          -0.009963897988200188,
          0.017896000295877457,
          -0.039152972400188446,
          0.041069548577070236,
          0.040224842727184296,
          0.010798531584441662,
          -0.03863435983657837,
          -0.03943850100040436,
          0.0491691492497921,
          0.03556022793054581,
          0.07569364458322525,
          0.09327630698680878,
          0.08718550205230713,
          0.06939448416233063,
          0.08369403332471848,
          0.0468984916806221,
          0.048619549721479416,
          0.07516603171825409,
          0.040273748338222504,
          0.051942840218544006,
          0.01838279701769352,
          0.0580691322684288,
          0.08632161468267441,
          0.028356697410345078,
          -0.04579848423600197,
          0.008899339474737644,
          -0.03620973601937294,
          0.008009111508727074,
          -0.012594168074429035,
          -0.03333679586648941,
          -0.019321100786328316,
          0.038517579436302185,
          0.0166635699570179,
          0.016626868396997452,
          -0.01749715395271778,
          0.04007386416196823,
          0.02877798117697239,
          0.04843030497431755,
          0.013162653893232346,
          0.024495955556631088,
          -0.041674792766571045,
          0.07011248916387558,
          0.08531754463911057,
          -0.005531935021281242,
          0.04155660420656204,
          0.031417060643434525,
          0.047539688646793365,
          -0.020375020802021027,
          -0.008971905335783958,
          0.0069007608108222485,
          -0.009820899926126003,
          0.027200646698474884,
          -0.03901243582367897,
          -0.04612283036112785,
          -0.017555618658661842,
          0.04051791876554489,
          0.012831932865083218,
          -0.0383894182741642,
          -0.0017608159687370062,
          0.03259739279747009,
          -0.04183902218937874,
          0.01974414847791195,
          -0.0034819343127310276,
          0.024221187457442284,
          -0.00971777830272913,
          0.010531829670071602,
          0.00930799636989832,
          -0.019598281010985374,
          -0.006514891982078552,
          0.002260606037452817,
          -0.017536204308271408,
          -0.025908231735229492,
          -0.07900739461183548,
          0.024437304586172104,
          0.00996396504342556,
          -0.031295180320739746,
          -0.04772280901670456,
          -0.00926989410072565,
          -0.03599955886602402,
          -0.02121448703110218,
          0.015495912171900272,
          0.0465073399245739,
          0.03771323338150978,
          -0.004434709437191486,
          0.011352971196174622,
          -0.029075870290398598,
          0.011808815412223339,
          -0.0086316904053092,
          0.029303457587957382,
          -0.018513459712266922,
          -0.02234228141605854,
          -0.026320243254303932,
          -0.0265196543186903,
          0.014853284694254398,
          0.002864755457267165,
          -0.03469238802790642,
          -0.0047877030447125435,
          0.044543132185935974,
          0.022993579506874084,
          0.038570012897253036,
          -0.01005647238343954,
          0.022102070972323418,
          -0.009040038101375103,
          0.015761828050017357,
          -0.046657007187604904,
          0.04201499745249748,
          0.00024400428810622543,
          -0.008299093693494797,
          -0.031900402158498764,
          0.02949219010770321,
          0.012584020383656025,
          0.0034006661735475063,
          0.043909914791584015
        ],
        [
          -0.01881084032356739,
          -0.025001391768455505,
          0.028994468972086906,
          0.0072803134098649025,
          -0.013467230834066868,
          -0.01629294641315937,
          -0.011431511491537094,
          0.018751349300146103,
          0.03484680876135826,
          -0.014002000913023949,
          -0.045361582189798355,
          0.024191085249185562,
          0.0021136756986379623,
          -0.0020815616007894278,
          -0.045777253806591034,
          0.005012379959225655,
          -0.03770807012915611,
          0.008822640404105186,
          0.028707332909107208,
          0.04171671345829964,
          0.0031116961035877466,
          0.02178739570081234,
          0.002400973578915,
          0.006799309514462948,
          -0.04063591733574867,
          0.04468821361660957,
          -0.041491489857435226,
          0.039148956537246704,
          -0.002444405108690262,
          0.023440102115273476,
          -0.032795585691928864,
          -0.028400195762515068,
          -0.046524327248334885,
          0.027669014409184456,
          -0.025821583345532417,
          -0.05207398533821106,
          0.014832276850938797,
          0.010473311878740788,
          -0.036251015961170197,
          0.030829457566142082,
          -0.005925669334828854,
          -0.0010868863901123405,
          -0.009002124890685081,
          -0.020623113960027695,
          0.020769517868757248,
          -0.025663096457719803,
          -0.046531639993190765,
          0.024416524916887283,
          -0.008144976571202278,
          -0.03176375851035118,
          0.004576506558805704,
          -0.009584675543010235,
          0.023540491238236427,
          0.0019799016881734133,
          0.005866847932338715,
          -0.009780568070709705,
          0.04195389896631241,
          0.030284032225608826,
          -0.032447077333927155,
          0.027659617364406586,
          0.031246298924088478,
          0.007008750457316637,
          -0.04454230144619942,
          0.0022041392512619495,
          -0.05011289194226265,
          -0.05297788232564926,
          -0.025120465084910393,
          0.013140946626663208,
          -0.07432664930820465,
          -0.008721589110791683,
          -0.0009162039496004581,
          0.003273122478276491,
          -0.05117558687925339,
          0.011247691698372364,
          0.03871837630867958,
          -0.028380712494254112,
          0.01783910021185875,
          -0.019761087372899055,
          -0.005744048394262791,
          0.03363622725009918,
          0.017286406829953194,
          0.00718095526099205,
          0.007019085809588432,
          0.04642929509282112,
          -0.007959256879985332,
          -0.029190899804234505,
          0.02312549389898777,
          -0.020919732749462128,
          -0.018939029425382614,
          0.008641560561954975,
          -0.06354612112045288,
          -0.029774779453873634,
          -0.0006318356026895344,
          -0.01327004935592413,
          -0.027294946834445,
          0.008604561910033226,
          -0.05687946081161499,
          0.0012701121158897877,
          -0.01576116494834423,
          -0.05482833832502365,
          0.021050864830613136,
          0.012174814939498901,
          0.060665953904390335,
          0.038613662123680115,
          0.057640716433525085,
          0.040406230837106705,
          -0.00817679800093174,
          -0.02855321764945984,
          0.014612048864364624,
          0.04617801308631897,
          -0.032463427633047104,
          -0.00018392258789390326,
          0.025584671646356583,
          -0.016003809869289398,
          0.040395040065050125,
          0.03852495923638344,
          0.014563175849616528,
          0.01819281280040741,
          -0.03756101801991463,
          -0.016671590507030487,
          -0.02538658119738102,
          0.047986388206481934,
          -0.0344538576900959,
          0.08431557565927505,
          0.10898612439632416,
          0.06568758189678192,
          0.00615345174446702,
          -0.05349990352988243,
          -0.09082453697919846,
          -0.010627980343997478,
          -0.034264855086803436,
          0.01845634914934635,
          0.08549866825342178,
          0.05705144628882408,
          0.009991997852921486,
          0.0652996301651001,
          0.06554839015007019,
          -0.015955211594700813,
          -0.004255504347383976,
          0.011125069111585617,
          -0.010823151096701622,
          -0.033784665167331696,
          -0.009166090749204159,
          -0.021941130980849266,
          -0.029844826087355614,
          -0.04189780727028847,
          -0.07321368902921677,
          -0.04909481108188629,
          0.08346744626760483,
          0.20618723332881927,
          0.11003568023443222,
          0.11545354127883911,
          0.05248056352138519,
          -0.06546253710985184,
          -0.13084036111831665,
          -0.1359163224697113,
          -0.0702151358127594,
          -0.10986878722906113,
          -0.03566126152873039,
          -0.021768802776932716,
          -0.05836530774831772,
          0.008488509804010391,
          -0.013533021323382854,
          -0.011994932778179646,
          -0.020862728357315063,
          -0.0227119829505682,
          -0.026014050468802452,
          -0.0098942955955863,
          0.026733551174402237,
          -0.027020879089832306,
          -0.024549946188926697,
          0.014271640218794346,
          -0.0678613930940628,
          0.06329650431871414,
          0.09341847151517868,
          0.06332477182149887,
          0.0569370836019516,
          0.09048131108283997,
          0.06982316076755524,
          0.11623185127973557,
          0.07807781547307968,
          -0.15983280539512634,
          -0.15511177480220795,
          -0.09798470139503479,
          -0.021709060296416283,
          -0.06093939021229744,
          -0.06207257881760597,
          0.04423404484987259,
          -0.05903468281030655,
          -0.0045961919240653515,
          0.10727095603942871,
          -0.011762159876525402,
          0.03071931004524231,
          0.03825903311371803,
          0.03027840331196785,
          0.024200934916734695,
          0.007925777696073055,
          -0.01948842592537403,
          -0.001445025554858148,
          -0.025822848081588745,
          -0.04101630300283432,
          0.06711730360984802,
          0.07468458265066147,
          0.08078370243310928,
          0.10818997025489807,
          0.0813407376408577,
          0.1119086816906929,
          0.02861444093286991,
          -0.1566586196422577,
          -0.12463580071926117,
          -0.09573017060756683,
          0.11800114065408707,
          0.05274725332856178,
          0.0888298898935318,
          0.05964089184999466,
          0.0946318507194519,
          0.05457587540149689,
          0.10877816379070282,
          0.09707456082105637,
          0.09435057640075684,
          0.023994315415620804,
          -0.018094221130013466,
          -0.02530037797987461,
          0.016276858747005463,
          -0.04527530446648598,
          0.04553792625665665,
          -0.031812384724617004,
          0.04317726194858551,
          -0.02132084034383297,
          0.13453401625156403,
          0.19461528956890106,
          0.14173570275306702,
          0.12037809193134308,
          0.1926288902759552,
          0.10798833519220352,
          -0.025241972878575325,
          -0.24417594075202942,
          -0.3210521340370178,
          -0.04600455239415169,
          0.20593537390232086,
          0.09538152813911438,
          0.004251543432474136,
          0.09348437190055847,
          0.0528835766017437,
          0.07238734513521194,
          0.08495184034109116,
          -0.0003666192351374775,
          0.11390501260757446,
          0.05392717197537422,
          0.039779335260391235,
          0.04697411507368088,
          -0.021479016169905663,
          -0.013001162558794022,
          0.033650949597358704,
          0.04946884885430336,
          0.022021304816007614,
          -0.037175219506025314,
          0.004767078906297684,
          0.1251462996006012,
          0.053516335785388947,
          0.09572433680295944,
          0.21222488582134247,
          0.23839564621448517,
          0.10865788906812668,
          -0.364227831363678,
          -0.322559654712677,
          -0.10193498432636261,
          -0.013143171556293964,
          0.00950422789901495,
          0.06485876441001892,
          0.04948783665895462,
          0.06841039657592773,
          0.04335542768239975,
          0.1040768176317215,
          0.03347114101052284,
          0.004901377949863672,
          0.056531742215156555,
          0.03547896072268486,
          0.03760993853211403,
          -0.006071728188544512,
          0.013587643392384052,
          0.024306848645210266,
          0.013524225912988186,
          0.022341666743159294,
          0.00026789927505888045,
          -0.00830063596367836,
          -0.027214758098125458,
          0.08921078592538834,
          0.1262017786502838,
          0.2345603108406067,
          0.2835424542427063,
          0.10550060868263245,
          -0.16123880445957184,
          -0.26528140902519226,
          -0.20153968036174774,
          -0.1477266252040863,
          -0.10545335710048676,
          0.04489666968584061,
          0.08165767788887024,
          0.08787109702825546,
          0.02387021668255329,
          0.05177225172519684,
          0.04602573439478874,
          -0.046661682426929474,
          0.01787112094461918,
          0.05522064492106438,
          -0.010541331022977829,
          -0.022073382511734962,
          0.01953038014471531,
          -0.035930730402469635,
          0.0007665195735171437,
          -0.06422742456197739,
          -0.01646728627383709,
          -0.005846221465617418,
          0.019758077338337898,
          0.05914830043911934,
          0.06630146503448486,
          0.23003067076206207,
          0.22229106724262238,
          0.12878166139125824,
          -0.12612228095531464,
          -0.1711147278547287,
          -0.1274033933877945,
          -0.09887483716011047,
          -0.025082681328058243,
          0.05278081074357033,
          0.12116193026304245,
          -0.016905702650547028,
          -0.06098609417676926,
          -0.005853809416294098,
          -0.001315562636591494,
          -0.014267933554947376,
          -0.021335385739803314,
          0.015575473196804523,
          0.0510454997420311,
          0.03500794246792793,
          -0.013573884032666683,
          -0.02022659219801426,
          -0.02843087539076805,
          -0.02098635770380497,
          -0.01253086980432272,
          0.05889134109020233,
          0.01179293543100357,
          0.1515178233385086,
          0.12485764920711517,
          0.1529609113931656,
          0.07617716491222382,
          0.1048564538359642,
          0.03361628204584122,
          -0.09360650926828384,
          -0.12743766605854034,
          -0.04205362871289253,
          0.07687859982252121,
          0.07813820987939835,
          0.09597713500261307,
          0.07118310034275055,
          -0.002947706263512373,
          0.007123819552361965,
          0.04162928834557533,
          0.03364039957523346,
          -0.02265346050262451,
          -0.03766766935586929,
          -0.016661526635289192,
          0.016931479796767235,
          0.004593268036842346,
          0.02129753679037094,
          -0.04739140346646309,
          -0.02153244987130165,
          0.01857909932732582,
          0.019304413348436356,
          -0.006123743951320648,
          0.10128337889909744,
          0.09092170745134354,
          0.05874115601181984,
          0.04207615554332733,
          0.08693406730890274,
          0.011113174259662628,
          -0.036006830632686615,
          -0.07305684685707092,
          0.009193262085318565,
          0.09088027477264404,
          0.08395407348871231,
          -0.001482211286202073,
          0.0872269943356514,
          0.06260576099157333,
          0.057872481644153595,
          0.03460483253002167,
          0.005519190337508917,
          -0.022850126028060913,
          -0.034101732075214386,
          -0.03205154463648796,
          0.0008676006691530347,
          -0.0371227003633976,
          -0.015785377472639084,
          0.041472360491752625,
          -0.04786271974444389,
          0.03949790075421333,
          0.1284574568271637,
          0.07223086804151535,
          0.13223887979984283,
          0.07375285029411316,
          0.0997735932469368,
          -0.01758919283747673,
          0.015840832144021988,
          -0.11782219260931015,
          -0.04777807742357254,
          -0.11770917475223541,
          -0.12895260751247406,
          0.12102066725492477,
          0.07763444632291794,
          -0.0252545066177845,
          0.06209216266870499,
          0.01106070727109909,
          -0.03147698566317558,
          -0.010450569912791252,
          -0.0758654922246933,
          -0.037123776972293854,
          -0.0033384438138455153,
          0.012643762864172459,
          0.018895456567406654,
          -0.029760614037513733,
          -0.016093069687485695,
          -0.0013033164432272315,
          0.04892326891422272,
          -0.00392109714448452,
          0.009290624409914017,
          0.012641748413443565,
          0.0633615106344223,
          0.1514403522014618,
          0.23472881317138672,
          0.033815886825323105,
          0.01403974648565054,
          -0.04320959001779556,
          -0.06759615242481232,
          -0.19287949800491333,
          -0.16509662568569183,
          0.09627881646156311,
          0.09408711642026901,
          -0.004489512648433447,
          0.07380755990743637,
          -0.06699574738740921,
          -0.034833747893571854,
          -0.004279494751244783,
          -0.034123510122299194,
          -0.01539662666618824,
          -0.06697952002286911,
          -0.02483009733259678,
          0.006149664055556059,
          -0.003230256959795952,
          -0.036989837884902954,
          -0.0038737610448151827,
          0.037253398448228836,
          0.01652175560593605,
          -0.033356111496686935,
          0.017052294686436653,
          0.08052264153957367,
          0.10302001982927322,
          0.029088182374835014,
          -0.013731981627643108,
          -0.07801082730293274,
          0.04945152997970581,
          -0.05248495936393738,
          -0.15161016583442688,
          -0.034472156316041946,
          0.1019374281167984,
          0.0032012697774916887,
          -0.019673895090818405,
          0.0070269000716507435,
          -0.009493906982243061,
          0.013513464480638504,
          0.009735959582030773,
          -0.008384118787944317,
          -0.05707410350441933,
          0.024653449654579163,
          0.016160646453499794,
          0.019189437851309776,
          -0.01769610308110714,
          0.03191814199090004,
          0.0293185543268919,
          0.007918547838926315,
          -0.026921231299638748,
          -0.029316846281290054,
          -0.03504617512226105,
          -0.014959840103983879,
          -0.03654457628726959,
          0.05187027156352997,
          -0.009104438126087189,
          0.0803602784872055,
          0.0100738275796175,
          -0.06728661060333252,
          -0.010540752671658993,
          -0.010752689093351364,
          0.144286647439003,
          0.0444791354238987,
          0.04607550427317619,
          -0.007590034976601601,
          0.09097316116094589,
          0.029980923980474472,
          -0.006288536358624697,
          -0.08333239704370499,
          0.021277017891407013,
          -0.03682338446378708,
          0.035449132323265076,
          0.040701061487197876,
          -0.02099844254553318,
          0.0387154258787632,
          -0.010850762948393822,
          -0.02527816966176033,
          -0.01228533498942852,
          -0.05325928330421448,
          -0.07548405230045319,
          -0.12341956049203873,
          -0.13184194266796112,
          -0.028934963047504425,
          0.016605112701654434,
          -0.07990977168083191,
          -0.05171582102775574,
          0.02264625020325184,
          0.00134306272957474,
          0.00496111111715436,
          0.04383690282702446,
          0.01970120333135128,
          0.05647397041320801,
          0.010738891549408436,
          -0.0014620597939938307,
          -0.03945174440741539,
          -0.0960698276758194,
          -0.009040158241987228,
          0.03376481309533119,
          0.002667543711140752,
          0.005342783406376839,
          0.001960379770025611,
          -0.0258080642670393,
          -0.04698234796524048,
          0.023334365338087082,
          -0.021718990057706833,
          0.023868119344115257,
          -0.07637885212898254,
          -0.11639974266290665,
          -0.07748006284236908,
          0.022397378459572792,
          -0.0823432132601738,
          -0.02782243676483631,
          -0.14587199687957764,
          -0.04399799928069115,
          0.0793352797627449,
          0.033427342772483826,
          -0.0005483229761011899,
          -0.048684850335121155,
          0.031521525233983994,
          0.128289133310318,
          0.015130708925426006,
          -0.008892878890037537,
          0.01346447691321373,
          -0.007973434403538704,
          -0.0610584132373333,
          -0.0032569393515586853,
          0.030763734132051468,
          0.008292489685118198,
          0.002801380353048444,
          0.0008326044771820307,
          -0.015838289633393288,
          0.028678759932518005,
          -0.04681578278541565,
          -0.03154001757502556,
          -0.10084784030914307,
          -0.050278935581445694,
          -0.12439922988414764,
          -0.045370638370513916,
          -0.04885071888566017,
          -0.08923647552728653,
          -0.008130677975714207,
          0.07086145132780075,
          0.010273751802742481,
          -0.03224850445985794,
          -0.012116342782974243,
          -0.005273874383419752,
          0.006942611187696457,
          -0.005887599196285009,
          -0.006668653804808855,
          -0.016428830102086067,
          -0.03552794083952904,
          0.0496814101934433,
          0.0008895506616681814,
          0.022897416725754738,
          0.019150903448462486,
          -0.028931312263011932,
          0.003295652335509658,
          -0.006666886620223522,
          0.02589758113026619,
          0.01793522946536541,
          -0.0018716143677011132,
          -0.01872086338698864,
          -0.015202849172055721,
          -0.016620654612779617,
          -0.06738258898258209,
          -0.03556840866804123,
          -0.01140331756323576,
          0.008711032569408417,
          0.056278105825185776,
          0.019882461056113243,
          0.035378921777009964,
          0.015638327226042747,
          0.04922707378864288,
          -0.012631299905478954,
          -0.0081335986033082,
          0.11495142430067062,
          0.024432215839624405,
          0.033103808760643005,
          0.09271329641342163,
          -0.027678079903125763,
          0.040229588747024536,
          0.03364596143364906,
          -0.03076082654297352,
          -0.04206937924027443,
          0.002576787257567048,
          0.023628827184438705,
          -0.02150837704539299,
          -0.005572371184825897,
          0.012548870407044888,
          0.025112096220254898,
          -0.03559233993291855,
          -0.04730707034468651,
          -0.027305280789732933,
          -0.009744849056005478,
          0.03353157266974449,
          0.10404180735349655,
          0.06633863598108292,
          0.010117695666849613,
          -0.10558123141527176,
          -0.03137495741248131,
          0.10241974145174026,
          0.025901634246110916,
          -0.03537481278181076,
          0.07173632830381393,
          0.09632261842489243,
          0.053842078894376755,
          0.04414798319339752,
          0.0307025033980608,
          0.03778283670544624,
          0.052870336920022964,
          0.004665693733841181,
          0.027241293340921402,
          -0.043930646032094955,
          0.028136970475316048,
          -0.021945573389530182,
          -0.03560894355177879,
          -0.05598665028810501,
          -0.01983419992029667,
          -0.020311884582042694,
          -0.07864413410425186,
          -0.07232170552015305,
          -0.10227351635694504,
          -0.0829574316740036,
          0.08268135786056519,
          0.050088051706552505,
