{
  "layers": [
    {
      "type": "FullyConnected",
      "numInput": 784,
      "numOutput": 128,
      "weights": [
        [
          -0.6772177898357534,
          -0.23709400932892855,
          -0.6310101248522934,
          -0.05761386034275173,
          -0.17599861755857737,
          0.3750145723542917,
          -0.8339687652213726,
          -0.24917993036784447,
          -0.4663185171479275,
          -0.3434405835551696,
          -0.7904101657250148,
          0.4199700446735317,
          0.5224525063978227,
          -0.18570088963084475,
          -0.9681678921783885,
          -0.15760980993713936,
          -0.9291825016119997,
          0.5235319941328624,
          0.6657881250762856,
          0.785034762369806,
          -0.7951948947290336,
          0.8778658110629654,
          0.6688493005764533,
          -0.4596757062015112,
          -0.4248569430144149,
          0.3822911921546228,
          -0.07041986903399389,
          -0.1537611087222528,
          0.27726271866016394,
          -0.6945415043394159,
          -0.5653487345198251,
          0.2248482291022238,
          0.11246238101298056,
          -0.3545231466154893,
          0.2509840280078865,
          0.3851894423193457,
          0.06285125199043126,
          -0.04254570524899186,
          0.2209402636670581,
          -0.5702658379672909,
          0.5268029099900564,
          0.37412039419910786,
          0.3277057071439637,
          0.3270849510938143,
          -0.9394451657234146,
          -0.5402992890219436,
          -0.7730833493118912,
          -0.09099919608493845,
          0.2381597232533672,
          0.2009066373760353,
          -0.4921646872135581,
          0.47142047295855916,
          -0.8881593974838589,
          -0.1560266705880089,
          0.4739073618456129,
          0.3413615687891929,
          -0.9602602548532062,
          -0.02151976477494877,
          -0.1712962285387597,
          0.9179363322370238,
          -0.26893895378556665,
          -0.7267518521858641,
          0.7424563221796355,
          -0.13501130984810916,
          -0.3789097194781578,
          0.32137730733916897,
          -0.7179127699584918,
          -0.1712022635147746,
          0.9994665125420408,
          -0.3138108362911512,
          0.5900521342411331,
          -0.7562490538652392,
          -0.32710223807480615,
          -0.187604584803255,
          -0.18638623983523175,
          -0.9222171190212312,
          -0.35808041385976674,
          0.8808768726359603,
          -0.15485708844546808,
          0.8139623336027103,
          0.6944597952220702,
          -0.6630733072486916,
          -0.960067911106339,
          -0.5178587901241478,
          -0.7586460281918014,
          0.3305852416839592,
          0.9662680786844815,
          0.7505930641597368,
          -0.9415025868266834,
          -0.5543894909501945,
          0.02113972397442588,
          0.690949641123555,
          -0.7043832841948392,
          -0.48546742594174763,
          -0.4614671292396365,
          -0.691334300614794,
          -0.5258859900054994,
          0.7092166461768394,
          0.05464839797202918,
          -0.9583164032335565,
          0.46787442712952343,
          0.4941627743837697,
          0.7589764580185727,
          -0.6518485367921493,
          0.1183560868251783,
          0.43708409212920185,
          -0.27626115897814146,
          -0.46828506044785123,
          0.2580841101738124,
          -0.004684616503267014,
          -0.4209782027024772,
          0.2251623363306765,
          -0.23584052670851507,
          -0.6976861101531147,
          -0.9933460275040852,
          0.6039705972183412,
          -0.4856777222415344,
          0.775818304691539,
          0.9131115110772028,
          -0.8900968742169666,
          -0.7964315441637746,
          -0.7266478623934446,
          -0.8992977999532936,
          0.14863401557375724,
          0.8422403424129128,
          -0.17089009106590242,
          0.9291404195790195,
          0.6642388446273008,
          -0.2600351362969017,
          -0.23848636193673572,
          -0.8888709009581601,
          -0.8482487805319251,
          -0.8290848587122475,
          -0.440442170256696,
          0.46150007561084744,
          -0.42055480622109503,
          -0.3176552296288939,
          -0.07781411387136106,
          -0.5295131374555881,
          0.2789388378367552,
          -0.7939165401100594,
          0.5795599967316014,
          0.7478031647580801,
          -0.034191396377955555,
          0.008429526398211106,
          -0.3836839248374147,
          0.045979105513466824,
          0.42256294623701235,
          0.45904916162973136,
          -0.2986227760916099,
          0.6041540037951398,
          0.8694281538711404,
          0.8327032207683912,
          0.09562359194473234,
          0.3246704414141361,
          -0.2972917825297654,
          -0.17393132665216574,
          0.6517753461807659,
          0.2368672268240529,
          0.35885479241478735,
          -0.5605438312025955,
          0.1517909852902636,
          0.7616754860902853,
          -0.24493569771206417,
          -0.7579630987730529,
          0.2765669766460739,
          0.4970931566884809,
          0.5865517170466426,
          0.8032932851927741,
          0.408187449504132,
          -0.5691210841474359,
          -0.6486755803862055,
          -0.4691596830850582,
          -0.30171839788603244,
          0.9089202669426899,
          -0.549777326596772,
          0.7455069582288637,
          0.8486056555999103,
          -0.9773637091100804,
          -0.6100349601838886,
          0.3608682087258677,
          0.21625023816562997,
          0.28238154711063695,
          0.09513837997839696,
          0.47610764609913,
          -0.5978949846087471,
          -0.9808767930370014,
          0.08703579757943401,
          0.8036484405929555,
          -0.36832109087621756,
          -0.9219316645006255,
          0.8300474811277894,
          -0.094844282022076,
          -0.892513970818205,
          0.16027157192831754,
          -0.9077430337309862,
          0.1266656423136534,
          0.40952214870471587,
          0.8580190929925332,
          -0.3139827491790644,
          0.7414076998863236,
          0.15469484751838072,
          -0.6355581406089775,
          -0.3520636141819876,
          0.10902995133933015,
          0.7881841825222426,
          -0.4654797552473127,
          -0.4881182853407643,
          0.04303574603485528,
          0.2651195825015782,
          -0.8299855301269211,
          -0.3470623877005167,
          0.9023732600366281,
          -0.6853236880297391,
          0.6133953926193288,
          0.3643655033290315,
          -0.7014792076448907,
          0.322271497998729,
          0.7026851632463713,
          0.4448490035546965,
          -0.02958351280922448,
          0.5168195037733364,
          0.9770067219445928,
          -0.49210600814829386,
          -0.5676674104476406,
          -0.8219849160709977,
          0.044247450014765266,
          0.002187223922615284,
          0.7551566312175167,
          -0.3506788577441607,
          0.8024024045682155,
          0.19712669822825804,
          0.3528905323555829,
          0.05822565038561905,
          0.4621877583810059,
          -0.12175228969708997,
          -0.3650913597645807,
          0.7951984586862787,
          -0.44935575608594686,
          0.07162784992409468,
          0.3584176520514214,
          0.4545902574729346,
          -0.9987574364680175,
          -0.7693713940720405,
          0.8709180873539271,
          -0.9777310966064431,
          0.9857252498376502,
          -0.33728389161342603,
          -0.9154094026699248,
          -0.013006503262566383,
          -0.12423037490774302,
          0.27626111964889377,
          -0.912642583137036,
          0.3326917346031082,
          -0.09405873889238632,
          0.9014904177553265,
          0.11691976228993448,
          -0.620485981932066,
          0.32988018927955404,
          0.5729564815026945,
          -0.6294566492329245,
          1.0316046764023947,
          -0.8297419512659926,
          -0.635654360511672,
          0.11701787700703181,
          -0.8882022552576438,
          0.1075043230314436,
          -0.25167408904474076,
          0.00277626583745054,
          -0.2680832773063893,
          -1.003242823638589,
          -0.7713793004519688,
          0.4779161974197505,
          -0.6490012822682917,
          -0.7671111209156729,
          0.3998533706662841,
          -0.7879869789159916,
          0.07887577615015953,
          -0.6281422301662938,
          0.639639316918428,
          0.29846193218010186,
          -0.1740891799806414,
          -0.4972367790729648,
          0.5636423010055266,
          0.6552011407155136,
          0.034679625253106104,
          -0.3739803902802461,
          -0.8535306113159062,
          -0.4281802393499945,
          -0.5420283827819616,
          -0.9051304031082366,
          -0.7222012636888246,
          0.31116647849671286,
          -0.10713902424542308,
          -0.9974788059936727,
          0.7176015532998431,
          -0.42563394812935296,
          -0.004432807312029954,
          -0.7269426469532482,
          0.35170545325300173,
          0.4302260149859764,
          0.38236033752974613,
          -0.06086944661085026,
          0.8783945178627142,
          -0.3114100127451283,
          0.6009288834241515,
          -0.30070233998887663,
          0.9494985117002617,
          0.5568189798191632,
          0.3337871424638828,
          -0.3672909563408612,
          -0.6110521346393062,
          0.8702515643591283,
          0.4281050678785516,
          0.847922815780165,
          -0.8100200102032016,
          0.37259716240595425,
          0.9636001728143538,
          -0.4872671104217518,
          -0.3591305721610752,
          -0.7306606466676561,
          -0.9210756811340326,
          -0.9364407816347178,
          0.5043979583217135,
          -0.8299189421816987,
          0.7481411009462532,
          -0.33202738443360363,
          0.05399372331269633,
          -0.7856709820349776,
          0.03941529762056408,
          -0.7227915970112301,
          0.0761502603362061,
          -0.8098314755253595,
          -0.6497230288778747,
          -0.9934665711055309,
          0.05378752584488544,
          -0.08041114614039035,
          -0.8534111077825208,
          0.20814105305593433,
          -0.3175712448137245,
          0.7550859212106691,
          0.20296355188410398,
          0.3525231455654369,
          -0.43501436850575537,
          -0.26702605371046495,
          -0.16851966626555015,
          0.3208730955020434,
          -0.12636127490474314,
          -0.013647807471482922,
          -0.5291199052778675,
          0.9383245590676821,
          0.17441549934712375,
          -0.7107582935747018,
          0.5440621020211012,
          -0.46906710211318686,
          -0.5678998324050355,
          0.3819222337931284,
          0.824457986488183,
          0.9199515675875848,
          -0.1787099058792204,
          0.34784052819163314,
          0.6240947087838615,
          0.7681868611915316,
          -0.9845918119727435,
          -0.5496658119818261,
          -0.5645764447783961,
          -0.38890872252225295,
          -0.46513840973058923,
          -0.9586669084019804,
          0.28708155234409866,
          -0.26863690455651507,
          -0.7882526928488116,
          0.8420380006885508,
          -0.06647720009980317,
          -0.3333215566835526,
          -0.1522885381119841,
          0.6458213829194522,
          -0.5894691410692716,
          -0.7189905201965586,
          -0.44180933001137634,
          -0.0021375553838356054,
          -0.08127288921094455,
          -0.8380431675266047,
          0.8453925068763685,
          -0.5250469572535582,
          -0.0021744724871526487,
          -0.2856561074011225,
          -0.3763566785520737,
          -0.49137728692392596,
          0.9018162494111298,
          -0.8373974238318797,
          -0.6201206305593197,
          0.3061810809680767,
          -0.18793772870483672,
          -0.8824206518354933,
          -0.5311891794165794,
          -0.9262562609470715,
          -0.0707616381882298,
          -0.31589769382500493,
          -0.4513562540868386,
          -0.8778692530994202,
          0.509176147418091,
          -0.6286616353596176,
          -0.49975761292550064,
          -0.18977426800662667,
          -0.8617408533364276,
          -0.0791956286729027,
          0.2823751352378889,
          0.7718801930050202,
          -0.4712898400509539,
          0.37691503794987946,
          0.8813650781655369,
          -0.12410651277201667,
          -0.9651004001040668,
          0.2974807992534516,
          -0.2804328254920448,
          0.10565024042394784,
          -0.8205360913046141,
          -0.11853026698920305,
          0.7530573768073303,
          -0.3842113329489497,
          0.06923480199284437,
          -0.4041681114202536,
          -0.7461973215670766,
          0.6919649735344036,
          0.687964917569396,
          -0.13866696149221022,
          0.9833026462461137,
          0.9715148980978977,
          -0.21308525715939902,
          0.04436367942947672,
          -0.5829688617798031,
          -0.6289717442416891,
          1.002083018332988,
          0.4079165665447967,
          -0.047083473554434624,
          0.08280937386713805,
          -0.318411761365589,
          -0.007789816135357423,
          0.03639806704033018,
          -0.11969142273263803,
          -0.3119557755604486,
          0.8070795449244981,
          0.01967874960268096,
          0.5011546673955735,
          0.6909291518037246,
          -0.7085762435625399,
          0.4648480132035461,
          0.5728013392491997,
          0.9600310242799437,
          -0.43052559972425986,
          0.3297084929446092,
          0.7170074876942892,
          -0.24807869305679603,
          0.12504876254039762,
          -0.1943082033812555,
          0.8485416363594469,
          -0.8439160774397448,
          -0.016182730924456365,
          0.18420775437131315,
          0.7165464342589849,
          -0.5697788057582512,
          -0.8335308875032789,
          0.12364050313102289,
          0.850249994920996,
          0.8834658380177806,
          -0.038176811262082756,
          -0.08556476510085635,
          -0.8997357039567191,
          0.3871177414643412,
          0.893488633371164,
          -0.8840176652421018,
          -0.36442956819873723,
          0.9687013726463569,
          0.4828249075315418,
          -0.6886647964245282,
          -0.27737330087048706,
          -0.27853895485069,
          0.12298351971743138,
          0.34610910175529785,
          -0.9668232397832475,
          -0.7605955595751631,
          0.35099778838426376,
          -0.4842179202741058,
          -0.8923322840815779,
          -0.21219059415545746,
          0.34780576971423355,
          -0.24704478017337247,
          -0.7259046566169038,
          -1.0044695890877084,
          -0.3790540501687802,
          0.4972207852372746,
          0.15419916115853194,
          0.4592849953497469,
          -0.21223215798374614,
          0.9189149170896047,
          -0.04202554999086721,
          0.6314401519377287,
          -0.9123546822061491,
          -0.10337266698153497,
          0.717797627431259,
          0.4404032642263218,
          0.36696308041376813,
          -0.09889707348991272,
          -0.9346611805326461,
          0.6600146117400026,
          -0.734740692900827,
          -0.5021718120947111,
          -1.0167426255147949,
          0.13148527162020873,
          -0.44701830001047943,
          -0.07674843012946352,
          -0.10077628794575738,
          0.7369823293609771,
          0.7821619850552961,
          -0.2767830391133462,
          0.5257343786131815,
          -0.23010485536216274,
          -0.5503863259291243,
          -0.23924403462738342,
          0.14155648168461218,
          0.3541990204050285,
          0.22508155818202769,
          -0.27283675602248214,
          -0.30195207834849025,
          0.7289717143626693,
          -0.39661955177464514,
          0.11598555569089229,
          -0.059718751612003566,
          0.7852515011318162,
          -0.8432826910882981,
          -0.04060371758915959,
          0.6308339564502152,
          0.20383050857546325,
          0.7002435946456386,
          0.2565197421579596,
          0.026798209055595525,
          0.10502519352259897,
          0.24745355468741875,
          -0.44487605661089813,
          0.3191171518141466,
          0.009784845245336673,
          -0.22824147831650082,
          0.8822903709620337,
          0.13192779667370522,
          -0.9800475454109023,
          -0.10082756226240927,
          -0.6744293812988239,
          -0.34244937739420156,
          0.9421094816201997,
          0.3880959661685632,
          0.630534870562699,
          0.9387550733409895,
          -0.4460159805638766,
          0.6048763583102914,
          0.16463865485368856,
          0.33827419704210226,
          0.3866115851239043,
          -0.11117276167986918,
          0.1498266003974078,
          -0.8680169224292746,
          0.6052789666177841,
          0.9440055613969223,
          0.8446676492134113,
          0.9102366540390939,
          -0.633886274127003,
          -0.0664765925667085,
          -0.1853099256415961,
          -0.790908754712337,
          -0.728800666615978,
          0.3616904085266058,
          0.674266796754529,
          -0.7529982401203291,
          0.0192061840259682,
          -0.3162130532327355,
          -0.5688018448810983,
          -0.8434259767512311,
          0.7630413619762083,
          0.5829540077079772,
          -0.7762643998396377,
          -0.459174523639085,
          0.4088089891426389,
          0.2516106116209674,
          -0.18282792877237994,
          0.17369071561647867,
          0.6834389657326101,
          0.8014076157581471,
          -0.6257297527439656,
          -0.0929172413842766,
          0.47042575660215424,
          -0.007330607532340978,
          -0.360176049597016,
          0.5898082617483816,
          0.42136054499889275,
          0.9473843293652093,
          0.6964822006145405,
          0.21547516600545238,
          0.793814978482533,
          0.6473141552676484,
          -0.5622728181222133,
          -0.7036769884916174,
          0.514874467331357,
          -0.23174545026563864,
          -0.892397365183846,
          0.8530276544509444,
          -0.44308390706642753,
          -0.5973187727959187,
          -0.07712537059916656,
          -0.8436712711194111,
          0.48044685413457183,
          0.7568729499223152,
          0.26627716226456716,
          -0.4131532633764311,
          -0.12715401739660467,
          0.22531084854700875,
          -0.8053235765717348,
          0.7605910657822867,
          -0.8434191703924283,
          -0.3142510274913368,
          0.12115247042683713,
          -0.5848201612529386,
          0.0849131380291255,
          0.5011730604053574,
          0.2900827829141651,
          -0.4013650200489823,
          -0.551088330708744,
          -0.9637078648433289,
          -0.8460113099331009,
          -0.26712571113636924,
          -0.21088336502783817,
          0.3689633903318067,
          0.9289602299147506,
          -0.9276691622659462,
          0.6719835065559623,
          0.1777612852569094,
          0.7474764121281522,
          -0.6590289333462135,
          0.606186478442136,
          -0.8768836353442577,
          -0.44583616609177806,
          0.6468983054857412,
          -0.9065188715442493,
          0.65430993722616,
          -0.47738052812348153,
          0.6330756271458353,
          0.5008023704153457,
          -0.14577318985803991,
          -0.6031447007011982,
          0.45875760746015226,
          0.9555841113607595,
          -0.6343966871257831,
          -0.8916641361190003,
          -0.6462496162519552,
          0.5837717268902087,
          0.6987705670839218,
          0.5161325744513297,
          0.7166754808149554,
          -0.903619579659,
          -0.7173580182718137,
          -0.9344093969666724,
          0.8564096255563938,
          -0.6662499886361563,
          0.7695778723868926,
          0.11416369320240828,
          0.15745453706444523,
          0.2759927380979785,
          0.2122648274085506,
          -0.3592065329159833,
          0.42912515252256334,
          0.41945962761105304,
          -0.8744339589432824,
          0.7317212883883892,
          -0.5552850910198588,
          0.09020071329468538,
          -0.2805955623286931,
          -0.035929257455775465,
          -0.5000096114773719,
          -0.5263800294324905,
          -0.5864128148420024,
          0.03849213782099993,
          0.17813611527669893,
          0.9335197748148371,
          -0.7000889532415742,
          -0.9079074365725787,
          -0.3656522979221739,
          -0.5871266442962269,
          -0.8581529716725451,
          0.04244577817632701,
          -0.5406133695322618,
          -0.9336383768656427,
          0.4514212707080111,
          1.0082679299410375,
          -0.2745982738413791,
          0.7799770711871501,
          -0.07105978003849554,
          -0.7546040443370985,
          -0.49137880910672455,
          -0.5886252661775709,
          0.35190142988974493,
          -0.32381694650327253,
          0.43907483778607337,
          -0.6212558760614836,
          -0.2963341074591024,
          -0.9249871424983707,
          0.5536574670626447,
          0.8288582893923097,
          -0.4299261594541358,
          -0.3585161533680306,
          -0.9775851374977377,
          0.2195091980059568,
          -0.9783661269800878,
          0.06374217518574636,
          -0.13011133009190792,
          0.35194413935678937,
          -0.2028969976171109,
          -0.6664480761938174,
          0.7140957773644134,
          0.8956332264342005,
          0.3569341090814379,
          -0.07270575802905307,
          0.30481544571209807,
          0.2536245885427586,
          -0.3276757917615251,
          0.8239044339393666,
          -0.29588041534896975,
          -0.9511299939303417,
          0.4005658239826604,
          0.7010119901235885,
          0.6512553841391719,
          0.8028717404897021,
          0.9522860803069211,
          0.23071681633894947,
          -0.8514458217748594,
          0.34150609738774373,
          -0.49636921033379533,
          -0.33380694635515706,
          -0.9731995224943153,
          -0.15671861150211275,
          0.9318017283999969,
          0.44087366120112614,
          -0.6984645601114643,
          -0.6060038560668615,
          0.5734246875248735,
          -0.20014484007063313,
          -0.4391975147366708,
          0.39467545255329495,
          -0.06851748445153405,
          0.2752765286510196,
          -0.7340963632856308,
          0.7088867398450629,
          0.3270879976735201,
          0.032560851287980655,
          0.45823549926191465,
          -0.16232181241792132,
          0.6177214865967078,
          0.8769025158452106,
          0.2772211523473942,
          -0.589944322949699,
          -0.9355233657578647,
          -0.542900306825958,
          -0.9816973419456617,
          0.3220541220291222,
          -0.23951187290127207,
          -0.4659093917362316,
          -0.14455558116952838,
          0.3773882060320346,
          -0.35227427796840904,
          0.5121882291775415,
          -0.35465897265428614,
          -0.6468776957033174,
          0.684596534181653,
          0.11582149817773078,
          -0.20154014642669013,
          -0.2728319334529936,
          -0.08527106466169464,
          -0.8439724613963868,
          0.3539755778712608,
          0.87818057927218,
          0.11566620250949833,
          -0.4609500850817875,
          -0.43226945005744444,
          0.9387816862431861,
          0.15171601364386933,
          0.7512040100963462
        ],
        [
          0.3571677698878222,
          0.24564102635527885,
          0.4618216283139496,
          0.2840714784226861,
          0.7110189817353254,
          0.5973550146331426,
          -0.3944325726736112,
          -0.45496539748898257,
          -0.2336929839232793,
          0.9821004492848704,
          -0.2111554331002512,
          0.5349483706782514,
          -0.6944985688853099,
          -0.660619018115498,
          -0.1760216764782634,
          0.6342972946680971,
          -0.668286687083915,
          -0.05937447657413142,
          -0.23078354269895796,
          -0.29399090794693217,
          0.8295701710975627,
          0.6891067789479348,
          -0.6286663958805557,
          0.30320655981720757,
          0.5786178893436185,
          -0.13455474997712125,
          -0.4271164354491619,
          0.02850540907693122,
          0.6737051236745999,
          -0.48323230694114394,
          -0.9057351725466238,
          -0.22728653252033348,
          0.5538184327920237,
          -0.5089068088185891,
          0.792238852517221,
          0.36618561440410685,
          0.9759483921851927,
          -0.5528929910899619,
          0.006949039274871777,
          0.10947505415659138,
          -0.33863345849544685,
          -0.11558069398202735,
          0.7752850861958411,
          -0.4112342260091638,
          0.5543833557872937,
          0.5667373727650951,
          0.8225213224914685,
          -0.88956648555811,
          -0.5462969198023517,
          -0.2211590274436364,
          0.1550244952428175,
          -0.31002160193072703,
          -0.8653008188768002,
          -0.9482609448591757,
          0.6206093138737283,
          0.2699455421837842,
          0.8130603721461949,
          -0.1882986486510757,
          -0.6830062046278407,
          -0.19484639347794702,
          -0.8589451221644029,
          -0.42321530092991066,
          0.13587689580875267,
          0.6829956447981607,
          0.5666048144849273,
          0.974861427043088,
          0.29030024348730654,
          -0.9680489512105804,
          -0.9004993807782097,
          -0.8365708423691705,
          -0.8388257269382373,
          -0.35215096253016354,
          -0.2794671564478506,
          -0.38278774572932783,
          -0.5043114949636249,
          -0.6520784896578719,
          0.9568202392605267,
          -0.5399721348927143,
          0.5558328501493036,
          0.4910083502150967,
          -0.8496227613470473,
          -0.624358685701099,
          0.8894678221309658,
          0.3118694235938748,
          0.7991451288693063,
          -0.5964068013349628,
          -0.8472468347713356,
          -0.8228194945874501,
          -0.3495595196107263,
          -0.6036851782938991,
          -0.8779199563242259,
          -0.02804849318878427,
          -0.9471848906086654,
          0.9893968996638055,
          -0.3783320400346999,
          0.4874462276957603,
          0.7487978327706725,
          -0.3408250071934215,
          0.26262919570369786,
          0.9454587502910934,
          -0.1379454247957342,
          0.24423819307831637,
          0.5121195856099626,
          0.20343766254848777,
          0.25012172118807935,
          -0.5584794805104573,
          0.2637157153801466,
          0.5621480525054987,
          -0.17369696380213037,
          -0.690317519513659,
          0.42113381632292446,
          0.09052243028497742,
          0.8554785840998533,
          0.6828919337504904,
          -0.6870782217731205,
          -0.8601849569621776,
          -0.663033090515328,
          -0.11358492556723149,
          0.3105636284052339,
          -0.19603087684079515,
          -0.6503786420911644,
          -0.1696170507690041,
          -0.6322749047944003,
          0.7675776285586723,
          0.3651392528154614,
          0.44469908470787756,
          -0.31092590530198144,
          0.7573162452752341,
          0.5729842836268603,
          0.12309111474945593,
          -0.6424673149956519,
          -0.04941893355860613,
          -0.9434317276374391,
          -0.8753316474680726,
          0.9519629209449256,
          0.2643824068214229,
          -0.4245456895991766,
          0.8498091552327253,
          0.04429644632693849,
          0.9137041928903359,
          -0.44994883937559493,
          -0.07821591092064306,
          0.49781637090912717,
          -0.4931526918583908,
          -0.3716272895905785,
          0.1230410090236235,
          0.49685744221168154,
          -0.8104063098283132,
          0.46248484039645654,
          -0.2017011678562445,
          -0.20155009466484997,
          0.6049231903174276,
          -0.05631377308521763,
          0.6596380254415326,
          0.6002359821712105,
          0.5618758399492557,
          0.48719119864560423,
          0.23732882518141624,
          0.8569412080882197,
          -1.121405250615723,
          -0.7959855628721297,
          -0.2507184399220117,
          -0.6927809025610698,
          -0.8020451647891503,
          -0.04780353595888796,
          -0.30440003678844146,
          0.6691316463205471,
          0.176511324430024,
          -0.3903903629486565,
          -0.6564236718143697,
          0.9149096828401708,
          -0.5660882147486038,
          0.21628201164226263,
          -0.9668877543575223,
          0.25224331851097365,
          -0.9530078204673741,
          0.38146100762757423,
          0.8604976274781938,
          0.555001394638036,
          -1.0135122847213052,
          1.0131483883742194,
          0.3565731989838638,
          -0.6726319777628773,
          -0.9120155316807095,
          0.43685275098480625,
          -0.8551357492478266,
          -0.10910590838402744,
          0.6002367988298951,
          0.636115759920001,
          0.18139553757354243,
          0.20083273735303386,
          -0.35809994979385174,
          -0.07797760016396357,
          0.4859103694851231,
          0.7771330177287473,
          0.7013784434400483,
          -0.7801980612322121,
          0.749309170924292,
          -0.8451046273329843,
          -0.4380267705916993,
          0.07799258188440913,
          0.18833769538768666,
          -0.3342248468321102,
          -0.17224515149090247,
          -0.583655728672568,
          -0.6015373366682291,
          -0.48125778995210267,
          -0.7494273773723237,
          -0.7133588040682335,
          -0.8895405787072295,
          -0.5511153118269286,
          0.5501959593059459,
          -0.7582824861736231,
          0.24153935615471933,
          -0.2832152185074183,
          0.477034293132346,
          -0.9179950441894256,
          0.13509895906946534,
          -0.376048698844327,
          -1.0136037130925413,
          -0.9172341459806341,
          -0.1819691117325172,
          0.7460024326719121,
          0.3544764990373797,
          0.9674294374555708,
          0.037721035902053064,
          0.28393717801841806,
          0.8083934995489158,
          0.5948112702043447,
          -0.3442182166102424,
          0.16876300289932045,
          0.772579235879172,
          0.717437606733944,
          0.3081303023566922,
          0.72426187816969,
          0.6812122823997249,
          -0.06815617265117051,
          0.7418156827931135,
          -1.033960788501439,
          -0.7094289810663755,
          -0.5398093672686765,
          -0.027556956848444603,
          0.2392839751659814,
          0.5489796902840807,
          -0.35048783785136994,
          0.7947537440493666,
          -0.3268432418911079,
          0.8209580036815756,
          0.07602992138811665,
          -0.530179297442428,
          -0.785890301950723,
          -0.7186098574360489,
          0.744629393176419,
          0.89392595693329,
          -0.4903851107157774,
          0.2337631533212498,
          -0.5899186302242783,
          -0.520578764008668,
          0.47137926865491614,
          0.8786597234151655,
          -0.44684512210760613,
          0.32219357821959943,
          -0.6534228942808135,
          0.8388300567316147,
          0.3061620457748774,
          -0.6227664109444853,
          -0.9660747030403614,
          0.742521805280618,
          0.47385519708578,
          -0.9019443525280059,
          0.5153503165169081,
          0.8664620984082445,
          0.6674474509767366,
          -1.0472691710537023,
          -0.8137501621085589,
          -0.3530355662400749,
          -0.7137741752248009,
          0.18580827900957267,
          -0.04221895493475626,
          0.06559311880751856,
          0.745839080739709,
          0.1147341644117512,
          0.2906510051763026,
          0.27480406202723295,
          0.33325415656072754,
          0.8689155462411297,
          0.9187970698489045,
          0.7656785862024876,
          0.879791364116452,
          0.17043853783026663,
          0.4387679128969699,
          -0.2421293380540575,
          0.22558227127814598,
          -0.7410498415613417,
          0.15250910600071507,
          0.540388022222897,
          0.45873162204390106,
          0.6516818329205784,
          0.19516332153863414,
          -0.896372706284359,
          0.4879226738375142,
          0.11180481438107433,
          0.3509434550276447,
          0.5305784639075148,
          0.07857936747920095,
          0.973711981142993,
          -0.5068513466484276,
          0.20587965250049797,
          0.1856345057306194,
          -0.9866377819828583,
          -0.842426313820124,
          -0.8937427304535889,
          0.435360895083429,
          0.3044331302019529,
          -0.7351895698738724,
          0.12279387156608317,
          0.7752634396068958,
          -1.1328860862611185,
          0.4072191735396952,
          0.524224255063721,
          -0.7664364908050131,
          -0.6310294306633069,
          0.3614690735510545,
          0.8111498130387942,
          0.3886953472709565,
          0.520158168766684,
          -0.9010139509306734,
          -0.2802208723314138,
          -0.9413275270985131,
          0.06579038584560828,
          -0.4154164080709919,
          -0.35207451726359396,
          0.005103510938707087,
          -0.15633153072539746,
          0.7793970216430799,
          -0.9027049354475412,
          -0.9933599039866873,
          -0.5768562686365273,
          0.08433110467835318,
          0.3960545091175862,
          -0.9741566679397232,
          0.20824473772187777,
          -0.8080488586788626,
          -0.7143181568305725,
          -0.6871550291695929,
          -0.12474828332184487,
          -0.3393117153598068,
          0.7526153704696951,
          -0.5595034413988781,
          -0.2534566606971158,
          0.6309395736216162,
          0.003806741412423427,
          -0.4196816632206827,
          0.46428447781193527,
          -0.4201733872815965,
          -0.01948731306476796,
          0.8932463035124262,
          -0.4496499650559912,
          -0.24306547128276043,
          -0.30996149097025455,
          -0.38212407552078625,
          -0.9884351859921954,
          0.6157234910560042,
          0.06529423760680023,
          -0.30549308558800625,
          -0.04975540569451889,
          -0.6176974824577871,
          -0.058005912761409026,
          -0.8990888636741005,
          -0.6765407362090382,
          -0.7685272854068542,
          0.3742913909200298,
          0.1896733023631579,
          -0.1213744919290749,
          -0.10237255482225989,
          -0.5052941518022288,
          -0.5022824041077657,
          -0.6170299531303445,
          -0.21773150533127586,
          0.4064800532875543,
          0.8527147168941902,
          -0.548937148637431,
          -0.3524532733901098,
          0.08905887241666191,
          0.869083636843807,
          0.3968259685766926,
          0.7518540329261675,
          -0.36849920662809377,
          0.8718318322520322,
          -0.06279874015745193,
          0.5886045547288594,
          0.6217073266627957,
          -0.7778667358872757,
          -0.374503578925735,
          0.02151276012663485,
          -0.18563139726554118,
          -0.841042065140314,
          0.11236624829936061,
          -1.1560855113681758,
          -0.27620203594288045,
          0.6284387898669963,
          -0.6253984959907284,
          -0.7711989567795611,
          0.9733408976851639,
          -0.4174110572916333,
          -0.8081135120496473,
          -0.34829365997772355,
          0.8464390903882695,
          -0.7955707021688307,
          0.27361107258280926,
          -0.3642564944113292,
          -0.8006448074561723,
          0.8960469560515052,
          -0.2843400891929178,
          0.9452375509288332,
          0.8840256904897188,
          0.6916663104149646,
          -0.20969722104142546,
          -0.656936045508365,
          0.4879572641523303,
          0.6016478843838154,
          -0.05713296561216119,
          0.822655098760076,
          0.7993463640570376,
          -0.7682946236258623,
          0.4097219694193539,
          0.5076067613101128,
          0.4392586985734549,
          0.5789705794757894,
          -0.6471091062202332,
          -0.012873498867362379,
          -0.49473595273099846,
          0.4452360450055663,
          -0.5375303184630023,
          0.4164612251919606,
          -0.934409691105209,
          -0.4483892402685245,
          0.08946780078801277,
          0.45508106220373096,
          -0.21913586939954424,
          -0.2813786942167132,
          0.0629176025434461,
          0.7089676980723544,
          0.34630804771071255,
          0.9855927916262981,
          -0.43934284151353414,
          0.1552968710255328,
          -0.4284608414481772,
          0.40058031745447287,
          0.5325969793058687,
          0.002093791358234918,
          0.02343957760269387,
          -0.9003578782253802,
          -0.37642992581665824,
          -0.9038901089012428,
          0.2847919552661309,
          -0.28384664950364763,
          -0.31259989044016584,
          0.7040719505683061,
          0.4319491166774864,
          0.4835204108465634,
          -0.20216403660850904,
          -0.31928241649676026,
          0.09188703947635722,
          1.0088236730285143,
          0.977836347583778,
          1.0717927064333455,
          0.06156285148242815,
          0.37817860326990227,
          0.049876404122108836,
          -0.3049544600701349,
          0.22708283433137594,
          1.1047817156393889,
          0.4424193217572464,
          0.22226978816537007,
          0.018715201564682288,
          -0.8210391489811085,
          -0.5553167803827116,
          0.9383181227556258,
          0.0590683842904554,
          -0.7291414604956977,
          -0.46404269609189924,
          -0.08581683543554254,
          -0.29817634415861677,
          -0.623857219441921,
          0.8287666039987484,
          -0.2269113002043677,
          -0.07997463915911068,
          0.5015636668328415,
          -0.09982502812852996,
          -0.5854428363933023,
          0.017119828755958057,
          0.4450977703969414,
          0.2246997704440613,
          0.28596758890476226,
          0.6101705742991466,
          0.3269637570303423,
          0.7512855722623847,
          -0.3780989996524009,
          -0.6672445793686187,
          0.3548836456093978,
          -0.3425419518061772,
          0.22537892008733318,
          0.8282253737196346,
          -0.39935927602769644,
          -0.5732658832167754,
          -0.2505335094085348,
          -0.31779055385934124,
          -0.8493364832666547,
          0.08232740962270746,
          0.06504742099137265,
          0.9276925140962664,
          -0.5578749905124435,
          0.41771425144938823,
          -0.24299311679895813,
          0.6086394251943863,
          -0.8738668857270758,
          0.11359972536315482,
          0.31771351984442064,
          -0.11027831406986016,
          -0.9637627808431889,
          0.5098855645457989,
          0.3791184727764164,
          -0.18602497188992828,
          0.15848472787836584,
          -0.5344329546993637,
          0.17275034515021293,
          -0.9379406694236175,
          -0.05855434484327148,
          -0.5731615052561928,
          -0.03194116880967517,
          0.4142034064608858,
          -0.8184991721852256,
          -0.18297105229217128,
          0.9051033846610436,
          -0.5092387616014531,
          -0.18058922100601216,
          0.017339265887135528,
          -0.6033265338081911,
          -0.3964112269326021,
          -0.4456079279478077,
          -0.4940133630271745,
          1.13330895672029,
          -0.15114676563664878,
          -0.06321017162523979,
          0.834018058866848,
          0.13041550762041706,
          0.0904551933644384,
          0.4313530761435664,
          -0.17803427410155012,
          -0.2887964127070906,
          0.36370396149609424,
          0.14727264312272206,
          -0.24050030833892533,
          0.13020676684406934,
          0.19496686569833885,
          0.5051170159679845,
          0.6709029433847343,
          0.7284462293861367,
          0.8059567295142839,
          -0.31879364854236436,
          -0.12553659671424489,
          -0.38556532881327343,
          -0.7614265022979522,
          0.5826118458794716,
          -0.9220039130471263,
          -0.8262673596685992,
          -0.1418693998594859,
          -0.7017159814632513,
          -0.007036773699139074,
          -0.03812564504347645,
          0.16870181843759105,
          -0.8015788668809483,
          1.0518838714075907,
          -0.648377212249492,
          0.9493626394083107,
          -0.6650286621608407,
          -0.8116662458813401,
          -0.36696502206978165,
          -0.4777723553613657,
          0.2115744110546726,
          -0.9283901000005916,
          -0.15584947568649068,
          -0.4180306644772399,
          -0.27926716236768445,
          0.0033668481108975927,
          0.706399691825722,
          -0.416872494758802,
          -0.1579475130838922,
          0.24350118806000573,
          -0.6957765733738283,
          0.878973116225042,
          -0.8473174872131272,
          0.28258197960918635,
          0.7123906201930337,
          -0.9328890883711031,
          0.4137999479974678,
          0.2679188544905447,
          -0.4563821472568812,
          -0.09982857937765104,
          0.5739697318332762,
          -0.41531190452912575,
          0.4764018559429981,
          0.811670847514376,
          -0.6931912402099377,
          0.5147669111411209,
          0.6500257283207661,
          0.8906121723217517,
          -0.19838951682110487,
          0.8971882409569809,
          0.4158512798127583,
          -0.38452634175382416,
          0.8503587434994615,
          0.04238010128759999,
          -0.7115131677184638,
          -0.6854253883068039,
          -0.9058337536130765,
          0.0543790623701236,
          0.029202196135921753,
          -0.5873123519260391,
          0.8809780373891609,
          0.8660085741581167,
          0.05537244761098641,
          -0.24807790990987638,
          0.2850097547571772,
          0.21666965123173343,
          -0.010589170057118038,
          -0.5161197182555184,
          -0.43915809589768395,
          0.8205345224650052,
          0.4285721480393888,
          -0.23788745909730302,
          -0.045835582558168046,
          -0.33369918147801325,
          -0.2036059900334796,
          0.6368616560522756,
          -0.19294322477512657,
          0.16874495379307905,
          0.8002232041673908,
          -0.671731773170733,
          -0.2902177074513763,
          0.5852700110671575,
          0.894724322926933,
          -0.6690592595824635,
          0.6083071209546413,
          -0.3853250752718812,
          -0.7175288211969181,
          -0.31546715619222715,
          0.680525345152892,
          -0.6711139264868998,
          0.016665042674284983,
          0.031178266447246413,
          -0.06371582995640072,
          0.5470032627295469,
          0.06806814358658775,
          0.36571264843031015,
          -0.600999812885771,
          -0.9972218480750463,
          -0.08829942959949068,
          -0.9113089359602958,
          0.7040430609577153,
          -0.8835852834869639,
          -0.797384936703429,
          0.6513448156541177,
          0.46971746472559445,
          -0.12258244549795602,
          -0.528759845313146,
          0.2798814085270027,
          0.9474687607810357,
          -0.8799832646468436,
          0.036283454132549915,
          0.43032126622026734,
          0.09295625225255666,
          0.8235738538851816,
          -0.6263904498104035,
          0.680702530271473,
          -0.08887365051863699,
          -0.2748150817721418,
          -0.4052455921568523,
          -0.05641279342409258,
          -0.7179985775374963,
          0.3113704240437951,
          -0.7291396242086814,
          -0.6568547798153038,
          -0.9224462903732986,
          -0.6475151017213161,
          0.14980657048303478,
          0.2667246201395388,
          0.7595272671609653,
          0.7732729102096842,
          0.1895028397576209,
          -0.17858269189289833,
          0.261415018871065,
          0.2881343500307153,
          0.8292722895422838,
          -0.2592253914006504,
          -0.23742132167171676,
          0.842539493572372,
          0.09739095638115894,
          -0.66877210648877,
          -0.6002339153476279,
          -0.3049398296494328,
          0.07004727324023409,
          -0.05122856775095178,
          -0.8645551526952686,
          0.10643300791096236,
          -0.9833678106733437,
          -0.24718507282173427,
          -0.8827791916228296,
          0.6513144846845471,
          0.6870362388453943,
          0.7579246370128562,
          -0.29629035376763596,
          -0.8064038779171321,
          0.771254622087491,
          0.7058010573527619,
          -0.3200659604400699,
          -0.26053390594156584,
          0.455896908575079,
          0.27834958258319975,
          -0.15624114316429047,
          -0.675597986150989,
          0.1554421639676424,
          0.03685031342888634,
          -0.21473152054745584,
          1.0090869214779141,
          -0.6897898752346744,
          0.9924221181387927,
          0.4519673826164594,
          0.9898197034169878,
          0.3526923071758721,
          -0.6653629448309746,
          0.5548889591290829,
          -0.6444479845735266,
          0.12285926276439182,
          0.1503627080669263,
          0.09062991199471818,
          -0.5222427509786142,
          -0.398002458748379,
          -0.8442852307270756,
          0.692619845786093,
          0.3774474558955992,
          0.0392213050911244,
          0.7741710878930672,
          -0.24016077508906214,
          -0.5256591251139238,
          0.27799532794912335,
          0.44876689990444596,
          -0.5932955869141692,
          -0.16090296123036077,
          0.584966879194333,
          0.2771476380849584,
          -0.5164560750896212,
          -0.1256312258705612,
          0.6293837854110726,
          -0.5164541437765293,
          -0.44170677580996465,
          0.9973584532134974,
          0.1900842462268777,
          -0.9394957505358084,
          -0.5521410223621568,
          0.6316871963055264,
          -0.14079739161672525,
          -0.17483571215022348,
          -0.7551039851609481,
          0.18671102313255095,
          -0.2731590336805672,
          -0.23811280328229228,
          0.903461684508971,
          -0.3113576938733516,
          -0.09561576660992933,
          0.10925878840591362,
          0.0870648669057103,
          0.6338020911796788,
          0.8856035789890817,
          -0.25395133342894044,
          -0.9026115073843282,
          -0.8096218850198178,
          0.4658255142645451,
          -0.26933470919176905,
          -0.6486693167264238,
          0.83311169343954,
          -0.9953265558629278,
          0.7234958561143219
        ],
        [
          -0.10581720330634092,
          -0.8188935167728004,
          0.6779387549139402,
          -0.37869880943578327,
          0.377655346007556,
          -0.5614787652626367,
          0.5821595380251701,
          -0.2751351121259995,
          -0.9760528778067805,
          -0.7584529347867403,
          0.339030508896208,
          -0.7474216931368596,
          0.8696659908309067,
          0.7514311532969872,
          -0.6745408491796504,
          -0.05088757839508387,
          0.8319275575215865,
          0.5281191621492458,
          0.3494083541829003,
          -0.1662415144360473,
          0.1777342090063052,
          0.3006860423146187,
          -0.043709575367369635,
          0.9321051890496184,
          -0.5697791284617881,
          -0.41927748790249475,
          -0.9411035732646188,
          0.05065322047705734,
          0.7732766202662185,
          -0.27918881221290004,
          -0.8308328615308824,
          -0.05721705384447129,
          0.7549930752091738,
          0.7794775434253267,
          0.3082557095067627,
          -0.7303568176905938,
          -0.19379382105992685,
          -0.49515740875630443,
          0.46228094776015655,
          -0.4363053098165896,
          -0.44000710247410907,
          -0.6586813769026728,
          -0.6254046007379602,
          0.2505425458612375,
          0.09963001427214682,
          -0.47314434049103005,
          -0.9347224389680224,
          0.638626805739792,
          0.6805999743060859,
          -0.6220826509949695,
          0.7053311195141335,
          -0.6992927363144359,
          0.8635099793273733,
          -0.714263694761446,
          0.3965769161030541,
          0.5181248600389918,
          -0.2642655993156787,
          -0.296685248265425,
          0.537012463620373,
          -0.25404527874789357,
          -0.7735142298223788,
          -0.19377891633293148,
          0.7802587950000732,
          0.49432666149180615,
          0.4955715934830026,
          -0.2575141678141609,
          0.21231787319743975,
          -0.6059495024946684,
          0.13913362640510968,
          -0.16920656950793173,
          0.025324612237197848,
          -0.5293754375913958,
          0.7970723418949537,
          0.5934641018901717,
          -1.0007755565761869,
          -0.01919724730231658,
          -0.5012038983784041,
          -0.5365703268758062,
          0.602310366201533,
          0.5312854049659923,
          0.42491145544427705,
          0.5585960216554944,
          -0.9819431823056474,
          0.5872307082518795,
          0.5031256390179468,
          -0.6146904270298235,
          0.9004948680172232,
          -0.6548198092176825,
          -0.4798202731613341,
          -0.27165176564458676,
          -0.21887566659988864,
          -0.17208687973865808,
          -0.27724320182560186,
          -0.32760471750841363,
          0.2275027929475318,
          0.7426526099055369,
          -0.1566843623295151,
          0.09039593597064376,
          0.48197638996133557,
          -0.6715781155249516,
          -0.47722736517419023,
          -0.1506187552077525,
          -0.144363577574721,
          -0.8596008433824064,
          0.7326481628189013,
          0.24273226805049541,
          0.8499773200676554,
          -0.5602595413789104,
          -0.24254813996892008,
          -0.058103788183659626,
          0.32059670309716953,
          -0.8586757943864158,
          -0.9274096298917247,
          0.5056726431099696,
          -0.5729054995251914,
          -0.9053702057763926,
          -0.650916957872631,
          0.799749397294953,
          -0.6120699280897118,
          -0.2896715495287175,
          1.023423954026418,
          0.8192554921654843,
          0.28690273283242357,
          0.6407756070579116,
          0.36321550225520177,
          0.6881453358897384,
          0.6886042843394781,
          0.2041795185122874,
          0.21826294133459476,
          -0.5137105771686048,
          0.5229246201326556,
          0.10436052101178162,
          0.2585844078324522,
          -0.2394801180532283,
          -0.01383896321822432,
          -0.11771213907578035,
          -0.06463958428642907,
          -0.9100389398236235,
          -0.8344370444246273,
          -0.5202184301104722,
          -0.8220850610189651,
          0.8830759927806378,
          0.910970931278887,
          0.6992752299824806,
          -0.3094732786472733,
          0.44732158394277,
          -0.6530348737505761,
          0.3462684832738773,
          0.5955936079174601,
          0.02380122535263244,
          0.5759791072458397,
          0.49799021081794165,
          0.938655447469849,
          1.0733184266065041,
          0.6201490126481892,
          0.7261912357638428,
          -0.10392653166172311,
          -0.9078553362839782,
          -0.7219292409045104,
          0.04398648471953645,
          -0.7886543490152482,
          -0.7898844836102695,
          0.21507333131794198,
          -0.1852556709705657,
          0.12760085604307272,
          0.2969264444080035,
          0.19184187735605657,
          -0.6262824528351124,
          0.587703146664033,
          0.741570485947219,
          -0.5293537076262054,
          -0.08504283664238914,
          -0.3521949232254051,
          -0.4235055882963738,
          0.35081432623427755,
          -0.4765519677182694,
          0.9608887571590241,
          -0.32481661723195027,
          -0.4688830856554859,
          0.6412039940722422,
          0.244280103179003,
          0.9897882241738146,
          0.9367822237231072,
          0.10005389015903061,
          0.9184354413627815,
          -0.13915459837449196,
          0.549546050728642,
          -0.38195935064249703,
          -0.8626602635036319,
          0.6288436441602638,
          0.6948607175872713,
          0.7920384101899514,
          0.4347565456825227,
          0.9455842101479522,
          0.696118139155549,
          0.7106614288878982,
          -0.5906553830674017,
          0.7238663030297268,
          -0.3084672014894874,
          -0.5838213822993539,
          -0.541253709261173,
          -0.34642955018074817,
          -0.8178598496859018,
          0.8237393613730263,
          0.9981104649982087,
          0.007539421541896113,
          0.5362783121783008,
          1.0749514130917854,
          0.945958663662399,
          0.9660169231788664,
          -0.7045346320468217,
          0.03776286589748824,
          0.021962853715619346,
          0.3701979449996309,
          0.404348833242853,
          -0.6607980502682298,
          0.4127714969072732,
          0.36295074723412274,
          -0.05165746080628692,
          -0.4341019061094062,
          0.39505359816440516,
          0.9548582051763917,
          0.41692549600739165,
          -0.9104520616384922,
          0.09214549655321314,
          -0.45119086746954673,
          0.8815665907727898,
          -0.8609761294470176,
          0.6474009774952139,
          -0.7096978153331536,
          -0.2202821886790719,
          0.5953096188768815,
          1.2066430624113755,
          -0.32667381309030075,
          0.8784273437816474,
          0.8305269077242867,
          -0.13985132907730716,
          -0.10398256868369322,
          -0.3075348438166306,
          -0.5785151651868096,
          0.2132290247946387,
          -0.4684280641399347,
          -0.6401369769724186,
          0.45154132248266354,
          0.2212960923079438,
          -0.12845050783332834,
          -0.7031449514999636,
          -0.57470857653904,
          -0.9175306284612775,
          0.6255955623122145,
          0.5288120043769545,
          -0.037665125814121146,
          -0.2788551275386761,
          -0.83718755770906,
          0.5270055972906059,
          0.6810366677890952,
          -0.10400233604274338,
          0.9148255043275026,
          0.7151980236161817,
          -0.04979855584984554,
          0.8334886354664003,
          1.0747889095212604,
          -0.3239718133557275,
          -0.5501098137414415,
          -0.05125311035656999,
          -0.6046603576790066,
          0.5379658453099226,
          0.9308139582489391,
          0.5957407729174318,
          -0.41823737618638057,
          0.28111832967069145,
          0.04664985215783685,
          -0.08860170564659722,
          -0.2735517127846937,
          -0.31324710652028687,
          0.5615210482586711,
          -0.5805352444915514,
          0.8561612569904904,
          -0.5473615901665506,
          0.2915437530269525,
          0.7644629573239717,
          -0.9065612913172056,
          0.4808857314775088,
          -0.298171540041795,
          -0.7155287630586564,
          0.5719435250370591,
          0.6909873008255049,
          -0.32573109448388515,
          -0.5721205614105503,
          -0.6227573927287114,
          -0.3434368111342471,
          -0.9485280014476396,
          -0.46988019360800465,
          0.8557926962639241,
          -0.7979489888189276,
          -0.14042028839827994,
          -0.035316566687171015,
          -0.15373671905955866,
          -0.814759933750055,
          0.01345029253604419,
          0.44230030588613223,
          -0.2778505969053721,
          0.6472744239933826,
          -0.27415212635774483,
          -0.43427241370474834,
          0.7799640334424662,
          0.6292316349534841,
          0.2210288599499397,
          -0.977369997624442,
          -0.3753395075070833,
          0.029766302371224657,
          0.22058175468377206,
          -0.8319640726826234,
          0.03206011504029385,
          0.7724273854374346,
          -0.46996484278961465,
          -0.5044111354426515,
          -0.33577970234966104,
          -0.0564884499307332,
          0.2828559880625232,
          0.6452823650835194,
          0.06562300843508306,
          -0.513133354652327,
          -0.4836982751248161,
          -0.836562228271852,
          0.3308078790400675,
          -0.7585484835423288,
          0.590239939015265,
          -0.5062674593868506,
          -0.7467662726002017,
          -0.47198318889350643,
          0.41433290340291945,
          -0.4813609951977756,
          -0.47798684516700013,
          -0.2951272402007256,
          0.32290188150757926,
          0.5386713782529288,
          -0.2783178333180655,
          0.9431582479745864,
          0.9317377262380778,
          -0.9013034734257792,
          0.2752319316993078,
          0.29330049093214966,
          -0.2725830910556375,
          0.8049755977841859,
          -0.24836933428602984,
          -1.002806205646092,
          -0.5649225501121168,
          0.6676828522656535,
          -0.8145612785622023,
          -0.24374928594210296,
          0.37138486038538443,
          -0.22359463543592772,
          0.10799559053608743,
          0.6716023433494831,
          0.33400793421482433,
          0.15803930573612993,
          -0.7559227524477689,
          -0.7841971172164457,
          -0.9141316752453467,
          0.39202959645221,
          -0.9434348405300236,
          0.09095423109512367,
          0.090987172630929,
          0.2587848789937185,
          0.239771996662627,
          -0.26934159234211663,
          -0.48788735498090435,
          0.06770054409148718,
          -0.03938896693253031,
          0.669963165757946,
          -0.8690358083245261,
          -0.1691751817980059,
          0.5767509161328471,
          0.4270123942015017,
          0.8048819255389227,
          0.18150125939129397,
          0.14221485316395083,
          -1.1649404108041028,
          0.1687232917919702,
          -0.6627367021097906,
          0.7597235214204675,
          0.22673280988709754,
          0.8390025537810223,
          0.24272412863548803,
          0.5486348399943739,
          0.21719701218357296,
          -0.4521503965490919,
          0.1789531790046753,
          -0.9257162820440789,
          0.23726776278288744,
          0.9288172175572109,
          -0.39891040313349946,
          0.4145812257598066,
          0.41295136437209673,
          0.3732600855809867,
          0.056550732326580026,
          0.22897000196947226,
          0.31450090560943983,
          -0.6858009094861481,
          0.11439429702510857,
          -0.3634071096164347,
          -0.825721016750641,
          -0.9222745366265697,
          -0.6306455273314472,
          0.6790139516777163,
          0.2205767214986233,
          -0.38146332448805786,
          -0.0588919387445397,
          0.40560780777955635,
          0.41564242216616015,
          -0.3924608256842274,
          -0.26083318675968215,
          0.18372480167129518,
          0.4079179250526605,
          -0.08587962472898109,
          -0.020452365455259528,
          -0.31537124520392185,
          0.2716715938003686,
          0.8674881120133373,
          0.42299446353437553,
          0.8159794105311721,
          -0.6698546538517541,
          0.9942989600320367,
          0.19895294799243785,
          -0.8001998308467648,
          0.7013661066793548,
          1.148375333376424,
          0.39235503831923124,
          -0.21728510372629375,
          -0.9929767722259389,
          -0.05479211449133632,
          -0.7865620968128864,
          -0.16206939129838238,
          -0.599413845695256,
          -0.33156695545101383,
          -0.475843384622603,
          -0.9418957161704176,
          -0.9224539698471033,
          0.4064367955980995,
          0.15034956831069907,
          -0.3141137996853546,
          0.21444271335862464,
          -0.0907743274447775,
          -0.534451290000445,
          -0.99089227474681,
          -0.10707997731860155,
          0.3141620815974166,
          0.018207663184681606,
          -0.09869364731985138,
          -0.804271858999693,
          -0.5127666175103146,
          0.9960491524405268,
          -0.6740523033053764,
          -0.12786521036131404,
          0.7414965018201961,
          -0.7013977417052641,
          -0.695118177508579,
          0.47699653530398006,
          0.374214029902926,
          0.5381772879271531,
          0.22210620973698142,
          0.05326010861318015,
          -0.7954450153778732,
          -0.05888215167255748,
          -0.013412623612332423,
          0.20840959828412653,
          -0.03664867312286597,
          0.08451868648852047,
          -0.35770598683013394,
          0.04331222834409703,
          0.6830647256198904,
          0.6847043432144492,
          0.5348864058421422,
          -0.8871008716665061,
          -0.11177077225100535,
          0.6163956002434321,
          0.597658917164257,
          0.8065349572264817,
          -0.9993716387758368,
          0.17218677509716576,
          -0.9477689787498895,
          -0.3993232856545432,
          -0.9555461642020066,
          0.18969765848519415,
          0.07308405851050781,
          -0.5269065073536121,
          0.5275047366958847,
          -0.9515965633549247,
          0.8328004449073578,
          -0.6470156825633968,
          -1.216065104161555,
          -1.232946757927921,
          0.3032764200603085,
          0.27515128009865325,
          0.2982935698294446,
          0.17530509357921514,
          0.5057793402955671,
          0.47281964053481834,
          0.2313952510932178,
          0.6572923206697947,
          -0.18854909484169988,
          0.05206811023920001,
          0.844403734270442,
          -0.8640558181474698,
          0.7066523314369288,
          0.14870168237947967,
          0.5784194146591844,
          -0.3088820382871889,
          -0.4039753282425803,
          -0.3803044527368273,
          -1.081171860675902,
          0.3403583138954191,
          0.1498881632004267,
          -0.21776105545735505,
          0.6683541119470113,
          0.6584787223373844,
          -0.6097247287067896,
          -1.0155813758910957,
          0.10763619072155377,
          -0.9270125499300996,
          0.3743238251060891,
          -0.9076755097927713,
          0.24966010694278282,
          0.6204441407200434,
          -0.7355622684909938,
          -0.10399871552906047,
          1.0474609341959276,
          0.4588823103344997,
          -0.8672481200019948,
          -0.9117088966649634,
          0.3826822399153053,
          -0.0331484659242377,
          0.5933465128373728,
          -0.16251271461468356,
          -0.030298432401480654,
          0.8772897356986129,
          0.5691153270306671,
          0.04523221803825952,
          -0.7380309156621786,
          -0.4323001151195958,
          -0.07162848691578251,
          0.8376339488103468,
          -0.9058661295893573,
          0.3722011259932356,
          -0.8832412683321199,
          -1.0850067021084646,
          0.49501161986146036,
          0.23264522617637237,
          -0.08895899994547778,
          0.16752105302746062,
          0.33527543038924856,
          -0.4465452240255674,
          0.0025404974559872498,
          -0.6374930361807158,
          0.5354330897931783,
          0.5198275652816869,
          0.9013691178322879,
          -0.4414090388455879,
          0.45752095792202924,
          -0.7155773786813515,
          0.3585776673986226,
          -0.2114262069771718,
          -0.09591176476889582,
          -0.22664773638264687,
          -0.49839459671470776,
          -0.7628867436729445,
          0.28410635317838395,
          0.6479608819879195,
          0.6302545170122967,
          0.6579758677226938,
          -0.3693776964260014,
          -0.8590623143942505,
          -0.8511644253967885,
          0.876552390868148,
          0.7908143683251284,
          0.11578681477955535,
          0.3126444504801695,
          -0.12084291204315113,
          -0.458220815327264,
          0.1573316718647447,
          0.8414715394125533,
          -0.1542215794714693,
          -0.2806493182320756,
          -0.4441237687334996,
          -0.5308017294595038,
          0.24766289125336785,
          0.19208905996800676,
          0.5807696435162206,
          0.20576812625413649,
          -0.28867931966263893,
          0.8389514343847667,
          -0.4657729816941602,
          -0.6464847333845276,
          -0.012809213833603172,
          -0.6089095356409212,
          0.6979610572520976,
          -0.47227336989319324,
          -0.618343673279674,
          -0.43732027767833775,
          1.0973981035161777,
          -0.09755840424260485,
          1.1358532982997884,
          0.02763328316838353,
          -0.030823530155173123,
          0.20688384168952062,
          0.08776448989200168,
          0.8751084142745627,
          -0.7736394978509199,
          0.2005924255066494,
          -0.7542039655097638,
          0.5209920674035882,
          -0.04256084912895183,
          0.9630287862167366,
          0.27851485327263215,
          -0.36807777808017983,
          0.6962558864824506,
          0.5709686351252475,
          -0.06366504261196017,
          0.9179195275305867,
          0.40821730262161965,
          0.8187483472140893,
          -0.2687975975731107,
          0.7121685097910739,
          -0.1894731420666071,
          -0.714860992578946,
          0.33337643105857623,
          1.1168216262734807,
          -0.4055768175310405,
          0.6908720546878132,
          -0.5770656687323434,
          0.7376739048615748,
          -0.0455364149975054,
          0.9076944625213352,
          -0.438960606515098,
          -0.17121775011709,
          0.1969380885618457,
          -0.30099229709407327,
          0.9751823624751468,
          -0.5027587119629956,
          -0.4289964011188175,
          0.8163052625277362,
          0.9131197414538373,
          -0.3841067537878543,
          -0.06481622602340942,
          -0.3230616819434876,
          0.14746996788125527,
          0.457781574721317,
          -0.5394186391324498,
          0.1711467488828738,
          0.3530962545025089,
          0.6353643862205849,
          -0.5360946214267919,
          -0.5047315882698621,
          -0.19228615259913734,
          -0.24910649423175057,
          0.4512297714527458,
          -0.165717074877781,
          0.6382149065010617,
          0.04199814551899266,
          0.7338249613928648,
          0.7352175219689019,
          1.0183638085914763,
          0.7983725911389273,
          0.07562092861007173,
          0.057283988132522314,
          -0.7801796054667635,
          0.9925193226016474,
          -0.13548445101061082,
          -0.5525064168858715,
          -0.32339949238633225,
          -0.4069844528263543,
          0.41028010085668387,
          0.8312762848520703,
          -0.30199305364343554,
          -0.9814252545086329,
          -0.23770811309738585,
          0.6181962705100136,
          0.12383939009860559,
          -0.9274014104309491,
          -0.9049958113777892,
          0.9890320634071158,
          0.8524225777305736,
          -0.7679402647087251,
          0.6725125260045761,
          0.7044370032163145,
          -0.5118329128703739,
          -0.06899124164645928,
          -0.14509894662617678,
          0.6412612924743105,
          -0.17561519443716792,
          1.094806204817785,
          -0.4779479060671357,
          1.0808896059709572,
          -0.6852514585484555,
          -0.008622547345244551,
          0.6647981858251022,
          0.4881913597910171,
          0.5500643830193418,
          0.4990919528276787,
          -0.48635845015242196,
          0.3943982417115357,
          -0.8652614131861327,
          -0.011510134007676535,
          0.32590889954339836,
          0.9457296337878218,
          -0.807279828058853,
          0.4572436136207496,
          0.7929690138514537,
          0.7666727988525243,
          0.6839463932858588,
          -0.10823009268448826,
          -0.20944811014826534,
          -0.3355374627643982,
          0.7218999537057164,
          -0.17715478382268615,
          -0.5162614733109189,
          -0.30017351826925415,
          0.4594428817224798,
          -0.3493834289870195,
          -0.03085625729922421,
          0.7115298977400056,
          0.33912784761201736,
          0.41573240144580326,
          -0.05458031219514946,
          0.6917918223372284,
          -0.857046880096685,
          -0.5090842730623985,
          0.4462010194389232,
          -0.8507737616989013,
          0.7774173779614493,
          -0.23657848116945046,
          -0.9460966774380892,
          0.480831880410283,
          -0.21288340190300437,
          0.25527397529693846,
          0.3971372146126634,
          -0.10492057517910176,
          -0.8713694816468157,
          0.14216236503612287,
          0.6330249039978462,
          -0.4730610164655828,
          0.3237654212094281,
          -0.3083594717579381,
          0.036257402504087974,
          0.8028932739314849,
          -0.0773202506294971,
          -0.07054528452840284,
          -0.5429604958409083,
          -0.9478220722720428,
          -0.24340471331815774,
          0.991916950850244,
          0.478307661158255,
          0.5812426218249993,
          0.27982596951797545,
          -0.38128642039748084,
          -0.7220385428971428,
          -0.551032268949605,
          0.450872721456977,
          -0.6083096467808706,
          0.08168656996244761,
          -0.08968395525395767,
          -0.9047046072627908,
          0.5381865234380923,
          -0.0702262084527067,
          -0.9816371308810873,
          -0.39089809555082033,
          0.17675793024836514,
          0.8744034527959633,
          -0.6018158719639812,
          -0.5049467817309347,
          -0.7238184809966126,
          0.11741324632431042,
          -0.10702982662099543,
          0.1204137105071114,
          0.658988585191266,
          0.3025726546108622,
          -0.6802286037755118,
          -0.04584359815931576,
          0.7861050702088597,
          -0.23415924173758362,
          0.21921637512840508,
          -0.07575417164102016,
          0.6433646011688501
        ],
        [
          0.37469992403089125,
          0.7520857450840885,
          -0.0896087392261351,
          0.01921908742101186,
          0.05495095383626558,
          -0.6482273089015911,
          -0.6815059863117856,
          0.9110243061292782,
          0.12779112486760402,
          -0.7944848787904986,
          -0.8718269200404005,
          -0.485049707444585,
          0.219903580582539,
          -0.3921751519001047,
          -0.30259231464624164,
          -0.1913393413475057,
          0.3475258461052664,
          -0.20556107901867016,
          0.09229407053900274,
          -0.13971999743868957,
          0.5382549821750697,
          0.1341118993325856,
          -0.6194344564265291,
          0.7288438253141314,
          0.9424433583430099,
          0.42021418026896273,
          -0.5425868613870672,
          0.9920852137470297,
          -0.48725404751679346,
          0.5038673291254234,
          -0.28582626497536334,
          -0.5984755686774488,
          0.2823778809170636,
          0.17296759930349692,
          -0.7418613487513314,
          -0.5384488889572319,
          0.3805495314411477,
          -0.6367219317207354,
          0.44108028383180364,
          0.5400221840487874,
          -0.19946438476523706,
          -0.8434664263367404,
          0.25268382833860725,
          -0.8025417472538093,
          -0.3460673395222464,
          -0.3503451630248957,
          -0.7241744687571632,
          0.9367266780012828,
          -0.40274670001299984,
          0.9468512373273023,
          0.12143025286481667,
          0.5484596245814926,
          0.4468645233187223,
          0.365908343312471,
          -0.5796867371385539,
          0.7018967464696053,
          -0.7066594504059982,
          -0.5980452261216348,
          0.5655552894268965,
          0.7752116216902686,
          0.2072713638606879,
          -0.45454705609198515,
          0.4302948820404515,
          0.20257545253317813,
          0.2302248996479998,
          -0.25724049719317443,
          -0.006220233727340388,
          -0.09451958846008444,
          -0.7187200371884219,
          -0.6329346285882922,
          -0.06321180218640962,
          -0.5688705552420542,
          -0.1540055780317315,
          0.8285426172513018,
          0.22178023361781612,
          0.7655237297805586,
          -0.6290070547552249,
          -0.5913409015653832,
          -0.11751252167548171,
          0.2163124105073798,
          0.6802029266084978,
          -0.9502602900159933,
          -0.718805794515087,
          -0.550007282219666,
          0.708509926647386,
          0.30417202907324326,
          0.3636346554372052,
          0.22934107410862725,
          -0.2304371799331876,
          -0.15896748066786928,
          -0.06445246517727235,
          -0.964268338078125,
          0.2743221101595772,
          -0.9430024189374754,
          0.604866350562788,
          0.12458321308915167,
          0.8206300519123586,
          0.1422374201187499,
          -0.8099450675939723,
          0.8350240294734931,
          0.5617806245696916,
          0.7635679883879928,
          -0.13611550747078097,
          -0.3598084555749149,
          -0.6393138271089317,
          0.7596640042726481,
          0.9076481117317662,
          -0.562342461741505,
          -0.13080470883851422,
          -0.3985281072079554,
          0.6842719273642799,
          -0.06812787221737904,
          0.4430440078071496,
          0.6782355705397629,
          -0.009320354302605256,
          -0.8879971753700947,
          0.7865171868477481,
          -0.7796038703485787,
          0.019942056310854404,
          -0.19022909793625445,
          0.8596051987402017,
          0.4911107280900188,
          0.7656271756517564,
          0.4280486806677464,
          0.7658035467378078,
          -0.25098413461742786,
          -0.2493812462761048,
          0.05129415537231203,
          0.6012029683407524,
          0.14536569764309348,
          0.2819885814944707,
          0.025947967286048066,
          -0.9794358829435743,
          -0.8362962980180313,
          0.5416487797553974,
          -0.45382473359068737,
          0.7725122088546583,
          0.4176825719665785,
          -0.0950594072124145,
          -0.5724023420708217,
          -0.8552260744586451,
          0.9852884749204003,
          -0.7843456604045294,
          0.10609627575872699,
          0.10185534196233846,
          -0.7346771864694702,
          0.1020606935584822,
          -0.7316907795580758,
          -0.3984012351720716,
          -0.8039544132178468,
          -0.427154529223472,
          0.16521262102180242,
          -0.19274145170734902,
          0.7906486087763801,
          -0.962178447356295,
          0.7448253287008931,
          -0.19958155644208506,
          0.8945654257289458,
          0.40726965655880437,
          0.9369968458535062,
          0.36893840646011045,
          -0.05699458655554073,
          -0.1415588090609591,
          -0.24038621681487632,
          0.11918280165680417,
          -0.3272330744561386,
          0.23415236134703363,
          0.6294976008751431,
          -0.5496610937284814,
          0.3605143474585504,
          -0.5171233662111533,
          0.8859574326868678,
          0.8806385384066998,
          -0.610893309848143,
          -0.7989376578295906,
          0.531993719977409,
          0.6790319109263193,
          -0.09610119802490814,
          -0.13482150660514025,
          0.2602294142060266,
          0.7809675966353531,
          -0.35187746534951253,
          0.9213538172737555,
          0.3476496652165544,
          -0.12419687835781737,
          -0.12379712088859246,
          0.0649135319214093,
          0.25105137948851547,
          0.936780601541835,
          -0.40258878403041726,
          -0.060495180310094654,
          0.9616175829803099,
          0.006201489585193897,
          -0.31578589435268367,
          0.16385550666209794,
          -0.9243021682356828,
          -0.41901129118883185,
          0.9450246817472113,
          -0.6332341780551524,
          0.4925631639084401,
          -0.596249676286418,
          -0.15297868361377617,
          0.3973478174284155,
          0.4312460211047298,
          0.11408487115804436,
          -0.2819511064359587,
          0.7152201936327045,
          -0.25938998473142794,
          -0.06674246033492005,
          0.4258039632736254,
          -0.6308232096458305,
          -0.9363131623235018,
          0.8459468061768937,
          0.6674930128894432,
          -0.6851902461494599,
          0.2554363993384359,
          -0.2119374867997854,
          -0.3153772491719752,
          0.5292777157044937,
          0.9201991179063727,
          0.2483831967637877,
          -0.3232036427225402,
          -0.6868161274125498,
          0.8650522989622704,
          -0.40784663535661336,
          -0.853920487624558,
          0.557910969238174,
          0.45026537474588124,
          -0.3751331364836904,
          -0.06051916795406551,
          0.44939300845221053,
          -0.02237543654753032,
          -0.561196696423053,
          0.7397679600524805,
          -0.051412636147421066,
          0.8749932921086809,
          -0.09768178504381302,
          -0.26036567437100766,
          0.5550725568632207,
          0.14038090336045367,
          0.2782453284057921,
          0.05642000828900296,
          0.01699200837107998,
          0.4642362969110494,
          0.6702196786924713,
          0.689036824214742,
          0.22876147070634636,
          0.05636578813314868,
          0.6852055815100714,
          -0.276671812270319,
          0.13186578686425657,
          -0.5251090421313785,
          -0.1534719796204087,
          -0.316019778448282,
          0.48055076057621554,
          0.9341888782830133,
          -0.9953576800474568,
          0.23409016877342873,
          -0.5947387355340662,
          -0.03386489341308802,
          0.8402821267118165,
          -0.10605054751286583,
          0.3315103343719597,
          0.047625070279130106,
          0.43151303278095027,
          0.21445258533208666,
          -0.24998703963351426,
          0.4113787526951678,
          -0.0892458502569478,
          0.9807524345933406,
          0.6975980467380019,
          -0.8731507417706355,
          -0.17074762036840377,
          -0.58448973227565,
          0.5252528506144157,
          0.35909563345766055,
          -0.3632786217369541,
          0.13769568605666815,
          -0.0066111712169232666,
          0.7115921748053664,
          -0.0188426300897574,
          -0.6513753631408827,
          0.5598271870941113,
          -0.4095043939877177,
          0.15765614723784796,
          0.0035629632638733227,
          -0.45313410262078907,
          0.16810954113521945,
          0.04569407018539897,
          0.11733831751621406,
          -0.3719096427303701,
          0.3961794096211153,
          0.07443416119868092,
          0.5948068829466303,
          -0.9241958120387551,
          0.22020746148457965,
          0.5423941625329582,
          0.8393200363328341,
          -0.17630111294101075,
          0.9431973228541074,
          -0.3953138214054346,
          0.8681977953801565,
          0.6992711670184086,
          0.9862525523323049,
          -0.9577318593894695,
          0.6505931172012752,
          0.06481766458027534,
          -0.4225433378171268,
          -0.7612921942946281,
          -0.6108923698642706,
          0.8852795020068444,
          -0.46237051340536445,
          0.3763442003413822,
          -0.7157074454814335,
          0.5487352064105536,
          0.70306700498451,
          0.2623821986430009,
          -0.47942120445963127,
          -0.551146345726102,
          -0.32586702919717825,
          0.8597218029084394,
          -0.15274809798269828,
          -0.49966381541103594,
          0.05481633825125492,
          -0.20215618448346917,
          -0.5537552471930014,
          -0.32270300391449885,
          0.7247151187254758,
          0.03413192940571028,
          -0.3065960633878798,
          0.39587658822442306,
          0.6378046438258562,
          -0.9149407416172116,
          0.5193820639176452,
          0.9811577154258668,
          -0.11534183895990158,
          -0.7836881442164175,
          0.880606092971182,
          0.39268374746305484,
          -0.9763235919990003,
          0.3692549033188043,
          0.23049575743364856,
          0.6161368288817299,
          -0.12767073819595823,
          0.7200333308737025,
          0.6820777772007246,
          -0.658560123837522,
          0.8531350591783766,
          0.5882133149201338,
          -0.7408383841926539,
          -0.5343663453630036,
          -0.9271335062360698,
          0.9896939498361207,
          1.0055863335622788,
          0.16551284665542906,
          0.26175919887374005,
          -0.22513905898076525,
          0.6212430350930591,
          0.34593788448836615,
          -0.6838273146205155,
          -0.5315770589781472,
          0.4928506059501558,
          -0.4417756575335029,
          0.15618142931804718,
          0.8390180121322999,
          0.8066633664622791,
          -0.6703791018467995,
          0.4937039350968076,
          -0.10196253389186989,
          -0.006479940581959402,
          0.21006349062572263,
          0.5041592529989736,
          0.18390222638096587,
          0.7039907998178133,
          -0.2702334403764085,
          0.9227470288358832,
          -0.22337654594929085,
          -1.0045654580598855,
          0.6320469897831025,
          0.8711484021620239,
          -0.3794339879786001,
          -1.0073160179248788,
          -0.2581914997618851,
          -0.00889116887471337,
          0.61570815732182,
          -0.32005580567400266,
          0.17974329728504848,
          -0.13728969731693066,
          0.43923152611667116,
          -0.6007700568967478,
          0.5561921889046126,
          0.23696714497510984,
          -0.3655262424404057,
          -0.8824179049353136,
          0.31514252405059995,
          -0.19491534964739965,
          0.45982066588152776,
          -0.8037761464557096,
          -0.6055989163306024,
          0.36502219418432075,
          -0.4173657455612917,
          0.40742021726993966,
          0.4329395452348359,
          0.5497106027806508,
          -0.4208107741573125,
          0.43334475111998266,
          -0.7404235844941919,
          -0.6528581545743845,
          0.7900411429056388,
          0.259442667408959,
          0.45535371952435555,
          -0.36782492327530286,
          -0.7717982720079718,
          0.3368892544782643,
          0.6243229456132162,
          -0.7439424223055802,
          -0.4655937385321552,
          0.5082395484670003,
          0.5141223767531858,
          -0.23514381620322533,
          -0.20739777495370992,
          -0.06615347729648467,
          -0.05437041087734509,
          -0.8899973524085768,
          -0.3493435883117133,
          0.013085525396341923,
          -0.31623521270169286,
          0.2353975391395003,
          0.22185203447872845,
          -0.6916724947908021,
          0.7199263552005384,
          -0.5426724266557819,
          -0.6903594250081119,
          0.6251822530046129,
          -0.46626003925436754,
          0.31815926722809806,
          0.22438375821955578,
          0.7128304012129377,
          0.6031600634372066,
          0.804846023146773,
          -0.31304140640862127,
          0.10506874779024382,
          -0.9913389006681432,
          0.42328613591298797,
          -0.9198829460800177,
          -0.2306429458499239,
          -0.612097850904484,
          0.4662710328969041,
          -0.7686872055965187,
          0.32493925898495535,
          0.6184451870501859,
          0.2503954848346321,
          0.49141717202506396,
          0.4856363570969615,
          -0.4822813182294484,
          -0.8193020173612716,
          0.22370499291697113,
          0.618542090168187,
          0.20170896241548264,
          0.050008203287322896,
          -0.22044947547377255,
          0.5272825401301126,
          -0.8102795266238743,
          -0.6096118932206182,
          -0.15352613869661522,
          0.4314263593834973,
          0.8562521560908927,
          -0.4217219255754622,
          -0.7778240337192485,
          -0.4321250326693465,
          0.6083393796675017,
          -0.5307127196012222,
          -0.5586907185737764,
          -0.5554656970221841,
          -0.0978569514142341,
          0.4420256757267882,
          0.9290001662049461,
          -0.9382021630740902,
          -0.09413265161827404,
          0.7685757626205578,
          -0.4333549732825573,
          -0.44859988569363995,
          0.6107764190609694,
          0.6160868352242019,
          -0.6627017937878035,
          0.5405592134344334,
          0.42596233269723355,
          0.7391160328798613,
          -0.4453294204810105,
          -0.04936271881137238,
          0.1305973251505919,
          -0.6900713085308102,
          0.46619939582197734,
          -0.9027521931686093,
          0.3333882538892422,
          0.3461187695396742,
          -0.26182493620435393,
          0.6773100232440071,
          0.26945178190850033,
          -0.7974362693172063,
          -0.46587711887437727,
          0.5215521946494207,
          0.3407526110029883,
          -0.911334093828451,
          -0.2181615944073023,
          -0.7192729094438018,
          0.30799846298302214,
          -0.9054151246302802,
          -0.262744804518792,
          0.9708243599767551,
          -0.19114452356821038,
          0.4646130575135705,
          -0.9527942550683156,
          0.5257691831068179,
          0.0638234803093226,
          -0.9156617152816567,
          0.15625474600804481,
          0.12045938503199724,
          -0.2895887713705468,
          -0.9756678083530634,
          -0.254920104542708,
          0.009251821561159368,
          0.26397433924121605,
          0.197739528955098,
          0.8389577843287948,
          -1.043038257220529,
          -0.8994180129845362,
          -0.8897891550537509,
          0.08181734520392385,
          -0.9209303352921901,
          -0.34058964320838314,
          -0.4423671892250018,
          0.5360438329980581,
          0.18453027034976632,
          -0.48242931375324266,
          -0.9481172017315319,
          0.8743700222707945,
          0.8896627092425702,
          0.17975163680914577,
          -0.9661430498213017,
          -0.7762156956579391,
          -0.9209559308714494,
          -0.1533260356054512,
          -0.30236060386268665,
          -0.36481810063080217,
          -0.9067454780207092,
          -0.5211602524283219,
          0.12284991047998925,
          -0.15880363666203734,
          -0.013226365769025457,
          0.15424474237084376,
          0.7632992255786677,
          -1.02809524375837,
          0.016651769661790074,
          0.8939154514219723,
          -0.4780279600297615,
          0.03364227896847393,
          -0.008027138532096734,
          0.09185294134748888,
          0.7093773075731623,
          0.6481049212465722,
          0.06758294819801054,
          0.9273627767670422,
          -0.6579653809536182,
          0.8007813491676987,
          0.06023271146679539,
          -0.7434499696086841,
          0.11360528871171455,
          -0.4411005455322836,
          -0.49334544309611505,
          -0.226026613399827,
          -1.0899091055503936,
          -0.6161823534562723,
          0.09713929337935533,
          0.43181302540651767,
          -0.7439705011067081,
          -0.5730753183882347,
          0.8223722363363958,
          -0.30232819535136884,
          0.8741958148642897,
          0.23197073211954855,
          -0.34473823861221065,
          0.4592383765148883,
          0.42212305339187134,
          0.24150631095800393,
          -0.6048330230603395,
          -0.5998467124986078,
          -0.8568205177016155,
          -0.1757356533966773,
          -0.17736394403835068,
          0.6130800615161921,
          0.8257032719643279,
          -0.0009362231927650452,
          -0.42848361559114945,
          0.2360797501569398,
          0.45249183421978784,
          -0.04182930570193092,
          -0.8016734960420153,
          -0.9905682469415326,
          -0.04389845456290656,
          0.14752028680055143,
          -0.7421907605613309,
          -0.8679192383956831,
          0.6088418564747518,
          -0.551992390423641,
          0.31952616528963207,
          -0.40565217491593464,
          -0.7080269297871924,
          -0.2619647833808397,
          -0.17312469534622452,
          -0.15527675910375438,
          0.8020895020302452,
          0.1268561369804846,
          -0.5037701656038162,
          -0.261053462145509,
          0.40806269261999445,
          -0.7683437059369567,
          0.6524904185624765,
          -0.8906584235412773,
          -0.08304232625947235,
          0.30802693269360415,
          -0.28769561508803343,
          -0.27580305882706424,
          0.7753896094416141,
          0.3825370778870075,
          -0.8333268853416165,
          0.9405737760551959,
          0.7363102260233821,
          0.42500664763067847,
          -0.43279534879266207,
          0.12840776981849797,
          -0.9584133737223338,
          0.7130846187217852,
          -0.31374796557546336,
          -1.0462654192522238,
          -0.9770580588366812,
          -0.8855362437716275,
          -0.2925615666595352,
          0.6637163408818116,
          -0.3762846640269529,
          0.9206561063436289,
          0.36378228174551397,
          0.7111402523770406,
          -0.09355913804109368,
          0.16822821838884838,
          -0.3341203751649777,
          0.6133814425079136,
          0.0181421662703152,
          -0.30349091682394674,
          -0.2435119073546903,
          -0.7320093197936054,
          0.31508207985739456,
          -0.7956606045116167,
          -0.3621032103625483,
          -0.19931323558776873,
          0.5139650164976463,
          0.7898564422563492,
          -0.6364590810440115,
          -0.08275752659816908,
          0.47396263040017916,
          0.19880937316066075,
          0.6945008848776847,
          0.7974300246389334,
          0.268512970074341,
          -0.9488414280513291,
          -0.40249456037873954,
          -0.5249773408093572,
          -0.27825913287335746,
          0.31308025616903945,
          -0.4425774647835023,
          0.46210177868379676,
          -0.19295061452627893,
          -0.5021463132730366,
          0.80721771193746,
          0.8418389114102336,
          -0.3656102253491337,
          0.3100705175917459,
          0.5935744364398228,
          -0.1069461830042042,
          0.9850610836601592,
          -0.9248182255676387,
          0.21801438309828672,
          -0.6422319527835234,
          0.0275869572366072,
          0.2219134845657032,
          0.290956324164496,
          -0.2983144456481971,
          0.6476400134759508,
          0.010610103618466576,
          0.19808038770051942,
          -0.7098938367819014,
          0.3080049785981918,
          -0.15175089908373526,
          0.8108459758277051,
          1.062033741433025,
          0.14369175152618263,
          0.15453831477294566,
          0.9188483666953137,
          0.0397860792903461,
          -0.2841280833968588,
          -0.6813649513367002,
          0.2184661789137754,
          -0.5788278258507115,
          0.19550468778739358,
          -0.6368483354000608,
          0.1679791477308035,
          0.36947545639161783,
          0.11037492110977137,
          -0.10313563782575363,
          -0.6208164777831586,
          0.016119060068132234,
          -0.7663788557090744,
          0.4187999784896428,
          -0.4167721957214742,
          -0.6450453482886812,
          0.32015135870066164,
          0.6180659391826147,
          -0.704046003957762,
          -0.8372179469077293,
          -0.8062457004811427,
          0.44987375834706655,
          0.48291691223051025,
          0.5239906116155847,
          -0.9501034556349773,
          0.49073731252854697,
          -0.38415169391494075,
          -0.232975615555087,
          0.018780808140808514,
          0.5693992515553261,
          -0.6467389325606925,
          0.6147124785567752,
          -0.9629509091731834,
          -0.38625458986409156,
          -0.9600833987884313,
          0.5973325021070199,
          -1.0064931936834425,
          -0.18663000871135957,
          0.5842168378611586,
          -1.005170082098945,
          -0.7885813946564008,
          -0.5915491487176369,
          0.21127843530236456,
          0.40719694398601575,
          0.2865181630043808,
          0.1904147006549384,
          -0.10148642124924019,
          -0.16010299998421068,
          -0.33691083915760417,
          0.9730596341285765,
          0.9061994658298549,
          0.39499710726413234,
          -0.07182743629754507,
          -0.6087990159475066,
          0.9949584912516625,
          0.03452321784654422,
          -0.4975223770016516,
          0.9513125638032436,
          0.9802924436255502,
          -0.11205113903809016,
          -0.07112170647022653,
          0.8635606934806698,
          0.8354931818417429,
          -0.26636598462807487,
          -0.9711570383179066,
          0.11395683783701056,
          0.1943481038667859,
          0.2630571437131054,
          -0.42044020016174627,
          -0.8063033643811081,
          -0.6062032091965471,
          0.36601285695354185,
          0.11929220411540928,
          0.8613688967525853,
          0.5694481847665944,
          -0.17778950560101842,
          0.8704641004746773,
          0.6381463573762554,
          0.32224495774963097,
          0.5031223235739595,
          0.004955560971902266,
          -0.4434591006045532,
          -0.29346837778161394,
          -0.22402335692496944,
          -0.8231046055862388
        ],
        [
          -0.39141425311156475,
          -0.2621450442729648,
          0.38181762227538063,
          0.6015139442608941,
          0.6944505538324415,
          -0.551961115297259,
          0.9174403230770889,
          -0.1769144515191331,
          -0.1401502927109547,
          0.18309314455034142,
          -0.8443058555924163,
          0.527448815536923,
          0.38985190946935644,
          0.31656772849264536,
          0.24927060909193313,
          -0.7494439750725816,
          -0.9212448417874062,
          0.10851423463538201,
          0.43193727261790826,
          0.5431082132240772,
          -0.9167164524241577,
          0.25375450765234664,
          0.851283358563683,
          0.7906713076570726,
          -0.8335735143194869,
          0.6807053292946674,
          0.5056931867627295,
          0.48507884375595967,
          -0.2765460594947642,
          0.8289028198926498,
          0.06767327078888408,
          -0.30995301784597695,
          0.31077562101152423,
          0.6943499769258619,
          -0.21622363609069567,
          0.0023446859283710814,
          0.1801969425629319,
          -0.30945918205469186,
          0.5846668499836043,
          0.43806446195611326,
          -0.42623464926835253,
          -0.4147809910196283,
          0.41279607215289144,
          0.30200120324580787,
          -0.2900622317822349,
          0.9450072206615101,
          -0.36697308139649665,
          0.14107570084317458,
          -0.9697069481846481,
          0.5903399585275073,
          -0.8087470008875881,
          -0.39109298213977006,
          0.8127534860544499,
          -0.45090062158241007,
          0.22732385353889706,
          -0.384972699379327,
          0.32517350499665976,
          -0.960761263493941,
          -0.783318943767797,
          0.2828592833284166,
          -0.7677234165905916,
          0.3750061372253654,
          0.7828003928662685,
          0.5969959666384843,
          0.061870186568994484,
          0.6058602162061905,
          -0.2163270750104862,
          0.5148278211043236,
          0.8068902934521172,
          -0.292664397158714,
          -0.0869889904934242,
          0.682047823008608,
          0.8202265521195296,
          -0.6905503356255333,
          -0.4822661442146195,
          1.0331236190225677,
          -0.2012478913532745,
          0.09082899851191817,
          -0.8987988401929743,
          -0.8232075684575311,
          0.17262488049142466,
          -0.5600720125134356,
          -0.46691468821009097,
          0.4967382927671149,
          -0.7662926369983898,
          -0.17883736282670604,
          0.5170123788437538,
          0.4818075573093462,
          -0.7937239034583187,
          0.9423550585887469,
          -0.4954263592527826,
          0.4187606137176443,
          0.8729266331484479,
          0.6423124410301259,
          0.5749324248323796,
          0.19768154327527213,
          0.2253153625656554,
          0.6691335670836596,
          0.23864065677347346,
          0.057283475531450606,
          -0.2250089821180901,
          0.796974002061237,
          0.4265309282080659,
          0.8066778856804022,
          0.3437985697637817,
          -0.945302996007266,
          -0.37255372123442543,
